{"Fashion & Style": {"count_avg": 1.0, "b": -8.017773910950314, "beta_avg": 0.0, "u_avg": [0.0, 0.0, 0.0, 0.0, 0.0, 0.0, 0.0, 0.0, 0.0, 0.0, 0.0, 0.0, 0.0, 0.0, 0.0, 0.0, 0.0, 0.0, 0.0, 0.0, 0.0, 0.0, 0.0, 0.0, 0.0, 0.0, 0.0, 0.0, 0.0, 0.0, 0.0, 0.0, 0.0, 0.0, 0.0, 0.0, 0.0, 0.0, 0.0, 0.0, 0.0, 0.0, 0.0, 0.0, 0.0, 0.0, 0.0, 0.0, 0.0, 0.0, 0.0, 0.0, 0.0, 0.0, 0.0, 0.0, 0.0, 0.0, 0.0, 0.0, 0.0, 0.0, 0.0, 0.0, 0.0, 0.0, 0.0, 0.0, 0.0, 0.0, 0.0, 0.0, 0.0, 0.0, 0.0, 0.0, 0.0, 0.0, 0.0, 0.0, 0.0, 0.0, 0.0, 0.0, 0.0, 0.0, 0.0, 0.0, 0.0, 0.0, 0.0, 0.0, 0.0, 0.0, 0.0, 0.0, 0.0, 0.0, 0.0, 0.0, 0.0, 0.0, 0.0, 0.0, 0.0, 0.0, 0.0, 0.0, 0.0, 0.0, 0.0, 0.0, 0.0, 0.0, 0.0, 0.0, 0.0, 0.0, 0.0, 0.0, 0.0, 0.0, 0.0, 0.0, 0.0, 0.0, 0.0, 0.0, 0.0, 0.0, 0.0, 0.0, 0.0, 0.0, 0.0, 0.0, 0.0, 0.0, 0.0, 0.0, 0.0, 0.0, 0.0, 0.0, 0.0, 0.0, 0.0, 0.0, 0.0, 0.0, 0.0, 0.0, 0.0, 0.0, 0.0, 0.0, 0.0, 0.0, 0.0, 0.0, 0.0, 0.0, 0.0, 0.0, 0.0, 0.0, 0.0, 0.0, 0.0, 0.0, 0.0, 0.0, 0.0, 0.0, 0.0, 0.0, 0.0, 0.0, 0.0, 0.0, 0.0, 0.0, 0.0, 0.0, 0.0, 0.0, 0.0, 0.0, 0.0, 0.0, 0.0, 0.0, 0.0, 0.0, 0.0, 0.0, 0.0, 0.0, 0.0, 0.0, 0.0, 0.0, 0.0, 0.0, 0.0, 0.0, 0.0, 0.0, 0.0, 0.0, 0.0, 0.0, 0.0, 0.0, 0.0, 0.0, 0.0, 0.0, 0.0, 0.0, 0.0, 0.0, 0.0, 0.0, 0.0, 0.0, 0.0, 0.0, 0.0, 0.0, 0.0, 0.0, 0.0, 0.0, 0.0, 0.0, 0.0, 0.0, 0.0, 0.0, 0.0, 0.0, 0.0, 0.0, 0.0, 0.0, 0.0, 0.0, 0.0, 0.0, 0.0, 0.0, 0.0, 0.0, 0.0, 0.0, 0.0, 0.0, 0.0, 0.0, 0.0, 0.0, 0.0, 0.0, 0.0, 0.0, 0.0, 0.0, 0.0, 0.0, 0.0, 0.0, 0.0, 0.0, 0.0, 0.0, 0.0, 0.0, 0.0, 0.0, 0.0, 0.0, 0.0, 0.0, 0.0, 0.0, 0.0, 0.0, 0.0, 0.0, 0.0, 0.0, 0.0, 0.0, 0.0, 0.0, 0.0, 0.0, 0.0, 0.0, 0.0, 0.0, 0.0, 0.0, 0.0, 0.0, 0.0, 0.0, 0.0, 0.0, 0.0, 0.0, 0.0, 0.0, 0.0, 0.0, 0.0, 0.0, 0.0, 0.0, 0.0, 0.0, 0.0, 0.0, 0.0, 0.0, 0.0, 0.0, 0.0, 0.0, 0.0, 0.0, 0.0, 0.0, 0.0, 0.0, 0.0, 0.0, 0.0, 0.0, 0.0, 0.0, 0.0, 0.0, 0.0, 0.0, 0.0, 0.0, 0.0, 0.0, 0.0, 0.0, 0.0, 0.0, 0.0, 0.0, 0.0, 0.0, 0.0, 0.0, 0.0, 0.0, 0.0, 0.0, 0.0, 0.0, 0.0, 0.0, 0.0, 0.0, 0.0, 0.0, 0.0, 0.0, 0.0, 0.0, 0.0, 0.0, 0.0, 0.0, 0.0, 0.0, 0.0, 0.0, 0.0, 0.0, 0.0, 0.0, 0.0, 0.0, 0.0, 0.0, 0.0, 0.0, 0.0, 0.0, 0.0, 0.0, 0.0, 0.0, 0.0, 0.0, 0.0, 0.0, 0.0, 0.0, 0.0, 0.0, 0.0, 0.0, 0.0, 0.0, 0.0, 0.0, 0.0, 0.0, 0.0, 0.0, 0.0, 0.0, 0.0, 0.0, 0.0, 0.0, 0.0, 0.0, 0.0, 0.0, 0.0, 0.0, 0.0, 0.0, 0.0, 0.0, 0.0, 0.0, 0.0, 0.0, 0.0, 0.0, 0.0, 0.0, 0.0, 0.0, 0.0, 0.0, 0.0, 0.0, 0.0, 0.0, 0.0, 0.0, 0.0, 0.0, 0.0, 0.0, 0.0, 0.0, 0.0, 0.0, 0.0, 0.0, 0.0, 0.0, 0.0, 0.0, 0.0, 0.0, 0.0, 0.0, 0.0, 0.0, 0.0, 0.0, 0.0, 0.0, 0.0, 0.0, 0.0, 0.0, 0.0, 0.0, 0.0, 0.0, 0.0, 0.0, 0.0, 0.0, 0.0, 0.0, 0.0, 0.0, 0.0, 0.0, 0.0, 0.0, 0.0, 0.0, 0.0, 0.0, 0.0, 0.0, 0.0, 0.0, 0.0, 0.0, 0.0, 0.0, 0.0, 0.0, 0.0, 0.0, 0.0, 0.0, 0.0, 0.0, 0.0, 0.0, 0.0, 0.0, 0.0, 0.0, 0.0, 0.0, 0.0, 0.0, 0.0, 0.0, 0.0, 0.0, 0.0, 0.0, 0.0, 0.0, 0.0, 0.0, 0.0, 0.0, 0.0, 0.0, 0.0, 0.0, 0.0, 0.0, 0.0, 0.0, 0.0, 0.0, 0.0, 0.0, 0.0, 0.0, 0.0, 0.0, 0.0, 0.0, 0.0, 0.0, 0.0, 0.0, 0.0, 0.0, 0.0, 0.0, 0.0, 0.0, 0.0, 0.0, 0.0, 0.0, 0.0, 0.0, 0.0, 0.0, 0.0, 0.0, 0.0, 0.0, 0.0, 0.0, 0.0, 0.0, 0.0, 0.0, 0.0, 0.0, 0.0, 0.0, 0.0, 0.0, 0.0, 0.0, 0.0, 0.0, 0.0, 0.0, 0.0, 0.0, 0.0, 0.0, 0.0, 0.0, 0.0, 0.0, 0.0, 0.0, 0.0, 0.0, 0.0, 0.0, 0.0, 0.0, 0.0, 0.0, 0.0, 0.0, 0.0, 0.0, 0.0, 0.0, 0.0, 0.0, 0.0, 0.0, 0.0, 0.0, 0.0, 0.0, 0.0, 0.0, 0.0, 0.0, 0.0, 0.0, 0.0, 0.0, 0.0, 0.0, 0.0, 0.0, 0.0, 0.0, 0.0, 0.0, 0.0, 0.0, 0.0, 0.0, 0.0, 0.0, 0.0, 0.0, 0.0, 0.0, 0.0, 0.0, 0.0, 0.0, 0.0, 0.0, 0.0, 0.0, 0.0, 0.0, 0.0, 0.0, 0.0, 0.0, 0.0, 0.0, 0.0, 0.0, 0.0, 0.0, 0.0, 0.0, 0.0, 0.0, 0.0, 0.0, 0.0, 0.0, 0.0, 0.0, 0.0, 0.0, 0.0, 0.0, 0.0, 0.0, 0.0, 0.0, 0.0, 0.0, 0.0, 0.0, 0.0, 0.0, 0.0, 0.0, 0.0, 0.0, 0.0, 0.0, 0.0, 0.0, 0.0, 0.0, 0.0, 0.0, 0.0, 0.0, 0.0, 0.0, 0.0, 0.0, 0.0, 0.0, 0.0, 0.0, 0.0, 0.0, 0.0, 0.0, 0.0, 0.0, 0.0, 0.0, 0.0, 0.0, 0.0, 0.0, 0.0, 0.0, 0.0, 0.0, 0.0, 0.0, 0.0, 0.0, 0.0, 0.0, 0.0, 0.0, 0.0, 0.0, 0.0, 0.0, 0.0, 0.0, 0.0, 0.0, 0.0, 0.0, 0.0, 0.0, 0.0, 0.0, 0.0, 0.0, 0.0, 0.0, 0.0, 0.0, 0.0, 0.0, 0.0, 0.0, 0.0, 0.0, 0.0, 0.0, 0.0, 0.0, 0.0, 0.0, 0.0, 0.0, 0.0, 0.0, 0.0, 0.0, 0.0, 0.0, 0.0, 0.0, 0.0, 0.0, 0.0, 0.0, 0.0, 0.0, 0.0, 0.0, 0.0, 0.0, 0.0, 0.0, 0.0, 0.0, 0.0, 0.0, 0.0, 0.0, 0.0, 0.0, 0.0, 0.0, 0.0, 0.0, 0.0, 0.0, 0.0, 0.0, 0.0, 0.0, 0.0, 0.0, 0.0, 0.0, 0.0, 0.0, 0.0, 0.0, 0.0, 0.0, 0.0, 0.0, 0.0, 0.0, 0.0, 0.0, 0.0, 0.0, 0.0, 0.0, 0.0, 0.0, 0.0, 0.0, 0.0, 0.0, 0.0, 0.0, 0.0, 0.0, 0.0, 0.0, 0.0, 0.0, 0.0, 0.0, 0.0, 0.0, 0.0, 0.0, 0.0, 0.0, 0.0, 0.0, 0.0, 0.0, 0.0, 0.0, 0.0, 0.0, 0.0, 0.0, 0.0, 0.0, 0.0, 0.0, 0.0, 0.0, 0.0, 0.0, 0.0, 0.0, 0.0, 0.0, 0.0, 0.0, 0.0, 0.0, 0.0, 0.0, 0.0, 0.0, 0.0, 0.0, 0.0, 0.0, 0.0, 0.0, 0.0, 0.0, 0.0, 0.0, 0.0, 0.0, 0.0, 0.0, 0.0, 0.0, 0.0, 0.0, 0.0, 0.0, 0.0, 0.0, 0.0, 0.0, 0.0, 0.0, 0.0, 0.0, 0.0, 0.0, 0.0, 0.0, 0.0, 0.0, 0.0, 0.0, 0.0, 0.0, 0.0, 0.0, 0.0, 0.0, 0.0, 0.0, 0.0, 0.0, 0.0, 0.0, 0.0, 0.0, 0.0, 0.0, 0.0, 0.0, 0.0, 0.0, 0.0, 0.0, 0.0, 0.0, 0.0, 0.0, 0.0, 0.0, 0.0, 0.0, 0.0, 0.0, 0.0, 0.0, 0.0, 0.0, 0.0, 0.0, 0.0, 0.0, 0.0, 0.0, 0.0, 0.0, 0.0, 0.0, 0.0, 0.0, 0.0, 0.0, 0.0, 0.0, 0.0, 0.0, 0.0, 0.0, 0.0, 0.0, 0.0, 0.0, 0.0, 0.0, 0.0, 0.0, 0.0, 0.0, 0.0, 0.0, 0.0, 0.0, 0.0, 0.0, 0.0, 0.0, 0.0, 0.0, 0.0, 0.0, 0.0, 0.0, 0.0, 0.0, 0.0, 0.0, 0.0, 0.0, 0.0, 0.0, 0.0, 0.0, 0.0, 0.0, 0.0, 0.0, 0.0, 0.0, 0.0, 0.0, 0.0, 0.0, 0.0, 0.0, 0.0, 0.0, 0.0, 0.0, 0.0, 0.0, 0.0, 0.0, 0.0, 0.0, 0.0, 0.0, 0.0, 0.0, 0.0, 0.0, 0.0, 0.0, 0.0, 0.0, 0.0, 0.0, 0.0, 0.0, 0.0, 0.0, 0.0, 0.0, 0.0, 0.0, 0.0, 0.0, 0.0, 0.0, 0.0, 0.0, 0.0, 0.0, 0.0, 0.0, 0.0, 0.0, 0.0, 0.0, 0.0, 0.0, 0.0, 0.0, 0.0, 0.0, 0.0, 0.0, 0.0, 0.0, 0.0, 0.0, 0.0, 0.0, 0.0, 0.0, 0.0, 0.0, 0.0, 0.0, 0.0, 0.0, 0.0, 0.0, 0.0, 0.0, 0.0, 0.0, 0.0, 0.0, 0.0, 0.0, 0.0, 0.0, 0.0, 0.0, 0.0, 0.0, 0.0, 0.0, 0.0, 0.0, 0.0, 0.0, 0.0, 0.0, 0.0, 0.0, 0.0, 0.0, 0.0, 0.0, 0.0, 0.0, 0.0, 0.0, 0.0, 0.0, 0.0, 0.0, 0.0, 0.0, 0.0, 0.0, 0.0, 0.0, 0.0, 0.0, 0.0, 0.0, 0.0, 0.0, 0.0, 0.0, 0.0, 0.0, 0.0, 0.0, 0.0, 0.0, 0.0, 0.0, 0.0, 0.0, 0.0, 0.0, 0.0, 0.0, 0.0, 0.0, 0.0, 0.0, 0.0, 0.0, 0.0, 0.0, 0.0, 0.0, 0.0, 0.0, 0.0, 0.0, 0.0, 0.0, 0.0, 0.0, 0.0, 0.0, 0.0, 0.0, 0.0, 0.0, 0.0, 0.0, 0.0, 0.0, 0.0, 0.0, 0.0, 0.0, 0.0, 0.0, 0.0, 0.0, 0.0, 0.0, 0.0, 0.0, 0.0, 0.0, 0.0, 0.0, 0.0, 0.0, 0.0, 0.0, 0.0, 0.0, 0.0, 0.0, 0.0, 0.0, 0.0, 0.0, 0.0, 0.0, 0.0, 0.0, 0.0, 0.0, 0.0, 0.0, 0.0, 0.0, 0.0, 0.0, 0.0, 0.0, 0.0, 0.0, 0.0, 0.0, 0.0, 0.0, 0.0, 0.0, 0.0, 0.0, 0.0, 0.0, 0.0, 0.0, 0.0, 0.0, 0.0, 0.0, 0.0, 0.0, 0.0, 0.0, 0.0, 0.0, 0.0, 0.0, 0.0, 0.0, 0.0, 0.0, 0.0, 0.0, 0.0, 0.0, 0.0, 0.0, 0.0, 0.0, 0.0, 0.0, 0.0, 0.0, 0.0, 0.0, 0.0, 0.0, 0.0, 0.0, 0.0, 0.0, 0.0, 0.0, 0.0, 0.0, 0.0, 0.0, 0.0, 0.0, 0.0, 0.0, 0.0, 0.0, 0.0, 0.0, 0.0, 0.0, 0.0, 0.0, 0.0, 0.0, 0.0, 0.0, 0.0, 0.0, 0.0, 0.0, 0.0, 0.0, 0.0, 0.0, 0.0, 0.0, 0.0, 0.0, 0.0, 0.0, 0.0, 0.0, 0.0, 0.0, 0.0, 0.0, 0.0, 0.0, 0.0, 0.0, 0.0, 0.0, 0.0, 0.0, 0.0, 0.0, 0.0, 0.0, 0.0, 0.0, 0.0, 0.0, 0.0, 0.0, 0.0, 0.0, 0.0, 0.0, 0.0, 0.0, 0.0, 0.0, 0.0, 0.0, 0.0, 0.0, 0.0, 0.0, 0.0, 0.0, 0.0, 0.0, 0.0, 0.0, 0.0, 0.0, 0.0, 0.0, 0.0, 0.0, 0.0, 0.0, 0.0, 0.0, 0.0, 0.0, 0.0, 0.0, 0.0, 0.0, 0.0, 0.0, 0.0, 0.0, 0.0, 0.0, 0.0, 0.0, 0.0, 0.0, 0.0, 0.0, 0.0, 0.0, 0.0, 0.0, 0.0, 0.0, 0.0, 0.0, 0.0, 0.0, 0.0, 0.0, 0.0, 0.0, 0.0, 0.0, 0.0, 0.0, 0.0, 0.0, 0.0, 0.0, 0.0, 0.0, 0.0, 0.0, 0.0, 0.0, 0.0, 0.0, 0.0, 0.0, 0.0, 0.0, 0.0, 0.0, 0.0, 0.0, 0.0, 0.0, 0.0, 0.0, 0.0, 0.0, 0.0, 0.0, 0.0, 0.0, 0.0, 0.0, 0.0, 0.0, 0.0, 0.0, 0.0, 0.0, 0.0, 0.0, 0.0, 0.0, 0.0, 0.0, 0.0, 0.0, 0.0, 0.0, 0.0, 0.0, 0.0, 0.0, 0.0, 0.0, 0.0, 0.0, 0.0, 0.0, 0.0, 0.0, 0.0, 0.0, 0.0, 0.0, 0.0, 0.0, 0.0, 0.0, 0.0, 0.0, 0.0, 0.0, 0.0, 0.0, 0.0, 0.0, 0.0, 0.0, 0.0, 0.0, 0.0, 0.0, 0.0, 0.0, 0.0, 0.0, 0.0, 0.0, 0.0, 0.0, 0.0, 0.0, 0.0, 0.0, 0.0, 0.0, 0.0, 0.0, 0.0, 0.0, 0.0, 0.0, 0.0, 0.0, 0.0, 0.0, 0.0, 0.0, 0.0, 0.0, 0.0, 0.0, 0.0, 0.0, 0.0, 0.0, 0.0, 0.0, 0.0, 0.0, 0.0, 0.0, 0.0, 0.0, 0.0, 0.0, 0.0, 0.0, 0.0, 0.0, 0.0, 0.0, 0.0, 0.0, 0.0, 0.0, 0.0, 0.0, 0.0, 0.0, 0.0, 0.0, 0.0, 0.0, 0.0, 0.0, 0.0, 0.0, 0.0, 0.0, 0.0, 0.0, 0.0, 0.0, 0.0, 0.0, 0.0, 0.0, 0.0, 0.0, 0.0, 0.0, 0.0, 0.0, 0.0, 0.0, 0.0, 0.0, 0.0, 0.0, 0.0, 0.0, 0.0, 0.0, 0.0, 0.0, 0.0, 0.0, 0.0, 0.0, 0.0, 0.0, 0.0, 0.0, 0.0, 0.0, 0.0, 0.0, 0.0, 0.0, 0.0, 0.0, 0.0, 0.0, 0.0, 0.0, 0.0, 0.0, 0.0, 0.0, 0.0, 0.0, 0.0, 0.0, 0.0, 0.0, 0.0, 0.0, 0.0, 0.0, 0.0, 0.0, 0.0, 0.0, 0.0, 0.0, 0.0, 0.0, 0.0, 0.0, 0.0, 0.0, 0.0, 0.0, 0.0, 0.0, 0.0, 0.0, 0.0, 0.0, 0.0, 0.0, 0.0, 0.0, 0.0, 0.0, 0.0, 0.0, 0.0, 0.0, 0.0, 0.0, 0.0, 0.0, 0.0, 0.0, 0.0, 0.0, 0.0, 0.0, 0.0, 0.0, 0.0, 0.0, 0.0, 0.0, 0.0, 0.0, 0.0, 0.0, 0.0, 0.0, 0.0, 0.0, 0.0, 0.0, 0.0, 0.0, 0.0, 0.0, 0.0, 0.0, 0.0, 0.0, 0.0, 0.0, 0.0, 0.0, 0.0, 0.0, 0.0, 0.0, 0.0, 0.0, 0.0, 0.0, 0.0, 0.0, 0.0, 0.0, 0.0, 0.0, 0.0, 0.0, 0.0, 0.0, 0.0, 0.0, 0.0, 0.0, 0.0, 0.0, 0.0, 0.0, 0.0, 0.0, 0.0, 0.0, 0.0, 0.0, 0.0, 0.0, 0.0, 0.0, 0.0, 0.0, 0.0, 0.0, 0.0, 0.0, 0.0, 0.0, 0.0, 0.0, 0.0, 0.0, 0.0, 0.0, 0.0, 0.0, 0.0, 0.0, 0.0, 0.0, 0.0, 0.0, 0.0, 0.0, 0.0, 0.0, 0.0, 0.0, 0.0, 0.0, 0.0, 0.0, 0.0, 0.0, 0.0, 0.0, 0.0, 0.0, 0.0, 0.0, 0.0, 0.0, 0.0, 0.0, 0.0, 0.0, 0.0, 0.0, 0.0, 0.0, 0.0, 0.0, 0.0, 0.0, 0.0, 0.0, 0.0, 0.0, 0.0, 0.0, 0.0, 0.0, 0.0, 0.0, 0.0, 0.0, 0.0, 0.0, 0.0, 0.0, 0.0, 0.0, 0.0, 0.0, 0.0, 0.0, 0.0, 0.0, 0.0, 0.0, 0.0, 0.0, 0.0, 0.0, 0.0, 0.0, 0.0, 0.0, 0.0, 0.0, 0.0, 0.0, 0.0, 0.0, 0.0, 0.0, 0.0, 0.0, 0.0, 0.0, 0.0, 0.0, 0.0, 0.0, 0.0, 0.0, 0.0, 0.0, 0.0, 0.0, 0.0, 0.0, 0.0, 0.0, 0.0, 0.0, 0.0, 0.0, 0.0, 0.0, 0.0, 0.0, 0.0, 0.0, 0.0, 0.0, 0.0, 0.0, 0.0, 0.0, 0.0, 0.0, 0.0, 0.0, 0.0, 0.0, 0.0, 0.0, 0.0, 0.0, 0.0, 0.0, 0.0, 0.0, 0.0, 0.0, 0.0, 0.0, 0.0, 0.0, 0.0, 0.0, 0.0, 0.0, 0.0, 0.0, 0.0, 0.0, 0.0, 0.0, 0.0, 0.0, 0.0, 0.0, 0.0, 0.0, 0.0, 0.0, 0.0, 0.0, 0.0, 0.0, 0.0, 0.0, 0.0, 0.0, 0.0, 0.0, 0.0, 0.0, 0.0, 0.0, 0.0, 0.0, 0.0, 0.0, 0.0, 0.0, 0.0, 0.0, 0.0, 0.0, 0.0, 0.0, 0.0, 0.0, 0.0, 0.0, 0.0, 0.0, 0.0, 0.0, 0.0, 0.0, 0.0, 0.0, 0.0, 0.0, 0.0, 0.0, 0.0, 0.0, 0.0, 0.0, 0.0, 0.0, 0.0, 0.0, 0.0, 0.0, 0.0, 0.0, 0.0, 0.0, 0.0, 0.0, 0.0, 0.0, 0.0, 0.0, 0.0, 0.0, 0.0, 0.0, 0.0, 0.0, 0.0, 0.0, 0.0, 0.0, 0.0, 0.0, 0.0, 0.0, 0.0, 0.0, 0.0, 0.0, 0.0, 0.0, 0.0, 0.0, 0.0, 0.0, 0.0, 0.0, 0.0, 0.0, 0.0, 0.0, 0.0, 0.0, 0.0, 0.0, 0.0, 0.0, 0.0, 0.0, 0.0, 0.0, 0.0, 0.0, 0.0, 0.0, 0.0, 0.0, 0.0, 0.0, 0.0, 0.0, 0.0, 0.0], "w": [8.0, -2.0, -1.0, -0.25688661114670086, -1.0, 0.0, 4.0, 3.168481742472774, -6.341447789878283, 0.0, 2.0, -4.0, 2.288276745675849, 2.0, -3.0, -1.0, -0.3087764253683536, 0.0, 1.42152466367713, 3.89237668161435, 0.7040358744394619, -3.0, -1.1057014734144779, 2.0, -6.0, -1.4740133636007795, 1.0, -3.0, 0.2709801409352979, -1.0, -1.0, -3.0, -3.0, -3.0, -0.2908392056374119, 2.6969891095451635, -5.0, 4.0, 0.0, -1.0, 2.0, 4.0, 0.0, -2.0, 0.877642536835362, 2.270980140935298, -2.0, 8.0, 0.6886611146700833, 2.0, -4.0, -4.0, 0.0, 2.0, -2.0, 6.850096092248559, 0.0, -4.0, 2.0, -1.0, -4.0, 1.0, 1.088404868673927, -2.0, -2.8334401024983986, 1.0, -1.8930172966047405, 0.026905829596412523, -3.0, -6.2280589365791155, 2.0, 7.0, 4.0, -1.0, -3.0, -2.0, 4.0, -0.7341030496994342, -2.0, 0.0, 1.0, 1.1665598975016016, 0.26649583600256244, 2.191543882126842, 1.0, -4.0, 1.0, 5.524023062139654, -1.0, 1.0, -2.0, 0.4208840486867393, -2.0, -4.0, -3.0, 0.0, 3.0, 3.0, 6.468289557975656, -3.675208199871877, -4.0, 0.0, -2.5060858424087122, -4.0, -3.0, 0.0, -3.0, -1.0, 1.0, 4.10698270339526, 0.2754644458680333, 0.0, 0.0, 0.0, -1.0, -5.081358103779628, -1.0, -4.0, -0.9967969250480462, 1.90903267136451, -7.256886611146701, -4.0, -1.0, 2.1665598975016014, -1.0, -0.10762331838565023, 0.1637853625199878, 0.0, -3.0800768737988466, 2.0, 1.0, -2.0, -4.0, -0.5060858424087123, -7.0, 7.0, 4.0, 3.0, -1.5989750160153748, 4.0, -1.0, -3.6675208199871876, 0.0, -1.145369498024826, 1.4260089686098656, -2.1223574631646382, 0.0, 3.1473414477898785, -3.0, -1.4311338885329916, 2.0, -1.0, -1.2088404868673928, 2.4939141575912878, 2.4939141575912878, 2.0, 2.0, 5.664958360025625, 1.0, 2.903907751441384, 1.1637853625199879, 2.704035874439462, -3.0, -4.609865470852018, -2.0, -2.0, -1.0, -6.0, -0.11090693043122934, -2.0, -5.870595771941064, 2.0, 0.0, -4.0, -3.0, -3.6527866752082, -2.0, -2.0, -9.367713004484305, 2.0, 1.0, -2.005197260572278, -3.0, 3.2927610506085845, 0.0, 2.0, 0.0, -0.34144778987828317, 3.0, 0.0, 2.0, -0.57847533632287, -1.0, -3.09096732863549, 1.0, -2.9730941704035874, 0.0, 2.0, -3.0, 0.9525944907110826, -6.11595131326073, 5.088404868673927, -1.8263933376041, 1.0, 2.0, -2.0, 2.003203074951954, 3.7040358744394624, 6.0, 0.0, -0.8263933376040999, 0.0, 1.0, -6.332479180012812, 5.627162075592569, -4.0, 1.0, 4.159513132607303, -3.0, -2.0, -7.479820627802691, 0.0, 0.0, 0.0, -1.0, -2.0, -2.0, 0.0, -3.0781550288276747, 3.0, 1.0, -3.0, -6.0, -2.0, 3.8776425368353618, 4.110614318317554, -2.0, 6.0, 1.0, -2.479820627802691, 1.0, 0.0, -1.0, -1.0, 0.0, 1.0, -4.714285714285714, -3.0, 1.0, 5.0, 4.0, -2.0, -5.0, -2.0, -0.2959641255605381, 3.0, -3.0, -2.0, -4.0, -1.0, -0.3414477898782833, 2.0, -1.4798206278026906, -1.0, -3.0, 0.7905188981422165, 0.0, 1.0, 0.1637853625199878, -1.0, -1.0, -2.0, 0.5201793721973094, -6.0, -2.0, -2.0, -2.0, 5.3408071748878925, 2.0, 1.0, 0.0, -4.996796925048046, -4.0, -2.051889814221653, -3.0, -1.0, -3.0, -2.3894939141575913, 2.42152466367713, -1.0, 0.0, 5.026905829596412, -2.10762331838565, 5.877642536835362, 0.26201153106982705, -1.0, 4.121076233183857, 0.0, 2.0, 2.0, 4.270980140935298, -1.256886611146701, 1.0, -4.0, 0.0, 0.0, 0.0, -3.0, 1.0, 1.6585522101217167, 0.0, -4.0, 3.0, 3.0, -2.8308776425368354, 1.0, -3.0, -2.0, -3.22293401665599, 1.0, -2.22293401665599, 1.0, -1.0, -1.0, 0.9295323510570148, -4.0, -1.0, 0.9090326713645099, 3.0, -1.0, 2.0, 3.0374545934570403, 5.0, 0.07495195387572062, 3.1979500320307492, -3.0, 0.0, 0.0, 2.0, -2.0, -0.6675208199871877, 0.0, -4.0, -3.159513132607303, -2.295964125560538, -5.0, 1.3324791800128124, 2.0, 1.0, 0.0, -6.0, 3.0, -1.0, -1.0, -1.0, -2.0, -1.0, -4.81801626386668, 3.8923766816143495, 0.9090326713645099, 1.5278667520819988, -2.8705957719410633, 1.0, 0.0, 4.0, 0.0, -1.0, 0.0, -3.0, -5.0, 0.0, 1.6105060858424087, -1.9711723254324152, -1.0, 5.42152466367713, 0.0, 1.0, 0.0, -2.0, 0.0, -3.0, 4.0, -2.0, 6.77706598334401, -2.0, 1.0, -13.0, 3.1069827033952593, -3.5299836245841805, -0.8263933376040999, -2.0, 4.709160794362588, -3.0, -4.831518257527226, -1.0, 0.0, 3.0, 2.0, -0.20948110185778346, -0.25688661114670086, -2.0, -3.7142857142857144, 3.0, 3.0, 2.0, 0.9814221652786675, 1.1294042280589367, -2.0, -2.8142216527866752, 0.0, 1.0, -8.0, -0.3689942344650865, -0.9935938500960922, 1.2094811018577833, -4.0, -8.0, -1.0, -4.0, 2.0, -2.0, -1.0, 0.6585522101217168, -2.0, 1.0, -2.0, 2.0, 1.5791159513132609, 1.0, -2.0, 2.0, 1.0, 7.580055490318026, -7.0, 2.0, 6.0, -1.0, 2.0, 1.0, -2.0, -0.7290198590647021, -3.0, -1.581037796284433, 2.8878200360324624, 1.0, 4.0, -0.7117232543241512, 1.524023062139654, 0.0, 0.026905829596412523, -1.0, 2.0, -0.20948110185778346, -1.0, -4.0, 2.0, 2.0, -4.0, 2.0, -1.0, 0.8923766816143498, 0.49391415759128765, 1.0, -2.0, -0.16399743754003843, 2.0, -2.0, 1.0, -1.0, -2.0, -7.0, 0.0, 0.026905829596412523, -3.0, -5.0, 0.0, -4.0, -1.57847533632287, -4.0, 2.0, 0.6028187059577194, -2.0, -3.0, -5.0, -1.6675208199871876, 1.0, -2.0, 1.0, 0.0, -3.0, -1.6476617552850736, -1.0, 1.877642536835362, 0.49391415759128765, -1.8930172966047405, -3.442024343369635, -1.4317745035233824, -1.0, -1.8424087123638693, -1.0, 1.0, 3.0, -3.0, 1.0, -4.149903907751441, 2.704035874439462, 3.0, -3.0, -0.2729019859064702, -2.0, 1.90903267136451, 2.1637853625199877, 10.0, -4.256886611146701, 1.0, -0.11217996396753771, 0.18198373613331978, 2.0, -2.475976937860346, 3.0, -1.0, -1.0, 0.0, -1.0, -5.814221652786675, -6.28955797565663, -2.0, 0.0, -3.0, -0.9468289557975657, 1.0, 4.0, -9.0, -2.051889814221653, -4.0, -5.89301729660474, 1.0, 2.743113388853299, -2.8334401024983986, -2.0, -3.0, 2.0, 5.0, 3.1819837361333203, 0.0, 3.0, -4.147982062780269, 0.427290198590647, -4.0, -2.1223574631646382, -3.0, -7.0, 0.0, -3.0, -1.0, -3.8362146374800123, 1.0, -1.0, 3.0, -1.5919282511210762, -1.4798206278026906, 0.0, 0.0, 1.0, -1.0, -4.0, 4.130044843049327, 4.0, 2.1319666880204995, -6.0, 5.0, -2.0, -3.0326713645099295, -1.0, -6.0, -4.0, 3.111895548298335, 2.0, 0.0, 0.0, 2.548366431774504, 6.0, -2.3414477898782833, -0.5291479820627802, 1.0, 1.0, -1.3414477898782833, 0.0, -3.6675208199871876, 2.3171044202434334, -2.0, -5.911595131326073, 3.0, 7.0326713645099295, -1.0, -5.609865470852018, -4.0, -2.7194106342088404, 14.630365150544522, 2.0, 1.3324791800128124, 1.0, 0.0, -2.0, -2.051889814221653, 1.0, -0.5791159513132607, -2.0, -3.0, 0.877642536835362, 0.7905188981422165, 2.0, 3.0, 5.426008968609866, 2.0, 0.0, 1.0, 0.0, -1.0, -1.7290198590647021, -4.0, 1.0, -3.549007046764894, 0.0, 1.8654708520179373, -1.0, -0.9967969250480462, -3.0, -2.0, -1.0264588889054422, -3.0, 6.0, -4.0, -6.0, 1.7700192184497117, 4.0, -2.0, -5.0, 0.7796284433055733, 2.0, 4.0, -2.0, 0.0, 1.0, -4.479820627802691, 3.0, -1.0, 1.0, 0.0, -1.981801626386668, 0.0, -2.1639974375400386, 1.0, 6.0, 0.0, 2.0, -3.1185137732222934, -3.0, 0.524023062139654, -3.0, -1.0, 0.0, -1.0, -2.0, -0.4817424727738629, -0.31893687707641194, -3.8930172966047407, -2.0, -2.0, -2.3255813953488373, 4.0, 0.0, -1.0, 1.0, -3.4317745035233824, -4.0, -1.0, -1.0, 0.0, 3.0, 4.0, -2.0, -1.0, -2.410634208840487, -3.0, 3.0, -10.0, -2.0, 1.0, 0.0, -1.295964125560538, 2.0, -2.0, 4.0, 1.0, -5.0, 3.0, 0.49391415759128765, 2.0, 2.0, -1.281870595771941, -1.0, -4.0, -2.0, -2.0, 1.524023062139654, -0.47982062780269064, 0.0, 0.0, -5.0, -5.0, -3.0, -2.6675208199871876, -2.0, 1.0, -2.0, -4.0, 0.026905829596412523, -1.0, -1.0, -6.22293401665599, 1.0, 0.0, 0.0, -2.2818705957719407, -0.5739910313901345, -1.0, -4.0, -4.0, 0.0, -2.0, 5.0, 3.0, 1.0, 2.0, -4.0, 1.524023062139654, 0.0, 3.270980140935298, -4.0, 0.43946188340807174, -1.0, -4.0, 2.524023062139654, -4.0, 8.0, 3.0, -3.0, 3.8955797565663035, -6.0, -3.974375400384369, -4.0, -2.0, -1.1044202434336963, -3.0, -3.0, -3.147982062780269, 1.2543241511851377, -0.8648302370275465, -5.0, 1.0, 2.1736066623959003, -2.0, 2.0, -2.1377322229340168, 0.6271620755925689, -2.0, -1.0, 1.0, 5.0, 0.7270980140935298, 4.0, 9.0, 6.0, 0.0, -2.0, -2.0, 4.0, -4.0, -1.9967969250480462, -2.0, -3.0, 3.0, -2.0, -2.0, 5.71044202434337, -2.639974375400384, -2.372837924407431, 7.0, -3.0, 2.0, -3.0, -4.573991031390134, -1.0, 0.0, -2.0, -3.0, 0.0, -3.129105304044561, 0.0, -2.0, 0.0, 0.0, -5.0, 0.0, -1.0, 1.0, -1.219090326713645, -5.0, 1.0, -2.0, 1.156310057655349, -1.0, -2.7110335604714204, -5.0, -1.0, 2.0, 5.288276745675849, 0.0, 4.0, -2.0, 0.0, 1.0, 2.0, 2.807174887892377, 0.0, -3.5317104420243433, 1.0, 0.9115951313260728, 4.0, 1.1563100576553493, -0.28955797565663033, -1.0, -4.0, 3.088404868673927, 4.0, -3.0, 0.0, -1.0, 2.0, 3.0, -1.0, -6.0, 0.0, 1.0, 0.0, 1.0, 3.0, -1.0, -2.0, -2.579115951313261, 1.0, 2.2344650864830236, 2.0, -5.0, -4.833440102498399, 1.0, 2.0, -2.0, -4.0, -2.0, -0.37283792440743113, -3.0, 2.0, 1.0, -2.0, -0.8795226525181402, 1.0, 1.1863466215545637, -5.27290198590647, 1.0, 5.6969891095451635, 0.0, -5.0, 2.0, -4.0, 4.0, -7.0, 2.0, -2.2094811018577833, 0.0, 1.0, 3.0, 3.0, -1.0518898142216528, -8.8263933376041, 3.0, -1.0, -1.0, -3.0, -5.0, -3.0, 1.1069827033952595, -1.0, -2.0, -3.0, -1.0, 0.0, -4.0, -2.0, 3.0, 0.0, 0.0, -5.0, 4.0, 2.0, 2.0, -1.0, -0.9967969250480462, -2.295964125560538, 0.0, -2.2299807815502883, 1.0, 0.0, 2.0, -4.295964125560538, 0.0, -2.0, 2.003203074951954, -0.726457399103139, 5.640614990390775, 0.0, 0.5201793721973094, 0.0, -0.8263933376040999, -3.0, -1.0, 3.0, -4.0, 0.0, -5.22293401665599, 0.0, -2.0, 1.743113388853299, 2.0, 5.550288276745676, 2.0, 8.631005765534914, -2.1223574631646382, 1.0, -2.0, -2.0, 5.0, 1.4208840486867393, -1.0, 1.0, 4.0, 3.0, 4.0, 5.0, -2.8930172966047407, 3.0, 2.420884048686739, -6.0, 1.0, 0.0, -0.08527413437112519, -1.0, -2.0, -3.0, 2.0, -1.0, -8.0, -8.0, 5.332479180012812, -3.0, -2.9730941704035874, 0.0, 4.0, -3.7905188981422167, -4.345932094811019, 1.0, 1.0, -4.0, 2.0, -2.0, -2.0, 0.01819837361333198, 0.0, 0.0, -3.0, -3.0, 1.0, 0.0, 3.0, 0.0, 5.0, -2.0, -0.37283792440743113, 4.0, 1.7104420243433696, -2.0, -0.22293401665598978, 2.0, -4.0, 3.0, -1.0, -5.140935297885971, 0.0, 1.0, -2.0, -4.0, -2.0, -4.575912876361307, -4.911595131326073, 0.0, -2.5317104420243433, 0.0, 0.34144778987828317, -1.0, -2.579115951313261, -2.0, -3.0, 4.0, 0.0, -0.7290198590647021, -3.0, -1.0, -4.40486867392697, -4.290839205637412, -2.0, 8.0, -2.0, 5.0, 1.0, -1.0, -3.0, -1.0, 0.0, 2.0, 1.0, 7.1736066623959, 1.0, 0.0, -1.5317104420243433, 0.0, -0.6784112748238309, -3.0, 1.0, 6.709160794362588, -1.0, 0.0, 1.0, 2.7905188981422167, 0.0, -2.0, -7.924407431133888, -1.0, -3.0, -4.0, -1.0, 5.185778347213325, 0.0, 2.0, -2.0, 2.0, 1.0, -2.808456117873158, -3.0, -1.0, 1.0, 1.0, -4.591928251121076, 0.46828955797565663, 2.0, 1.0, 2.0, 4.627162075592569, -7.0, -1.0, 1.0, 1.0, 3.0, 3.0, -1.0, 0.0, -2.449711723254324, 1.0, -0.4035874439461884, 2.524023062139654, 0.0, 0.7270980140935298, 0.0, -4.579115951313261, 1.4053156146179402, 0.9218449711723254, 0.008297383514322076, 1.0, 4.0, -1.0, -2.8705957719410633, -1.6675208199871876, -0.5739910313901345, -0.57847533632287, -3.0, 1.0, -1.0, 2.0, -6.0, -1.0, 0.0, -2.256886611146701, -3.0, 2.0, 0.7905188981422165, -5.0, -2.0, -1.0, 0.0, 1.0, -2.09096732863549, 2.0, -1.0, 10.0, 2.0, 0.0, 1.0, -2.0, 0.0, -0.6098654708520179, -5.0, -1.0, -0.37283792440743113, -1.0, 0.0, -7.0, 1.0, 1.0, -2.0, -7.0, -3.0, 0.0, -1.8142216527866752, -2.5739910313901344, 5.0, 0.0, -3.2729019859064703, 3.0, 1.12047734748186, -6.389493914157591, 1.7091607943625882, 1.0, -3.051889814221653, -2.7905188981422167, -4.341447789878283, -2.9717628356289256, 1.0, 3.0, 1.0, -0.8263933376040999, 5.0, 1.0, 5.520179372197309, -2.0, -3.6258808456117873, -4.0, -1.0, -0.5060858424087123, -7.890454836643178, -0.5317104420243434, 4.0, -4.22293401665599, 1.0, 0.0, -2.0, -2.0, -1.0, -1.0, 6.0, 1.0, -5.573991031390134, -3.0, -4.667520819987188, -0.22293401665598978, 4.0, 4.0, 1.5201793721973094, -1.9967969250480462, 7.0, 0.6744186046511628, 0.0, 0.7770659833440102, 2.7142857142857144, -5.344650864830237, -3.687379884689302, -1.0, 2.0, 0.6585522101217168, 5.170453692237826, 0.7770659833440102, 0.0, -3.0, -2.0, 3.755285073670724, -4.0, 3.1736066623959003, -0.5946843853820598, -0.8705957719410634, 1.0, 1.8360025624599616, 1.0269058295964126, 0.0, 4.0, -0.8930172966047405, 0.0, 0.0, 0.0, -1.0, -2.6675208199871876, -1.0, -2.0, -2.0, -1.0, -2.3414477898782833, -2.0, -3.0, -3.8930172966047407, 1.1069827033952595, -1.0, 0.0, -2.0, -3.0, -3.0, -4.01665598975016, 10.0, -2.0, 0.0, 4.0, 1.0, -2.0, -2.8263933376040997, -3.0, -1.0, 1.0, -1.281870595771941, 4.0, -2.0, -2.0, 0.0, 3.0, -3.0, -1.0, -5.0, -3.8167841127482385, 1.0, -5.0, -1.0, 0.0, 0.9218449711723253, 4.0, -4.0, 0.0, -2.579115951313261, 1.0, -2.0, 1.0, 1.0, 1.0, 1.0, 0.0, 1.0, 0.4053156146179402, -5.0, -4.051889814221653, 0.0, -2.0, -4.8263933376041, 2.0, 5.859064702114029, 1.0, 1.0, 0.0, 2.0, -3.0, -1.0, -1.0, 2.0, -1.8360025624599616, 2.0, -3.0, 5.0, -2.659784361240159, 0.6105060858424087, 2.0, 1.0, -4.0, 3.0, -1.3894939141575913, -3.290839205637412, 0.0, 4.0, 0.9090326713645099, -1.0, 1.088404868673927, -4.0, -4.0, 2.524023062139654, 0.0, -1.4939141575912878, -2.4362588084561176, 4.088404868673927, -0.09545163356822539, 0.0, 2.0, 0.0, -1.0, -0.6098654708520179, -1.0, 1.0, 0.0, 1.068545803971813, -5.0, -1.0, 1.7104420243433696, 3.3324791800128124, -3.479820627802691, -0.38949391415759127, -2.0, -10.14093529788597, -2.3664317745035235, 2.9218449711723253, 0.0, -2.0, 0.0, -1.256886611146701, 1.0, -0.14990390775144138, -3.0, 4.026905829596412, -3.1499039077514412, -4.163997437540038, 3.0, -1.0, 0.0, 0.0, -2.0, -1.0, 3.0, 0.0, 0.0, 2.0, 2.0, -1.981801626386668, 1.0, 3.2126841768097374, 0.9762972453555414, 0.8360025624599616, -4.335041639974375, 1.0, -7.996796925048046, 2.957078795643818, 1.7770659833440101, 1.3600256245996156, -1.0, 0.0, 0.6585522101217168, 0.2882767456758488, 3.0, 2.0, 2.0, 0.0, -1.0, 2.0, 3.6585522101217167, 4.859064702114029, 1.8878200360324624, 4.0, -1.0, 1.89237668161435, -1.0, 1.0, 1.0, -2.1499039077514412, 1.2829581514533022, 5.0, 2.0, -2.0, -2.0, -1.0, -4.0, 0.803331197950032, 1.0, 0.0, 1.0, 0.5201793721973094, -7.0, -2.0, -3.372837924407431, 1.0, -1.0, -2.0, -0.2729019859064702, -2.996796925048046, 2.0, 5.77706598334401, 1.0, -1.0, 1.0, 3.704035874439462, -4.729019859064702, -0.19538757206918644, 1.0, -1.7117232543241512, 1.7104420243433696, 1.6572709801409353, 2.3324791800128124, 0.0, 0.0, -3.5060858424087122, 1.0, -2.6675208199871876, 1.0, -2.0, -1.0, -1.0, -6.711723254324151, -1.0, -0.8263933376040999, -4.729019859064702, -1.0, -0.6675208199871877, 1.0, 1.0, -10.0, -0.12235746316463805, -7.0, 1.2709801409352979, 0.0, -1.0, -3.0, -3.0, -1.0, -7.0, -0.34144778987828317, 0.0, 6.615631005765535, -3.0, -1.0, -2.0, 1.0, 7.0, 0.0, -1.0, -1.0, -3.1409352978859704, -1.0961645892077683, -1.0, 2.0, -4.28955797565663, -3.1409352978859704, -3.0, -1.0, 0.0, -0.47982062780269064, 0.0, -1.9730941704035874, 0.8923766816143498, 0.0, -4.0, -2.10762331838565, 1.1665598975016016, -1.0, -3.0, -1.0486867392696988, -1.0, -1.0, 0.9090326713645099, 6.0, 1.0, 1.0, -1.0, 1.0, -2.8362146374800123, 1.0, 3.0, -5.0, -5.0, 1.0269058295964126, 5.0, -2.57847533632287, -2.8263933376040997, 1.390134529147982, 5.0, -8.0, -2.0, -2.0, 4.0595771941063425, -2.0, -4.0, -4.0, 1.0, -1.0, 2.0, -3.0, 1.0, -1.0, 2.0, 0.0, -0.1467008327994875, -4.093981590354206, -1.0, 4.631005765534914, 3.0, -4.0, -1.0, -2.3894939141575913, -1.0, 0.0, -4.0, 1.0, -3.0, 3.390134529147982, -6.0, 1.0, -1.0, -1.3189368770764118, 3.0, 3.0, 0.0, -1.0, -1.0, -3.0, -3.755234968876844, -2.0, -2.0, -3.0, -1.256886611146701, 3.524023062139654, 1.0, -1.0, 4.921844971172326, 5.0, -6.0, -1.7905188981422167, 0.0032030749519538757, -1.0, 1.0, 1.0, -1.0, -3.295964125560538, -0.3235105701473414, -6.0, -2.0, 0.0, -1.0, -0.31893687707641194, 1.0, -8.0, -1.0, -4.71941063420884, -2.0, 3.0269058295964126, 3.89237668161435, -2.0, 0.0, -0.14990390775144138, 1.0, -3.0, -5.0, -4.0, 5.567584881486226, 0.0, 0.16655989750160155, 1.2774756789773996, 2.4394618834080717, -1.6675208199871876, 3.0, 0.0, -3.479820627802691, 2.329916720051249, -5.28955797565663, 3.0, -2.1409352978859704, -2.0, 0.0, 4.168481742472774, -7.0, 1.0, -4.0, -2.8263933376040997, 0.0, 1.0, 2.0269058295964126, 7.836002562459962, 0.0, 0.0, 8.0, 1.0, 0.6271620755925689, -1.8930172966047405, 1.0, 0.16655989750160155, -2.0, 0.8360025624599616, 4.209481101857784, -1.1639974375400384, -1.0, 2.0, 3.7700192184497117, -3.0, 2.8590647021140296, 6.619474695707879, 5.0, 0.0, -2.0, 4.658552210121717, 0.0, 2.0, 0.0, -3.0, -5.0, -4.0, -3.0, 6.859064702114029, -1.0, -0.5317104420243434, 3.0, 0.4260089686098655, -1.0, 1.743113388853299, -5.0, -5.0, -1.0, 0.7060067982729737, -1.0, -1.8315182575272262, 1.0, 1.0, -1.0, -2.0, -6.0, 3.0, 3.0, 1.0, -3.0, 8.0, -3.911595131326073, -0.934657270980141, 1.0, -2.3414477898782833, 1.0, -4.0, 5.0, -3.09096732863549, 0.0, 1.0, 1.0, 1.0, -6.0, 2.0, -3.937431805961755, 0.0, 1.4682895579756565, 1.0, 2.464445868033312, -2.8436899423446507, -1.0, 0.0, 4.0, -3.0, -4.0, -4.0, 1.0, 0.0, 1.1069827033952595, -2.0, -4.0, -2.0, -2.0, 1.0, -1.0, -5.0, 2.0, -0.5791159513132607, 1.0, 5.0, -1.0, -1.0, 3.0, -1.0, -5.0, -0.2959641255605381, -1.0, -2.295964125560538, 2.627162075592569, -6.0, -4.0, 0.0, -0.877642536835362, 1.0, 1.0, 2.0, 0.0, 0.0, 0.0, -9.0, -1.0, 3.0, -3.0, -1.0, 3.6585522101217167, -6.0, -2.9730941704035874, 1.0, 0.0, -1.0, -1.1076233183856503, -2.996796925048046, -3.0, 1.0, -8.08199871877002, -2.2094811018577833, 0.0, -2.0, -6.996796925048046, 0.0, -1.0, 0.0, 0.40999359385009626, -1.0, -5.0, -4.431133888532992, -3.0, 3.3324791800128124, 1.0, 4.0, -1.0, 1.0, -1.256886611146701, 4.0, 1.0, -2.0, 1.0, -5.0, -1.0, 0.026905829596412634, -0.22293401665598978, 0.41520790191141643, 6.0, -2.0, -1.0, 0.0, -2.0, -2.3414477898782833, 0.0, 3.0, 0.7040358744394619, 1.0, 3.018198373613332, -1.8314765282388321, -0.05188981422165284, -4.0, 2.0, -1.0, -1.0, 0.8360025624599614, 4.0, -6.389493914157591, 1.0, 3.88404868673927, 1.8257527226137091, 0.0, -1.5060858424087122, -4.0, -1.0, 1.0, -5.051889814221653, 0.0, 0.0, 1.0, 1.3715566944266495, -7.0, -1.0, -2.6675208199871876, -3.0, 4.0, -1.0, -6.0, -3.8334401024983986, -3.0, -3.9154388212684177, 4.0, 0.0, 0.0, 2.0, 1.390134529147982, 4.0, 2.0, -1.0, -2.7905188981422167, 4.71044202434337, 0.0, -2.0, 0.0, -3.0, 1.0, -2.0, -0.12235746316463805, 1.0, 0.0, -6.0, -2.0, 2.0, 4.0, -0.2959641255605381, 2.270980140935298, -1.0, 1.0, -0.8436899423446509, -2.051889814221653, 0.0, -0.05253042921204356, -2.0, -4.0, 1.0, -2.0, -2.6675208199871876, 1.0, -3.295964125560538, -6.0, 2.0, 0.0, -1.0, 1.0, -4.0, 1.2094811018577833, 1.0, 6.8923766816143495, -1.0, 1.0269058295964126, 0.0, -1.6675208199871876, -0.57847533632287, 2.4221652786675207, -4.0, 1.0, 0.0, 4.0, -2.0, -2.0, -1.0, -2.0, 6.743113388853299, 0.0, 2.0, 1.0, -3.0, 1.0, -2.0, 1.0, -7.0, 1.0, -5.640614990390775, 8.026905829596412, 0.0, -2.02498398462524, -2.051889814221653, 2.0, -1.0, -0.57847533632287, -1.8263933376041, 1.0, -2.0, -3.0, 2.0, -2.0, 0.4260089686098655, -3.0, -1.0, 0.0, -5.0, -5.0, -1.3728379244074311, -2.0, -4.27290198590647, 3.8776425368353618, -2.0, -1.295964125560538, 4.006406149903908, 1.0, 0.0, 1.0, 0.0, 4.0, -3.0, 0.0, 0.0, 1.0, -5.0, 0.6105060858424087, 0.0, -4.53747597693786, 3.0, 0.0, -1.8315182575272262, -1.0, -2.0, -1.182575272261371, -2.0, -0.47597693786034595, 1.0, -3.0, -2.0, 2.0, 0.877642536835362, -3.911595131326073, -4.0, -1.0, -3.0, 3.0, -0.15951313260730304, 4.0, -1.0, -0.8930172966047405, -2.0, -1.0, 1.12047734748186, 2.0, 0.0, -2.87952265251814, 0.8360025624599616, -3.450352338244715, 1.8590647021140296, 0.0, -2.831518257527226, -2.0, 1.0, -7.0, -3.1499039077514412, -4.0, -1.0, 1.0, -4.0, 2.0, -1.0, 2.0, -4.89301729660474, 0.0, 0.0, 2.627162075592569, -1.0, -1.911595131326073, -4.0, 1.0, -1.0, 0.0, -1.0, 0.0, -6.479820627802691, 0.0, -1.5278667520819988, 5.0, 4.332479180012812, -3.0, 0.0, 0.7905188981422165, -1.0, 0.0, -5.0, -3.0, 2.0, 3.0, -3.0, 2.627162075592569, 1.6810631229235882, 1.0, 3.9218449711723253, -1.0, 3.0, 0.0, 1.0, -4.0, 0.0, 0.0, 3.0, -1.0, 0.0, 0.0, 7.320948110185778, 2.0, 3.0, -4.0, 8.0, 0.0, -2.0, -6.0, -1.0, 0.0, 3.0, 0.0, 0.0, -2.0, 3.0, 0.0, -1.0, 1.1736066623959, -2.5317104420243433, 0.0, 2.1665598975016014, 1.088404868673927]}, "Politics": {"count_avg": 1.0, "b": -31.261715915657657, "beta_avg": 0.0, "u_avg": [0.0, 0.0, 0.0, 0.0, 0.0, 0.0, 0.0, 0.0, 0.0, 0.0, 0.0, 0.0, 0.0, 0.0, 0.0, 0.0, 0.0, 0.0, 0.0, 0.0, 0.0, 0.0, 0.0, 0.0, 0.0, 0.0, 0.0, 0.0, 0.0, 0.0, 0.0, 0.0, 0.0, 0.0, 0.0, 0.0, 0.0, 0.0, 0.0, 0.0, 0.0, 0.0, 0.0, 0.0, 0.0, 0.0, 0.0, 0.0, 0.0, 0.0, 0.0, 0.0, 0.0, 0.0, 0.0, 0.0, 0.0, 0.0, 0.0, 0.0, 0.0, 0.0, 0.0, 0.0, 0.0, 0.0, 0.0, 0.0, 0.0, 0.0, 0.0, 0.0, 0.0, 0.0, 0.0, 0.0, 0.0, 0.0, 0.0, 0.0, 0.0, 0.0, 0.0, 0.0, 0.0, 0.0, 0.0, 0.0, 0.0, 0.0, 0.0, 0.0, 0.0, 0.0, 0.0, 0.0, 0.0, 0.0, 0.0, 0.0, 0.0, 0.0, 0.0, 0.0, 0.0, 0.0, 0.0, 0.0, 0.0, 0.0, 0.0, 0.0, 0.0, 0.0, 0.0, 0.0, 0.0, 0.0, 0.0, 0.0, 0.0, 0.0, 0.0, 0.0, 0.0, 0.0, 0.0, 0.0, 0.0, 0.0, 0.0, 0.0, 0.0, 0.0, 0.0, 0.0, 0.0, 0.0, 0.0, 0.0, 0.0, 0.0, 0.0, 0.0, 0.0, 0.0, 0.0, 0.0, 0.0, 0.0, 0.0, 0.0, 0.0, 0.0, 0.0, 0.0, 0.0, 0.0, 0.0, 0.0, 0.0, 0.0, 0.0, 0.0, 0.0, 0.0, 0.0, 0.0, 0.0, 0.0, 0.0, 0.0, 0.0, 0.0, 0.0, 0.0, 0.0, 0.0, 0.0, 0.0, 0.0, 0.0, 0.0, 0.0, 0.0, 0.0, 0.0, 0.0, 0.0, 0.0, 0.0, 0.0, 0.0, 0.0, 0.0, 0.0, 0.0, 0.0, 0.0, 0.0, 0.0, 0.0, 0.0, 0.0, 0.0, 0.0, 0.0, 0.0, 0.0, 0.0, 0.0, 0.0, 0.0, 0.0, 0.0, 0.0, 0.0, 0.0, 0.0, 0.0, 0.0, 0.0, 0.0, 0.0, 0.0, 0.0, 0.0, 0.0, 0.0, 0.0, 0.0, 0.0, 0.0, 0.0, 0.0, 0.0, 0.0, 0.0, 0.0, 0.0, 0.0, 0.0, 0.0, 0.0, 0.0, 0.0, 0.0, 0.0, 0.0, 0.0, 0.0, 0.0, 0.0, 0.0, 0.0, 0.0, 0.0, 0.0, 0.0, 0.0, 0.0, 0.0, 0.0, 0.0, 0.0, 0.0, 0.0, 0.0, 0.0, 0.0, 0.0, 0.0, 0.0, 0.0, 0.0, 0.0, 0.0, 0.0, 0.0, 0.0, 0.0, 0.0, 0.0, 0.0, 0.0, 0.0, 0.0, 0.0, 0.0, 0.0, 0.0, 0.0, 0.0, 0.0, 0.0, 0.0, 0.0, 0.0, 0.0, 0.0, 0.0, 0.0, 0.0, 0.0, 0.0, 0.0, 0.0, 0.0, 0.0, 0.0, 0.0, 0.0, 0.0, 0.0, 0.0, 0.0, 0.0, 0.0, 0.0, 0.0, 0.0, 0.0, 0.0, 0.0, 0.0, 0.0, 0.0, 0.0, 0.0, 0.0, 0.0, 0.0, 0.0, 0.0, 0.0, 0.0, 0.0, 0.0, 0.0, 0.0, 0.0, 0.0, 0.0, 0.0, 0.0, 0.0, 0.0, 0.0, 0.0, 0.0, 0.0, 0.0, 0.0, 0.0, 0.0, 0.0, 0.0, 0.0, 0.0, 0.0, 0.0, 0.0, 0.0, 0.0, 0.0, 0.0, 0.0, 0.0, 0.0, 0.0, 0.0, 0.0, 0.0, 0.0, 0.0, 0.0, 0.0, 0.0, 0.0, 0.0, 0.0, 0.0, 0.0, 0.0, 0.0, 0.0, 0.0, 0.0, 0.0, 0.0, 0.0, 0.0, 0.0, 0.0, 0.0, 0.0, 0.0, 0.0, 0.0, 0.0, 0.0, 0.0, 0.0, 0.0, 0.0, 0.0, 0.0, 0.0, 0.0, 0.0, 0.0, 0.0, 0.0, 0.0, 0.0, 0.0, 0.0, 0.0, 0.0, 0.0, 0.0, 0.0, 0.0, 0.0, 0.0, 0.0, 0.0, 0.0, 0.0, 0.0, 0.0, 0.0, 0.0, 0.0, 0.0, 0.0, 0.0, 0.0, 0.0, 0.0, 0.0, 0.0, 0.0, 0.0, 0.0, 0.0, 0.0, 0.0, 0.0, 0.0, 0.0, 0.0, 0.0, 0.0, 0.0, 0.0, 0.0, 0.0, 0.0, 0.0, 0.0, 0.0, 0.0, 0.0, 0.0, 0.0, 0.0, 0.0, 0.0, 0.0, 0.0, 0.0, 0.0, 0.0, 0.0, 0.0, 0.0, 0.0, 0.0, 0.0, 0.0, 0.0, 0.0, 0.0, 0.0, 0.0, 0.0, 0.0, 0.0, 0.0, 0.0, 0.0, 0.0, 0.0, 0.0, 0.0, 0.0, 0.0, 0.0, 0.0, 0.0, 0.0, 0.0, 0.0, 0.0, 0.0, 0.0, 0.0, 0.0, 0.0, 0.0, 0.0, 0.0, 0.0, 0.0, 0.0, 0.0, 0.0, 0.0, 0.0, 0.0, 0.0, 0.0, 0.0, 0.0, 0.0, 0.0, 0.0, 0.0, 0.0, 0.0, 0.0, 0.0, 0.0, 0.0, 0.0, 0.0, 0.0, 0.0, 0.0, 0.0, 0.0, 0.0, 0.0, 0.0, 0.0, 0.0, 0.0, 0.0, 0.0, 0.0, 0.0, 0.0, 0.0, 0.0, 0.0, 0.0, 0.0, 0.0, 0.0, 0.0, 0.0, 0.0, 0.0, 0.0, 0.0, 0.0, 0.0, 0.0, 0.0, 0.0, 0.0, 0.0, 0.0, 0.0, 0.0, 0.0, 0.0, 0.0, 0.0, 0.0, 0.0, 0.0, 0.0, 0.0, 0.0, 0.0, 0.0, 0.0, 0.0, 0.0, 0.0, 0.0, 0.0, 0.0, 0.0, 0.0, 0.0, 0.0, 0.0, 0.0, 0.0, 0.0, 0.0, 0.0, 0.0, 0.0, 0.0, 0.0, 0.0, 0.0, 0.0, 0.0, 0.0, 0.0, 0.0, 0.0, 0.0, 0.0, 0.0, 0.0, 0.0, 0.0, 0.0, 0.0, 0.0, 0.0, 0.0, 0.0, 0.0, 0.0, 0.0, 0.0, 0.0, 0.0, 0.0, 0.0, 0.0, 0.0, 0.0, 0.0, 0.0, 0.0, 0.0, 0.0, 0.0, 0.0, 0.0, 0.0, 0.0, 0.0, 0.0, 0.0, 0.0, 0.0, 0.0, 0.0, 0.0, 0.0, 0.0, 0.0, 0.0, 0.0, 0.0, 0.0, 0.0, 0.0, 0.0, 0.0, 0.0, 0.0, 0.0, 0.0, 0.0, 0.0, 0.0, 0.0, 0.0, 0.0, 0.0, 0.0, 0.0, 0.0, 0.0, 0.0, 0.0, 0.0, 0.0, 0.0, 0.0, 0.0, 0.0, 0.0, 0.0, 0.0, 0.0, 0.0, 0.0, 0.0, 0.0, 0.0, 0.0, 0.0, 0.0, 0.0, 0.0, 0.0, 0.0, 0.0, 0.0, 0.0, 0.0, 0.0, 0.0, 0.0, 0.0, 0.0, 0.0, 0.0, 0.0, 0.0, 0.0, 0.0, 0.0, 0.0, 0.0, 0.0, 0.0, 0.0, 0.0, 0.0, 0.0, 0.0, 0.0, 0.0, 0.0, 0.0, 0.0, 0.0, 0.0, 0.0, 0.0, 0.0, 0.0, 0.0, 0.0, 0.0, 0.0, 0.0, 0.0, 0.0, 0.0, 0.0, 0.0, 0.0, 0.0, 0.0, 0.0, 0.0, 0.0, 0.0, 0.0, 0.0, 0.0, 0.0, 0.0, 0.0, 0.0, 0.0, 0.0, 0.0, 0.0, 0.0, 0.0, 0.0, 0.0, 0.0, 0.0, 0.0, 0.0, 0.0, 0.0, 0.0, 0.0, 0.0, 0.0, 0.0, 0.0, 0.0, 0.0, 0.0, 0.0, 0.0, 0.0, 0.0, 0.0, 0.0, 0.0, 0.0, 0.0, 0.0, 0.0, 0.0, 0.0, 0.0, 0.0, 0.0, 0.0, 0.0, 0.0, 0.0, 0.0, 0.0, 0.0, 0.0, 0.0, 0.0, 0.0, 0.0, 0.0, 0.0, 0.0, 0.0, 0.0, 0.0, 0.0, 0.0, 0.0, 0.0, 0.0, 0.0, 0.0, 0.0, 0.0, 0.0, 0.0, 0.0, 0.0, 0.0, 0.0, 0.0, 0.0, 0.0, 0.0, 0.0, 0.0, 0.0, 0.0, 0.0, 0.0, 0.0, 0.0, 0.0, 0.0, 0.0, 0.0, 0.0, 0.0, 0.0, 0.0, 0.0, 0.0, 0.0, 0.0, 0.0, 0.0, 0.0, 0.0, 0.0, 0.0, 0.0, 0.0, 0.0, 0.0, 0.0, 0.0, 0.0, 0.0, 0.0, 0.0, 0.0, 0.0, 0.0, 0.0, 0.0, 0.0, 0.0, 0.0, 0.0, 0.0, 0.0, 0.0, 0.0, 0.0, 0.0, 0.0, 0.0, 0.0, 0.0, 0.0, 0.0, 0.0, 0.0, 0.0, 0.0, 0.0, 0.0, 0.0, 0.0, 0.0, 0.0, 0.0, 0.0, 0.0, 0.0, 0.0, 0.0, 0.0, 0.0, 0.0, 0.0, 0.0, 0.0, 0.0, 0.0, 0.0, 0.0, 0.0, 0.0, 0.0, 0.0, 0.0, 0.0, 0.0, 0.0, 0.0, 0.0, 0.0, 0.0, 0.0, 0.0, 0.0, 0.0, 0.0, 0.0, 0.0, 0.0, 0.0, 0.0, 0.0, 0.0, 0.0, 0.0, 0.0, 0.0, 0.0, 0.0, 0.0, 0.0, 0.0, 0.0, 0.0, 0.0, 0.0, 0.0, 0.0, 0.0, 0.0, 0.0, 0.0, 0.0, 0.0, 0.0, 0.0, 0.0, 0.0, 0.0, 0.0, 0.0, 0.0, 0.0, 0.0, 0.0, 0.0, 0.0, 0.0, 0.0, 0.0, 0.0, 0.0, 0.0, 0.0, 0.0, 0.0, 0.0, 0.0, 0.0, 0.0, 0.0, 0.0, 0.0, 0.0, 0.0, 0.0, 0.0, 0.0, 0.0, 0.0, 0.0, 0.0, 0.0, 0.0, 0.0, 0.0, 0.0, 0.0, 0.0, 0.0, 0.0, 0.0, 0.0, 0.0, 0.0, 0.0, 0.0, 0.0, 0.0, 0.0, 0.0, 0.0, 0.0, 0.0, 0.0, 0.0, 0.0, 0.0, 0.0, 0.0, 0.0, 0.0, 0.0, 0.0, 0.0, 0.0, 0.0, 0.0, 0.0, 0.0, 0.0, 0.0, 0.0, 0.0, 0.0, 0.0, 0.0, 0.0, 0.0, 0.0, 0.0, 0.0, 0.0, 0.0, 0.0, 0.0, 0.0, 0.0, 0.0, 0.0, 0.0, 0.0, 0.0, 0.0, 0.0, 0.0, 0.0, 0.0, 0.0, 0.0, 0.0, 0.0, 0.0, 0.0, 0.0, 0.0, 0.0, 0.0, 0.0, 0.0, 0.0, 0.0, 0.0, 0.0, 0.0, 0.0, 0.0, 0.0, 0.0, 0.0, 0.0, 0.0, 0.0, 0.0, 0.0, 0.0, 0.0, 0.0, 0.0, 0.0, 0.0, 0.0, 0.0, 0.0, 0.0, 0.0, 0.0, 0.0, 0.0, 0.0, 0.0, 0.0, 0.0, 0.0, 0.0, 0.0, 0.0, 0.0, 0.0, 0.0, 0.0, 0.0, 0.0, 0.0, 0.0, 0.0, 0.0, 0.0, 0.0, 0.0, 0.0, 0.0, 0.0, 0.0, 0.0, 0.0, 0.0, 0.0, 0.0, 0.0, 0.0, 0.0, 0.0, 0.0, 0.0, 0.0, 0.0, 0.0, 0.0, 0.0, 0.0, 0.0, 0.0, 0.0, 0.0, 0.0, 0.0, 0.0, 0.0, 0.0, 0.0, 0.0, 0.0, 0.0, 0.0, 0.0, 0.0, 0.0, 0.0, 0.0, 0.0, 0.0, 0.0, 0.0, 0.0, 0.0, 0.0, 0.0, 0.0, 0.0, 0.0, 0.0, 0.0, 0.0, 0.0, 0.0, 0.0, 0.0, 0.0, 0.0, 0.0, 0.0, 0.0, 0.0, 0.0, 0.0, 0.0, 0.0, 0.0, 0.0, 0.0, 0.0, 0.0, 0.0, 0.0, 0.0, 0.0, 0.0, 0.0, 0.0, 0.0, 0.0, 0.0, 0.0, 0.0, 0.0, 0.0, 0.0, 0.0, 0.0, 0.0, 0.0, 0.0, 0.0, 0.0, 0.0, 0.0, 0.0, 0.0, 0.0, 0.0, 0.0, 0.0, 0.0, 0.0, 0.0, 0.0, 0.0, 0.0, 0.0, 0.0, 0.0, 0.0, 0.0, 0.0, 0.0, 0.0, 0.0, 0.0, 0.0, 0.0, 0.0, 0.0, 0.0, 0.0, 0.0, 0.0, 0.0, 0.0, 0.0, 0.0, 0.0, 0.0, 0.0, 0.0, 0.0, 0.0, 0.0, 0.0, 0.0, 0.0, 0.0, 0.0, 0.0, 0.0, 0.0, 0.0, 0.0, 0.0, 0.0, 0.0, 0.0, 0.0, 0.0, 0.0, 0.0, 0.0, 0.0, 0.0, 0.0, 0.0, 0.0, 0.0, 0.0, 0.0, 0.0, 0.0, 0.0, 0.0, 0.0, 0.0, 0.0, 0.0, 0.0, 0.0, 0.0, 0.0, 0.0, 0.0, 0.0, 0.0, 0.0, 0.0, 0.0, 0.0, 0.0, 0.0, 0.0, 0.0, 0.0, 0.0, 0.0, 0.0, 0.0, 0.0, 0.0, 0.0, 0.0, 0.0, 0.0, 0.0, 0.0, 0.0, 0.0, 0.0, 0.0, 0.0, 0.0, 0.0, 0.0, 0.0, 0.0, 0.0, 0.0, 0.0, 0.0, 0.0, 0.0, 0.0, 0.0, 0.0, 0.0, 0.0, 0.0, 0.0, 0.0, 0.0, 0.0, 0.0, 0.0, 0.0, 0.0, 0.0, 0.0, 0.0, 0.0, 0.0, 0.0, 0.0, 0.0, 0.0, 0.0, 0.0, 0.0, 0.0, 0.0, 0.0, 0.0, 0.0, 0.0, 0.0, 0.0, 0.0, 0.0, 0.0, 0.0, 0.0, 0.0, 0.0, 0.0, 0.0, 0.0, 0.0, 0.0, 0.0, 0.0, 0.0, 0.0, 0.0, 0.0, 0.0, 0.0, 0.0, 0.0, 0.0, 0.0, 0.0, 0.0, 0.0, 0.0, 0.0, 0.0, 0.0, 0.0, 0.0, 0.0, 0.0, 0.0, 0.0, 0.0, 0.0, 0.0, 0.0, 0.0, 0.0, 0.0, 0.0, 0.0, 0.0, 0.0, 0.0, 0.0, 0.0, 0.0, 0.0, 0.0, 0.0, 0.0, 0.0, 0.0, 0.0, 0.0, 0.0, 0.0, 0.0, 0.0, 0.0, 0.0, 0.0, 0.0, 0.0, 0.0, 0.0, 0.0, 0.0, 0.0, 0.0, 0.0, 0.0, 0.0, 0.0, 0.0, 0.0, 0.0, 0.0, 0.0, 0.0, 0.0, 0.0, 0.0, 0.0, 0.0, 0.0, 0.0, 0.0, 0.0, 0.0, 0.0, 0.0, 0.0, 0.0, 0.0, 0.0, 0.0, 0.0, 0.0, 0.0, 0.0, 0.0, 0.0, 0.0, 0.0, 0.0, 0.0, 0.0, 0.0, 0.0, 0.0, 0.0, 0.0, 0.0, 0.0, 0.0, 0.0, 0.0, 0.0, 0.0, 0.0, 0.0, 0.0, 0.0, 0.0, 0.0, 0.0, 0.0, 0.0, 0.0, 0.0, 0.0, 0.0, 0.0, 0.0, 0.0, 0.0, 0.0, 0.0, 0.0, 0.0, 0.0, 0.0, 0.0, 0.0, 0.0, 0.0, 0.0, 0.0, 0.0, 0.0, 0.0, 0.0, 0.0, 0.0, 0.0, 0.0, 0.0, 0.0, 0.0, 0.0, 0.0, 0.0, 0.0, 0.0, 0.0, 0.0, 0.0, 0.0, 0.0, 0.0, 0.0, 0.0, 0.0, 0.0, 0.0, 0.0, 0.0, 0.0, 0.0, 0.0, 0.0, 0.0, 0.0, 0.0, 0.0, 0.0, 0.0, 0.0, 0.0, 0.0, 0.0, 0.0, 0.0, 0.0, 0.0, 0.0, 0.0, 0.0, 0.0, 0.0, 0.0, 0.0, 0.0, 0.0, 0.0, 0.0, 0.0, 0.0, 0.0, 0.0, 0.0, 0.0, 0.0, 0.0, 0.0, 0.0, 0.0, 0.0, 0.0, 0.0, 0.0, 0.0, 0.0, 0.0, 0.0, 0.0, 0.0, 0.0, 0.0, 0.0, 0.0, 0.0, 0.0, 0.0, 0.0, 0.0, 0.0, 0.0, 0.0, 0.0, 0.0, 0.0, 0.0, 0.0, 0.0, 0.0, 0.0, 0.0, 0.0, 0.0, 0.0, 0.0, 0.0, 0.0, 0.0, 0.0, 0.0, 0.0, 0.0, 0.0, 0.0, 0.0, 0.0, 0.0, 0.0, 0.0, 0.0, 0.0, 0.0, 0.0, 0.0, 0.0, 0.0, 0.0, 0.0, 0.0, 0.0, 0.0, 0.0, 0.0, 0.0, 0.0, 0.0, 0.0, 0.0, 0.0, 0.0, 0.0, 0.0, 0.0, 0.0, 0.0, 0.0, 0.0, 0.0, 0.0, 0.0, 0.0, 0.0, 0.0, 0.0, 0.0, 0.0, 0.0, 0.0, 0.0, 0.0, 0.0, 0.0, 0.0, 0.0, 0.0, 0.0, 0.0, 0.0, 0.0, 0.0, 0.0, 0.0, 0.0, 0.0, 0.0, 0.0, 0.0, 0.0, 0.0, 0.0, 0.0, 0.0, 0.0, 0.0, 0.0, 0.0, 0.0, 0.0, 0.0, 0.0, 0.0, 0.0, 0.0, 0.0, 0.0, 0.0, 0.0, 0.0, 0.0, 0.0, 0.0, 0.0, 0.0, 0.0, 0.0, 0.0, 0.0, 0.0, 0.0, 0.0, 0.0, 0.0, 0.0, 0.0, 0.0, 0.0, 0.0, 0.0, 0.0, 0.0, 0.0, 0.0, 0.0, 0.0, 0.0, 0.0, 0.0, 0.0, 0.0, 0.0, 0.0, 0.0, 0.0, 0.0, 0.0, 0.0, 0.0, 0.0, 0.0, 0.0, 0.0, 0.0, 0.0, 0.0, 0.0, 0.0, 0.0, 0.0, 0.0, 0.0, 0.0, 0.0, 0.0, 0.0, 0.0, 0.0, 0.0, 0.0, 0.0, 0.0, 0.0, 0.0, 0.0, 0.0, 0.0, 0.0, 0.0, 0.0, 0.0, 0.0, 0.0, 0.0, 0.0, 0.0, 0.0, 0.0, 0.0, 0.0, 0.0, 0.0, 0.0, 0.0, 0.0, 0.0, 0.0, 0.0, 0.0, 0.0, 0.0, 0.0, 0.0, 0.0, 0.0, 0.0, 0.0, 0.0, 0.0, 0.0, 0.0, 0.0, 0.0, 0.0, 0.0, 0.0, 0.0, 0.0, 0.0, 0.0, 0.0, 0.0, 0.0, 0.0, 0.0, 0.0, 0.0, 0.0, 0.0, 0.0, 0.0, 0.0, 0.0, 0.0, 0.0, 0.0, 0.0, 0.0, 0.0, 0.0, 0.0, 0.0, 0.0, 0.0, 0.0, 0.0, 0.0, 0.0, 0.0, 0.0, 0.0, 0.0, 0.0, 0.0, 0.0, 0.0, 0.0, 0.0, 0.0, 0.0, 0.0, 0.0, 0.0, 0.0, 0.0, 0.0, 0.0, 0.0, 0.0, 0.0, 0.0, 0.0, 0.0, 0.0, 0.0, 0.0, 0.0, 0.0, 0.0, 0.0, 0.0, 0.0, 0.0, 0.0, 0.0, 0.0, 0.0, 0.0, 0.0, 0.0, 0.0, 0.0, 0.0, 0.0, 0.0, 0.0, 0.0, 0.0, 0.0, 0.0, 0.0, 0.0, 0.0, 0.0, 0.0, 0.0, 0.0, 0.0, 0.0, 0.0, 0.0, 0.0, 0.0, 0.0, 0.0, 0.0, 0.0, 0.0, 0.0, 0.0, 0.0, 0.0, 0.0, 0.0, 0.0, 0.0, 0.0, 0.0, 0.0, 0.0, 0.0, 0.0, 0.0, 0.0, 0.0, 0.0, 0.0, 0.0, 0.0, 0.0, 0.0, 0.0, 0.0, 0.0, 0.0, 0.0, 0.0, 0.0, 0.0, 0.0, 0.0, 0.0, 0.0, 0.0, 0.0, 0.0, 0.0, 0.0, 0.0, 0.0, 0.0, 0.0, 0.0, 0.0, 0.0, 0.0, 0.0, 0.0, 0.0], "w": [-4.4560995850622405, -2.2816597510373446, -4.0, -2.3829045643153526, -0.8796680497925311, -4.396348547717842, -4.0, 5.345062240663901, -7.902572614107884, 1.9956846473029044, -1.6323651452282157, 0.9956846473029045, -5.258921161825726, 4.044315352697096, -8.0, -4.021078838174274, 19.106390041493775, -4.203153526970954, 8.021410788381743, 0.8750207468879668, 2.813112033195021, -2.03402489626556, 5.0, 0.2564315352697095, -6.459917012448133, 3.785726141078838, 6.535435684647303, 2.282489626556017, 5.0, 9.0, 0.0, -5.416763485477178, 3.757510373443983, 1.0, -0.5673029045643154, -9.157178423236514, -2.266058091286307, -2.0, -8.386887966804979, -2.1485477178423236, -9.0, -5.004315352697096, 0.6282157676348548, 4.128796680497925, -0.3420746887966805, 2.272863070539419, 1.2307053941908714, 3.8549377593360994, 2.3292946058091286, -7.815435684647303, -6.919004149377593, -5.0, -1.2335269709543568, -2.501576763485477, 0.6039834024896265, -3.0, -3.0, -0.6436514522821577, 3.5256431535269708, -3.138589211618257, 3.9998340248962654, 2.3263070539419086, -2.756680497925311, 3.0356846473029044, 4.414605809128631, 0.0, -0.3608298755186722, 1.8745228215767635, -0.1566804979253112, 0.42655601659751036, 4.635352697095436, 1.813941908713693, -8.0, -7.209792531120332, -5.0, 6.0, 1.7885477178423237, 3.1865560165975104, 2.4833195020746888, 1.4537759336099585, -3.2670539419087135, -2.0, 4.275850622406639, 1.0703734439834025, 5.770788381742738, 0.021908713692946058, -0.7616597510373444, -0.6320331950207468, 1.0, 0.5814107883817428, -1.0, 3.3926970954356843, -5.0, -1.8471369294605808, -4.687634854771784, -9.0, 12.978755186721992, -2.620082987551867, -2.4496265560165975, -8.500248962655602, 8.314190871369295, -2.763485477178423, 5.344398340248962, 2.667219917012448, 4.076016597510374, -4.0, -7.0, -0.9797510373443984, -3.5521991701244815, -2.9805809128630707, -11.0, -1.0, -1.0, 3.588713692946058, 9.352033195020747, 3.0665560165975103, 1.772780082987552, 0.3663070539419087, -7.232365145228216, 1.0803319502074689, 4.824564315352697, 3.0, 6.107551867219917, 3.2328630705394192, 9.023734439834024, 3.0, 1.4569294605809129, -2.2707053941908715, 0.5550207468879669, 0.9068879668049793, 2.2307053941908714, -1.4879668049792532, 2.0635684647302903, -12.192365145228216, 1.0, 0.8185892116182573, 0.0, -6.2444813278008295, 0.0, 1.6647302904564316, 6.866390041493776, 4.275684647302905, -8.0, -2.3560165975103735, 1.8937759336099584, 0.0, 5.195850622406639, -2.197344398340249, -9.547219917012448, 4.014439834024897, 11.780607735794623, 2.088630705394191, 5.703734439834025, -1.0, -2.0, -5.0, 3.111701244813278, 0.46605809128630704, -4.736265560165975, 4.1616597510373445, -5.27551867219917, -1.4863070539419088, 1.7206639004149378, 3.244840100939851, -2.600331950207469, -7.788879668049793, 0.23336099585062242, -1.8474688796680498, -2.431535269709544, -2.0, -1.1043983402489626, -0.005477178423236473, 0.3097095435684647, 0.24564315352697097, 0.11336099585062241, -0.5975103734439834, -4.919668049792531, 2.8536099585062242, -16.242489626556015, 1.0, 0.0, -12.96564315352697, 6.423900414937759, -1.2356846473029046, -1.0, -4.588879668049793, -4.258589211618257, 1.704896265560166, 0.9842323651452283, 5.704564315352697, -1.1062240663900416, 3.529294605809129, -8.529626556016597, -1.447136929460581, -3.187219917012448, -6.994688796680498, -4.0, 0.27385892116182575, -1.8756846473029045, -1.5857261410788381, -6.341742738589212, -12.21344398340249, 3.0, -11.34539419087137, -0.6559336099585062, 5.0, 2.0, 2.702240663900415, -4.139751037344398, 1.9956846473029044, -1.0, 0.0, -0.29543568464730285, 8.166804979253111, -10.0, 1.6398340248962655, -3.5800829875518674, -0.29493775933609956, -9.253443983402489, 2.489460580912863, -7.090954356846473, 6.238340248962656, -2.147551867219917, 0.0, 6.866390041493776, 0.3996680497925311, 0.4547717842323653, -4.124149377593361, -1.5042323651452283, -4.878838174273859, 0.4058091286307054, -11.037344398340249, 7.394522821576763, 0.8997510373443984, -1.5525311203319503, -2.3898755186721994, 2.67551867219917, -3.162655601659751, 6.203817427385892, -0.9760995850622407, -5.929294605809129, 5.772614107883817, -9.175269709543569, -4.0, 0.0, -5.026721991701245, -1.1485477178423236, -7.519170124481327, -3.0, 10.121327800829876, -0.8859751037344399, 1.0, 5.297925311203319, -1.0, -6.107551867219917, 2.055103734439834, 2.2657261410788383, -1.0, -5.0, 8.704066390041493, -4.572780082987552, -5.31402489626556, 2.6479668049792533, -1.0, -5.525477178423237, -2.848630705394191, 7.31551867219917, -1.0, -0.7332780082987551, 9.683651452282158, 0.0, 2.0, 3.6092946058091284, 6.1419087136929456, -4.0, 5.117344398340249, -1.4851452282157678, -1.1228215767634855, -5.3631535269709545, 3.1671369294605807, -3.3862240663900414, 0.9706224066390041, -4.379585062240664, -0.17643153526970956, -1.4715352697095434, 1.0, -2.917344398340249, -1.5103734439834025, -9.637510373443984, 2.0, 1.0, 6.570622406639004, 0.3377593360995851, 2.0, -4.024896265560166, -1.1772614107883816, -3.774107883817427, 4.2127800829875515, 1.8542738589211618, -2.32896265560166, -3.3691286307053945, -3.5148547717842322, 9.887966804979254, -1.4610788381742739, -2.0, -11.852946058091286, 3.076182572614108, 1.0, 1.0, -2.792033195020747, -1.8336929460580913, 4.0, 8.298921161825726, -1.6003319502074689, 18.843485477178422, -1.0557676348547718, -0.023568464730290506, 0.1930290456431536, 3.648298755186722, 1.0, 3.709709543568465, -0.5105394190871368, -2.3634854771784233, -4.854413011093344, -2.0, -7.0, -0.48448132780082986, 0.0, -0.0947717842323651, 5.979585062240664, -4.638838174273859, -1.0, 1.4111203319502075, -0.44647302904564334, -5.304398340248962, 0.4111203319502075, -2.0, -0.8064730290456432, -6.4579253112033195, 2.0, 8.736265560165975, -4.295435684647303, -0.5047302904564315, -0.14091286307053963, 3.236514522821577, 1.5912033195020747, -0.4745228215767635, 2.4111203319502073, 1.4283817427385892, 2.0, 13.544398340248962, -2.7480497925311203, 9.606639004149377, 2.3107053941908715, -4.70954356846473, 2.036182572614108, 1.0960995850622406, -5.841825726141079, 2.0, -2.0, -6.810788381742738, -9.839336099585061, 1.9956846473029044, 3.2071369294605807, -7.0, -4.638174273858922, 1.0, -0.5120331950207468, 3.0, -3.1012448132780084, 1.3440663900414938, -5.018921161825726, 1.0, 4.626390041493776, -0.6733609958506224, 0.29493775933609956, -3.0, -1.0175933609958505, 0.03253112033195021, 1.0, -5.0, 1.0, 2.0, -1.0, -2.0, -2.0, -3.0, -6.658589211618257, -0.6389773264460411, -7.0751867219917015, -0.1696265560165975, -2.0, 3.0, -13.641659751037345, 3.7204979253112036, -2.976099585062241, -6.805809128630705, -1.0, -6.574605809128631, 0.18456431535269702, 0.0, 5.603983402489627, 1.6795020746887968, 2.785228215767635, 3.550207468879668, -2.9209958506224067, 1.8318672199170125, -5.071203319502075, -3.23551867219917, -7.0, 10.506224066390041, -0.3299585062240664, 6.9702904564315356, -9.038008298755187, 1.1528630705394192, 0.7190041493775934, 1.0376763485477178, -4.480331950207469, -3.7541908713692944, -2.9306224066390043, 4.978755186721992, -2.7873858921161827, 0.8439834024896266, 2.0, 2.7329460580912865, -1.5191701244813278, -0.7128630705394191, -4.895933609958506, -0.32580912863070544, -0.21145228215767634, -3.7809128630705393, -0.784896265560166, -2.9797510373443985, 6.033526970954357, 2.0, 1.7342738589211617, -4.772780082987552, 0.0, 7.117842323651452, -4.0, 19.91850622406639, 1.102240663900415, -2.8809958506224067, 1.527136929460581, 5.0, 0.22605809128630705, -6.0, -2.0, -6.1151867219917015, -2.3775933609958506, 1.8542738589211618, 6.259253112033195, -6.0, 0.0, 8.960663900414938, -1.6511203319502075, 1.0584232365145227, 8.406639004149378, -6.871203319502075, 1.0, -8.93195020746888, -0.24647302904564317, 1.9349377593360997, 2.7619917012448134, 6.0, -2.954688796680498, -1.68448132780083, -5.340580912863071, -4.593029045643154, -1.0, -6.9505394190871375, 1.0, 8.0, -3.9319502074688795, -0.25112033195020755, -5.0, 0.21759336099585058, -6.0, -0.8514522821576763, -2.0, 3.645311203319502, -2.3249792531120335, -2.0, -5.023568464730291, 4.524813278008299, 4.516514522821577, -1.7832365145228215, 5.861908713692946, -3.0, 1.5604979253112035, -4.0, -6.7297925311203315, -4.0, -7.291120331950207, -1.5696265560165976, 1.657759336099585, -1.0175933609958505, -3.6501244813278007, 1.604149377593361, -3.0, -1.68448132780083, 3.0, -3.9868879668049795, 1.0, 0.6680497925311204, 9.19551867219917, -0.7936929460580913, -3.1005809128630704, -10.796514522821576, 0.0, -8.0, -9.0, -5.004315352697096, 1.167136929460581, 7.0, -5.317344398340249, -2.6225726141078836, 0.21659751037344388, 4.126970954356846, -3.0, -3.6703734439834026, 8.486141078838175, 2.0, 6.099751037344398, -0.7820746887966805, -3.500414937759336, -7.835352697095436, 3.1526970954356845, 9.522821576763485, -12.79585062240664, 0.5155186721991701, -3.8914522821576765, 5.453112033195021, 11.457261410788382, -2.079336099585062, 4.031701244813278, 0.14705394190871368, 5.048298755186722, -2.0, -4.732614107883817, -6.339419087136929, 4.640829875518672, -3.4391701244813278, 1.7316182572614107, -4.0, 17.8154356846473, 25.038672199170126, -1.2501244813278007, 2.5405809128630708, 2.0, -2.0, 5.325145228215767, -5.181410788381743, 2.0, 1.1140248962655601, 0.11468879668049792, -7.0, 3.5311203319502074, 1.750207468879668, 9.0, -2.847136929460581, -7.0, -7.048796680497925, 3.0, -1.0, 3.0111203319502073, -5.445311203319502, 3.524149377593361, -3.0, 0.37278008298755183, -5.48448132780083, 2.0, 1.075850622406639, -1.995850622406639, 5.25344398340249, 0.717344398340249, -3.4021576763485477, -3.6635684647302904, -5.0, -4.63253112033195, -1.1824066390041494, 1.0, -1.0, -5.391701244813278, -2.232365145228216, -5.243817427385892, -0.11070539419087133, 2.5955186721991703, 15.059253112033195, 0.9692946058091286, 0.907551867219917, -14.499253112033195, -3.017427385892116, -4.685809128630705, 1.724149377593361, -10.215767634854771, 16.799502074688796, -1.6946058091286307, -9.602821576763485, -3.4635684647302902, 1.386390041493776, -1.0, 2.0, -2.0, -3.8116182572614106, 4.2127800829875515, 0.0, -0.6992531120331951, -2.0, 0.2864730290456432, 0.0, 8.480829875518673, -4.0, 5.338091286307054, 6.0, 3.9764315352697093, -4.0, 3.1737759336099582, 9.0, -2.621908713692946, 5.612448132780083, 0.0, 5.9731120331950205, -1.0350207468879669, -2.6073029045643152, -4.364647302904564, -3.0, 2.0, -6.428547717842323, 2.4398340248962658, 4.280331950207469, -1.7692946058091286, 5.0, -8.847800829875519, 9.991369294605809, 6.805477178423237, 1.0, 3.3624896265560165, 13.781078838174274, -4.52, 0.7644813278008299, 11.117842323651452, -0.6539419087136928, -0.7634854771784232, 6.77908713692946, 3.8745228215767633, -9.0, 5.876182572614108, -6.0, -0.7830705394190871, 2.0, 2.0, -0.8262240663900415, -3.216265560165975, 5.622406639004149, 3.0, -1.5085208949107716, 0.11684647302904572, -2.262240663900415, -4.590041493775933, 1.1654771784232365, -3.7367634854771783, -2.353195020746888, 0.0, -1.0, -6.68298755186722, 9.888132780082987, -2.6164315352697094, -2.0, -0.6844813278008299, 1.0, 0.4969294605809129, 2.0, -9.171618257261411, -8.085643153526972, 18.44033195020747, 0.8615767634854772, 5.447634854771785, 3.581410788381743, -4.0, 7.757510373443983, 6.31551867219917, -2.479170124481328, 5.7840663900414935, -5.80298755186722, -1.3531950207468881, 3.5306224066390044, -3.0, -0.3558506224066389, -1.3273029045643154, -3.155020746887967, -3.1827385892116182, -5.331286307053942, 0.0, -4.012614107883818, 5.890124481327801, 2.8752135449232537, 5.978755186721992, 0.0, 2.0, 3.4703734439834024, 6.48, -1.9676348547717843, -5.209460580912863, -3.242489626556017, -1.3775933609958506, 2.0979253112033196, 2.0, -1.0, 2.213941908713693, -7.920995850622407, -8.0, 13.345726141078838, 4.428879668049793, -3.481825726141079, -1.0, 5.74058091286307, 2.2512863070539417, 2.0, -3.0, 1.627551867219917, 6.378091286307054, 0.22639004149377592, -2.984564315352697, -7.0, -1.2658921161825727, 1.4375103734439834, -1.4999170124481327, 10.851452282157677, -1.8718672199170125, 5.036182572614107, 5.0, -5.0, -6.702240663900415, -3.124149377593361, -0.37311203319502073, -5.586058091286307, -3.5375933609958508, -1.9462240663900414, 5.46240663900415, 0.6416597510373445, 1.5405809128630705, 2.0, -7.143734439834025, 2.8229045643153525, -3.59402489626556, 3.138755186721992, 7.0, 7.501742738589211, 0.0, 9.0, -1.2707053941908715, -5.035020746887967, 5.971618257261411, -7.0, 2.386390041493776, -0.06273858921161835, 11.195684647302905, -5.0, 19.472365145228217, -4.935767634854772, 4.489958506224067, -1.1485477178423236, -1.7349377593360995, -3.783734439834025, -2.07103734439834, -2.421410788381743, -6.510539419087137, -2.138091286307054, 2.808298755186722, -6.510539419087137, -10.0, 0.11535269709543572, -0.31419087136929463, -2.847136929460581, -8.095103734439833, 9.580414937759336, -2.0, -0.6441493775933611, -5.0, -7.1502074688796675, -2.0, 1.9246473029045643, 4.3530290456431535, -9.621908713692946, -0.8544130110933442, 4.984896265560166, -13.19103734439834, 1.3746058091286306, 2.377095435684647, -3.9805809128630707, -4.855767634854772, 13.948547717842324, -1.0, -2.947551867219917, 8.422240663900414, 1.9155186721991702, -6.0, 1.0, 3.3865560165975106, -0.6232365145228216, 0.7983402489626557, 1.6519502074688797, 0.0, 0.45526970954356827, 0.0, -3.0, 4.5025726141078835, 3.178921161825726, -5.26356846473029, 0.34539419087136936, -1.4879668049792532, -1.0, -9.846639004149377, -1.0, 0.8478276528070706, -1.3473858921161825, -1.6703734439834026, -5.387717842323651, 6.335435684647303, 3.080331950207469, 4.18207468879668, 1.335103734439834, -2.2926141078838174, 0.0, -4.0, -0.38838174273858916, 0.007468879668049766, 11.201659751037344, 3.6224066390041494, 0.32033195020746885, -0.6853112033195021, 11.820414937759336, 1.9209958506224067, 9.905228215767634, 0.0, -2.0609128630705396, -0.6559336099585062, -1.0, 1.0, -1.0, -1.7243153526970953, 4.498755186721992, 7.758008298755187, -10.0, -1.190539419087137, 1.0, -3.816265560165975, -0.271701244813278, -7.074356846473028, 7.31551867219917, 6.0, 2.479834024896266, 4.2546058091286305, -3.3717842323651452, -4.002157676348547, -6.007634854771784, -6.101908713692946, -4.202323651452282, 2.223070539419087, -1.386390041493776, 3.0, 5.4537759336099585, -3.351701244813278, 4.0, 0.3136929460580913, 7.114688796680498, -3.0212448132780083, -3.741576763485477, 2.6282157676348548, -3.834688796680498, 3.343402489626556, -2.020414937759336, 5.036182572614107, -2.0, 2.854273858921162, -5.433858921161826, -7.531452282157677, -5.3052282157676345, 3.140414937759336, -3.0, 0.5231535269709544, -5.0, 1.7022406639004148, 3.4899585062240663, -2.9983402489626556, 4.754522821576764, 0.0, 7.0, -3.353195020746888, 7.622738589211618, -2.0, 7.0, -4.27551867219917, 0.45593360995850624, -0.8328630705394191, -7.55402489626556, -7.219253112033195, -0.9151867219917013, 2.7701244813278008, 2.7334439834024895, -1.0, 4.613941908713693, -1.3990041493775933, 5.479834024896266, -3.7873858921161827, 1.0, 0.9824066390041494, -6.519834024896266, 1.498091286307054, -1.9824066390041495, -6.165145228215768, 0.23568464730290456, -1.0, -4.0, 12.199668049792532, 9.790207468879668, 4.622406639004149, -6.614273858921162, 3.125311203319502, -6.0, -1.0, -4.8502904564315354, 3.0, -7.694273858921162, -6.230705394190871, -6.0, -4.0, 3.861908713692946, -2.52, -8.212946058091287, -1.8179253112033193, -5.0, 6.597510373443983, 0.0, 4.06207468879668, 4.117344398340249, -1.663734439834025, -0.3394190871369295, -0.3825726141078838, -2.3802489626556014, 8.29792531120332, 9.423070539419086, 4.441161825726141, -3.0, -11.0, -8.451784232365146, 8.704564315352696, 0.0, -2.0, -2.2195850622406637, 3.0, -7.816265560165975, 0.10323651452282157, 0.15236514522821576, -1.0, -3.0, 1.9329460580912863, -2.620414937759336, 4.350207468879669, 3.8433195020746886, -8.439004149377594, -1.429377593360996, -2.4164315352697097, -4.487966804979253, -2.8866390041493775, -4.88597510373444, -6.27551867219917, 1.3918672199170123, -1.0, 0.15269709543568455, 4.0, 2.111701244813278, -18.895933609958504, -3.0, -10.0, -1.0, -4.0, 4.798174273858921, 1.0, -5.111203319502074, 1.0, 1.2250622406639005, -1.0, 4.975103734439834, -2.372448132780083, -10.63253112033195, -3.600331950207469, 16.852116182572615, 6.660580912863071, 2.979585062240664, 1.004149377593361, -4.021244813278008, -8.197344398340249, 1.0, -2.882655601659751, 0.7968464730290457, 6.085145228215768, 1.2307053941908714, -3.4433195020746887, -7.280331950207469, 2.748215767634855, 0.11468879668049792, -1.2824896265560166, -3.2602489626556017, -3.0, -5.655933609958506, 3.023900414937759, -4.0995850622406635, 7.854273858921162, -2.979585062240664, 5.0, 4.976431535269709, -5.069377593360996, -1.0, -4.0, -3.2209128630705393, -1.0, 6.477178423236515, 12.747053941908714, -2.0, 7.668381742738589, 9.0, 3.8595850622406638, -3.197344398340249, -0.8788381742738589, -1.2257261410788383, -11.621908713692946, -3.0, 3.8333609958506223, 2.6318672199170123, -1.0, 1.3996680497925311, 5.0, 0.9787551867219917, 2.975103734439834, 2.246473029045643, 4.7757676348547715, -0.7872199170124481, 5.604979253112033, 1.5337759336099586, -3.0, -4.0, 0.0, 12.0, -2.0466390041493776, 4.576929460580913, 14.173775933609958, 4.512033195020747, 16.715020746887966, 4.237676348547717, -3.939253112033195, -2.5266390041493776, -2.1618257261410787, 2.0, 2.0, -6.334107883817428, 5.0, -3.5462240663900415, 0.2346887966804979, 1.0, -1.0, 8.30804979253112, 5.9050622406639, 3.2141078838174275, 1.884813278008299, -9.10655601659751, -3.88597510373444, 0.0, -0.8413278008298756, -2.0, 4.57643153526971, 1.6896265560165975, -8.171452282157677, -0.3331120331950208, -4.211452282157676, 9.15286307053942, -1.8889626556016597, 1.0, -8.758340248962655, -5.0, -3.0126141078838176, -1.1156846473029045, -5.0, -1.68448132780083, 0.8979253112033195, -3.4537759336099585, -3.0, -2.0, 1.686804979253112, 1.7575103734439834, 1.0091286307053942, 6.286639004149378, 2.0, -3.7098755186721992, 3.412116182572614, -12.115186721991702, -6.0, -16.0, -4.620580912863071, -2.353195020746888, -1.9196680497925311, 0.5155186721991701, 5.0, -8.17643153526971, 1.0, -1.9420746887966804, -1.1332780082987552, -1.3103734439834025, -6.0, -8.885311203319501, 1.2871369294605808, 1.0, 1.5578423236514523, -1.995850622406639, -6.197344398340249, -2.0, 1.6721991701244814, -7.0, 4.0, -2.8129460580912866, 0.28730290456431534, 1.7269709543568466, -3.7805809128630705, -7.885311203319502, 8.55136929460581, 0.0, -1.6710373443983402, -6.0, -4.261576763485477, -4.316182572614108, -3.1370954356846474, 4.143734439834025, 12.841991701244813, 7.423734439834025, -2.572780082987552, -4.145726141078838, -6.4149377593361, -0.573941908713693, 0.8235684647302904, 4.835020746887967, 0.0, 9.335767634854772, -3.0, 0.10755186721991716, 2.88448132780083, -5.169792531120332, -4.910705394190871, 4.59701244813278, 0.5392799349647471, -7.718008298755187, -2.27551867219917, 3.0, -4.249626556016597, 26.41311203319502, -3.1998072019647132, -2.0, -1.68448132780083, 8.118672199170124, -2.0, -2.8333609958506223, 3.0, -4.0, -3.0, 0.0, -7.295435684647303, -4.211120331950207, -2.576265560165975, 2.784066390041494, 7.0, 7.012780082987552, 0.9699585062240664, -7.746224066390042, -3.1782572614107885, -10.63817427385892, -1.8882987551867219, -5.269045643153527, 0.7624896265560166, 1.1930290456431536, -2.8853112033195023, 4.0, 1.0, 6.341410788381743, -2.1669709543568465, -2.0, 1.0160995850622407, 2.621576763485477, -0.6796680497925309, 4.373775933609958, -5.327136929460581, -2.0, -2.3634854771784233, -4.569792531120332, 4.478174273858921, 0.4046473029045643, -6.86655601659751, 2.0, 0.004647302904564316, 0.0, -5.010290456431536, 3.239336099585062, 5.853609958506224, 2.405311203319502, 3.0, -2.464896265560166, -2.9253112033195023, -3.0, -1.215435684647303, -0.7842323651452282, -5.0, -2.806804979253112, 1.328630705394191, 5.770788381742738, -0.5800829875518673, 4.117842323651452, -1.0, -6.678008298755187, 6.378589211618257, -0.042157676348547723, -4.229211618257262, -3.510539419087137, 24.3050622406639, -10.572116182572614, -0.6371784232365143, 1.4685477178423236, -5.92448132780083, -0.6043153526970955, 6.217593360995851, 2.762157676348548, 0.6224066390041494, 3.220082987551867, 0.4481327800829875, 2.0848132780082986, 4.299419087136929, 1.6074688796680499, -0.7369294605809129, -6.471867219917012, 4.0, 4.755850622406639, -7.0, 1.0, -5.239834024896266, -2.987883817427386, 1.6328630705394191, 2.0, 6.23103734439834, -10.85941908713693, -2.2117842323651455, 4.0, 3.4922821576763488, 1.1095435684647303, 3.8092946058091286, -0.03634854771784224, 0.0, -9.583900414937759, -2.7098755186721992, 1.3263070539419086, -3.932780082987552, 4.0, 0.0, -5.0, 4.724342175628648, -1.5296265560165976, -7.807966804979253, 2.4404979253112034, -2.571618257261411, -1.0, 0.3603319502074689, -4.0, 2.793195020746888, 5.414107883817428, -0.21958506224066388, 4.261244813278008, -1.0350207468879669, 6.639502074688797, -1.6365145228215767, 0.8632365145228216, -1.7643153526970954, -1.5110373443983403, 7.0, -3.0, -3.873526970954357, 3.5956846473029045, 3.0, 4.0, -2.1148547717842323, 0.0, 2.2639004149377593, -7.735601659751037, 3.0, 5.0, -4.2707053941908715, 2.0, 1.0361825726141078, 0.17360995850622407, 2.480829875518672, 1.0, -2.8715352697095433, 7.969294605809129, -2.311369294605809, 2.0194190871369293, 2.3774273858921164, 0.5405809128630705, 3.5948547717842323, 0.0, -5.138091286307054, 6.0, 0.0, 3.0, -7.0, 9.627551867219918, -8.0, -2.8179253112033193, -5.553526970954357, -0.25394190871369293, -5.064398340248963, 0.5566804979253113, -0.20979253112033192, -6.78655601659751, 9.16713692946058, -0.43701244813277995, 1.0, -1.0, -4.0, -9.984564315352698, 7.137593360995851, -0.569792531120332, 2.5040663900414937, 4.524647302904564, 1.5492116182572615, -0.4504564315352697, -5.251784232365146, 4.754522821576764, 6.707883817427386, -0.2175933609958506, 6.0, -4.0, -3.0, 5.0, -0.9692946058091286, 5.066224066390041, 1.3624896265560165, -2.0, -10.621908713692946, 4.160165975103735, 1.3624896265560165, 1.0, -7.879834024896265, 2.3732780082987555, 1.88, 8.516016597510374, 0.9882157676348547, 0.34506224066390045, -3.9131950207468877, -8.45941908713693, 4.996348547717842, -3.311701244813278, -4.51701244813278, 2.0, 8.0, 1.0, 8.674190871369294, -2.5586721991701245, -7.227219917012448, -5.76597510373444, -2.5867219917012445, -0.6046473029045643, -2.0, 0.03236514522821577, -9.257759336099586, 3.6209128630705396, -9.368298755186721, -11.020414937759336, -2.9103734439834024, 5.251286307053942, 0.08033195020746886, -4.0, -4.219585062240664, -5.567800829875519, -3.779917012448133, 4.945394190871369, -5.363485477178424, -2.0, -3.510539419087137, 6.748215767634854, -9.07286307053942, -5.965145228215768, -5.832033195020747, -5.0, -4.88597510373444, 3.0, 5.48, -3.5493775933609957, 1.0, -2.889128630705394, 2.2144398340248963, -6.151701244813278, 2.0, -8.643153526970954, -1.8081327800829876, 8.763817427385892, 7.480829875518673, -4.903734439834025, -2.0, 25.228879668049792, -1.0, 3.0, -1.0, -3.027551867219917, 0.3253112033195021, -2.0, 8.85045643153527, 1.7674688796680498, -6.842157676348548, 3.905560165975104, -1.1566804979253111, -1.0, -2.600331950207469, 3.982572614107884, 7.842821576763486, -1.1551867219917011, -1.393526970954357, 3.6956016597510373, -5.77792531120332, -3.0, -6.6023236514522825, -3.242489626556017, -2.147551867219917, 4.909377593360996, -5.0, 2.6008298755186723, 5.369294605809129, -4.670207468879668, -5.1681327800829875, -7.0, -6.101410788381743, 1.0, 0.6521161825726141, 0.8542738589211618, 1.2514522821576763, 0.285643153526971, -2.0, 1.0, -2.1530290456431533, 0.24398340248962658, 0.7389211618257265, 5.199502074688796, -1.0, 12.621410788381743, 1.7316182572614107, 1.0, -5.0, -2.9319502074688795, 1.4360165975103731, 7.982406639004149, 2.609460580912863, -4.210290456431535, -7.35402489626556, -1.0, -6.1151867219917015, -0.869045643153527, 11.857427385892116, -0.1928630705394191, -2.847136929460581, 0.0, 2.000995850622407, -1.1883817427385892, 1.090124481327801, -5.0, -6.1349377593361, -2.193195020746888, -2.3634854771784233, -1.4886307053941907, 3.613609958506224, 2.5420746887966805, -6.667053941908714, 3.0, 2.6134439834024894, 2.0, 4.978755186721992, 2.0, -2.2574273858921163, -3.0889626556016596, -1.590539419087137, -1.621908713692946, -4.0, 1.5299585062240664, -0.5824066390041494, -2.2378423236514524, -5.398008298755187, 2.0, 10.030373443983402, -8.621908713692946, 1.0, 0.4975933609958507, -2.7432365145228212, 2.9239834024896263, 5.893775933609959, -1.40149377593361, -11.36746887966805, -8.0, 4.787385892116182, -0.9795850622406639, -3.326970954356846, -1.6736929460580914, -0.8449792531120331, 0.4703734439834025, 3.0, -1.5716182572614108, 2.0, -3.9613278008298756, 4.004647302904564, -6.024896265560166, -4.673692946058091, -1.0, -0.3047302904564315, -2.197344398340249, 5.013775933609958, -2.0, 3.0, 5.2169294605809124, 0.21443983402489628, -7.0, -2.394688796680498, 1.0, -0.7243153526970955, -5.01941908713693, 2.372116182572614, 4.8848132780082985, 2.287136929460581, -5.4537759336099585, 0.8848132780082988, -2.0, -7.932282157676348, -6.933775933609959, -6.23551867219917, -3.784232365145228, -0.6004979253112033, -3.2712033195020744, 6.069377593360996, 4.368796680497925, -3.5458921161825727, -2.0, -1.0, -3.1254771784232367, -0.9125311203319502, -2.1814107883817426, -10.930622406639005, -3.5933609958506225, 18.515684647302905, 9.789709543568465, 0.808298755186722, 4.0936099585062244, -11.784232365145229, 4.0, -5.487966804979253, -0.7243153526970955, -2.847136929460581, 1.2677178423236515, 2.4537759336099585, -2.4371784232365146, -3.0, 3.273692946058091, -1.8474688796680498, 3.909875518672199, -2.4653941908713692, -2.0, -0.15485477178423238, 0.8730290456431535, 2.0, 3.352365145228216, 2.5782572614107884, 5.760497925311204, -1.3278008298755186, -1.0, 3.0, 2.606307053941909, -2.242489626556017, -6.0668879668049795, 2.0, -3.0, -1.9530290456431536, 1.0, -1.367966804979253, -4.0, 2.0, 2.6665560165975104, -2.20746887966805, 0.3863900414937759, -0.01975103734439834, -5.0, -6.0, 2.286639004149378, 1.1820746887966807, 4.368298755186722, -11.984564315352698, -1.879668049792531, 0.0, -0.0350207468879668, -4.709875518672199, -1.0, -13.641991701244812, 4.0, -2.0043153526970956, -2.0, 2.7671369294605808, 0.28282157676348546, -4.039170124481328, 0.3749377593360996, 2.8092946058091286, 0.0464730290456431, 2.3273029045643154, 3.3603319502074687, 2.9696265560165975, -2.4013278008298755, -2.274356846473029, 7.9188381742738585, 1.313195020746888, 1.0, -1.4851452282157676, -9.14804979253112, 1.5687966804979254, -1.6733609958506224, -0.2355186721991701, -3.7487136929460583, -6.390705394190872, -3.782904564315353, 0.42854771784232365, 13.623402489626557, 0.3603319502074689, 1.6059751037344399, 5.034854771784232, -4.0, -3.2725311203319505, -5.294771784232365, -2.232365145228216, -0.18605809128630704, -0.667551867219917, 0.0, -12.963817427385893, 4.057593360995851, 6.990871369294606, -3.0190871369294605, -0.7196680497925312, -5.524315352697095, 12.480829875518673, -1.1062240663900416, -2.8557676348547716, 2.870539419087137, -7.764315352697095, -0.8220746887966806, 1.0, 5.6828215767634855, 2.2700414937759334, 6.7998608478278175, 3.287136929460581, -5.996182572614108, 3.6092946058091284, 1.8960995850622406, 4.44746887966805, 1.0, 2.0, -4.665560165975104, 4.803983402489626, 12.13344398340249, 1.9666390041493775, -6.187717842323652, -4.835186721991701, 2.0, 4.0, -6.327800829875518, -6.614273858921162, 0.0, 3.7545228215767636, -2.9805809128630707, -0.7067219917012448, -0.08116182572614108, 2.0, 0.8745228215767635, 3.8536099585062242, 1.8282157676348547, -2.209792531120332, -3.0, 7.0, 4.0, -6.769294605809129, -4.62390041493776, -1.0, -0.31784232365145226, -0.9868879668049793, -5.6373443983402485, 1.0312033195020747, -4.622572614107884, -2.5873858921161825, 2.0, -6.100248962655602, -1.123319502074689, 0.1287966804979253, -1.699253112033195, -4.1151867219917015, -7.719668049792531, 2.258091286307054, -6.0, 1.9563485477178424, -1.0, 0.21261410788381743, -3.909875518672199, 4.4441493775933605, -0.14639004149377594, 3.6390041493775933, 6.798672199170125, 2.6217427385892114, -4.29045643153527, 3.6222406639004148, -10.959834024896265, 2.0, 0.307551867219917, 3.0, 0.15103734439834016, 1.7596680497925312, 1.0, -5.149045643153527, -5.242489626556017, -3.076846473029046, -5.0, 4.1502074688796675, 3.76448132780083, -1.9520331950207468, 11.480829875518673, -5.0, 12.0, 2.574273858921162, 0.23452282157676352, 8.966639004149378, 1.0, -0.6009958506224067, -1.1829045643153526, 7.572614107883817, 3.0, -1.924149377593361, 7.097095435684647, 6.448132780082988, 4.287800829875518, -1.0, 1.099253112033195, 6.15253112033195, -9.432033195020747, 3.0, 2.0202489626556015, -3.098921161825726, 1.0, 0.3603319502074689, 6.686639004149377, -6.438838174273859, 18.80896265560166, -1.9196680497925311, 6.780414937759336, 1.8730290456431535, 0.0, -6.320663900414938, 7.6009958506224065, 1.5827385892116181, 2.342738589211618, -0.8162655601659751, -4.126970954356846, 1.9787551867219917, 0.9266390041493775, -1.9797510373443985, -2.0, -2.8607468879668048, 4.207800829875518, -1.0, -1.0, 3.2172614107883817, 6.674854771784233, -1.4843153526970954, -3.4117842323651453, -2.980746887966805, 0.15834024896265553, 5.098755186721991, -0.96, 2.235186721991701, -0.2901244813278008, 0.8597510373443984, -0.8974273858921162, 0.0, -5.417261410788382, 1.6159336099585062, 3.6282157676348548, 2.331120331950207, -6.410622406639004, -2.7367634854771783, 2.334273858921162, -4.27551867219917, -8.0, 0.0, -4.0, 3.9787551867219917, -0.46439834024896265, 2.1541908713692948, 0.17330483123030732, 0.0, -0.8708713692946058, -11.0, 2.0, -2.232365145228216, 1.0, -11.597510373443983, -5.689460580912863, 3.742240663900415, 7.0, 6.688298755186722, -1.0, -4.0, 8.129128630705393, -1.1266390041493777, 16.972448132780084, -3.6458091286307055, 5.48, -4.473692946058091, 0.3674688796680498, -2.0776763485477177, 1.0, -4.808464730290456, -1.3837344398340248, -4.3107053941908715, -3.1681327800829875, -3.919668049792531, -11.0, 3.0, 3.6224066390041494, 5.0328630705394195, -1.0421576763485478, -4.185726141078838, 3.3150207468879667, 7.652614107883817, -2.5462240663900415, 1.5953526970954357, 8.0, -3.035020746887967, 2.1737759336099582, 0.5155186721991701, 4.080331950207469, -2.341244813278008, 0.580746887966805, -8.984564315352698, 12.26207468879668, -4.0, -1.9638174273858922, -2.4927800829875517, -4.0, 0.0, 0.3073858921161825, 2.9375933609958507, -4.070539419087137, -3.0, 4.385726141078838, -2.0, 4.0, -2.365311203319502, -1.2273858921161827, -0.7616597510373444, -4.0, 0.9824066390041494, 7.0, -4.8479668049792535, 2.0428215767634854, 1.0, -3.0, -2.6585892116182572, 4.152863070539419, -0.19734439834024897, -1.0, -0.8911203319502075, -2.20448132780083, 1.0, 0.0, -1.9591701244813278, 0.0, -4.0, 0.6439834024896265, 2.0, -3.0, 6.0, -3.052448132780083, 5.234522821576763, -4.240829875518672, -0.9171784232365146, 5.722157676348548, 5.0, 3.145586988906656, -2.155850622406639, -4.2660580912863075, -9.0, -5.0, 3.7273029045643153, 3.8557676348547716, -1.2469709543568466, -6.0, -6.0, -2.2195850622406637, 2.1756016597510373, 1.8677178423236516, 0.013775933609958546, 9.409460580912864, -1.7128630705394192, -6.318838174273859, -0.2355186721991701, 4.455435684647303, 3.0219087136929463, 6.879336099585062, -7.38954356846473, -0.3571784232365145, -4.0, -4.885311203319502, -5.5103734439834025, -1.0250622406639005, -2.95551867219917, -2.0836514522821576, 7.0, -6.719668049792531, -3.157344398340249, 8.299917012448132, -1.3394190871369296, 0.7900414937759337, -0.8544130110933442, -1.0, -3.378091286307054, 0.24481327800829875, -3.7188381742738588, -1.3634854771784233, 7.170788381742739, -1.0, 1.7661410788381744, 1.6224066390041494, 0.773609958506224, 8.566141078838175, -2.386390041493776, -5.459419087136929, -0.9415767634854771, 4.0, 0.03983402489626556, 5.008796680497925, -5.52, 0.0, 3.0, 2.5009128630705395, -1.9797510373443985, -2.719668049792531, -0.9965145228215767, 13.097759336099585, -7.0, -3.055435684647303, -1.372448132780083, -4.068879668049792, -1.2159336099585063, -1.9093775933609958, -4.655933609958506, 9.020248962655602, -5.157344398340249, -3.7609958506224066, 0.31468879668049793, -0.7765975103734439, 4.004315352697096, 0.2597510373443983, 2.0, -4.8723651452282155, 1.0348547717842325, 0.627551867219917, -5.0, 4.6892946058091285, 11.066556016597511, 4.0, -3.634688796680498, -3.2841493775933612, -2.703070539419087, 3.0, 2.622738589211618, 3.63402489626556, -0.01892116182572612, 3.455103734439834, -0.3019087136929461, -4.017427385892116, 5.0, 2.097593360995851, -2.0, -4.0, -0.14854771784232368, -5.788381742738589, 4.046141078838175, 0.22008298755186717, 7.0, -5.209792531120332, -4.024896265560166, 6.149875518672199, -2.209792531120332, 12.1797510373444, -3.4743568464730292, -0.7342738589211619, 15.536763485477179]}, "Theater": {"count_avg": 1.0, "b": -12.66225186360556, "beta_avg": 0.0, "u_avg": [0.0, 0.0, 0.0, 0.0, 0.0, 0.0, 0.0, 0.0, 0.0, 0.0, 0.0, 0.0, 0.0, 0.0, 0.0, 0.0, 0.0, 0.0, 0.0, 0.0, 0.0, 0.0, 0.0, 0.0, 0.0, 0.0, 0.0, 0.0, 0.0, 0.0, 0.0, 0.0, 0.0, 0.0, 0.0, 0.0, 0.0, 0.0, 0.0, 0.0, 0.0, 0.0, 0.0, 0.0, 0.0, 0.0, 0.0, 0.0, 0.0, 0.0, 0.0, 0.0, 0.0, 0.0, 0.0, 0.0, 0.0, 0.0, 0.0, 0.0, 0.0, 0.0, 0.0, 0.0, 0.0, 0.0, 0.0, 0.0, 0.0, 0.0, 0.0, 0.0, 0.0, 0.0, 0.0, 0.0, 0.0, 0.0, 0.0, 0.0, 0.0, 0.0, 0.0, 0.0, 0.0, 0.0, 0.0, 0.0, 0.0, 0.0, 0.0, 0.0, 0.0, 0.0, 0.0, 0.0, 0.0, 0.0, 0.0, 0.0, 0.0, 0.0, 0.0, 0.0, 0.0, 0.0, 0.0, 0.0, 0.0, 0.0, 0.0, 0.0, 0.0, 0.0, 0.0, 0.0, 0.0, 0.0, 0.0, 0.0, 0.0, 0.0, 0.0, 0.0, 0.0, 0.0, 0.0, 0.0, 0.0, 0.0, 0.0, 0.0, 0.0, 0.0, 0.0, 0.0, 0.0, 0.0, 0.0, 0.0, 0.0, 0.0, 0.0, 0.0, 0.0, 0.0, 0.0, 0.0, 0.0, 0.0, 0.0, 0.0, 0.0, 0.0, 0.0, 0.0, 0.0, 0.0, 0.0, 0.0, 0.0, 0.0, 0.0, 0.0, 0.0, 0.0, 0.0, 0.0, 0.0, 0.0, 0.0, 0.0, 0.0, 0.0, 0.0, 0.0, 0.0, 0.0, 0.0, 0.0, 0.0, 0.0, 0.0, 0.0, 0.0, 0.0, 0.0, 0.0, 0.0, 0.0, 0.0, 0.0, 0.0, 0.0, 0.0, 0.0, 0.0, 0.0, 0.0, 0.0, 0.0, 0.0, 0.0, 0.0, 0.0, 0.0, 0.0, 0.0, 0.0, 0.0, 0.0, 0.0, 0.0, 0.0, 0.0, 0.0, 0.0, 0.0, 0.0, 0.0, 0.0, 0.0, 0.0, 0.0, 0.0, 0.0, 0.0, 0.0, 0.0, 0.0, 0.0, 0.0, 0.0, 0.0, 0.0, 0.0, 0.0, 0.0, 0.0, 0.0, 0.0, 0.0, 0.0, 0.0, 0.0, 0.0, 0.0, 0.0, 0.0, 0.0, 0.0, 0.0, 0.0, 0.0, 0.0, 0.0, 0.0, 0.0, 0.0, 0.0, 0.0, 0.0, 0.0, 0.0, 0.0, 0.0, 0.0, 0.0, 0.0, 0.0, 0.0, 0.0, 0.0, 0.0, 0.0, 0.0, 0.0, 0.0, 0.0, 0.0, 0.0, 0.0, 0.0, 0.0, 0.0, 0.0, 0.0, 0.0, 0.0, 0.0, 0.0, 0.0, 0.0, 0.0, 0.0, 0.0, 0.0, 0.0, 0.0, 0.0, 0.0, 0.0, 0.0, 0.0, 0.0, 0.0, 0.0, 0.0, 0.0, 0.0, 0.0, 0.0, 0.0, 0.0, 0.0, 0.0, 0.0, 0.0, 0.0, 0.0, 0.0, 0.0, 0.0, 0.0, 0.0, 0.0, 0.0, 0.0, 0.0, 0.0, 0.0, 0.0, 0.0, 0.0, 0.0, 0.0, 0.0, 0.0, 0.0, 0.0, 0.0, 0.0, 0.0, 0.0, 0.0, 0.0, 0.0, 0.0, 0.0, 0.0, 0.0, 0.0, 0.0, 0.0, 0.0, 0.0, 0.0, 0.0, 0.0, 0.0, 0.0, 0.0, 0.0, 0.0, 0.0, 0.0, 0.0, 0.0, 0.0, 0.0, 0.0, 0.0, 0.0, 0.0, 0.0, 0.0, 0.0, 0.0, 0.0, 0.0, 0.0, 0.0, 0.0, 0.0, 0.0, 0.0, 0.0, 0.0, 0.0, 0.0, 0.0, 0.0, 0.0, 0.0, 0.0, 0.0, 0.0, 0.0, 0.0, 0.0, 0.0, 0.0, 0.0, 0.0, 0.0, 0.0, 0.0, 0.0, 0.0, 0.0, 0.0, 0.0, 0.0, 0.0, 0.0, 0.0, 0.0, 0.0, 0.0, 0.0, 0.0, 0.0, 0.0, 0.0, 0.0, 0.0, 0.0, 0.0, 0.0, 0.0, 0.0, 0.0, 0.0, 0.0, 0.0, 0.0, 0.0, 0.0, 0.0, 0.0, 0.0, 0.0, 0.0, 0.0, 0.0, 0.0, 0.0, 0.0, 0.0, 0.0, 0.0, 0.0, 0.0, 0.0, 0.0, 0.0, 0.0, 0.0, 0.0, 0.0, 0.0, 0.0, 0.0, 0.0, 0.0, 0.0, 0.0, 0.0, 0.0, 0.0, 0.0, 0.0, 0.0, 0.0, 0.0, 0.0, 0.0, 0.0, 0.0, 0.0, 0.0, 0.0, 0.0, 0.0, 0.0, 0.0, 0.0, 0.0, 0.0, 0.0, 0.0, 0.0, 0.0, 0.0, 0.0, 0.0, 0.0, 0.0, 0.0, 0.0, 0.0, 0.0, 0.0, 0.0, 0.0, 0.0, 0.0, 0.0, 0.0, 0.0, 0.0, 0.0, 0.0, 0.0, 0.0, 0.0, 0.0, 0.0, 0.0, 0.0, 0.0, 0.0, 0.0, 0.0, 0.0, 0.0, 0.0, 0.0, 0.0, 0.0, 0.0, 0.0, 0.0, 0.0, 0.0, 0.0, 0.0, 0.0, 0.0, 0.0, 0.0, 0.0, 0.0, 0.0, 0.0, 0.0, 0.0, 0.0, 0.0, 0.0, 0.0, 0.0, 0.0, 0.0, 0.0, 0.0, 0.0, 0.0, 0.0, 0.0, 0.0, 0.0, 0.0, 0.0, 0.0, 0.0, 0.0, 0.0, 0.0, 0.0, 0.0, 0.0, 0.0, 0.0, 0.0, 0.0, 0.0, 0.0, 0.0, 0.0, 0.0, 0.0, 0.0, 0.0, 0.0, 0.0, 0.0, 0.0, 0.0, 0.0, 0.0, 0.0, 0.0, 0.0, 0.0, 0.0, 0.0, 0.0, 0.0, 0.0, 0.0, 0.0, 0.0, 0.0, 0.0, 0.0, 0.0, 0.0, 0.0, 0.0, 0.0, 0.0, 0.0, 0.0, 0.0, 0.0, 0.0, 0.0, 0.0, 0.0, 0.0, 0.0, 0.0, 0.0, 0.0, 0.0, 0.0, 0.0, 0.0, 0.0, 0.0, 0.0, 0.0, 0.0, 0.0, 0.0, 0.0, 0.0, 0.0, 0.0, 0.0, 0.0, 0.0, 0.0, 0.0, 0.0, 0.0, 0.0, 0.0, 0.0, 0.0, 0.0, 0.0, 0.0, 0.0, 0.0, 0.0, 0.0, 0.0, 0.0, 0.0, 0.0, 0.0, 0.0, 0.0, 0.0, 0.0, 0.0, 0.0, 0.0, 0.0, 0.0, 0.0, 0.0, 0.0, 0.0, 0.0, 0.0, 0.0, 0.0, 0.0, 0.0, 0.0, 0.0, 0.0, 0.0, 0.0, 0.0, 0.0, 0.0, 0.0, 0.0, 0.0, 0.0, 0.0, 0.0, 0.0, 0.0, 0.0, 0.0, 0.0, 0.0, 0.0, 0.0, 0.0, 0.0, 0.0, 0.0, 0.0, 0.0, 0.0, 0.0, 0.0, 0.0, 0.0, 0.0, 0.0, 0.0, 0.0, 0.0, 0.0, 0.0, 0.0, 0.0, 0.0, 0.0, 0.0, 0.0, 0.0, 0.0, 0.0, 0.0, 0.0, 0.0, 0.0, 0.0, 0.0, 0.0, 0.0, 0.0, 0.0, 0.0, 0.0, 0.0, 0.0, 0.0, 0.0, 0.0, 0.0, 0.0, 0.0, 0.0, 0.0, 0.0, 0.0, 0.0, 0.0, 0.0, 0.0, 0.0, 0.0, 0.0, 0.0, 0.0, 0.0, 0.0, 0.0, 0.0, 0.0, 0.0, 0.0, 0.0, 0.0, 0.0, 0.0, 0.0, 0.0, 0.0, 0.0, 0.0, 0.0, 0.0, 0.0, 0.0, 0.0, 0.0, 0.0, 0.0, 0.0, 0.0, 0.0, 0.0, 0.0, 0.0, 0.0, 0.0, 0.0, 0.0, 0.0, 0.0, 0.0, 0.0, 0.0, 0.0, 0.0, 0.0, 0.0, 0.0, 0.0, 0.0, 0.0, 0.0, 0.0, 0.0, 0.0, 0.0, 0.0, 0.0, 0.0, 0.0, 0.0, 0.0, 0.0, 0.0, 0.0, 0.0, 0.0, 0.0, 0.0, 0.0, 0.0, 0.0, 0.0, 0.0, 0.0, 0.0, 0.0, 0.0, 0.0, 0.0, 0.0, 0.0, 0.0, 0.0, 0.0, 0.0, 0.0, 0.0, 0.0, 0.0, 0.0, 0.0, 0.0, 0.0, 0.0, 0.0, 0.0, 0.0, 0.0, 0.0, 0.0, 0.0, 0.0, 0.0, 0.0, 0.0, 0.0, 0.0, 0.0, 0.0, 0.0, 0.0, 0.0, 0.0, 0.0, 0.0, 0.0, 0.0, 0.0, 0.0, 0.0, 0.0, 0.0, 0.0, 0.0, 0.0, 0.0, 0.0, 0.0, 0.0, 0.0, 0.0, 0.0, 0.0, 0.0, 0.0, 0.0, 0.0, 0.0, 0.0, 0.0, 0.0, 0.0, 0.0, 0.0, 0.0, 0.0, 0.0, 0.0, 0.0, 0.0, 0.0, 0.0, 0.0, 0.0, 0.0, 0.0, 0.0, 0.0, 0.0, 0.0, 0.0, 0.0, 0.0, 0.0, 0.0, 0.0, 0.0, 0.0, 0.0, 0.0, 0.0, 0.0, 0.0, 0.0, 0.0, 0.0, 0.0, 0.0, 0.0, 0.0, 0.0, 0.0, 0.0, 0.0, 0.0, 0.0, 0.0, 0.0, 0.0, 0.0, 0.0, 0.0, 0.0, 0.0, 0.0, 0.0, 0.0, 0.0, 0.0, 0.0, 0.0, 0.0, 0.0, 0.0, 0.0, 0.0, 0.0, 0.0, 0.0, 0.0, 0.0, 0.0, 0.0, 0.0, 0.0, 0.0, 0.0, 0.0, 0.0, 0.0, 0.0, 0.0, 0.0, 0.0, 0.0, 0.0, 0.0, 0.0, 0.0, 0.0, 0.0, 0.0, 0.0, 0.0, 0.0, 0.0, 0.0, 0.0, 0.0, 0.0, 0.0, 0.0, 0.0, 0.0, 0.0, 0.0, 0.0, 0.0, 0.0, 0.0, 0.0, 0.0, 0.0, 0.0, 0.0, 0.0, 0.0, 0.0, 0.0, 0.0, 0.0, 0.0, 0.0, 0.0, 0.0, 0.0, 0.0, 0.0, 0.0, 0.0, 0.0, 0.0, 0.0, 0.0, 0.0, 0.0, 0.0, 0.0, 0.0, 0.0, 0.0, 0.0, 0.0, 0.0, 0.0, 0.0, 0.0, 0.0, 0.0, 0.0, 0.0, 0.0, 0.0, 0.0, 0.0, 0.0, 0.0, 0.0, 0.0, 0.0, 0.0, 0.0, 0.0, 0.0, 0.0, 0.0, 0.0, 0.0, 0.0, 0.0, 0.0, 0.0, 0.0, 0.0, 0.0, 0.0, 0.0, 0.0, 0.0, 0.0, 0.0, 0.0, 0.0, 0.0, 0.0, 0.0, 0.0, 0.0, 0.0, 0.0, 0.0, 0.0, 0.0, 0.0, 0.0, 0.0, 0.0, 0.0, 0.0, 0.0, 0.0, 0.0, 0.0, 0.0, 0.0, 0.0, 0.0, 0.0, 0.0, 0.0, 0.0, 0.0, 0.0, 0.0, 0.0, 0.0, 0.0, 0.0, 0.0, 0.0, 0.0, 0.0, 0.0, 0.0, 0.0, 0.0, 0.0, 0.0, 0.0, 0.0, 0.0, 0.0, 0.0, 0.0, 0.0, 0.0, 0.0, 0.0, 0.0, 0.0, 0.0, 0.0, 0.0, 0.0, 0.0, 0.0, 0.0, 0.0, 0.0, 0.0, 0.0, 0.0, 0.0, 0.0, 0.0, 0.0, 0.0, 0.0, 0.0, 0.0, 0.0, 0.0, 0.0, 0.0, 0.0, 0.0, 0.0, 0.0, 0.0, 0.0, 0.0, 0.0, 0.0, 0.0, 0.0, 0.0, 0.0, 0.0, 0.0, 0.0, 0.0, 0.0, 0.0, 0.0, 0.0, 0.0, 0.0, 0.0, 0.0, 0.0, 0.0, 0.0, 0.0, 0.0, 0.0, 0.0, 0.0, 0.0, 0.0, 0.0, 0.0, 0.0, 0.0, 0.0, 0.0, 0.0, 0.0, 0.0, 0.0, 0.0, 0.0, 0.0, 0.0, 0.0, 0.0, 0.0, 0.0, 0.0, 0.0, 0.0, 0.0, 0.0, 0.0, 0.0, 0.0, 0.0, 0.0, 0.0, 0.0, 0.0, 0.0, 0.0, 0.0, 0.0, 0.0, 0.0, 0.0, 0.0, 0.0, 0.0, 0.0, 0.0, 0.0, 0.0, 0.0, 0.0, 0.0, 0.0, 0.0, 0.0, 0.0, 0.0, 0.0, 0.0, 0.0, 0.0, 0.0, 0.0, 0.0, 0.0, 0.0, 0.0, 0.0, 0.0, 0.0, 0.0, 0.0, 0.0, 0.0, 0.0, 0.0, 0.0, 0.0, 0.0, 0.0, 0.0, 0.0, 0.0, 0.0, 0.0, 0.0, 0.0, 0.0, 0.0, 0.0, 0.0, 0.0, 0.0, 0.0, 0.0, 0.0, 0.0, 0.0, 0.0, 0.0, 0.0, 0.0, 0.0, 0.0, 0.0, 0.0, 0.0, 0.0, 0.0, 0.0, 0.0, 0.0, 0.0, 0.0, 0.0, 0.0, 0.0, 0.0, 0.0, 0.0, 0.0, 0.0, 0.0, 0.0, 0.0, 0.0, 0.0, 0.0, 0.0, 0.0, 0.0, 0.0, 0.0, 0.0, 0.0, 0.0, 0.0, 0.0, 0.0, 0.0, 0.0, 0.0, 0.0, 0.0, 0.0, 0.0, 0.0, 0.0, 0.0, 0.0, 0.0, 0.0, 0.0, 0.0, 0.0, 0.0, 0.0, 0.0, 0.0, 0.0, 0.0, 0.0, 0.0, 0.0, 0.0, 0.0, 0.0, 0.0, 0.0, 0.0, 0.0, 0.0, 0.0, 0.0, 0.0, 0.0, 0.0, 0.0, 0.0, 0.0, 0.0, 0.0, 0.0, 0.0, 0.0, 0.0, 0.0, 0.0, 0.0, 0.0, 0.0, 0.0, 0.0, 0.0, 0.0, 0.0, 0.0, 0.0, 0.0, 0.0, 0.0, 0.0, 0.0, 0.0, 0.0, 0.0, 0.0, 0.0, 0.0, 0.0, 0.0, 0.0, 0.0, 0.0, 0.0, 0.0, 0.0, 0.0, 0.0, 0.0, 0.0, 0.0, 0.0, 0.0, 0.0, 0.0, 0.0, 0.0, 0.0, 0.0, 0.0, 0.0, 0.0, 0.0, 0.0, 0.0, 0.0, 0.0, 0.0, 0.0, 0.0, 0.0, 0.0, 0.0, 0.0, 0.0, 0.0, 0.0, 0.0, 0.0, 0.0, 0.0, 0.0, 0.0, 0.0, 0.0, 0.0, 0.0, 0.0, 0.0, 0.0, 0.0, 0.0, 0.0, 0.0, 0.0, 0.0, 0.0, 0.0, 0.0, 0.0, 0.0, 0.0, 0.0, 0.0, 0.0, 0.0, 0.0, 0.0, 0.0, 0.0, 0.0, 0.0, 0.0, 0.0, 0.0, 0.0, 0.0, 0.0, 0.0, 0.0, 0.0, 0.0, 0.0, 0.0, 0.0, 0.0, 0.0, 0.0, 0.0, 0.0, 0.0, 0.0, 0.0, 0.0, 0.0, 0.0, 0.0, 0.0, 0.0, 0.0, 0.0, 0.0, 0.0, 0.0, 0.0, 0.0, 0.0, 0.0, 0.0, 0.0, 0.0, 0.0, 0.0, 0.0, 0.0, 0.0, 0.0, 0.0, 0.0, 0.0, 0.0, 0.0, 0.0, 0.0, 0.0, 0.0, 0.0, 0.0, 0.0, 0.0, 0.0, 0.0, 0.0, 0.0, 0.0, 0.0, 0.0, 0.0, 0.0, 0.0, 0.0, 0.0, 0.0, 0.0, 0.0, 0.0, 0.0, 0.0, 0.0, 0.0, 0.0, 0.0, 0.0, 0.0, 0.0, 0.0, 0.0, 0.0, 0.0, 0.0, 0.0, 0.0, 0.0, 0.0, 0.0, 0.0, 0.0, 0.0, 0.0, 0.0, 0.0, 0.0, 0.0, 0.0, 0.0, 0.0, 0.0, 0.0, 0.0, 0.0, 0.0, 0.0, 0.0, 0.0, 0.0, 0.0, 0.0, 0.0, 0.0, 0.0, 0.0, 0.0, 0.0, 0.0, 0.0, 0.0, 0.0, 0.0, 0.0, 0.0, 0.0, 0.0, 0.0, 0.0, 0.0, 0.0, 0.0, 0.0, 0.0, 0.0, 0.0, 0.0, 0.0, 0.0, 0.0, 0.0, 0.0, 0.0, 0.0, 0.0, 0.0, 0.0, 0.0, 0.0, 0.0, 0.0, 0.0, 0.0, 0.0, 0.0, 0.0, 0.0, 0.0, 0.0, 0.0, 0.0, 0.0, 0.0, 0.0, 0.0, 0.0, 0.0, 0.0, 0.0, 0.0, 0.0, 0.0, 0.0, 0.0, 0.0, 0.0, 0.0, 0.0, 0.0, 0.0, 0.0, 0.0, 0.0, 0.0, 0.0, 0.0, 0.0, 0.0, 0.0, 0.0, 0.0, 0.0, 0.0, 0.0, 0.0, 0.0, 0.0, 0.0, 0.0, 0.0, 0.0, 0.0, 0.0, 0.0, 0.0, 0.0, 0.0, 0.0, 0.0, 0.0, 0.0, 0.0, 0.0, 0.0, 0.0, 0.0, 0.0, 0.0, 0.0, 0.0, 0.0, 0.0, 0.0, 0.0, 0.0, 0.0, 0.0, 0.0, 0.0, 0.0, 0.0, 0.0, 0.0, 0.0, 0.0, 0.0, 0.0, 0.0, 0.0, 0.0, 0.0, 0.0, 0.0, 0.0, 0.0, 0.0, 0.0, 0.0, 0.0, 0.0, 0.0, 0.0, 0.0, 0.0, 0.0, 0.0, 0.0, 0.0, 0.0, 0.0, 0.0, 0.0, 0.0, 0.0, 0.0, 0.0, 0.0, 0.0, 0.0, 0.0, 0.0, 0.0, 0.0, 0.0, 0.0, 0.0, 0.0, 0.0, 0.0, 0.0, 0.0, 0.0, 0.0, 0.0, 0.0, 0.0, 0.0, 0.0, 0.0, 0.0, 0.0, 0.0, 0.0, 0.0, 0.0, 0.0, 0.0, 0.0, 0.0, 0.0, 0.0, 0.0, 0.0, 0.0, 0.0, 0.0, 0.0, 0.0, 0.0, 0.0, 0.0, 0.0, 0.0, 0.0, 0.0, 0.0, 0.0, 0.0, 0.0, 0.0, 0.0, 0.0, 0.0, 0.0, 0.0, 0.0, 0.0, 0.0, 0.0, 0.0, 0.0, 0.0, 0.0, 0.0, 0.0, 0.0, 0.0, 0.0, 0.0, 0.0, 0.0, 0.0, 0.0, 0.0, 0.0, 0.0, 0.0, 0.0, 0.0, 0.0, 0.0, 0.0, 0.0, 0.0, 0.0, 0.0, 0.0, 0.0, 0.0, 0.0, 0.0, 0.0, 0.0, 0.0, 0.0, 0.0, 0.0, 0.0, 0.0, 0.0, 0.0, 0.0, 0.0, 0.0, 0.0, 0.0, 0.0, 0.0, 0.0, 0.0, 0.0, 0.0, 0.0, 0.0, 0.0, 0.0, 0.0, 0.0, 0.0, 0.0, 0.0, 0.0, 0.0, 0.0, 0.0, 0.0, 0.0, 0.0, 0.0, 0.0, 0.0, 0.0, 0.0, 0.0, 0.0, 0.0, 0.0, 0.0, 0.0, 0.0, 0.0, 0.0, 0.0, 0.0, 0.0, 0.0, 0.0, 0.0, 0.0, 0.0, 0.0, 0.0, 0.0, 0.0, 0.0, 0.0, 0.0, 0.0, 0.0, 0.0, 0.0, 0.0, 0.0, 0.0, 0.0, 0.0, 0.0, 0.0, 0.0, 0.0, 0.0, 0.0, 0.0, 0.0, 0.0, 0.0, 0.0, 0.0, 0.0, 0.0, 0.0, 0.0, 0.0, 0.0, 0.0, 0.0, 0.0, 0.0, 0.0, 0.0, 0.0, 0.0, 0.0, 0.0, 0.0, 0.0, 0.0, 0.0, 0.0, 0.0, 0.0, 0.0, 0.0, 0.0, 0.0, 0.0, 0.0, 0.0, 0.0, 0.0, 0.0, 0.0, 0.0, 0.0, 0.0, 0.0, 0.0, 0.0, 0.0, 0.0, 0.0, 0.0, 0.0, 0.0, 0.0, 0.0, 0.0, 0.0, 0.0, 0.0, 0.0, 0.0, 0.0, 0.0, 0.0, 0.0, 0.0, 0.0, 0.0, 0.0, 0.0, 0.0, 0.0, 0.0, 0.0, 0.0, 0.0, 0.0], "w": [2.0, 0.0, 2.0, 1.0, -1.0, -1.0, 0.0, -1.0, 0.0, 0.0, 1.0, -0.37, 0.0, 1.0, 2.0, 1.63, -1.0, 0.0, -3.0, 6.0, 4.0, -3.0, 2.0, 4.0, 0.0, 3.3810814697277727, -4.0, 0.0, 0.0, -1.0, 1.0, 0.0, 0.0, 0.0, -1.0, -1.0, -1.0, 3.0, 0.0, 0.0, -1.0, -2.0, 1.0, -1.0, 1.0, -1.0, -1.0, 0.0, -2.0, 2.0, -5.0, 1.0, -1.0, -1.0, 2.0, 1.0, -1.0, 0.0, 1.0, -1.0, 0.0, 2.0, 3.0, -1.0, 1.0, 1.0, -2.0, 0.0, 1.0, -2.0, -3.0, -4.0, 1.0, 0.0, -2.0, -1.0, -3.0, 3.904414803061106, 0.0, 0.0, -1.0, 4.0, -1.178, -2.37, 1.0, 2.0, -7.0, 1.0, 0.0, 1.0, 0.0, 2.0, 0.0, -1.0, 0.0, 0.0, -1.0, 0.0, 0.0, -2.0, -2.0, 1.0, 1.0, -1.0, 0.0, -1.0, 0.0, -2.0, -1.0, 1.0, -2.0, -1.0, 0.0, 1.0, 1.0, -2.37, -2.0, 1.0, 2.0, -2.0, -5.0, -1.0, 3.0, 2.0, -3.0, -1.0, -2.0, 2.0, -9.0, 0.0, -3.0, 2.0, -4.0, -2.0, -1.0, -3.0, 0.0, 0.0, 1.0, 3.096, -4.0, -3.0, 1.0, 3.0, 2.0, 0.0, -1.0, 2.0, -2.0, 3.0, -1.0, 1.0, 1.0, 1.0, 1.0, 4.0, -1.0, -1.0, -2.0, -3.0, 3.0, 2.0, 0.0, -1.37, 0.0, -4.0, 0.0, 4.476666666666667, -2.0, 0.0, 0.0, 0.0, 2.0, 12.0, 3.0, -1.0, 0.0, 2.0, -3.7693333333333334, -2.0, 0.0, -5.0, 7.0, -1.0, -1.0, 2.0, 0.0, -1.0, -2.0, 1.0, 0.0, -4.0, -2.0, -1.0, 0.0, -1.0, -2.0, -3.0, 0.0, -3.0, 0.0, -4.0, 2.0, 2.0, -1.0, -1.0, 0.0, 4.0, 3.0, 0.0, -1.0, -1.0, 0.0, -5.0, 2.0, 5.0, 2.0, 3.0, -1.0, -1.0, 4.0, 2.0, 0.0, 0.0, 0.0, 0.0, -1.0, 2.0, 2.0, -2.0, 2.0, 0.0, -3.0, -1.0, 0.0, -2.0, 0.0, -4.0, -1.0, 1.0, -1.0, 0.0, 1.0, -1.0, 0.0, 0.0, 2.0, 0.0, 1.0, 0.0, 3.0, 0.0, 0.0, -1.0, -4.0, -2.0, 0.0, -1.0, 5.0, -2.0, -1.0, 1.0, 2.0, 1.0, -2.0, 2.0, -1.0, 3.0, 0.0, 2.0, 1.0, 1.0, 0.0, -2.0, -3.0, 1.0, -1.0, 1.0, -1.0, 0.0, 4.0, 0.0, -3.0, -2.0, -2.0, 0.09599999999999997, -2.0, 7.0, 1.0, -3.0, 3.0, -1.0, 0.0, 0.0, 1.0, -4.0, -1.0, -1.0, 0.0, -1.0, -4.0, 3.0, 0.0, -2.0, 0.0, 1.0, 1.0, 2.0, 1.0, 0.0, 2.0, 0.0, -5.0, 4.0, 2.0, 0.0, 3.0, 0.0, 0.0, -1.0, -2.0, 0.0, 0.0, 0.0, 0.0, 0.0, 0.0, -1.0, 0.0, 0.0, -1.0, 0.0, 0.0, 0.63, -3.0, 0.0, -2.0, 1.0, 1.0, 0.0, -2.0, 0.0, -1.0, 0.46266666666666667, 0.0, 4.0, -3.0, 1.0, 2.0, 0.0, 4.0, 0.0, 1.0, -1.0, 0.0, 3.0, 1.0, 0.0, 1.0, 10.0, -1.5233333333333334, -1.0, 1.0, 2.0, 0.0, 0.0, 0.0, 5.0, 0.0, -2.0, 0.0, 1.4766666666666666, 1.0, -0.5233333333333333, 1.0, 1.0, -2.0, 0.0, -3.0, -1.0, 0.0, 1.0, 0.63, 1.0, 2.0, 0.0, -2.0, 0.0, -2.9506666666666668, -1.0, 0.0, 0.0, -1.0, 0.0, -1.0, -1.0, -4.0, 0.0, -2.0, -1.0, 1.0, 0.0, 2.0, 1.0, 0.0, 4.0, 1.0, 0.0, -2.0, -1.0, -2.0, 0.0, 0.0, -1.0, 0.0, 0.0, -1.0, 1.0, 1.0, -1.0, 0.0, 0.0, -2.0, -1.0, 3.0, -1.0, -3.0, -1.0, -3.0, -5.0, 0.0, 0.0, -2.0, -2.0, -1.0, 1.0, -1.0, 1.0, 0.0, 2.0, -1.0, -3.0, -4.0, 0.0, 0.0, -1.0, -1.0, -1.0, 1.0, -2.0, 0.0, 1.0, -1.0, 2.0, -6.0, 0.0, 0.0, -3.0, 0.0, 1.0, 2.0, 0.0, 0.0, -4.0, -1.0, 2.0, -2.0, 1.0, -7.0, -1.0, 1.0, 1.0, 0.0, 1.0, -2.0, -1.0, 2.0, 1.0, -1.0, 0.0, 1.0, -1.0, -1.0, -1.0, -1.0, -4.0, 5.0, -1.0, -1.0, -2.0, 1.0, 0.0, 0.0, -4.0, 3.0, 0.09599999999999997, 2.0, 4.0, 2.0, 1.0, 3.0, -1.0, -5.0, 3.0, -2.0, -2.0, -1.0, 0.26, 1.0, -1.0, 0.0, 0.0, 8.0, -2.0, 0.0, 0.0, 1.0, -2.0, 0.0, 1.0, 1.0, 0.4766666666666667, 0.0, 2.0, -4.0, 0.0, -4.0, -1.0, -1.0, -1.0, -1.0, -2.0, 1.0, -2.0, -2.0, -1.0, -1.0, -1.0, 0.0, -1.0, -2.7693333333333334, 1.0, 0.0, 1.0, 0.0, -2.0, -2.0, -1.5233333333333334, -2.0, 0.0, 2.0, -1.0, 0.0, -1.0, -1.0, 1.0, -2.0, 3.0, -1.37, 1.0, 1.0, 0.0, 0.0, 0.0, 1.0, 0.0, 6.0, 1.0, 1.0, -1.0, 0.0, -1.0, 5.0, 0.0, -0.74, 0.0, -1.0, 1.0, 0.0, 0.0, -4.904, -1.0, -1.0, 0.0, 0.0, 1.0, -2.0, 1.0, -2.0, 0.0, -1.0, -2.0, 2.0, -3.0, 1.0, 0.0, -1.0, 1.0, -4.0, 4.0, -2.0, 0.0, 0.0, -1.0, 1.0, 0.0, -2.0, 0.0, -2.0, 2.0, 3.0, -1.0, 1.0, -1.0, -1.0, -1.0, 1.0, -3.0, 0.0, -1.0, 1.0, 0.0, -2.0, 0.0, -1.0, 0.0, 0.0, 1.0, -2.0, -1.0, 0.0, 1.0, 0.0, 0.0, 0.0, -3.0, 1.0, 1.0, -3.0, 4.0, -1.0, 0.0, -0.904, 0.0, 0.0, 2.0, 3.0, -2.0, -1.0, 0.0, -2.0, 0.0, 0.0, -0.37, 2.0, 0.0, 0.0, 9.0, 1.0, -1.0, -1.0, 4.0, -7.769333333333333, 3.0, -3.0, -3.0, -2.0, -1.0, 1.0, 1.0, -1.0, 1.0, -1.0, 3.0, -6.0, -3.0, -1.0, -1.0, -1.0, -1.0, 0.0, 0.0, 2.0, 0.0, -1.0, -2.0, -3.904, -1.0, -4.0, 4.0, 0.0, 1.0, 2.0, -3.0, -1.0, -1.0, 0.0, 3.0, 0.0, 0.0, 0.0, -1.0, 3.0, -1.0, -3.0, 0.0, -1.0, 0.0, -1.0, 2.0, -1.0, -1.0, -7.0, 1.0, -5.0, -3.0, -1.0, -1.0, 0.0, 0.0, -2.0, 0.0, 3.0, -1.0, -2.0, -0.37, 2.0, 0.0, 1.0, 0.0, 1.0, 0.0, 0.0, -1.0, 0.0, -1.0, 1.0, 1.0, 3.0, 2.0, 0.0, 0.0, -2.0, 0.23066666666666666, 1.0, 5.0, -4.0, 0.0, 1.0, 1.0, 4.0, 0.0, -3.0, 0.4766666666666667, 2.0, 0.0, 2.2306666666666666, 16.476666666666667, 2.0, -1.0, 0.0, -2.0, 1.0, 0.0, -2.0, 1.0, 2.0, -2.0, -1.0, 0.0, -1.0, 0.0, 0.0, 0.0, 0.0, -1.0, 2.0, -2.0, 0.0, 2.0, 4.096, 0.0, -1.0, -3.0, -1.0, 4.0, 0.0, 1.0, 4.0, 1.0, -1.0, -3.0, 0.4766666666666667, 0.0, 1.0, -2.0, 0.0, 1.0, 0.4766666666666667, 0.0, 0.0, -1.0, -1.0, 1.0, -2.0, 2.0, 1.0, -1.0, 1.0, 1.0, -2.0, -1.0, 0.0, 0.0, -1.0, -2.0, 4.0, 0.0, -3.0, -1.0, 2.0, -5.0, -1.0, -1.0, 3.0, 0.0, 0.0, 1.0, -2.0, 0.0, 0.0, -2.0, 4.0, 1.0, 3.0, 3.0, 0.0, 0.0, 0.0, -2.0, -1.0, 1.0, 2.0, 0.0, 0.0, 0.0, 0.0, 0.0, -1.0, -1.0, 1.0, -1.0, 7.0, 0.0, -3.0, -1.0, -2.37, 1.0, 0.0, 1.0, -3.0, 1.0, 1.0, 3.0, -0.37, 1.0, -0.09558519693889361, 0.0, -4.0, -1.0, 4.0, -2.0, 0.0, -1.0, 0.0, 0.0, 0.0, 1.0, 0.0, -1.0, -5.0, 0.0, 2.0, -3.0, 1.0, 6.0, 2.0, -1.0, 0.0, -1.0, -1.0, -3.0, -1.0, 1.0, 0.0, -1.0, -1.0, 0.0, 0.0, 2.0, 1.0, 0.0, -1.0, 0.0, -2.0, 0.0, 1.0, 0.0, -4.0, 0.0, -2.0, 1.0, 1.0, 0.0, 0.0, -2.0, -3.0, -1.0, 1.0, -1.0, 4.0, -2.0, -1.0, 0.0, 0.0, -1.0, -2.0, 0.0, -2.0, 0.0, -2.0, 4.0, 0.0, -1.0, -1.0, 3.0, 0.0, -1.0, -3.0, -1.0, 0.0, 0.0, -4.0, 6.0, 3.0, 3.0, -1.0, -1.0, 0.0, -2.0, -3.0, -2.0, 0.0, -5.0, 0.0, -1.0, -3.0, 0.0, 0.0, -1.0, -2.0, -1.0, 0.0, 0.0, 4.0, 0.0, -1.0, 1.0, 4.0, -1.0, 0.0, 2.0, -1.0, 0.0, -2.0, -1.0, 0.0, -1.0, -1.0, 1.0, 0.0, -2.0, 0.0, -1.0, -1.0, 1.0, -3.0, 5.0, 0.0, 1.0, -4.0, 1.0, -1.0, -3.0, 2.0, 1.0, 3.0, -1.0, -1.0, -1.0, -1.0, -3.0, 0.0, -6.0, 1.0, 0.0, 14.0, 0.0, -2.0, 4.0, 1.0, -2.0, -1.0, 1.0, -1.0, -1.0, 1.0, 1.0, -6.0, 0.0, 0.0, 0.0, 1.0, 1.63, -2.0, 1.0, 1.0, 2.0, -3.0, 4.0, -2.0, 1.0, 1.0, -1.0, 1.0, 1.0, 2.4766666666666666, 0.0, 1.0, 3.0, -1.0, -1.0, 0.0, -1.0, 0.0, 0.0, 1.0, 1.0, 0.0, -2.0, -1.0, -1.0, 2.0, -2.0, 0.0, -1.0, -3.0, 1.0, 0.0, 0.0, 0.0, 1.0, 0.0, -1.0, 6.0, -1.0, 0.0, -2.0, -3.0, -2.0, 0.0, 0.0, 0.0, 3.0, -1.0, 1.0, -4.0, -1.0, 2.0, 2.63, 0.0, 0.0, -2.0, 1.0, -1.0, -1.0, -0.09558519693889361, 0.0, -2.0, -2.0, -3.0, 0.0, -1.0, -2.0, -2.0, -1.0, -1.0, -2.0, -2.0, -2.0, -1.0, 1.0, 3.0, 1.0, 1.0, -1.0, -2.0, -2.0, 2.0, 1.0, -1.0, -2.0, -2.0, 0.0, 0.0, 0.0, -1.0, 3.0, 0.0, 0.0, -3.0, 0.0, -2.0, 0.0, -1.0, 2.0, 2.0, -1.0, 0.0, 2.0, 1.0, 7.0, -1.0, -3.0, 0.0, 0.0, 3.0, 0.0, -1.0955851969388937, 0.0, -2.37, 1.0, -0.274, -1.0, 3.096, -1.0, 2.0, 1.0, -2.0, 1.0, 4.476666666666667, 0.0, 0.0, 0.0, -4.0, -1.0, 0.0, 0.0, 2.0, 1.0, 0.0, 0.0, 1.0, 1.0, -1.0, -3.0, 0.0, -2.0, -3.0, 3.0, -3.0, 1.0, -1.0, 3.0, -1.0, 0.0, -1.0, 0.0, -1.0, -2.0, -4.0, -1.0, -1.0, 0.63, 0.0, 0.0, 1.0, -7.0, -1.0, -1.0, 0.0, -2.0, -2.0, 0.0, -3.0, 5.0, 1.0, 0.0, -2.0, 5.0, 0.0, -1.0, 0.0, 0.0, 0.0, 0.0, -1.0, 1.0, -1.0, 1.0, 3.0, 0.0, 2.0, -2.0, -2.0, 0.0, -1.0, 1.0, -1.0, 0.0, 0.0, 0.0, 4.0, 3.2306666666666666, 0.0, 0.0, -1.0, -1.0, 1.0, 2.0, -1.0, 0.0, 1.0, -2.0, -6.0, -1.0, -1.0, -1.0, 0.0, 0.0, -1.0, -4.0, -2.0, 1.0, -2.0, -3.0, -3.0, 0.0, 2.0, 0.0, 0.0, 1.0, -1.0, -2.0, -1.0, 1.0, -4.0, -1.0, 1.0, 3.0, 0.0, 3.0, -2.0, 1.0, 0.0, -1.0, 0.0, -1.0, 1.0, 3.0, -1.0, 0.0, -5.0, -1.0, -1.0, -2.0, 2.0, -1.0, 0.0, 0.0, 1.0, 0.47666666666666657, 0.0, 3.0, 0.0, 1.0, -1.0, -1.0, 0.0, 0.0, 3.0, 1.0, 0.0, 0.0, -1.0, 0.0, 0.0, -1.0, -2.5233333333333334, -2.0, 7.0, 0.0, 0.0, 0.0, 0.0, -3.0, -1.0, 0.0, 2.096, 1.0, 2.0, -3.0, 3.0, -1.0, -1.0, -1.0, -1.0, 2.0, 16.0, 0.0, -3.0, -1.0, -1.0, 0.0, -1.0, 1.0, 3.0, 0.0, -1.0, -1.0, -3.0, -1.0, -1.0, 0.0, -2.0, 0.0, -1.0, 1.0, 3.0, 1.0, -1.0, 2.0, -1.0, 0.0, 0.0, -2.0, 1.0, 3.0, -1.0, -5.0, 5.0, 2.0, -2.0, 0.0, -1.0, -1.0, -2.0, 2.0, -1.0, 0.0, 0.0, 0.0, -1.0, 1.0, 1.0, -2.0, -1.0, 0.0, -4.0, -1.0, 1.0, 0.0, 1.0, -1.0, -1.0, -2.0, 1.0, -3.0, -1.0, -1.0, 0.0, 3.0, -1.0, 1.0, -2.0, 1.0, 0.0, 1.0, -2.0, 1.0, -4.0, 0.63, -5.0, -3.0, -7.0, 1.0, -1.0, 0.0, 0.0, -2.0, -3.0, 1.0, 1.0, 1.0, -4.0, -1.0, -1.0, -1.0, 2.096, -2.0, -1.0, 0.0, -1.0, -1.0, -2.0, 2.0, -1.0, -1.0, 2.0, -2.0, 2.0, 2.0, 1.0, -1.0, -2.0, 0.0, 0.0, -1.0, -0.37, -1.0, 0.0, -1.0, -3.0, 4.0, -1.0, 3.0, -3.0, 0.0, -2.0, 0.0, -1.0, 1.0, 0.0, 4.0, 1.0, 0.63, 2.0, 2.0, -3.0, -3.0, 1.0, 0.0, 0.0, -1.0, 0.0, -4.0, 0.0, -2.0, -1.0, -2.0, 0.0, -2.0, -1.0, 0.0, 0.0, 1.0, -1.0, -5.0, 1.63, -1.0, -2.0, 1.0, 0.0, 1.0, 1.0, -1.0, 0.0, 0.0, 0.0, -1.0, -1.0, -3.0, -2.0, 4.0, 1.0, 2.0, -2.5233333333333334, 0.0, 0.0, 0.0, 0.0, 1.0, -2.0, 1.0, 0.0, 5.0, 0.0, 0.0, 1.0, -2.0, -3.0, 1.0, 0.0, 0.0, -6.769333333333333, 1.0, 0.0, 1.0, 0.0, 1.0, 0.0, -1.0, 1.0, 0.0, -3.0, -1.0, 2.0, -1.0, 0.0, -1.37, 0.0, 0.0, -2.0, 4.0, -1.0, -1.0, 1.0, 7.0, 2.0, 1.0, 0.0, 1.0, -2.0, -1.0, -1.0, 0.0, 1.096, 4.0, 2.0, 3.0, 1.0, 0.0, -1.0, 2.0, 1.0, 0.0, 2.0, -1.0, -1.0, -2.0, 0.0, 0.0, -1.0, -2.0, -1.0, 0.0, -0.904, -1.0, 0.0, 2.0, -2.0, 0.0, 0.0, 0.0, 1.0, -2.0, 3.0, 0.0, 0.0, 3.0, 0.0, -2.0, -1.0, 0.0, 0.0, -1.0, -3.0, 1.0, -2.0, 1.0, 1.0, 0.0, 0.0, 0.0, -1.0, -2.0, 0.0, 2.0, -3.0, 0.0, 0.0, -1.0, -1.0, 0.0, 0.0, 1.0, -3.0, 0.0, -1.0, -3.0, 2.0, -4.0, 2.0, 0.0, -2.0, -5.0, 1.0, -1.0, -1.0, -1.0, 3.0, 4.0, 0.0, -2.0, 3.0, -1.0, -1.0, -1.0, -1.0, 4.0, 0.0, -2.0, 0.0, -1.0, -1.0, 4.0, 2.0, 0.0, 0.0, 1.0, 2.0, -3.0, 1.0, 1.0, -1.0, -1.0, -2.0, 1.096, -2.0, 0.0, -2.0, 0.0, 1.0, 0.0, 1.0, 0.0, 1.0, 4.0, -1.0, 0.0, -5.0, -1.0, 0.0, -1.0, -4.0, -1.0, 1.0, 0.0, 0.0, 0.0, -2.0, 2.0, -3.0, -2.37, 0.0, 2.0, 1.0, 0.0, 0.0, 0.0, 2.0, -3.0, 3.0, 0.0, 1.0, 0.0, 0.0, 1.0, 2.0, 3.0, -2.0, 0.0, 1.0, 1.0, -3.7693333333333334, -1.0, 1.0, 2.0, -4.0, -4.0, 1.0, 0.0, -1.0, -2.0, -2.0, -4.0, 5.230666666666667, 1.0, 1.0, 1.0, 2.0, 1.0, 1.0, 0.0, 0.0, -2.0, -3.0, 3.0, 0.0, -2.0, -1.0, -2.0, 1.0, -1.0, -1.0, 0.0, 2.0, 0.0, 1.0, 0.0, 2.0, 1.0, -2.0, -1.0, -1.0, -1.0, 0.0, -1.0, -1.0, -2.0, 2.0, -2.0, 0.0, 1.0, -3.0, -1.0, 1.0, -2.5233333333333334, 0.0, 1.0, 0.0, 2.0, 2.0, -2.0, 0.0, -2.0, 3.0, 2.0, -0.5233333333333333, 2.904414803061106, 1.0, -1.0, 0.0, -2.0, -1.0, 2.0, 1.0, -6.0, 0.0, 15.326666666666666, -2.0, -1.0, 0.0, 4.0, 0.0, 0.0, -1.0, 3.0, 1.0, 1.0, -3.0, 1.0, -0.37, -1.0, 0.0, 3.0, 4.0, 2.0, 1.0, -2.0, 1.0, 1.0, 0.0, 0.0, 2.0, 0.0, 1.0, -1.0, 0.0, -1.0, 2.0, 1.0, -2.0, 4.0, 0.0, 2.0, 0.0, -3.0, -1.0, 0.0, -2.0, 3.0, 0.0, -0.37, 0.0, -1.0, 0.0, 2.0, -4.0, -1.0, 1.0, 1.0, -1.0, -2.0, -1.0, -1.0, -1.0, -3.0, -1.0, -4.0, -2.0, -1.0, 2.0, -1.0, -3.0, 0.0, 0.0, 1.0, 1.0, -2.0, 3.0, -4.0, 0.0, -3.0, 3.0, 0.0, 1.0, 0.0, 1.0, 0.0, -1.0, 0.0, 1.0, 1.0, 1.0, -1.0, 1.63, 1.2306666666666666, 2.0, -1.0, -3.0, -1.0, -4.904, 4.0, -1.0, -1.0, -2.0, 1.0, 0.0, -1.0, 0.63, -1.0, -1.0, -1.0, 0.0, 0.0, -1.0, 0.0, 0.0, 1.0, -2.0, -2.0, -1.0, -1.0, 1.0, 1.0, 1.0, 1.0, -1.0, 0.0, 1.0, 0.0, -1.0, -1.0, 0.0, 0.0, 3.0, 0.0, 1.0, -1.0, 0.0, -3.0, 0.0, -1.0, -4.0, 0.0, 0.0, 3.096, -1.0, -1.0, 0.0, -1.0, 1.0, 1.0, 1.0, -3.0, -1.0, -1.0, -1.0, 1.0, -3.0, -1.0, -1.0, -2.0, -3.0, 0.0, 0.9044148030611061, 1.4766666666666666, 4.0, 0.9044148030611063, 1.0, 0.4766666666666667, -3.0, 8.0, -3.0, 2.0, 1.0, 5.0, -2.0, 0.0, 0.0, 0.0, -1.0, -1.0, -1.0, -2.0, -5.0, 0.0, 1.0, 1.0, -3.0, 1.0, -1.0, -2.0, -2.0, 0.0, -2.0, -2.0, 0.0, -4.0, -3.0, 6.0, 2.0, 0.0, 0.0, -4.0, 0.0, 0.0, 0.0, 1.0, -4.0, 0.0, -2.0, -4.0, 1.0, 0.0, 5.0, 1.0, 1.0, 0.0, -3.0, -1.0, -1.0, -1.0, -1.0, -2.0, -1.0, 0.0, 0.09599999999999997, 2.0, 1.0, -1.0, 0.0, -2.0, -4.0, 1.0, 2.0, 2.0, -1.0, -2.0, -1.0, 0.0, 3.0, 2.0, -2.0, -1.0, -2.0, 0.0, 0.0, 0.0]}, "Art & Design": {"count_avg": 1.0, "b": -8.87750992759892, "beta_avg": 0.0, "u_avg": [0.0, 0.0, 0.0, 0.0, 0.0, 0.0, 0.0, 0.0, 0.0, 0.0, 0.0, 0.0, 0.0, 0.0, 0.0, 0.0, 0.0, 0.0, 0.0, 0.0, 0.0, 0.0, 0.0, 0.0, 0.0, 0.0, 0.0, 0.0, 0.0, 0.0, 0.0, 0.0, 0.0, 0.0, 0.0, 0.0, 0.0, 0.0, 0.0, 0.0, 0.0, 0.0, 0.0, 0.0, 0.0, 0.0, 0.0, 0.0, 0.0, 0.0, 0.0, 0.0, 0.0, 0.0, 0.0, 0.0, 0.0, 0.0, 0.0, 0.0, 0.0, 0.0, 0.0, 0.0, 0.0, 0.0, 0.0, 0.0, 0.0, 0.0, 0.0, 0.0, 0.0, 0.0, 0.0, 0.0, 0.0, 0.0, 0.0, 0.0, 0.0, 0.0, 0.0, 0.0, 0.0, 0.0, 0.0, 0.0, 0.0, 0.0, 0.0, 0.0, 0.0, 0.0, 0.0, 0.0, 0.0, 0.0, 0.0, 0.0, 0.0, 0.0, 0.0, 0.0, 0.0, 0.0, 0.0, 0.0, 0.0, 0.0, 0.0, 0.0, 0.0, 0.0, 0.0, 0.0, 0.0, 0.0, 0.0, 0.0, 0.0, 0.0, 0.0, 0.0, 0.0, 0.0, 0.0, 0.0, 0.0, 0.0, 0.0, 0.0, 0.0, 0.0, 0.0, 0.0, 0.0, 0.0, 0.0, 0.0, 0.0, 0.0, 0.0, 0.0, 0.0, 0.0, 0.0, 0.0, 0.0, 0.0, 0.0, 0.0, 0.0, 0.0, 0.0, 0.0, 0.0, 0.0, 0.0, 0.0, 0.0, 0.0, 0.0, 0.0, 0.0, 0.0, 0.0, 0.0, 0.0, 0.0, 0.0, 0.0, 0.0, 0.0, 0.0, 0.0, 0.0, 0.0, 0.0, 0.0, 0.0, 0.0, 0.0, 0.0, 0.0, 0.0, 0.0, 0.0, 0.0, 0.0, 0.0, 0.0, 0.0, 0.0, 0.0, 0.0, 0.0, 0.0, 0.0, 0.0, 0.0, 0.0, 0.0, 0.0, 0.0, 0.0, 0.0, 0.0, 0.0, 0.0, 0.0, 0.0, 0.0, 0.0, 0.0, 0.0, 0.0, 0.0, 0.0, 0.0, 0.0, 0.0, 0.0, 0.0, 0.0, 0.0, 0.0, 0.0, 0.0, 0.0, 0.0, 0.0, 0.0, 0.0, 0.0, 0.0, 0.0, 0.0, 0.0, 0.0, 0.0, 0.0, 0.0, 0.0, 0.0, 0.0, 0.0, 0.0, 0.0, 0.0, 0.0, 0.0, 0.0, 0.0, 0.0, 0.0, 0.0, 0.0, 0.0, 0.0, 0.0, 0.0, 0.0, 0.0, 0.0, 0.0, 0.0, 0.0, 0.0, 0.0, 0.0, 0.0, 0.0, 0.0, 0.0, 0.0, 0.0, 0.0, 0.0, 0.0, 0.0, 0.0, 0.0, 0.0, 0.0, 0.0, 0.0, 0.0, 0.0, 0.0, 0.0, 0.0, 0.0, 0.0, 0.0, 0.0, 0.0, 0.0, 0.0, 0.0, 0.0, 0.0, 0.0, 0.0, 0.0, 0.0, 0.0, 0.0, 0.0, 0.0, 0.0, 0.0, 0.0, 0.0, 0.0, 0.0, 0.0, 0.0, 0.0, 0.0, 0.0, 0.0, 0.0, 0.0, 0.0, 0.0, 0.0, 0.0, 0.0, 0.0, 0.0, 0.0, 0.0, 0.0, 0.0, 0.0, 0.0, 0.0, 0.0, 0.0, 0.0, 0.0, 0.0, 0.0, 0.0, 0.0, 0.0, 0.0, 0.0, 0.0, 0.0, 0.0, 0.0, 0.0, 0.0, 0.0, 0.0, 0.0, 0.0, 0.0, 0.0, 0.0, 0.0, 0.0, 0.0, 0.0, 0.0, 0.0, 0.0, 0.0, 0.0, 0.0, 0.0, 0.0, 0.0, 0.0, 0.0, 0.0, 0.0, 0.0, 0.0, 0.0, 0.0, 0.0, 0.0, 0.0, 0.0, 0.0, 0.0, 0.0, 0.0, 0.0, 0.0, 0.0, 0.0, 0.0, 0.0, 0.0, 0.0, 0.0, 0.0, 0.0, 0.0, 0.0, 0.0, 0.0, 0.0, 0.0, 0.0, 0.0, 0.0, 0.0, 0.0, 0.0, 0.0, 0.0, 0.0, 0.0, 0.0, 0.0, 0.0, 0.0, 0.0, 0.0, 0.0, 0.0, 0.0, 0.0, 0.0, 0.0, 0.0, 0.0, 0.0, 0.0, 0.0, 0.0, 0.0, 0.0, 0.0, 0.0, 0.0, 0.0, 0.0, 0.0, 0.0, 0.0, 0.0, 0.0, 0.0, 0.0, 0.0, 0.0, 0.0, 0.0, 0.0, 0.0, 0.0, 0.0, 0.0, 0.0, 0.0, 0.0, 0.0, 0.0, 0.0, 0.0, 0.0, 0.0, 0.0, 0.0, 0.0, 0.0, 0.0, 0.0, 0.0, 0.0, 0.0, 0.0, 0.0, 0.0, 0.0, 0.0, 0.0, 0.0, 0.0, 0.0, 0.0, 0.0, 0.0, 0.0, 0.0, 0.0, 0.0, 0.0, 0.0, 0.0, 0.0, 0.0, 0.0, 0.0, 0.0, 0.0, 0.0, 0.0, 0.0, 0.0, 0.0, 0.0, 0.0, 0.0, 0.0, 0.0, 0.0, 0.0, 0.0, 0.0, 0.0, 0.0, 0.0, 0.0, 0.0, 0.0, 0.0, 0.0, 0.0, 0.0, 0.0, 0.0, 0.0, 0.0, 0.0, 0.0, 0.0, 0.0, 0.0, 0.0, 0.0, 0.0, 0.0, 0.0, 0.0, 0.0, 0.0, 0.0, 0.0, 0.0, 0.0, 0.0, 0.0, 0.0, 0.0, 0.0, 0.0, 0.0, 0.0, 0.0, 0.0, 0.0, 0.0, 0.0, 0.0, 0.0, 0.0, 0.0, 0.0, 0.0, 0.0, 0.0, 0.0, 0.0, 0.0, 0.0, 0.0, 0.0, 0.0, 0.0, 0.0, 0.0, 0.0, 0.0, 0.0, 0.0, 0.0, 0.0, 0.0, 0.0, 0.0, 0.0, 0.0, 0.0, 0.0, 0.0, 0.0, 0.0, 0.0, 0.0, 0.0, 0.0, 0.0, 0.0, 0.0, 0.0, 0.0, 0.0, 0.0, 0.0, 0.0, 0.0, 0.0, 0.0, 0.0, 0.0, 0.0, 0.0, 0.0, 0.0, 0.0, 0.0, 0.0, 0.0, 0.0, 0.0, 0.0, 0.0, 0.0, 0.0, 0.0, 0.0, 0.0, 0.0, 0.0, 0.0, 0.0, 0.0, 0.0, 0.0, 0.0, 0.0, 0.0, 0.0, 0.0, 0.0, 0.0, 0.0, 0.0, 0.0, 0.0, 0.0, 0.0, 0.0, 0.0, 0.0, 0.0, 0.0, 0.0, 0.0, 0.0, 0.0, 0.0, 0.0, 0.0, 0.0, 0.0, 0.0, 0.0, 0.0, 0.0, 0.0, 0.0, 0.0, 0.0, 0.0, 0.0, 0.0, 0.0, 0.0, 0.0, 0.0, 0.0, 0.0, 0.0, 0.0, 0.0, 0.0, 0.0, 0.0, 0.0, 0.0, 0.0, 0.0, 0.0, 0.0, 0.0, 0.0, 0.0, 0.0, 0.0, 0.0, 0.0, 0.0, 0.0, 0.0, 0.0, 0.0, 0.0, 0.0, 0.0, 0.0, 0.0, 0.0, 0.0, 0.0, 0.0, 0.0, 0.0, 0.0, 0.0, 0.0, 0.0, 0.0, 0.0, 0.0, 0.0, 0.0, 0.0, 0.0, 0.0, 0.0, 0.0, 0.0, 0.0, 0.0, 0.0, 0.0, 0.0, 0.0, 0.0, 0.0, 0.0, 0.0, 0.0, 0.0, 0.0, 0.0, 0.0, 0.0, 0.0, 0.0, 0.0, 0.0, 0.0, 0.0, 0.0, 0.0, 0.0, 0.0, 0.0, 0.0, 0.0, 0.0, 0.0, 0.0, 0.0, 0.0, 0.0, 0.0, 0.0, 0.0, 0.0, 0.0, 0.0, 0.0, 0.0, 0.0, 0.0, 0.0, 0.0, 0.0, 0.0, 0.0, 0.0, 0.0, 0.0, 0.0, 0.0, 0.0, 0.0, 0.0, 0.0, 0.0, 0.0, 0.0, 0.0, 0.0, 0.0, 0.0, 0.0, 0.0, 0.0, 0.0, 0.0, 0.0, 0.0, 0.0, 0.0, 0.0, 0.0, 0.0, 0.0, 0.0, 0.0, 0.0, 0.0, 0.0, 0.0, 0.0, 0.0, 0.0, 0.0, 0.0, 0.0, 0.0, 0.0, 0.0, 0.0, 0.0, 0.0, 0.0, 0.0, 0.0, 0.0, 0.0, 0.0, 0.0, 0.0, 0.0, 0.0, 0.0, 0.0, 0.0, 0.0, 0.0, 0.0, 0.0, 0.0, 0.0, 0.0, 0.0, 0.0, 0.0, 0.0, 0.0, 0.0, 0.0, 0.0, 0.0, 0.0, 0.0, 0.0, 0.0, 0.0, 0.0, 0.0, 0.0, 0.0, 0.0, 0.0, 0.0, 0.0, 0.0, 0.0, 0.0, 0.0, 0.0, 0.0, 0.0, 0.0, 0.0, 0.0, 0.0, 0.0, 0.0, 0.0, 0.0, 0.0, 0.0, 0.0, 0.0, 0.0, 0.0, 0.0, 0.0, 0.0, 0.0, 0.0, 0.0, 0.0, 0.0, 0.0, 0.0, 0.0, 0.0, 0.0, 0.0, 0.0, 0.0, 0.0, 0.0, 0.0, 0.0, 0.0, 0.0, 0.0, 0.0, 0.0, 0.0, 0.0, 0.0, 0.0, 0.0, 0.0, 0.0, 0.0, 0.0, 0.0, 0.0, 0.0, 0.0, 0.0, 0.0, 0.0, 0.0, 0.0, 0.0, 0.0, 0.0, 0.0, 0.0, 0.0, 0.0, 0.0, 0.0, 0.0, 0.0, 0.0, 0.0, 0.0, 0.0, 0.0, 0.0, 0.0, 0.0, 0.0, 0.0, 0.0, 0.0, 0.0, 0.0, 0.0, 0.0, 0.0, 0.0, 0.0, 0.0, 0.0, 0.0, 0.0, 0.0, 0.0, 0.0, 0.0, 0.0, 0.0, 0.0, 0.0, 0.0, 0.0, 0.0, 0.0, 0.0, 0.0, 0.0, 0.0, 0.0, 0.0, 0.0, 0.0, 0.0, 0.0, 0.0, 0.0, 0.0, 0.0, 0.0, 0.0, 0.0, 0.0, 0.0, 0.0, 0.0, 0.0, 0.0, 0.0, 0.0, 0.0, 0.0, 0.0, 0.0, 0.0, 0.0, 0.0,