{"Fashion & Style": {"count_avg": 1561.0, "b": 6.12363869314542, "beta_avg": 1368.0, "u_avg": [0.0, 0.0, 0.0, -1160.0, 0.0, 0.0, 0.0, 1298.0, 533.0, 0.0, 0.0, 0.0, 1111.0, 0.0, 0.0, 0.0, -2640.0, 0.0, 903.0, 168.0, -1099.0, 0.0, 165.0, 0.0, 0.0, -633.0, 0.0, 0.0, 1138.0, 0.0, 0.0, 0.0, 0.0, 0.0, 454.0, 473.0, 0.0, 0.0, 0.0, 0.0, 0.0, 0.0, 0.0, 0.0, 191.0, 1138.0, 0.0, 0.0, 486.0, 0.0, 0.0, 0.0, 0.0, 0.0, 0.0, 234.0, 0.0, 0.0, 0.0, 0.0, 0.0, 0.0, 1423.0, 0.0, -260.0, 0.0, -167.0, 1519.0, 0.0, -1205.0, 0.0, 0.0, 0.0, 0.0, 0.0, 0.0, 0.0, -1788.0, 0.0, 0.0, 0.0, -260.0, 2706.0, -1860.0, 0.0, 0.0, 0.0, 743.0, 0.0, 0.0, 0.0, -657.0, 0.0, 0.0, 0.0, 0.0, 0.0, 0.0, 830.0, 1054.0, 0.0, 0.0, 790.0, 0.0, 0.0, 0.0, 0.0, 0.0, 0.0, -167.0, 1131.0, 0.0, 0.0, 0.0, 0.0, 1688.0, 0.0, 0.0, -5.0, -1419.0, -1160.0, 0.0, 0.0, -260.0, 0.0, 168.0, 0.0, 0.0, -1436.0, 0.0, 0.0, 0.0, 0.0, 790.0, 0.0, 0.0, 0.0, 0.0, -626.0, 0.0, 0.0, -519.0, 0.0, 0.0, -665.0, 191.0, 0.0, -230.0, 0.0, -2449.0, 0.0, 0.0, 326.0, 790.0, 790.0, 0.0, 0.0, -1038.0, 0.0, -2972.0, 0.0, -1099.0, 0.0, -609.0, 0.0, 0.0, 0.0, 0.0, 0.0, 0.0, 1359.0, 0.0, 0.0, 0.0, 0.0, -542.0, 0.0, 0.0, -987.0, 0.0, 0.0, -167.0, 0.0, 1104.0, 0.0, 0.0, 0.0, 533.0, 0.0, 0.0, 0.0, 903.0, 0.0, -1419.0, 0.0, 1519.0, 0.0, 0.0, 0.0, 74.0, -1380.0, 1423.0, -271.0, 0.0, 0.0, 0.0, -5.0, -1099.0, 0.0, 0.0, -271.0, 0.0, 0.0, -1042.0, 582.0, 0.0, 0.0, 2873.0, 0.0, 0.0, -812.0, 0.0, 0.0, 0.0, 0.0, 0.0, 0.0, 0.0, 122.0, 0.0, 0.0, 0.0, 0.0, 0.0, 191.0, 83.0, 0.0, 0.0, 0.0, -812.0, 0.0, 0.0, 0.0, 0.0, 0.0, 0.0, 1115.0, 0.0, 0.0, 0.0, 0.0, 0.0, 0.0, 0.0, -1099.0, 0.0, 0.0, 0.0, 0.0, 0.0, 533.0, 0.0, -812.0, 0.0, 0.0, 327.0, 0.0, 0.0, 0.0, 0.0, 0.0, 0.0, -812.0, 0.0, 0.0, 0.0, 0.0, 1029.0, 0.0, 0.0, 0.0, -5.0, 0.0, -1480.0, 0.0, 0.0, 0.0, -953.0, 903.0, 0.0, 0.0, 1519.0, 168.0, 191.0, -409.0, 0.0, 1372.0, 0.0, 0.0, 0.0, 1138.0, -1160.0, 0.0, 0.0, 0.0, 0.0, 0.0, 0.0, 0.0, 533.0, 0.0, 0.0, 0.0, 0.0, -1825.0, 0.0, 0.0, 0.0, -1213.0, 0.0, -1213.0, 0.0, 0.0, 0.0, 1671.0, 0.0, 0.0, -1419.0, 0.0, 0.0, 0.0, -260.0, 0.0, 1444.0, -309.0, 0.0, 0.0, 0.0, 0.0, 0.0, -519.0, 0.0, 0.0, 1810.0, -1099.0, 0.0, -519.0, 0.0, 0.0, 0.0, 0.0, 0.0, 0.0, 0.0, 0.0, 0.0, 0.0, 0.0, 168.0, -1419.0, -824.0, 1359.0, 0.0, 0.0, 0.0, 0.0, 0.0, 0.0, 0.0, 0.0, 0.0, -953.0, -1606.0, 0.0, 903.0, 0.0, 0.0, 0.0, 0.0, 0.0, 0.0, 0.0, 0.0, -1213.0, 0.0, 0.0, 0.0, -167.0, -1151.0, -271.0, 0.0, 454.0, 0.0, 1298.0, 0.0, 0.0, 0.0, 0.0, 327.0, -1160.0, 0.0, 1115.0, 0.0, 0.0, 0.0, 29.0, 1359.0, 0.0, 1271.0, 0.0, 0.0, 0.0, 2137.0, -10.0, 1234.0, 0.0, 0.0, 0.0, 0.0, 0.0, 0.0, 0.0, 533.0, 0.0, 0.0, 0.0, 0.0, -904.0, 0.0, 0.0, 0.0, 0.0, 454.0, 0.0, 0.0, 0.0, 0.0, 0.0, 0.0, 0.0, 1138.0, 0.0, 2468.0, 0.0, 0.0, 0.0, 1111.0, 743.0, 0.0, 1519.0, 0.0, 0.0, 327.0, 0.0, 0.0, 0.0, 0.0, 0.0, 0.0, 0.0, 168.0, 790.0, 0.0, 0.0, 256.0, 0.0, 0.0, 0.0, 0.0, 0.0, 0.0, 0.0, 1519.0, 0.0, 0.0, 0.0, 0.0, 903.0, 0.0, 0.0, -941.0, 0.0, 0.0, 0.0, -519.0, 0.0, 0.0, 0.0, 0.0, 0.0, 1011.0, 0.0, 191.0, 790.0, -167.0, 690.0, 674.0, 0.0, -246.0, 0.0, 0.0, 0.0, 0.0, 0.0, 234.0, -1099.0, 0.0, 0.0, -1135.0, 0.0, -1419.0, 0.0, 0.0, -1160.0, 0.0, 0.0, 0.0, 0.0, 743.0, 0.0, 0.0, 0.0, 0.0, 0.0, 1271.0, -1109.0, 0.0, 0.0, 0.0, -83.0, 0.0, 0.0, 0.0, -1480.0, 0.0, -167.0, 0.0, -1160.0, -260.0, 0.0, 0.0, 0.0, 0.0, 0.0, 0.0, 0.0, -1330.0, 894.0, 0.0, 191.0, 0.0, 0.0, 0.0, 0.0, 0.0, 0.0, 0.0, 0.0, 0.0, -2198.0, -812.0, 0.0, 0.0, 0.0, 0.0, 0.0, -203.0, 0.0, -206.0, 0.0, 0.0, 0.0, 51.0, 0.0, 0.0, 0.0, -1480.0, 0.0, 0.0, 0.0, -2417.0, 0.0, 533.0, 826.0, 0.0, 0.0, 533.0, 0.0, -519.0, 1066.0, 0.0, 1423.0, 0.0, -1612.0, 0.0, -609.0, 0.0, -438.0, 577.0, 0.0, -519.0, 0.0, 0.0, 0.0, -1480.0, 0.0, -657.0, 0.0, 0.0, 191.0, 327.0, 0.0, 0.0, -665.0, 0.0, 0.0, 0.0, 0.0, 0.0, 1138.0, 0.0, 0.0, 857.0, 0.0, 210.0, 0.0, -5.0, 0.0, 0.0, -887.0, 0.0, 0.0, 0.0, 0.0, 359.0, 0.0, 0.0, 0.0, -1217.0, 0.0, 0.0, 0.0, 0.0, 0.0, -812.0, 0.0, 0.0, 0.0, 0.0, 0.0, 0.0, 256.0, 0.0, 0.0, 0.0, 0.0, -2937.0, 0.0, 743.0, 0.0, 0.0, 0.0, 0.0, 0.0, 752.0, 0.0, -167.0, 0.0, 0.0, 0.0, 0.0, 0.0, 0.0, 0.0, -887.0, 0.0, 0.0, 0.0, 0.0, 0.0, 0.0, 0.0, 0.0, 641.0, 0.0, 0.0, 0.0, 0.0, 0.0, 0.0, -1099.0, 0.0, 0.0, 0.0, 0.0, 0.0, 0.0, 790.0, 0.0, 0.0, -2682.0, 0.0, 0.0, 0.0, 0.0, 743.0, -812.0, 0.0, 0.0, 0.0, 0.0, 0.0, -519.0, 0.0, 0.0, 0.0, 0.0, 1519.0, 0.0, 0.0, -1213.0, 0.0, 0.0, 0.0, -2682.0, -665.0, 0.0, 0.0, 0.0, 0.0, 0.0, 0.0, 0.0, 0.0, 0.0, 0.0, 743.0, 0.0, 1138.0, 0.0, -686.0, 0.0, 0.0, 743.0, 0.0, 0.0, 0.0, 0.0, 163.0, 0.0, -1601.0, 0.0, 0.0, 163.0, 0.0, 0.0, -2891.0, -397.0, -211.0, 0.0, 0.0, -271.0, 0.0, 0.0, -1346.0, 582.0, 0.0, 0.0, 0.0, 0.0, -1135.0, 0.0, 0.0, 0.0, 0.0, 0.0, 0.0, 0.0, 0.0, -5.0, 0.0, 0.0, 0.0, 0.0, 0.0, -1109.0, 999.0, 582.0, 0.0, 0.0, 0.0, 0.0, -665.0, 0.0, 0.0, 0.0, 0.0, 0.0, 0.0, 0.0, 0.0, 0.0, 0.0, 0.0, 0.0, 0.0, 0.0, -1219.0, 0.0, 0.0, 0.0, -244.0, 0.0, -167.0, 0.0, 0.0, 0.0, 1111.0, 0.0, 0.0, 0.0, 0.0, 0.0, 0.0, -2821.0, 0.0, 830.0, 0.0, 138.0, 0.0, -244.0, -1109.0, 0.0, 0.0, 1423.0, 0.0, 0.0, 0.0, 0.0, 0.0, 0.0, 0.0, 0.0, 0.0, 0.0, 0.0, 0.0, 0.0, 0.0, 0.0, -657.0, 0.0, -366.0, 0.0, 0.0, -260.0, 0.0, 0.0, 0.0, 0.0, 0.0, 582.0, 0.0, 0.0, 0.0, 0.0, 0.0, 0.0, -2027.0, -1135.0, 0.0, 473.0, 0.0, 0.0, 0.0, 0.0, 0.0, 0.0, 0.0, 327.0, 0.0, 0.0, 0.0, 0.0, -1480.0, -271.0, 0.0, 0.0, 0.0, 0.0, 0.0, 0.0, -167.0, 0.0, 0.0, 0.0, 0.0, 0.0, 0.0, 0.0, 0.0, 0.0, 0.0, 0.0, 0.0, 0.0, 0.0, 0.0, -5.0, -1099.0, 0.0, 359.0, 0.0, 0.0, 0.0, -1099.0, 0.0, 0.0, -5.0, -427.0, 561.0, 0.0, -812.0, 0.0, -271.0, 0.0, 0.0, 0.0, 0.0, 0.0, -1213.0, 0.0, 0.0, -1160.0, 0.0, 702.0, 0.0, 2137.0, 191.0, 0.0, 0.0, 0.0, 0.0, -657.0, 0.0, 0.0, 0.0, 0.0, 0.0, 0.0, -167.0, 0.0, -657.0, 0.0, 0.0, 0.0, 1519.0, 0.0, 0.0, 0.0, 0.0, 0.0, 0.0, 0.0, -519.0, 0.0, 1519.0, 0.0, 0.0, 1234.0, 2101.0, 0.0, 0.0, 0.0, 0.0, 0.0, 0.0, 0.0, 0.0, 0.0, 0.0, 0.0, 0.0, 0.0, 0.0, 0.0, 0.0, 0.0, 582.0, 0.0, -1109.0, 0.0, -1213.0, 0.0, 0.0, 0.0, 0.0, -1341.0, 0.0, 0.0, 0.0, 0.0, 0.0, -662.0, 1423.0, 0.0, 830.0, 0.0, 1028.0, 0.0, -657.0, 0.0, 0.0, 0.0, 0.0, 1138.0, 0.0, 0.0, 632.0, 454.0, 0.0, 0.0, 0.0, 0.0, 0.0, 0.0, 0.0, 0.0, 0.0, 0.0, 0.0, -271.0, 0.0, 0.0, 830.0, 0.0, -502.0, 0.0, 0.0, 454.0, 0.0, 0.0, 0.0, 327.0, 0.0, 0.0, -1679.0, 0.0, 0.0, 0.0, 0.0, 1271.0, 0.0, 0.0, 0.0, 0.0, 0.0, -1860.0, 0.0, 0.0, 0.0, 0.0, -2198.0, 830.0, 0.0, 0.0, 0.0, 582.0, 0.0, 0.0, 0.0, 0.0, 0.0, 0.0, 0.0, 0.0, 702.0, 0.0, -931.0, 743.0, 0.0, -1135.0, 0.0, -657.0, 0.0, 122.0, 0.0, 0.0, 0.0, 0.0, 1359.0, -519.0, -665.0, 903.0, 0.0, 0.0, 0.0, 0.0, 0.0, 0.0, 0.0, -1160.0, 0.0, 0.0, 327.0, 0.0, 0.0, 0.0, 0.0, 0.0, -1419.0, 0.0, 0.0, 0.0, 0.0, 0.0, 0.0, 0.0, 0.0, -609.0, 0.0, 0.0, 582.0, 0.0, 0.0, 0.0, 0.0, 0.0, 0.0, 0.0, 0.0, 0.0, 1271.0, -665.0, 0.0, 0.0, -1135.0, 0.0, -1561.0, -953.0, 454.0, 0.0, -1480.0, 1234.0, 533.0, -271.0, 0.0, 0.0, 0.0, -271.0, 0.0, 0.0, -812.0, 0.0, 977.0, 0.0, 0.0, 790.0, -1732.0, 830.0, 0.0, -1213.0, 0.0, 0.0, 0.0, 0.0, 0.0, 0.0, 0.0, 0.0, -665.0, 0.0, -519.0, -1213.0, 0.0, 0.0, -812.0, -5.0, 0.0, 0.0, 0.0, -1213.0, 446.0, -1023.0, -488.0, 0.0, 0.0, 533.0, 1068.0, -1213.0, 0.0, 0.0, 0.0, 382.0, 0.0, -271.0, 0.0, 1359.0, 0.0, 256.0, 1519.0, 0.0, 0.0, -167.0, 0.0, 0.0, 0.0, 0.0, -519.0, 0.0, 0.0, 0.0, 0.0, 533.0, 0.0, 0.0, -167.0, -167.0, 0.0, 0.0, 0.0, 0.0, 0.0, -1535.0, 0.0, 0.0, 0.0, 0.0, 0.0, 0.0, -271.0, 0.0, 0.0, 0.0, -2682.0, 0.0, 0.0, 0.0, 0.0, 0.0, 0.0, 0.0, 0.0, 1275.0, 0.0, 0.0, 0.0, 0.0, 122.0, 0.0, 0.0, 0.0, -657.0, 0.0, 0.0, 0.0, 0.0, 0.0, 0.0, 0.0, 0.0, 0.0, 0.0, -1480.0, 0.0, 0.0, -271.0, 0.0, -1341.0, 0.0, 0.0, 0.0, 0.0, 0.0, 0.0, 0.0, 0.0, -1817.0, 0.0, 0.0, 0.0, -1808.0, -953.0, 0.0, 0.0, 0.0, 0.0, -953.0, 454.0, 0.0, 0.0, -1419.0, 0.0, 1423.0, 0.0, 0.0, 743.0, 0.0, -790.0, 2242.0, 1423.0, 1710.0, 0.0, 0.0, 0.0, 0.0, -609.0, 0.0, 0.0, 0.0, -107.0, 0.0, 0.0, -1109.0, -519.0, -812.0, -953.0, 0.0, -1341.0, 2133.0, 122.0, 0.0, 0.0, 0.0, -1160.0, 0.0, 234.0, 0.0, 1519.0, -1327.0, 256.0, 0.0, 0.0, 0.0, 0.0, 0.0, 0.0, 0.0, 0.0, 0.0, 0.0, 0.0, 0.0, 0.0, 2790.0, 1598.0, 256.0, -1038.0, 0.0, -5.0, 67.0, -1213.0, -562.0, 0.0, 0.0, 533.0, 1111.0, 0.0, 0.0, 0.0, 0.0, 0.0, 0.0, 533.0, -1341.0, 0.0, 0.0, 0.0, 168.0, 0.0, 0.0, 0.0, 234.0, 191.0, 0.0, 0.0, 0.0, 0.0, 0.0, 0.0, -1254.0, 0.0, 0.0, 0.0, -812.0, 0.0, 0.0, 582.0, 0.0, 0.0, 0.0, -1135.0, -5.0, 0.0, -1213.0, 0.0, 0.0, 0.0, -1099.0, 1138.0, -1256.0, 0.0, 1111.0, -1109.0, -1026.0, -519.0, 0.0, 0.0, 790.0, 0.0, -519.0, 0.0, 0.0, 0.0, 0.0, 1111.0, 0.0, -271.0, 1138.0, 0.0, -519.0, 0.0, 0.0, 0.0, 191.0, 0.0, 1138.0, 0.0, 0.0, 0.0, 0.0, 0.0, 0.0, 533.0, 0.0, 600.0, 0.0, 0.0, 0.0, 0.0, 0.0, 0.0, 0.0, 0.0, -1341.0, 3097.0, 0.0, 0.0, -1109.0, -1341.0, 0.0, 0.0, 0.0, -812.0, 0.0, 1519.0, 168.0, 0.0, 0.0, 168.0, -260.0, 0.0, 0.0, -1485.0, 0.0, 0.0, -1419.0, 0.0, 0.0, 0.0, 0.0, 0.0, 0.0, 0.0, 0.0, 0.0, 0.0, 1519.0, 0.0, 903.0, -271.0, -609.0, 0.0, 0.0, 0.0, 0.0, -1654.0, 0.0, 0.0, 0.0, 0.0, 0.0, 0.0, 0.0, 0.0, 0.0, 0.0, 0.0, 229.0, 0.0, 0.0, 2137.0, 0.0, 0.0, 0.0, -953.0, 0.0, 0.0, 0.0, 0.0, 0.0, -609.0, 0.0, 0.0, 0.0, 0.0, 0.0, 0.0, 0.0, 0.0, 0.0, 0.0, -609.0, 0.0, 0.0, 0.0, -1160.0, 743.0, 0.0, 0.0, 122.0, 0.0, 0.0, 1234.0, -5.0, 0.0, 0.0, 0.0, 0.0, -1099.0, -1056.0, 0.0, 0.0, 0.0, 0.0, 0.0, 0.0, 0.0, 0.0, -1999.0, 0.0, 1519.0, 168.0, 0.0, 0.0, 234.0, 0.0, 0.0, 0.0, 0.0, -886.0, 0.0, -260.0, -931.0, 2436.0, -519.0, 0.0, 0.0, -812.0, 1046.0, -1109.0, 0.0, -1341.0, 0.0, 0.0, 1298.0, 0.0, 0.0, 0.0, -271.0, 0.0, 0.0, 1519.0, 256.0, 0.0, 0.0, 0.0, 0.0, 582.0, -167.0, 0.0, -260.0, 0.0, 256.0, 1234.0, 256.0, 0.0, 0.0, 359.0, 0.0, -1341.0, -967.0, 0.0, 0.0, 0.0, 533.0, 0.0, 0.0, 0.0, 0.0, 0.0, 0.0, 0.0, -1341.0, 0.0, 830.0, 0.0, -665.0, 0.0, -1160.0, 0.0, 0.0, 0.0, 743.0, 0.0, 1298.0, 0.0, 0.0, 0.0, 0.0, 0.0, 0.0, 0.0, 0.0, 0.0, 0.0, 1423.0, -102.0, 0.0, 533.0, 0.0, 0.0, 0.0, -1419.0, 0.0, 0.0, 0.0, 0.0, 0.0, 0.0, 3280.0, 0.0, -2292.0, 0.0, 2397.0, -244.0, 0.0, 0.0, 0.0, 0.0, 0.0, 0.0, 0.0, 0.0, -167.0, 0.0, 0.0, 0.0, 0.0, 0.0, 0.0, 0.0, 0.0, -657.0, 0.0, 0.0, 0.0, 0.0, 0.0, 0.0, 0.0, -1099.0, 0.0, -1099.0, 582.0, 0.0, 0.0, 0.0, 2931.0, 0.0, 0.0, 0.0, 0.0, 0.0, 0.0, 0.0, 0.0, 0.0, 0.0, 0.0, 533.0, 0.0, 1519.0, 0.0, 0.0, 0.0, 168.0, -5.0, 0.0, 0.0, 128.0, 327.0, 0.0, 0.0, -5.0, 0.0, 0.0, 0.0, -640.0, 0.0, 0.0, 673.0, 0.0, -519.0, 0.0, 0.0, 0.0, 0.0, -1160.0, 0.0, 0.0, 0.0, 0.0, 0.0, 0.0, 1519.0, -1213.0, 415.0, 0.0, 0.0, 0.0, 0.0, 0.0, 533.0, 0.0, 0.0, -1099.0, 0.0, 0.0, -75.0, -1480.0, 0.0, 0.0, 0.0, 0.0, 256.0, 0.0, -953.0, 0.0, -1380.0, 272.0, 0.0, 790.0, 0.0, 0.0, 0.0, -1480.0, 0.0, 0.0, 0.0, 981.0, 0.0, 0.0, -519.0, 0.0, 0.0, 0.0, 0.0, -260.0, 0.0, -132.0, 0.0, 0.0, 0.0, 0.0, -609.0, 0.0, 0.0, 0.0, 1234.0, -1109.0, 0.0, 0.0, 0.0, 0.0, 0.0, 0.0, 191.0, 0.0, 0.0, 0.0, 0.0, 0.0, 0.0, -1099.0, 1138.0, 0.0, 0.0, -244.0, -1480.0, 0.0, 82.0, 0.0, 0.0, 0.0, 0.0, -519.0, 0.0, -1099.0, 0.0, 0.0, 0.0, 0.0, 0.0, 0.0, 1234.0, 0.0, 168.0, 0.0, 1519.0, 0.0, -519.0, 903.0, 2463.0, 0.0, 0.0, 0.0, 0.0, 0.0, 0.0, 0.0, 0.0, 401.0, 0.0, 0.0, 0.0, 0.0, 0.0, 0.0, 0.0, 0.0, 0.0, 1000.0, 1519.0, 0.0, 39.0, -1480.0, 0.0, 0.0, 903.0, -271.0, 0.0, 0.0, 0.0, 0.0, 0.0, -665.0, 0.0, 0.0, 0.0, 0.0, 0.0, 582.0, 0.0, -1135.0, 191.0, 0.0, -1099.0, -10.0, 0.0, 0.0, 0.0, 0.0, 0.0, 0.0, 0.0, 0.0, 0.0, 0.0, -953.0, 0.0, 2400.0, 0.0, 0.0, 1298.0, 0.0, 0.0, 1846.0, 0.0, 743.0, 0.0, 0.0, 0.0, 0.0, 191.0, 1423.0, 0.0, 0.0, 0.0, 0.0, -1312.0, 0.0, 0.0, -167.0, 0.0, 0.0, 0.0, 0.0, 0.0, 0.0, 256.0, 2264.0, -1341.0, 0.0, 1298.0, 0.0, 0.0, 0.0, 234.0, 0.0, 0.0, 0.0, 0.0, 0.0, 0.0, 0.0, -167.0, 0.0, 0.0, 582.0, 0.0, 1423.0, 0.0, 0.0, 0.0, 0.0, 0.0, 0.0, -812.0, 0.0, -737.0, 0.0, -519.0, 0.0, 0.0, 327.0, 0.0, 0.0, 0.0, 0.0, 0.0, 0.0, 0.0, 582.0, 0.0, 0.0, 122.0, 0.0, 0.0, 0.0, 0.0, 0.0, 0.0, 0.0, 0.0, 0.0, 0.0, 0.0, -501.0, 0.0, 0.0, 0.0, 0.0, 0.0, 0.0, 0.0, 0.0, 0.0, 0.0, 0.0, 0.0, 0.0, 0.0, 0.0, 0.0, -271.0, 830.0, 0.0, -260.0, 1423.0], "w": [8.0, -2.0, -1.0, -0.25688661114670086, -1.0, 0.0, 4.0, 3.168481742472774, -6.341447789878283, 0.0, 2.0, -3.0, 2.288276745675849, 2.0, -3.0, -1.0, 0.6912235746316464, 0.0, 1.42152466367713, 3.89237668161435, 0.7040358744394619, -3.0, -1.1057014734144779, 2.0, -6.0, -1.5944907110826394, 1.0, -3.0, 0.2709801409352979, 0.0, -1.0, -3.0, -3.0, -3.0, -0.2908392056374119, 2.6969891095451635, -5.0, 4.0, 0.0, -1.0, 2.0, 4.0, 0.0, -2.0, 0.877642536835362, 2.270980140935298, -2.0, 8.0, 0.6886611146700833, 2.0, -4.0, -4.0, 0.0, 2.0, -2.0, 6.850096092248559, 0.0, -4.0, 2.0, -1.0, -4.0, 1.0, 1.088404868673927, -2.0, -2.8334401024983986, 1.0, -1.8930172966047405, 0.026905829596412523, -3.0, -6.2280589365791155, 2.0, 7.0, 4.0, -1.0, -3.0, -2.0, 4.0, 0.14541960281870603, -2.0, 0.0, 1.0, 1.1665598975016016, 0.26649583600256244, 2.191543882126842, 1.0, -4.0, 1.0, 5.524023062139654, -1.0, 2.0, -2.0, 0.4208840486867393, -2.0, -4.0, -3.0, 0.0, 3.0, 3.0, 6.468289557975656, -3.675208199871877, -4.0, 0.0, -2.5060858424087122, -4.0, -3.0, 0.0, -3.0, -1.0, 1.0, 4.10698270339526, 0.2754644458680333, 0.0, 0.0, 0.0, -1.0, -5.081358103779628, -1.0, -4.0, -0.9967969250480462, 1.90903267136451, -7.256886611146701, -3.0, -1.0, 2.1665598975016014, -1.0, -0.10762331838565023, 1.0, 0.0, -3.0800768737988466, 2.0, 1.0, -2.0, -4.0, -0.5060858424087123, -7.0, 7.0, 5.0, 3.0, -1.5989750160153748, 4.0, -1.0, -3.6675208199871876, 0.0, -1.0, 1.4260089686098656, -2.1223574631646382, 0.0, 3.1473414477898785, -3.0, -1.4311338885329916, 2.0, -1.0, -1.2088404868673928, 2.4939141575912878, 2.4939141575912878, 2.0, 2.0, 5.664958360025625, 1.0, 2.903907751441384, 2.0, 2.704035874439462, -3.0, -4.609865470852018, -2.0, -2.0, -1.0, -5.0, 1.0, -2.0, -5.870595771941064, 2.0, 0.0, -3.0, -3.0, -3.6527866752082, -2.0, -2.0, -9.367713004484305, 2.0, 1.0, -1.8930172966047405, -3.0, 3.2927610506085845, 0.0, 2.0, 0.0, -0.34144778987828317, 3.0, 0.0, 2.0, -0.57847533632287, -1.0, -3.09096732863549, 1.0, -2.9730941704035874, 0.0, 3.0, -3.0, 0.9525944907110826, -6.11595131326073, 5.088404868673927, -1.8263933376041, 1.0, 2.0, -2.0, 2.003203074951954, 4.704035874439462, 6.0, 0.0, -0.8263933376040999, 0.0, 1.0, -6.332479180012812, 5.627162075592569, -3.0, 1.0, 4.159513132607303, -3.0, -2.0, -7.479820627802691, 0.0, 0.0, 0.0, -1.0, -2.0, -2.0, 0.0, -3.0781550288276747, 3.0, 1.0, -3.0, -6.0, -2.0, 3.8776425368353618, 4.9468289557975655, -2.0, 6.0, 1.0, -2.479820627802691, 6.0, 0.0, -1.0, -1.0, 0.0, 1.0, -4.714285714285714, -3.0, 1.0, 5.0, 4.0, -2.0, -5.0, -2.0, -0.2959641255605381, 3.0, -3.0, -2.0, -4.0, 0.0, 1.6585522101217167, 2.0, -1.4798206278026906, -1.0, -3.0, 0.7905188981422165, 1.0, 1.0, 1.0, -1.0, -1.0, -2.0, 0.5201793721973094, -6.0, -2.0, -2.0, -2.0, 5.3408071748878925, 2.0, 1.0, 0.0, -4.996796925048046, -4.0, -2.051889814221653, -3.0, -1.0, -3.0, -2.3894939141575913, 2.42152466367713, 0.0, 0.0, 5.026905829596412, -2.10762331838565, 5.877642536835362, 0.26201153106982705, 0.0, 4.121076233183857, 0.0, 2.0, 2.0, 4.270980140935298, -1.256886611146701, 1.0, -4.0, 0.0, 0.0, 0.0, -3.0, 1.0, 1.6585522101217167, 0.0, -4.0, 3.0, 3.0, -2.8308776425368354, 1.0, -3.0, -2.0, -3.22293401665599, 1.0, -2.22293401665599, 1.0, -1.0, -1.0, 0.9295323510570148, -4.0, -1.0, 0.9090326713645099, 3.0, -1.0, 2.0, 3.1665598975016014, 5.0, 2.0749519538757206, 5.197950032030749, -3.0, 0.0, 0.0, 2.0, -2.0, -0.6675208199871877, 0.0, -4.0, -2.159513132607303, -2.295964125560538, -5.0, 1.3324791800128124, 3.0, 1.0, 0.0, -6.0, 3.0, -1.0, -1.0, -1.0, -2.0, -1.0, -4.0, 4.8923766816143495, 0.9090326713645099, 1.5278667520819988, -2.8705957719410633, 1.0, 0.0, 4.0, 0.0, -1.0, 0.0, -3.0, -5.0, 0.0, 1.6105060858424087, -1.9711723254324152, -1.0, 5.42152466367713, 0.0, 1.0, 0.0, -2.0, 0.0, -3.0, 4.0, -2.0, 6.77706598334401, -2.0, 1.0, -13.0, 3.1069827033952593, -2.262652146060218, -0.8263933376040999, -2.0, 4.709160794362588, -3.0, -4.831518257527226, -1.0, 0.0, 3.0, 2.0, -0.20948110185778346, -0.25688661114670086, -2.0, -3.7142857142857144, 3.0, 3.0, 2.0, 0.9814221652786675, 1.1294042280589367, -2.0, -2.8142216527866752, 0.0, 1.0, -8.0, -0.3689942344650865, -0.9935938500960922, 1.2094811018577833, -4.0, -8.0, -1.0, -4.0, 2.0, -2.0, -1.0, 0.6585522101217168, -2.0, 1.0, -2.0, 2.0, 1.5791159513132609, 1.0, -2.0, 3.0, 1.0, 7.709160794362588, -7.0, 2.0, 6.0, -1.0, 2.0, 1.0, -2.0, -0.7290198590647021, -3.0, -1.581037796284433, 3.0, 1.0, 4.0, -0.7117232543241512, 1.524023062139654, 0.0, 0.026905829596412523, -1.0, 2.0, -0.20948110185778346, -1.0, -4.0, 2.0, 2.0, -4.0, 2.0, -1.0, 0.8923766816143498, 0.49391415759128765, 2.0, -2.0, -0.16399743754003843, 2.0, -2.0, 1.0, -1.0, -2.0, -6.0, 0.0, 0.026905829596412523, -3.0, -5.0, 0.0, -4.0, -1.57847533632287, -4.0, 2.0, 0.6028187059577194, -2.0, -3.0, -5.0, -1.6675208199871876, 1.0, -2.0, 1.0, 0.0, -3.0, -1.6476617552850736, -1.0, 1.877642536835362, 0.49391415759128765, -1.8930172966047405, -3.442024343369635, -1.4317745035233824, -1.0, -1.8424087123638693, -1.0, 1.0, 3.0, -3.0, 1.0, -4.149903907751441, 2.704035874439462, 3.0, -3.0, -0.2729019859064702, -2.0, 1.90903267136451, 3.0, 10.0, -4.256886611146701, 1.0, 0.0, 1.0, 2.0, -1.475976937860346, 3.0, -1.0, -1.0, 0.0, -1.0, -5.814221652786675, -6.28955797565663, -2.0, 0.0, -3.0, -0.9468289557975657, 1.0, 4.0, -9.0, -2.051889814221653, -4.0, -5.89301729660474, 1.0, 2.743113388853299, -2.8334401024983986, -1.0, -3.0, 2.0, 5.0, 5.0, 1.0, 3.0, -4.147982062780269, 0.427290198590647, -4.0, -2.1223574631646382, -3.0, -6.0, 0.0, -3.0, -1.0, -3.0, 1.0, -1.0, 3.0, -1.5919282511210762, -1.4798206278026906, 0.0, 0.0, 1.0, -1.0, -4.0, 4.130044843049327, 4.0, 2.1319666880204995, -6.0, 5.0, -2.0, -3.0326713645099295, -1.0, -6.0, -4.0, 3.948110185778347, 2.0, 0.0, 0.0, 2.548366431774504, 6.0, -2.3414477898782833, -0.5291479820627802, 1.0, 1.0, -1.3414477898782833, 0.0, -3.6675208199871876, 2.3171044202434334, -2.0, -4.911595131326073, 3.0, 7.0326713645099295, -1.0, -5.609865470852018, -4.0, -2.7194106342088404, 14.630365150544522, 2.0, 1.3324791800128124, 1.0, 0.0, -2.0, -2.051889814221653, 1.0, -0.5791159513132607, -2.0, -3.0, 0.877642536835362, 0.7905188981422165, 2.0, 3.0, 5.426008968609866, 2.0, 1.0, 1.0, 0.0, -1.0, -1.7290198590647021, -3.0, 1.0, -3.549007046764894, 0.0, 1.8654708520179373, -1.0, -0.9967969250480462, -3.0, -2.0, 0.5682254964766176, -3.0, 6.0, -4.0, -6.0, 1.7700192184497117, 4.0, -2.0, -5.0, 0.7796284433055733, 2.0, 4.0, -2.0, 0.0, 1.0, -4.479820627802691, 3.0, -1.0, 1.0, 0.0, -1.0, 0.0, -2.1639974375400386, 1.0, 6.0, 0.0, 2.0, -3.1185137732222934, -3.0, 0.524023062139654, -3.0, -1.0, 0.0, -1.0, -2.0, -0.4817424727738629, 0.0, -3.8930172966047407, -2.0, -2.0, -2.0, 4.0, 0.0, -1.0, 1.0, -3.4317745035233824, -4.0, -1.0, -1.0, 0.0, 3.0, 4.0, -2.0, -1.0, -2.410634208840487, -3.0, 3.0, -10.0, -2.0, 1.0, 0.0, -1.295964125560538, 2.0, -2.0, 4.0, 1.0, -5.0, 3.0, 0.49391415759128765, 2.0, 2.0, -1.281870595771941, -1.0, -4.0, 0.0, -2.0, 1.524023062139654, -0.47982062780269064, 0.0, 0.0, -5.0, -5.0, -3.0, -2.6675208199871876, -2.0, 1.0, -2.0, -4.0, 0.026905829596412523, -1.0, -1.0, -6.22293401665599, 1.0, 0.0, 0.0, -2.2818705957719407, -0.5739910313901345, -1.0, -4.0, -4.0, 0.0, -2.0, 5.0, 3.0, 1.0, 2.0, -4.0, 1.524023062139654, 0.0, 3.270980140935298, -4.0, 0.43946188340807174, -1.0, -4.0, 2.524023062139654, -4.0, 8.0, 3.0, -3.0, 3.8955797565663035, -6.0, -3.974375400384369, -4.0, -2.0, -1.1044202434336963, -3.0, -3.0, -2.147982062780269, 1.2543241511851377, -0.8648302370275465, -5.0, 1.0, 2.1736066623959003, -2.0, 3.0, -2.1377322229340168, 0.6271620755925689, -2.0, -1.0, 1.0, 5.0, 0.7270980140935298, 4.0, 9.0, 6.0, 0.0, -2.0, -2.0, 4.0, -4.0, -1.9967969250480462, -2.0, -3.0, 3.0, -2.0, -2.0, 5.71044202434337, -2.639974375400384, -2.372837924407431, 7.0, -3.0, 2.0, -3.0, -4.573991031390134, -1.0, 0.0, -2.0, -3.0, 0.0, -3.0, 0.0, -2.0, 0.0, 0.0, -5.0, 0.0, -1.0, 1.0, -1.219090326713645, -5.0, 1.0, -2.0, 1.156310057655349, -1.0, -1.8930172966047405, -5.0, -1.0, 2.0, 5.288276745675849, 0.0, 4.0, -2.0, 0.0, 1.0, 2.0, 2.807174887892377, 0.0, -3.5317104420243433, 1.0, 2.911595131326073, 4.0, 2.1563100576553493, -0.28955797565663033, -1.0, -4.0, 3.088404868673927, 4.0, -3.0, 0.0, -1.0, 2.0, 3.0, -1.0, -6.0, 0.0, 1.0, 0.0, 1.0, 3.0, -1.0, -2.0, -2.579115951313261, 1.0, 2.2344650864830236, 2.0, -5.0, -4.833440102498399, 1.0, 2.0, -2.0, -4.0, -2.0, -0.37283792440743113, -3.0, 2.0, 1.0, -2.0, -1.0, 1.0, 1.2985265855221013, -5.27290198590647, 1.0, 5.6969891095451635, 0.0, -5.0, 2.0, -4.0, 4.0, -7.0, 2.0, -2.2094811018577833, 0.0, 1.0, 3.0, 3.0, -1.0518898142216528, -8.8263933376041, 3.0, -1.0, -1.0, -3.0, -5.0, -3.0, 1.1069827033952595, -1.0, -2.0, -3.0, -1.0, 0.0, -4.0, -2.0, 3.0, 0.0, 0.0, -5.0, 4.0, 2.0, 2.0, -1.0, -0.9967969250480462, -2.295964125560538, 0.0, -2.2299807815502883, 1.0, 0.0, 2.0, -4.295964125560538, 0.0, -2.0, 2.003203074951954, -0.726457399103139, 5.640614990390775, 0.0, 0.5201793721973094, 0.0, -0.8263933376040999, -3.0, -1.0, 3.0, -4.0, 0.0, -5.22293401665599, 0.0, -2.0, 1.743113388853299, 2.0, 5.550288276745676, 2.0, 8.631005765534914, -2.1223574631646382, 1.0, -2.0, -2.0, 5.0, 1.4208840486867393, -1.0, 1.0, 4.0, 3.0, 4.0, 5.0, -2.8930172966047407, 3.0, 2.420884048686739, -6.0, 1.0, 0.0, 0.026905829596412523, -1.0, -2.0, -3.0, 2.0, -1.0, -8.0, -8.0, 5.332479180012812, -3.0, -2.9730941704035874, 0.0, 4.0, -3.7905188981422167, -4.345932094811019, 1.0, 1.0, -4.0, 2.0, -2.0, -2.0, 1.0, 0.0, 0.0, -3.0, -3.0, 1.0, 0.0, 3.0, 0.0, 5.0, -2.0, -0.37283792440743113, 4.0, 1.7104420243433696, -2.0, -0.22293401665598978, 2.0, -4.0, 3.0, 0.0, -5.140935297885971, 0.0, 1.0, -2.0, -4.0, -2.0, -4.575912876361307, -4.911595131326073, 0.0, -2.5317104420243433, 0.0, 0.34144778987828317, -1.0, -2.579115951313261, -2.0, -3.0, 4.0, 0.0, -0.7290198590647021, -3.0, -1.0, -4.40486867392697, -4.290839205637412, -2.0, 8.0, -2.0, 5.0, 1.0, -1.0, -3.0, -1.0, 0.0, 2.0, 1.0, 7.1736066623959, 1.0, 0.0, -1.5317104420243433, 0.0, 0.3215887251761691, -3.0, 1.0, 6.709160794362588, -1.0, 0.0, 1.0, 2.7905188981422167, 0.0, -2.0, -7.924407431133888, -1.0, -3.0, -4.0, -1.0, 6.185778347213325, 0.0, 2.0, -2.0, 2.0, 1.0, -2.808456117873158, -3.0, -1.0, 1.0, 2.0, -4.591928251121076, 0.46828955797565663, 2.0, 1.0, 2.0, 4.627162075592569, -7.0, -1.0, 1.0, 1.0, 3.0, 3.0, -1.0, 0.0, -2.449711723254324, 1.0, 0.5964125560538116, 2.524023062139654, 0.0, 0.7270980140935298, 0.0, -4.579115951313261, 2.0, 0.9218449711723254, 0.0, 1.0, 4.0, -1.0, -2.8705957719410633, -1.6675208199871876, -0.5739910313901345, -0.57847533632287, -3.0, 1.0, -1.0, 2.0, -6.0, -1.0, 0.0, -2.256886611146701, -3.0, 2.0, 0.7905188981422165, -5.0, -2.0, -1.0, 0.0, 1.0, -2.09096732863549, 2.0, -1.0, 10.0, 2.0, 0.0, 1.0, -1.0, 0.0, -0.6098654708520179, -5.0, -1.0, -0.37283792440743113, -1.0, 0.0, -7.0, 1.0, 1.0, -2.0, -7.0, -3.0, 0.0, -1.8142216527866752, -2.5739910313901344, 5.0, 0.0, -3.2729019859064703, 3.0, 1.0, -6.389493914157591, 1.7091607943625882, 2.0, -3.051889814221653, -2.7905188981422167, -4.341447789878283, -2.8263933376040997, 1.0, 3.0, 1.0, -0.8263933376040999, 5.0, 1.0, 5.520179372197309, -2.0, -2.6258808456117873, -4.0, -1.0, -0.5060858424087123, -7.890454836643178, -0.5317104420243434, 4.0, -4.22293401665599, 1.0, 0.0, -2.0, -2.0, -1.0, -1.0, 6.0, 1.0, -5.573991031390134, -3.0, -4.667520819987188, -0.22293401665598978, 4.0, 4.0, 1.5201793721973094, -1.9967969250480462, 7.0, 1.0, 0.0, 0.7770659833440102, 2.7142857142857144, -4.344650864830237, -3.687379884689302, -1.0, 2.0, 0.6585522101217168, 5.315823190262652, 0.7770659833440102, 0.0, -3.0, -2.0, 3.755285073670724, -4.0, 3.1736066623959003, 0.0, -0.8705957719410634, 1.0, 1.8360025624599616, 1.0269058295964126, 0.0, 4.0, -0.8930172966047405, 0.0, 0.0, 0.0, -1.0, -2.6675208199871876, -1.0, -2.0, -2.0, -1.0, -2.3414477898782833, -2.0, -3.0, -3.8930172966047407, 1.1069827033952595, -1.0, 0.0, -2.0, -3.0, -3.0, -4.01665598975016, 10.0, -2.0, 0.0, 4.0, 1.0, -2.0, -2.8263933376040997, -3.0, -1.0, 1.0, -1.281870595771941, 4.0, -2.0, -2.0, 1.0, 3.0, -3.0, -1.0, -5.0, -3.8167841127482385, 1.0, -5.0, -1.0, 0.0, 1.9218449711723253, 4.0, -4.0, 0.0, -2.579115951313261, 1.0, -2.0, 1.0, 1.0, 1.0, 1.0, 0.0, 1.0, 1.0, -5.0, -4.051889814221653, 0.0, -2.0, -4.8263933376041, 2.0, 5.859064702114029, 1.0, 1.0, 0.0, 2.0, -3.0, -1.0, -1.0, 2.0, -1.8360025624599616, 2.0, -3.0, 5.0, -0.8417680973734785, 0.6105060858424087, 2.0, 1.0, -4.0, 3.0, -1.3894939141575913, -3.290839205637412, 0.0, 4.0, 0.9090326713645099, -1.0, 1.088404868673927, -4.0, -4.0, 2.524023062139654, 0.0, -1.4939141575912878, -2.4362588084561176, 4.088404868673927, -0.09545163356822539, 0.0, 2.0, 0.0, -1.0, -0.6098654708520179, -1.0, 1.0, 0.0, 1.068545803971813, -5.0, -1.0, 1.7104420243433696, 3.3324791800128124, -3.479820627802691, -0.38949391415759127, -2.0, -10.14093529788597, -2.3664317745035235, 2.9218449711723253, 0.0, -2.0, 0.0, -1.256886611146701, 1.0, -0.14990390775144138, -3.0, 4.026905829596412, -2.1499039077514412, -4.163997437540038, 3.0, -1.0, 0.0, 0.0, -2.0, -1.0, 3.0, 0.0, 0.0, 2.0, 2.0, -1.0, 1.0, 3.2126841768097374, 0.9762972453555414, 0.8360025624599616, -4.335041639974375, 2.0, -7.996796925048046, 2.957078795643818, 1.7770659833440101, 1.3600256245996156, -1.0, 0.0, 0.6585522101217168, 0.2882767456758488, 3.0, 2.0, 2.0, 0.0, -1.0, 2.0, 3.6585522101217167, 4.859064702114029, 2.0, 4.0, -1.0, 2.89237668161435, -1.0, 1.0, 1.0, -0.14990390775144138, 2.8776425368353618, 5.0, 2.0, -2.0, -2.0, -1.0, -4.0, 0.803331197950032, 2.0, 0.0, 1.0, 0.5201793721973094, -7.0, -2.0, -3.372837924407431, 1.0, 0.0, -2.0, -0.2729019859064702, -2.996796925048046, 2.0, 5.77706598334401, 1.0, -1.0, 1.0, 3.704035874439462, -4.729019859064702, -0.19538757206918644, 1.0, -1.7117232543241512, 1.7104420243433696, 1.6572709801409353, 2.3324791800128124, 0.0, 0.0, -3.5060858424087122, 1.0, -2.6675208199871876, 1.0, -2.0, -1.0, -1.0, -6.711723254324151, -1.0, -0.8263933376040999, -4.729019859064702, -1.0, -0.6675208199871877, 1.0, 1.0, -10.0, -0.12235746316463805, -7.0, 1.2709801409352979, 0.0, -1.0, -3.0, -3.0, -1.0, -7.0, -0.34144778987828317, 0.0, 6.615631005765535, -3.0, 0.0, -2.0, 1.0, 7.0, 0.0, -1.0, -1.0, -3.1409352978859704, -0.9839846252402307, -1.0, 2.0, -4.28955797565663, -3.1409352978859704, -3.0, -1.0, 0.0, -0.47982062780269064, 0.0, -1.9730941704035874, 0.8923766816143498, 0.0, -4.0, -2.10762331838565, 1.1665598975016016, -1.0, -3.0, -1.0486867392696988, -1.0, -1.0, 0.9090326713645099, 6.0, 1.0, 1.0, -1.0, 1.0, -2.0, 1.0, 3.0, -5.0, -5.0, 3.0269058295964126, 5.0, -2.57847533632287, -2.8263933376040997, 1.390134529147982, 5.0, -8.0, -2.0, -2.0, 4.0595771941063425, -2.0, -4.0, -4.0, 1.0, -1.0, 2.0, -3.0, 1.0, -1.0, 2.0, 0.0, -0.1467008327994875, -2.0, 0.0, 4.631005765534914, 3.0, -4.0, -1.0, -2.3894939141575913, -1.0, 0.0, -4.0, 1.0, -3.0, 3.390134529147982, -6.0, 1.0, -1.0, -1.0, 3.0, 3.0, 0.0, -1.0, -1.0, -3.0, -3.609865470852018, -2.0, -2.0, -3.0, -1.256886611146701, 3.524023062139654, 1.0, -1.0, 4.921844971172326, 5.0, -6.0, -1.7905188981422167, 0.0032030749519538757, -1.0, 1.0, 1.0, -1.0, -3.295964125560538, 0.6764894298526586, -6.0, -2.0, 0.0, -1.0, 0.0, 1.0, -8.0, -1.0, -4.71941063420884, -2.0, 3.0269058295964126, 3.89237668161435, -2.0, 0.0, -0.14990390775144138, 1.0, -3.0, -5.0, -4.0, 5.567584881486226, 0.0, 0.16655989750160155, 1.5964125560538116, 2.4394618834080717, -1.6675208199871876, 3.0, 0.0, -3.479820627802691, 2.329916720051249, -5.28955797565663, 3.0, -2.1409352978859704, -2.0, 0.0, 4.168481742472774, -7.0, 1.0, -4.0, -2.8263933376040997, 0.0, 1.0, 2.0269058295964126, 7.836002562459962, 0.0, 0.0, 9.0, 1.0, 0.6271620755925689, -1.8930172966047405, 1.0, 0.16655989750160155, -2.0, 0.8360025624599616, 4.209481101857784, -0.16399743754003843, -1.0, 2.0, 3.7700192184497117, -3.0, 2.8590647021140296, 6.619474695707879, 5.0, 0.0, -2.0, 4.658552210121717, 0.0, 2.0, 0.0, -3.0, -5.0, -4.0, -3.0, 6.859064702114029, -1.0, -0.5317104420243434, 3.0, 0.4260089686098655, -1.0, 1.743113388853299, -5.0, -5.0, -1.0, 1.524023062139654, 0.0, -1.8315182575272262, 1.0, 1.0, -1.0, -2.0, -6.0, 3.0, 3.0, 1.0, -3.0, 8.0, -3.911595131326073, -0.934657270980141, 1.0, -2.3414477898782833, 1.0, -4.0, 5.0, -3.09096732863549, 0.0, 1.0, 1.0, 1.0, -6.0, 2.0, -2.1012171684817424, 0.0, 1.4682895579756565, 1.0, 3.464445868033312, -2.8436899423446507, -1.0, 0.0, 4.0, -3.0, -4.0, -4.0, 1.0, 0.0, 1.1069827033952595, -2.0, -4.0, -2.0, -1.0, 1.0, -1.0, -5.0, 2.0, -0.5791159513132607, 1.0, 5.0, -1.0, -1.0, 3.0, -1.0, -5.0, -0.2959641255605381, -1.0, -2.295964125560538, 2.627162075592569, -6.0, -4.0, 0.0, -0.877642536835362, 1.0, 1.0, 2.0, 0.0, 0.0, 0.0, -9.0, -1.0, 3.0, -3.0, -1.0, 3.6585522101217167, -6.0, -2.9730941704035874, 1.0, 0.0, -1.0, -0.10762331838565023, -2.996796925048046, -3.0, 1.0, -8.08199871877002, -2.2094811018577833, 0.0, -2.0, -6.996796925048046, 0.0, -1.0, 0.0, 2.4099935938500963, -1.0, -5.0, -4.431133888532992, -3.0, 3.3324791800128124, 1.0, 4.0, 0.0, 1.0, -1.256886611146701, 4.0, 1.0, -2.0, 1.0, -5.0, -1.0, 1.0269058295964126, -0.22293401665598978, 0.7341447789878284, 6.0, -2.0, -1.0, 0.0, -2.0, -2.3414477898782833, 0.0, 3.0, 0.7040358744394619, 1.0, 4.0, -1.9519538757206918, -0.05188981422165284, -4.0, 2.0, -1.0, -1.0, 2.8360025624599614, 4.0, -6.389493914157591, 1.0, 3.88404868673927, 1.8257527226137091, 0.0, -1.5060858424087122, -4.0, -1.0, 1.0, -5.051889814221653, 0.0, 0.0, 1.0, 1.3715566944266495, -7.0, -1.0, -2.6675208199871876, -3.0, 4.0, -1.0, -6.0, -3.8334401024983986, -3.0, -3.9154388212684177, 4.0, 0.0, 0.0, 2.0, 1.390134529147982, 4.0, 2.0, -1.0, -2.7905188981422167, 4.71044202434337, 0.0, -2.0, 0.0, -3.0, 1.0, -2.0, -0.12235746316463805, 1.0, 0.0, -5.0, -2.0, 2.0, 4.0, -0.2959641255605381, 2.270980140935298, -1.0, 1.0, -0.8436899423446509, -2.051889814221653, 0.0, -0.05253042921204356, -2.0, -4.0, 1.0, -2.0, -2.6675208199871876, 1.0, -3.295964125560538, -6.0, 2.0, 0.0, 1.0, 1.0, -4.0, 1.2094811018577833, 1.0, 6.8923766816143495, -1.0, 1.0269058295964126, 0.0, -1.6675208199871876, -0.57847533632287, 2.4221652786675207, -4.0, 1.0, 0.0, 4.0, -2.0, -2.0, -1.0, -2.0, 6.743113388853299, 0.0, 2.0, 1.0, -3.0, 1.0, -2.0, 1.0, -7.0, 1.0, -5.640614990390775, 8.026905829596412, 0.0, -2.02498398462524, -2.051889814221653, 2.0, -1.0, -0.57847533632287, -1.8263933376041, 1.0, -2.0, -3.0, 2.0, -1.0, 0.4260089686098655, -3.0, -1.0, 0.0, -5.0, -5.0, -1.3728379244074311, -2.0, -4.27290198590647, 3.8776425368353618, -2.0, -1.295964125560538, 4.006406149903908, 1.0, 0.0, 1.0, 1.0, 4.0, -3.0, 0.0, 0.0, 1.0, -5.0, 0.6105060858424087, 1.0, -4.53747597693786, 3.0, 0.0, -1.8315182575272262, -1.0, -2.0, -1.182575272261371, -2.0, -0.47597693786034595, 1.0, -3.0, -2.0, 3.0, 0.877642536835362, -2.911595131326073, -4.0, -1.0, -3.0, 3.0, -0.15951313260730304, 4.0, 0.0, -0.8930172966047405, -2.0, -1.0, 3.0, 2.0, 0.0, -3.0, 0.8360025624599616, -3.450352338244715, 1.8590647021140296, 0.0, -2.831518257527226, -2.0, 1.0, -7.0, -3.1499039077514412, -4.0, -1.0, 1.0, -3.0, 2.0, -1.0, 2.0, -4.89301729660474, 0.0, 0.0, 4.627162075592569, -1.0, -1.911595131326073, -4.0, 1.0, -1.0, 0.0, -1.0, 0.0, -6.479820627802691, 0.0, -1.5278667520819988, 5.0, 4.332479180012812, -3.0, 0.0, 0.7905188981422165, -1.0, 0.0, -5.0, -3.0, 2.0, 3.0, -3.0, 2.627162075592569, 2.0, 1.0, 3.9218449711723253, -1.0, 3.0, 0.0, 1.0, -4.0, 0.0, 0.0, 3.0, -1.0, 0.0, 0.0, 7.320948110185778, 2.0, 3.0, -4.0, 8.0, 0.0, -2.0, -6.0, -1.0, 0.0, 4.0, 0.0, 0.0, -2.0, 3.0, 2.0, -1.0, 1.1736066623959, -2.5317104420243433, 0.0, 2.1665598975016014, 1.088404868673927]}, "Politics": {"count_avg": 6025.0, "b": -30.407302904564315, "beta_avg": 14504.0, "u_avg": [-3277.0, 1697.0, 0.0, -3718.0, 5300.0, -3637.0, 0.0, 3946.0, -587.0, -5999.0, -2215.0, -5999.0, 1560.0, -267.0, 0.0, 6152.0, -641.0, -4801.0, -129.0, 753.0, 1126.0, 205.0, 0.0, 4480.0, -3254.0, -28834.0, -15276.0, 4323.0, 0.0, 0.0, 0.0, -3514.0, -4564.0, 0.0, -2607.0, 947.0, -10447.0, 0.0, -3694.0, -5130.0, 0.0, -5999.0, 2240.0, -776.0, 2061.0, 4381.0, 4635.0, -11176.0, -1984.0, -1112.0, 5537.0, 0.0, -4618.0, 3022.0, -9664.0, 0.0, 0.0, -2147.0, 2858.0, 6860.0, 1.0, 4059.0, 4559.0, 5810.0, 3527.0, 0.0, -3851.0, 756.0, 944.0, -2570.0, 8222.0, 1121.0, 0.0, -4761.0, 0.0, 0.0, 1274.0, -7149.0, -8937.0, 3291.0, 1609.0, 0.0, -7687.0, -424.0, 1381.0, -132.0, 4589.0, 3808.0, 0.0, 2522.0, 0.0, -8391.0, 0.0, -921.0, -1882.0, 0.0, 128.0, -2289.0, 2709.0, 3014.0, -7918.0, 4600.0, -2075.0, -4020.0, -458.0, 0.0, 0.0, 5903.0, -2698.0, -117.0, 0.0, 0.0, 0.0, -3547.0, 3904.0, 11649.0, -10681.0, -2207.0, -4625.0, 5541.0, -4968.0, 0.0, -648.0, 4622.0, -143.0, 0.0, 9297.0, -4394.0, 2681.0, 561.0, 4635.0, -3085.0, -383.0, 7184.0, 0.0, -4932.0, 0.0, 1473.0, 0.0, 2020.0, -5220.0, 4364.0, 0.0, -9905.0, 640.0, 0.0, 4845.0, -4836.0, -2728.0, -6112.0, 8224.0, -534.0, 7810.0, 0.0, 0.0, 0.0, 5352.0, -2808.0, 4436.0, 5051.0, -4365.0, 2930.0, 1683.0, 5427.0, -2408.0, 4753.0, -7431.0, 5106.0, -3425.0, 0.0, 629.0, -5992.0, -13916.0, 10570.0, -683.0, 3600.0, 5541.0, 882.0, -4564.0, 0.0, 0.0, -207.0, -2554.0, -4605.0, 0.0, 3548.0, -4467.0, 1778.0, 6120.0, -4245.0, 640.0, -3189.0, -2834.0, -9356.0, -10922.0, -32.0, 0.0, 4375.0, -749.0, 15579.0, -3966.0, 1286.0, 0.0, 2081.0, -2073.0, 0.0, 0.0, -4231.0, -5183.0, -5999.0, 0.0, 0.0, -4245.0, -1005.0, 0.0, 2170.0, -2530.0, -4248.0, 1527.0, -2949.0, 548.0, 4589.0, 889.0, 0.0, 6830.0, -2408.0, -14790.0, -5277.0, -9012.0, -730.0, -2445.0, -5800.0, 3648.0, 12654.0, 3329.0, -3676.0, 1955.0, -5045.0, 4797.0, 5881.0, -426.0, 1370.0, -4969.0, 0.0, 0.0, -5864.0, -5130.0, 3128.0, 0.0, -731.0, 5338.0, 0.0, 4230.0, 0.0, -35502.0, 5693.0, -1601.0, 0.0, 0.0, -4242.0, 3451.0, 1892.0, 2121.0, 0.0, 3166.0, -912.0, 4124.0, 0.0, -1607.0, 1906.0, 0.0, 0.0, 2354.0, -6880.0, 0.0, -707.0, -3102.0, 6765.0, 2188.0, 5018.0, 2327.0, 6202.0, 8312.0, -4962.0, -3184.0, 0.0, -498.0, 3075.0, 3841.0, 0.0, 0.0, 8612.0, -2035.0, 0.0, -5875.0, 7093.0, -7386.0, 4743.0, -5147.0, 1982.0, -9826.0, 3102.0, 675.0, -3247.0, 0.0, -6911.0, 5566.0, 0.0, 0.0, 4772.0, -7027.0, 0.0, 4224.0, -2408.0, -17132.0, 336.0, -5883.0, 10887.0, 2119.0, 0.0, 7774.0, -2949.0, -3835.0, 0.0, 0.0, 0.0, 2919.0, 0.0, -5454.0, 123.0, -2176.0, 0.0, 3548.0, -21410.0, 1834.0, 3548.0, 0.0, -1166.0, 2759.0, 0.0, 1589.0, -4245.0, -2984.0, 18924.0, 4600.0, 14513.0, -3166.0, 3548.0, 3444.0, 0.0, -3280.0, 4507.0, -3655.0, 4153.0, -1750.0, 5807.0, 5446.0, 5072.0, 0.0, 0.0, -7165.0, 11082.0, -5999.0, -1248.0, 0.0, -2180.0, 0.0, 3085.0, 0.0, 610.0, -2073.0, -5911.0, 0.0, 2251.0, -1968.0, 4248.0, 0.0, 106.0, -196.0, 0.0, 0.0, 0.0, 0.0, 0.0, 0.0, 0.0, 0.0, 3968.0, 22802.0, 6478.0, 1022.0, 0.0, 0.0, 3866.0, -10366.0, 5881.0, -1170.0, 0.0, 3462.0, -7137.0, 0.0, 2386.0, 1931.0, -10756.0, 2710.0, -476.0, -5012.0, 6454.0, -4606.0, 0.0, 2975.0, 8013.0, 6204.0, -11821.0, -921.0, 7718.0, -6252.0, -9156.0, 4544.0, -418.0, 128.0, -1281.0, -5085.0, 0.0, 1609.0, 3128.0, 4295.0, -627.0, -4062.0, 1274.0, -7345.0, -1296.0, 5903.0, -12252.0, 0.0, -4424.0, -1369.0, 0.0, 5315.0, 0.0, -5534.0, -6641.0, -12767.0, 2849.0, 0.0, -7387.0, 0.0, 0.0, -5331.0, 2275.0, -5147.0, 4463.0, 0.0, 0.0, 237.0, -2102.0, -352.0, 9600.0, -776.0, 0.0, -410.0, 1485.0, 392.0, 1434.0, 0.0, -6298.0, 4124.0, -3973.0, -2452.0, 0.0, -6323.0, 0.0, 0.0, -410.0, -16562.0, 0.0, 4714.0, 0.0, 5130.0, 0.0, -3888.0, -4067.0, 0.0, -5883.0, -3162.0, 2913.0, -1306.0, 832.0, 0.0, -3377.0, 0.0, -1628.0, 0.0, 7779.0, -8618.0, -9988.0, 106.0, 9942.0, -15690.0, 0.0, 4124.0, 0.0, 5946.0, 0.0, 8025.0, -19253.0, -1243.0, 606.0, -1226.0, 0.0, 0.0, 0.0, -5999.0, 5018.0, 0.0, -10138.0, 3751.0, -7330.0, 11285.0, 0.0, -1986.0, 9121.0, 0.0, -601.0, -1313.0, -9035.0, 5033.0, -920.0, 2875.0, -13280.0, 2919.0, -654.0, 3295.0, -2755.0, 478.0, -191.0, 5139.0, -12341.0, 0.0, -1611.0, 2045.0, -3861.0, -9404.0, 1617.0, 0.0, 1112.0, 5792.0, 7532.0, -3257.0, 0.0, 0.0, -14009.0, 1093.0, 0.0, 5338.0, 5334.0, 0.0, 2825.0, -4520.0, 0.0, -921.0, 0.0, -5731.0, 0.0, 0.0, -67.0, 2683.0, 2867.0, 0.0, -8271.0, 2919.0, 0.0, 5568.0, 6000.0, -1527.0, 7728.0, 2423.0, 3998.0, 0.0, -2214.0, 13149.0, 0.0, 0.0, -9690.0, -4625.0, 1469.0, 6692.0, -3588.0, 17718.0, 185.0, 6582.0, -3017.0, -5920.0, -1893.0, -4363.0, 1300.0, 13258.0, 10210.0, -2393.0, 2793.0, -2328.0, 0.0, 0.0, 0.0, -1135.0, 4743.0, 0.0, -1812.0, 0.0, -7751.0, 0.0, 3128.0, 0.0, 10013.0, 0.0, -5883.0, 0.0, 4978.0, 0.0, -2278.0, 2335.0, 0.0, -5863.0, 211.0, 3659.0, -3828.0, 0.0, 0.0, 8607.0, 15425.0, -1689.0, 4635.0, 0.0, 5108.0, -5973.0, 7197.0, 0.0, 3841.0, 1319.0, -2892.0, -4606.0, 5315.0, 9965.0, 4600.0, 1331.0, 756.0, 0.0, 6771.0, 0.0, 10743.0, 0.0, 0.0, 4978.0, -10747.0, 2275.0, 0.0, 9966.0, 11346.0, 1580.0, 3555.0, -997.0, -1586.0, -3897.0, 0.0, 0.0, -1910.0, -11376.0, 3714.0, 0.0, 4124.0, 0.0, 3031.0, 0.0, 1034.0, 516.0, 9397.0, 834.0, -8722.0, 2522.0, 0.0, -4564.0, 4124.0, -3138.0, 1301.0, -1187.0, -3897.0, -9222.0, 0.0, -9906.0, -10078.0, 934.0, 1101.0, -4029.0, 0.0, -5949.0, -5363.0, -4396.0, 128.0, 0.0, 0.0, -2834.0, -2892.0, 5830.0, 1262.0, -4564.0, 2275.0, -590.0, 0.0, 0.0, -7314.0, 5549.0, 0.0, 9967.0, -2584.0, 2903.0, 0.0, 7588.0, 4511.0, 0.0, 0.0, -9806.0, -2278.0, -1364.0, -93.0, 0.0, 1602.0, -2636.0, -3013.0, -5130.0, 5253.0, 5807.0, 0.0, 0.0, -7819.0, -5277.0, 2248.0, -2494.0, -2786.0, 5701.0, -2786.0, 14209.0, -3257.0, 0.0, 866.0, 1067.0, 3579.0, 5189.0, 0.0, -3023.0, 0.0, 0.0, -4394.0, 211.0, -5854.0, 0.0, -2328.0, 6403.0, 4846.0, 0.0, 9204.0, -387.0, 9098.0, -5130.0, -7622.0, -1303.0, 428.0, 2539.0, -2949.0, 832.0, 1155.0, -2949.0, 0.0, -6720.0, 1893.0, -921.0, -5452.0, 8553.0, 0.0, -8169.0, 0.0, -11145.0, 0.0, 454.0, -8152.0, -2278.0, 0.0, -5934.0, 1151.0, -2257.0, 3753.0, -117.0, 5156.0, 6335.0, 0.0, -316.0, 21556.0, -5516.0, 0.0, 0.0, -2329.0, -2270.0, -4810.0, -9953.0, 0.0, 15332.0, 0.0, 0.0, -3028.0, 10972.0, 1588.0, 9969.0, -3085.0, 0.0, 11126.0, 0.0, -4231.0, -9957.0, -8011.0, -9714.0, -2021.0, 5541.0, 4928.0, -2019.0, -4262.0, 0.0, 0.0, -9710.0, -12095.0, 10835.0, 2275.0, 4095.0, -1896.0, -4943.0, -5549.0, -5454.0, 0.0, -11683.0, -2073.0, 0.0, 0.0, 0.0, 4364.0, 3020.0, 7483.0, 0.0, 7173.0, 0.0, -1107.0, 1637.0, 12498.0, 4124.0, 0.0, 3134.0, 4491.0, 2240.0, 6038.0, -12004.0, -5411.0, 7244.0, 10706.0, -3697.0, 0.0, 3291.0, 2119.0, 0.0, -1890.0, 5334.0, 128.0, 10493.0, 2240.0, 5029.0, -2069.0, 123.0, 5807.0, 0.0, -5147.0, 2614.0, 3202.0, 7864.0, -6871.0, 0.0, 8898.0, 0.0, -4231.0, -8977.0, 18065.0, 1479.0, 0.0, 0.0, -3897.0, 8298.0, 0.0, 0.0, -4365.0, -2747.0, 5018.0, -8712.0, 1321.0, 5514.0, 1385.0, 1606.0, 0.0, 2326.0, -9646.0, 3134.0, -1281.0, 0.0, 106.0, 3132.0, 3024.0, -106.0, -5030.0, -1420.0, 0.0, 0.0, 4822.0, -4761.0, 2275.0, -2324.0, 5270.0, 0.0, 0.0, -902.0, 0.0, -1842.0, 7415.0, 0.0, 0.0, 832.0, -2892.0, -4742.0, 4928.0, 0.0, -3600.0, 0.0, -374.0, -707.0, -2026.0, 2045.0, 2305.0, 8316.0, 10255.0, 9501.0, -2658.0, 0.0, 0.0, 2722.0, -4245.0, 0.0, 0.0, -4702.0, 0.0, -1107.0, 5403.0, 5107.0, 0.0, 0.0, 6429.0, -2287.0, 9940.0, 944.0, -9405.0, -3438.0, 2509.0, -3085.0, -683.0, 5338.0, -4365.0, 9689.0, 0.0, -12970.0, 0.0, 5352.0, -627.0, 0.0, 0.0, 0.0, 0.0, 1216.0, 0.0, -5355.0, 0.0, 4669.0, 0.0, -5875.0, 2244.0, -2214.0, -2408.0, 6916.0, 2045.0, 123.0, 6000.0, 128.0, -4836.0, 0.0, -707.0, 1224.0, 11537.0, 4635.0, 2671.0, -4336.0, -4508.0, 5334.0, -4323.0, 1568.0, 0.0, -2073.0, 5881.0, 600.0, -5147.0, -123.0, 0.0, -5883.0, 6443.0, 0.0, 0.0, 13381.0, 0.0, -2875.0, -4501.0, 0.0, -4027.0, 0.0, -5179.0, 7214.0, -730.0, -4665.0, -2278.0, 0.0, 7029.0, 14268.0, 0.0, -2408.0, 0.0, 128.0, -5875.0, -1485.0, 1351.0, 4743.0, 2380.0, 2809.0, 0.0, 0.0, 0.0, 0.0, 281.0, 2549.0, 4978.0, -3085.0, 7742.0, 4593.0, 11684.0, 3173.0, 975.0, 0.0, 0.0, -10037.0, 0.0, 3291.0, -1414.0, 0.0, 0.0, -1856.0, 572.0, 4735.0, -5331.0, -17433.0, 5338.0, 0.0, 5069.0, 0.0, -3473.0, -4155.0, -4992.0, 8032.0, 1274.0, -921.0, -6694.0, 0.0, 4569.0, 0.0, -5949.0, 697.0, 0.0, 4124.0, 615.0, -9316.0, 0.0, 0.0, -4138.0, -4564.0, -55.0, 10323.0, 0.0, -7773.0, 3542.0, -5331.0, 0.0, 0.0, 9764.0, -3897.0, 5541.0, 2919.0, 0.0, -4962.0, 0.0, -6374.0, -5222.0, -4155.0, 0.0, 5334.0, 4295.0, 0.0, 2664.0, 6000.0, -4836.0, 0.0, -4050.0, 0.0, 0.0, -7152.0, -1731.0, -4380.0, -1322.0, 5334.0, 2703.0, 0.0, 10068.0, 0.0, -4449.0, 1905.0, 826.0, -6891.0, 6977.0, 3472.0, -8599.0, -5147.0, 2500.0, -2567.0, -4962.0, 7019.0, 0.0, -2023.0, 0.0, -12698.0, -5329.0, 1023.0, -538.0, 8453.0, -2372.0, -7724.0, -4365.0, 0.0, -4521.0, 21611.0, -9969.0, 0.0, 4124.0, -12765.0, 0.0, -13054.0, 0.0, 0.0, 0.0, 0.0, -4245.0, -4753.0, 3472.0, 1301.0, 0.0, 5948.0, -5844.0, -1529.0, -10976.0, -2180.0, 5352.0, -4404.0, -4594.0, -1163.0, 5334.0, 0.0, 0.0, 3968.0, 7031.0, 0.0, 11953.0, 2280.0, -20005.0, -2252.0, 1971.0, 0.0, -3835.0, 9458.0, 3144.0, -2438.0, -6829.0, 0.0, -28.0, 0.0, 6087.0, -1442.0, 882.0, -2442.0, 0.0, 2801.0, 5575.0, 0.0, 1298.0, -1300.0, 0.0, -1164.0, 4045.0, 1381.0, 3495.0, -710.0, 0.0, -1940.0, -2281.0, -5771.0, 1381.0, -2949.0, -7863.0, 9472.0, 15889.0, -8848.0, -455.0, 3641.0, 4714.0, -10617.0, 2275.0, 4699.0, 3325.0, 5514.0, -1804.0, 8390.0, 4440.0, 2843.0, 0.0, 1471.0, 0.0, 0.0, 13495.0, -6098.0, 2212.0, 0.0, -7417.0, -847.0, 7301.0, 0.0, 3059.0, -6685.0, 1149.0, 6244.0, 0.0, -2507.0, -1748.0, 10084.0, -6430.0, 0.0, 0.0, 0.0, -3487.0, -2834.0, -1157.0, -2654.0, 3444.0, 0.0, 3854.0, 0.0, -4779.0, 9555.0, -4702.0, 4451.0, 211.0, 8197.0, 3835.0, -5201.0, -1420.0, 3079.0, 0.0, 0.0, -762.0, -9614.0, 0.0, 0.0, 692.0, 0.0, 4435.0, 4432.0, 0.0, 0.0, -4394.0, 0.0, 5807.0, 4979.0, 3128.0, 0.0, 5251.0, 6210.0, 1876.0, -117.0, 3751.0, -3257.0, 8466.0, 0.0, 832.0, 0.0, 0.0, 0.0, 0.0, 2244.0, 0.0, 4928.0, -2690.0, 1530.0, -5637.0, 2671.0, -4761.0, -7311.0, 5018.0, 14683.0, 0.0, 0.0, 0.0, -93.0, 5196.0, -2592.0, -3037.0, 2864.0, -3309.0, 8739.0, -4508.0, 1479.0, -4265.0, 1311.0, 0.0, 0.0, 0.0, 0.0, -185.0, -399.0, 3841.0, 0.0, -2278.0, -6990.0, 3841.0, 0.0, -724.0, 9801.0, 18798.0, 2916.0, 71.0, 3946.0, -523.0, -3257.0, 22.0, 1878.0, -2910.0, 0.0, 0.0, 0.0, -4062.0, 3366.0, 1369.0, 10640.0, -8515.0, -2382.0, 0.0, -195.0, 7578.0, 2284.0, 2219.0, 123.0, -540.0, -1514.0, 5541.0, 0.0, -4702.0, -2604.0, 4699.0, 18404.0, -3835.0, 0.0, -2949.0, -4508.0, -5586.0, -210.0, -1012.0, 0.0, 5338.0, 0.0, -2892.0, -8740.0, 0.0, -668.0, -1292.0, -11136.0, 0.0, -2150.0, 4869.0, -16652.0, 3128.0, -6605.0, 0.0, 16696.0, 0.0, 0.0, 0.0, -5859.0, -1960.0, 0.0, 12951.0, -4624.0, -951.0, 6594.0, 944.0, 0.0, -2408.0, -5920.0, 947.0, 19010.0, 2371.0, 1834.0, 4687.0, 0.0, -2396.0, -4564.0, 889.0, 546.0, 0.0, -9645.0, 9825.0, -8012.0, 7038.0, 0.0, 611.0, 0.0, -3929.0, -5147.0, -7540.0, 4304.0, 0.0, 0.0, -5103.0, 4555.0, -34577.0, 4823.0, 0.0, -9769.0, -10433.0, 0.0, 0.0, -410.0, 27498.0, 106.0, 8378.0, 7292.0, -3892.0, 0.0, -5331.0, -789.0, 6884.0, 1162.0, -921.0, 0.0, -6.0, -4890.0, 17532.0, 0.0, -5212.0, 1164.0, -3835.0, 2944.0, -3697.0, 2759.0, 4019.0, 0.0, 2329.0, 0.0, 128.0, 0.0, -4474.0, 6561.0, -2467.0, -2278.0, 0.0, -3193.0, -2516.0, -4592.0, 2398.0, 0.0, 5842.0, -2278.0, 0.0, 9052.0, -7572.0, 6483.0, 640.0, 8444.0, -9836.0, 0.0, -10769.0, 5902.0, -4055.0, 4059.0, 5091.0, -2834.0, 0.0, 3444.0, 0.0, -12283.0, -6053.0, -5875.0, 4059.0, 0.0, 1836.0, -4836.0, 5942.0, 0.0, 0.0, 4718.0, -1292.0, 0.0, -9672.0, 0.0, 4364.0, -5908.0, 9808.0, -5331.0, 4295.0, -3291.0, -5331.0, 0.0, -6433.0, -399.0, -4606.0, -1300.0, -2407.0, -4391.0, -418.0, 3803.0, -8761.0, 0.0, 0.0, 756.0, -527.0, 1093.0, -418.0, 3575.0, 2918.0, 7292.0, 1155.0, -564.0, -1300.0, 0.0, -3085.0, 4364.0, -921.0, -13663.0, 3291.0, 2634.0, 0.0, 4376.0, 5106.0, -11507.0, 2804.0, 0.0, 933.0, -5260.0, 0.0, -2123.0, 8566.0, 1443.0, -4050.0, 0.0, 0.0, -3653.0, -4564.0, -5622.0, 0.0, 0.0, -6308.0, 0.0, 2217.0, 0.0, 0.0, -4016.0, -4775.0, -2328.0, 119.0, 0.0, 0.0, -7752.0, 4928.0, 3806.0, -93.0, -725.0, 0.0, 211.0, -1748.0, 0.0, -2157.0, 0.0, -5999.0, 0.0, -4622.0, -1704.0, 236.0, -2259.0, -10901.0, 5745.0, -1972.0, 3854.0, -11867.0, 2418.0, -4372.0, 489.0, -1887.0, 0.0, -9127.0, 892.0, 8623.0, 4057.0, -4606.0, -1514.0, 2354.0, 4717.0, -2582.0, 8294.0, 3854.0, -3651.0, -210.0, 0.0, -4383.0, -4249.0, -4625.0, 1121.0, -2003.0, 0.0, 5807.0, 5678.0, -5970.0, 6140.0, -1689.0, -8891.0, 3128.0, 640.0, 5156.0, 780.0, -1420.0, 10978.0, 0.0, -10139.0, 4398.0, 8108.0, 4295.0, -6048.0, 2354.0, -5399.0, 3329.0, 0.0, 0.0, 10035.0, 1181.0, 5221.0, -5824.0, 1131.0, -993.0, 0.0, 0.0, -4050.0, -2324.0, 0.0, 1479.0, -117.0, 4258.0, 489.0, 0.0, 756.0, 882.0, 1035.0, -4761.0, 0.0, 0.0, 0.0, 4635.0, 3759.0, 0.0, -4110.0, 5946.0, 9865.0, -12238.0, 3751.0, -2486.0, 0.0, -5421.0, -5282.0, -776.0, -7837.0, -5331.0, -1689.0, 10495.0, 0.0, 263.0, 0.0, -1281.0, -543.0, -8701.0, 882.0, 2175.0, 19288.0, -3746.0, 1750.0, 2276.0, 11808.0, 0.0, -1853.0, 0.0, -6935.0, 7473.0, 0.0, 898.0, -4564.0, -5562.0, 0.0, 17170.0, -4606.0, -6314.0, 3128.0, 0.0, 0.0, 2565.0, 4612.0, 201.0, 0.0, -2404.0, 7127.0, 2575.0, 0.0, -457.0, 5440.0, -8725.0, 10316.0, 0.0, -598.0, 5106.0, -3422.0, 0.0, 5903.0, -5429.0, 0.0, 3854.0, 13938.0, -3381.0, 7176.0, 5541.0, -4702.0, -5260.0, 0.0, 1932.0, 2404.0, -3511.0, -8090.0, -1107.0, -5260.0, 128.0, 6467.0, 5903.0, 0.0, -839.0, -1252.0, 0.0, 0.0, 4716.0, -4066.0, 2918.0, -3544.0, 11934.0, -6979.0, -595.0, -6266.0, 4608.0, -4277.0, 12895.0, -6643.0, 0.0, -3511.0, -3711.0, 2240.0, 10055.0, -9576.0, -1586.0, -8039.0, -4365.0, 0.0, 0.0, 0.0, 128.0, 2798.0, -929.0, -6192.0, 0.0, -778.0, 0.0, 0.0, -4625.0, 0.0, 3600.0, 4154.0, -4472.0, 0.0, 7903.0, 0.0, 0.0, -778.0, -5262.0, 166.0, 3891.0, -2892.0, 2854.0, -2214.0, 468.0, 0.0, 4871.0, -3713.0, 1872.0, -5012.0, 5541.0, 0.0, 0.0, 2275.0, -198.0, -5771.0, 1119.0, 4127.0, 8118.0, 3291.0, -3587.0, 0.0, 211.0, 4978.0, 2919.0, 5541.0, -3969.0, -3499.0, -93.0, -13629.0, 0.0, 5807.0, -9081.0, 0.0, 0.0, -7877.0, -11674.0, 425.0, 0.0, -2324.0, 0.0, 0.0, -3824.0, 1370.0, 4589.0, 0.0, 106.0, 0.0, -916.0, 5767.0, 0.0, 0.0, 3968.0, -921.0, -4836.0, 0.0, 5369.0, -10818.0, 0.0, 0.0, -246.0, 0.0, 0.0, 2145.0, 0.0, 0.0, 0.0, -5709.0, 4612.0, 1451.0, 5526.0, 1674.0, 0.0, 0.0, 6964.0, -10447.0, 0.0, 0.0, -4382.0, -5156.0, 1488.0, 0.0, 0.0, -4702.0, -1058.0, -5228.0, 5942.0, -2467.0, 4295.0, -10129.0, -4606.0, 3281.0, -6157.0, -11323.0, -3678.0, 2152.0, 0.0, 5334.0, 3075.0, 6176.0, -6293.0, 504.0, 0.0, -1689.0, 19023.0, 4218.0, 2045.0, -10785.0, 0.0, 0.0, 2278.0, -1475.0, -1694.0, -3835.0, 4996.0, 0.0, 1409.0, 2275.0, 1364.0, -3411.0, -3697.0, -3257.0, -352.0, 0.0, -240.0, 5972.0, -2892.0, 0.0, 0.0, 3007.0, 5903.0, -1689.0, 6004.0, -589.0, 0.0, 334.0, 2244.0, -5610.0, 1301.0, -546.0, -2073.0, -122.0, -11102.0, -1440.0, -1896.0, -1346.0, -12076.0, 4460.0, 0.0, -769.0, -210.0, 2244.0, 0.0, -16203.0, -401.0, 0.0, -8226.0, -10338.0, -13839.0, 0.0, 2273.0, 20280.0, -5911.0, 3283.0, 1819.0, -5920.0, 0.0, -588.0, 0.0, 0.0, -5130.0, 4750.0, -278.0, 4699.0, 0.0, -4761.0, -5875.0, -903.0, -4761.0, -1083.0, 2858.0, 10449.0, 14841.0], "w": [-4.4560995850622405, -2.2816597510373446, -4.0, -2.3829045643153526, -0.8796680497925311, -4.396348547717842, -4.0, 5.345062240663901, -7.902572614107884, 1.9956846473029044, -1.6323651452282157, 0.9956846473029045, -5.258921161825726, 4.044315352697096, -8.0, -4.021078838174274, 19.106390041493775, -4.203153526970954, 8.021410788381743, 0.8750207468879668, 2.813112033195021, -2.03402489626556, 5.0, 0.2564315352697095, -6.459917012448133, 3.785726141078838, 6.535435684647303, 2.282489626556017, 5.0, 9.0, 0.0, -5.416763485477178, 3.757510373443983, 1.0, -0.5673029045643154, -9.157178423236514, -2.266058091286307, -2.0, -8.386887966804979, -2.1485477178423236, -9.0, -5.004315352697096, 0.6282157676348548, 4.128796680497925, -0.3420746887966805, 2.272863070539419, 1.2307053941908714, 3.8549377593360994, 2.3292946058091286, -7.815435684647303, -6.919004149377593, -5.0, -1.2335269709543568, -2.501576763485477, 0.6039834024896265, -3.0, -3.0, -0.6436514522821577, 3.5256431535269708, -3.138589211618257, 3.9998340248962654, 2.3263070539419086, -2.756680497925311, 3.0356846473029044, 4.414605809128631, 0.0, -0.3608298755186722, 1.8745228215767635, -0.1566804979253112, 0.42655601659751036, 4.635352697095436, 1.813941908713693, -8.0, -7.209792531120332, -5.0, 6.0, 1.7885477178423237, 3.1865560165975104, 2.4833195020746888, 1.4537759336099585, -3.2670539419087135, -2.0, 4.275850622406639, 1.0703734439834025, 5.770788381742738, 0.021908713692946058, -0.7616597510373444, -0.6320331950207468, 1.0, 0.5814107883817428, -1.0, 3.3926970954356843, -5.0, -1.8471369294605808, -4.687634854771784, -9.0, 12.978755186721992, -2.620082987551867, -2.4496265560165975, -8.500248962655602, 8.314190871369295, -2.763485477178423, 5.344398340248962, 2.667219917012448, 4.076016597510374, -4.0, -7.0, -0.9797510373443984, -3.5521991701244815, -2.9805809128630707, -11.0, -1.0, -1.0, 3.588713692946058, 9.352033195020747, 3.0665560165975103, 1.772780082987552, 0.3663070539419087, -7.232365145228216, 1.0803319502074689, 4.824564315352697, 3.0, 6.107551867219917, 3.2328630705394192, 9.023734439834024, 3.0, 1.4569294605809129, -2.2707053941908715, 0.5550207468879669, 0.9068879668049793, 2.2307053941908714, -1.4879668049792532, 2.0635684647302903, -12.192365145228216, 1.0, 0.8185892116182573, 0.0, -6.2444813278008295, 0.0, 1.6647302904564316, 6.866390041493776, 4.275684647302905, -8.0, -2.3560165975103735, 1.8937759336099584, 0.0, 5.195850622406639, -2.197344398340249, -9.547219917012448, 4.014439834024897, 12.635020746887967, 2.088630705394191, 5.703734439834025, -1.0, -2.0, -5.0, 3.111701244813278, 0.46605809128630704, -4.736265560165975, 4.1616597510373445, -5.27551867219917, -1.4863070539419088, 1.7206639004149378, 4.099253112033195, -2.600331950207469, -7.788879668049793, 0.23336099585062242, -1.8474688796680498, -2.431535269709544, -2.0, -1.1043983402489626, -0.005477178423236473, 0.3097095435684647, 0.24564315352697097, 0.11336099585062241, -0.5975103734439834, -4.919668049792531, 2.8536099585062242, -16.242489626556015, 1.0, 0.0, -12.96564315352697, 6.423900414937759, -1.2356846473029046, -1.0, -4.588879668049793, -4.258589211618257, 1.704896265560166, 0.9842323651452283, 5.704564315352697, -1.1062240663900416, 3.529294605809129, -8.529626556016597, -1.447136929460581, -3.187219917012448, -6.994688796680498, -4.0, 0.27385892116182575, -1.8756846473029045, -1.5857261410788381, -6.341742738589212, -12.21344398340249, 3.0, -11.34539419087137, -0.6559336099585062, 5.0, 2.0, 2.702240663900415, -4.139751037344398, 1.9956846473029044, -1.0, 0.0, -0.29543568464730285, 8.166804979253111, -10.0, 1.6398340248962655, -3.5800829875518674, -0.29493775933609956, -9.253443983402489, 2.489460580912863, -7.090954356846473, 6.238340248962656, -2.147551867219917, 0.0, 6.866390041493776, 0.3996680497925311, 0.4547717842323653, -4.124149377593361, -1.5042323651452283, -4.878838174273859, 0.4058091286307054, -11.037344398340249, 7.394522821576763, 0.8997510373443984, -1.5525311203319503, -2.3898755186721994, 2.67551867219917, -3.162655601659751, 6.203817427385892, -0.9760995850622407, -5.929294605809129, 5.772614107883817, -9.175269709543569, -4.0, 0.0, -5.026721991701245, -1.1485477178423236, -7.519170124481327, -3.0, 10.121327800829876, -0.8859751037344399, 1.0, 5.297925311203319, -1.0, -6.107551867219917, 2.055103734439834, 2.2657261410788383, -1.0, -5.0, 8.704066390041493, -4.572780082987552, -5.31402489626556, 2.6479668049792533, -1.0, -5.525477178423237, -2.848630705394191, 7.31551867219917, -1.0, -0.7332780082987551, 9.683651452282158, 0.0, 2.0, 3.6092946058091284, 6.1419087136929456, -4.0, 5.117344398340249, -1.4851452282157678, -1.1228215767634855, -5.3631535269709545, 3.1671369294605807, -3.3862240663900414, 0.9706224066390041, -4.379585062240664, -0.17643153526970956, -1.4715352697095434, 1.0, -2.917344398340249, -1.5103734439834025, -9.637510373443984, 2.0, 1.0, 6.570622406639004, 0.3377593360995851, 2.0, -4.024896265560166, -1.1772614107883816, -3.774107883817427, 4.2127800829875515, 1.8542738589211618, -2.32896265560166, -3.3691286307053945, -3.5148547717842322, 9.887966804979254, -1.4610788381742739, -2.0, -11.852946058091286, 3.076182572614108, 1.0, 1.0, -2.792033195020747, -1.8336929460580913, 4.0, 8.298921161825726, -1.6003319502074689, 18.843485477178422, -1.0557676348547718, -0.023568464730290506, 0.1930290456431536, 3.648298755186722, 1.0, 3.709709543568465, -0.5105394190871368, -2.3634854771784233, -4.0, -2.0, -7.0, -0.48448132780082986, 0.0, -0.0947717842323651, 5.979585062240664, -4.638838174273859, -1.0, 1.4111203319502075, -0.44647302904564334, -5.304398340248962, 0.4111203319502075, -2.0, -0.8064730290456432, -6.4579253112033195, 2.0, 8.736265560165975, -4.295435684647303, -0.5047302904564315, -0.14091286307053963, 3.236514522821577, 1.5912033195020747, -0.4745228215767635, 2.4111203319502073, 1.4283817427385892, 2.0, 13.544398340248962, -2.7480497925311203, 9.606639004149377, 2.3107053941908715, -4.70954356846473, 2.036182572614108, 1.0960995850622406, -5.841825726141079, 2.0, -2.0, -6.810788381742738, -9.839336099585061, 1.9956846473029044, 3.2071369294605807, -7.0, -4.638174273858922, 1.0, -0.5120331950207468, 3.0, -3.1012448132780084, 1.3440663900414938, -5.018921161825726, 1.0, 4.626390041493776, -0.6733609958506224, 0.29493775933609956, -3.0, -1.0175933609958505, 0.03253112033195021, 1.0, -5.0, 1.0, 2.0, -1.0, -2.0, -2.0, -3.0, -6.658589211618257, 0.21543568464730312, -7.0751867219917015, -0.1696265560165975, -2.0, 3.0, -13.641659751037345, 3.7204979253112036, -2.976099585062241, -6.805809128630705, -1.0, -6.574605809128631, 0.18456431535269702, 0.0, 5.603983402489627, 1.6795020746887968, 2.785228215767635, 3.550207468879668, -2.9209958506224067, 1.8318672199170125, -5.071203319502075, -3.23551867219917, -7.0, 10.506224066390041, -0.3299585062240664, 6.9702904564315356, -9.038008298755187, 1.1528630705394192, 0.7190041493775934, 1.0376763485477178, -4.480331950207469, -3.7541908713692944, -2.9306224066390043, 4.978755186721992, -2.7873858921161827, 0.8439834024896266, 2.0, 2.7329460580912865, -1.5191701244813278, -0.7128630705394191, -4.895933609958506, -0.32580912863070544, -0.21145228215767634, -3.7809128630705393, -0.784896265560166, -2.9797510373443985, 6.033526970954357, 2.0, 1.7342738589211617, -4.772780082987552, 0.0, 7.117842323651452, -4.0, 19.91850622406639, 1.102240663900415, -2.8809958506224067, 1.527136929460581, 5.0, 0.22605809128630705, -6.0, -2.0, -6.1151867219917015, -2.3775933609958506, 1.8542738589211618, 6.259253112033195, -6.0, 0.0, 8.960663900414938, -1.6511203319502075, 1.0584232365145227, 8.406639004149378, -6.871203319502075, 1.0, -8.93195020746888, -0.24647302904564317, 1.9349377593360997, 2.7619917012448134, 6.0, -2.954688796680498, -1.68448132780083, -5.340580912863071, -4.593029045643154, -1.0, -6.9505394190871375, 1.0, 8.0, -3.9319502074688795, -0.25112033195020755, -5.0, 0.21759336099585058, -6.0, -0.8514522821576763, -2.0, 3.645311203319502, -2.3249792531120335, -2.0, -5.023568464730291, 4.524813278008299, 4.516514522821577, -1.7832365145228215, 5.861908713692946, -3.0, 1.5604979253112035, -4.0, -6.7297925311203315, -4.0, -7.291120331950207, -1.5696265560165976, 1.657759336099585, -1.0175933609958505, -3.6501244813278007, 1.604149377593361, -3.0, -1.68448132780083, 3.0, -3.9868879668049795, 1.0, 0.6680497925311204, 9.19551867219917, -0.7936929460580913, -3.1005809128630704, -10.796514522821576, 0.0, -8.0, -9.0, -5.004315352697096, 1.167136929460581, 7.0, -5.317344398340249, -2.6225726141078836, 0.21659751037344388, 4.126970954356846, -3.0, -3.6703734439834026, 8.486141078838175, 2.0, 6.099751037344398, -0.7820746887966805, -3.500414937759336, -7.835352697095436, 3.1526970954356845, 9.522821576763485, -12.79585062240664, 0.5155186721991701, -3.8914522821576765, 5.453112033195021, 11.457261410788382, -2.079336099585062, 4.031701244813278, 0.14705394190871368, 5.048298755186722, -2.0, -4.732614107883817, -6.339419087136929, 4.640829875518672, -3.4391701244813278, 1.7316182572614107, -4.0, 17.8154356846473, 25.038672199170126, -1.2501244813278007, 2.5405809128630708, 2.0, -2.0, 5.325145228215767, -5.181410788381743, 2.0, 1.1140248962655601, 0.11468879668049792, -7.0, 3.5311203319502074, 1.750207468879668, 9.0, -2.847136929460581, -7.0, -7.048796680497925, 3.0, -1.0, 3.0111203319502073, -5.445311203319502, 3.524149377593361, -3.0, 0.37278008298755183, -5.48448132780083, 2.0, 1.075850622406639, -1.995850622406639, 5.25344398340249, 0.717344398340249, -3.4021576763485477, -3.6635684647302904, -5.0, -4.63253112033195, -1.1824066390041494, 1.0, -1.0, -5.391701244813278, -2.232365145228216, -5.243817427385892, -0.11070539419087133, 2.5955186721991703, 15.059253112033195, 0.9692946058091286, 0.907551867219917, -14.499253112033195, -3.017427385892116, -4.685809128630705, 1.724149377593361, -10.215767634854771, 16.799502074688796, -1.6946058091286307, -9.602821576763485, -3.4635684647302902, 1.386390041493776, -1.0, 2.0, -2.0, -3.8116182572614106, 4.2127800829875515, 0.0, -0.6992531120331951, -2.0, 0.2864730290456432, 0.0, 8.480829875518673, -4.0, 5.338091286307054, 6.0, 3.9764315352697093, -4.0, 3.1737759336099582, 9.0, -2.621908713692946, 5.612448132780083, 0.0, 5.9731120331950205, -1.0350207468879669, -2.6073029045643152, -4.364647302904564, -3.0, 2.0, -6.428547717842323, 2.4398340248962658, 4.280331950207469, -1.7692946058091286, 5.0, -8.847800829875519, 9.991369294605809, 6.805477178423237, 1.0, 3.3624896265560165, 13.781078838174274, -4.52, 0.7644813278008299, 11.117842323651452, -0.6539419087136928, -0.7634854771784232, 6.77908713692946, 3.8745228215767633, -9.0, 5.876182572614108, -6.0, -0.7830705394190871, 2.0, 2.0, -0.8262240663900415, -3.216265560165975, 5.622406639004149, 3.0, -0.6541078838174275, 0.11684647302904572, -2.262240663900415, -4.590041493775933, 1.1654771784232365, -3.7367634854771783, -2.353195020746888, 0.0, -1.0, -6.68298755186722, 9.888132780082987, -2.6164315352697094, -2.0, -0.6844813278008299, 1.0, 0.4969294605809129, 2.0, -9.171618257261411, -8.085643153526972, 18.44033195020747, 0.8615767634854772, 5.447634854771785, 3.581410788381743, -4.0, 7.757510373443983, 6.31551867219917, -2.479170124481328, 5.7840663900414935, -5.80298755186722, -1.3531950207468881, 3.5306224066390044, -3.0, -0.3558506224066389, -1.3273029045643154, -3.155020746887967, -3.1827385892116182, -5.331286307053942, 0.0, -4.012614107883818, 5.890124481327801, 3.7296265560165978, 5.978755186721992, 0.0, 2.0, 3.4703734439834024, 6.48, -1.9676348547717843, -5.209460580912863, -3.242489626556017, -1.3775933609958506, 2.0979253112033196, 2.0, -1.0, 2.213941908713693, -7.920995850622407, -8.0, 13.345726141078838, 4.428879668049793, -3.481825726141079, -1.0, 5.74058091286307, 2.2512863070539417, 2.0, -3.0, 1.627551867219917, 6.378091286307054, 0.22639004149377592, -2.984564315352697, -7.0, -1.2658921161825727, 1.4375103734439834, -1.4999170124481327, 10.851452282157677, -1.8718672199170125, 5.036182572614107, 5.0, -5.0, -6.702240663900415, -3.124149377593361, -0.37311203319502073, -5.586058091286307, -3.5375933609958508, -1.9462240663900414, 5.46240663900415, 0.6416597510373445, 1.5405809128630705, 2.0, -7.143734439834025, 2.8229045643153525, -3.59402489626556, 3.138755186721992, 7.0, 7.501742738589211, 0.0, 9.0, -1.2707053941908715, -5.035020746887967, 5.971618257261411, -7.0, 2.386390041493776, -0.06273858921161835, 11.195684647302905, -5.0, 19.472365145228217, -4.935767634854772, 4.489958506224067, -1.1485477178423236, -1.7349377593360995, -3.783734439834025, -2.07103734439834, -2.421410788381743, -6.510539419087137, -2.138091286307054, 2.808298755186722, -6.510539419087137, -10.0, 0.11535269709543572, -0.31419087136929463, -2.847136929460581, -8.095103734439833, 9.580414937759336, -2.0, -0.6441493775933611, -5.0, -7.1502074688796675, -2.0, 1.9246473029045643, 4.3530290456431535, -9.621908713692946, 0.0, 4.984896265560166, -13.19103734439834, 1.3746058091286306, 2.377095435684647, -3.9805809128630707, -4.855767634854772, 13.948547717842324, -1.0, -2.947551867219917, 8.422240663900414, 1.9155186721991702, -6.0, 1.0, 3.3865560165975106, -0.6232365145228216, 0.7983402489626557, 1.6519502074688797, 0.0, 0.45526970954356827, 0.0, -3.0, 4.5025726141078835, 3.178921161825726, -5.26356846473029, 0.34539419087136936, -1.4879668049792532, -1.0, -9.846639004149377, -1.0, 1.7022406639004148, -1.3473858921161825, -1.6703734439834026, -5.387717842323651, 6.335435684647303, 3.080331950207469, 4.18207468879668, 1.335103734439834, -2.2926141078838174, 0.0, -4.0, -0.38838174273858916, 0.007468879668049766, 11.201659751037344, 3.6224066390041494, 0.32033195020746885, -0.6853112033195021, 11.820414937759336, 1.9209958506224067, 9.905228215767634, 0.0, -2.0609128630705396, -0.6559336099585062, -1.0, 1.0, -1.0, -1.7243153526970953, 4.498755186721992, 7.758008298755187, -10.0, -1.190539419087137, 1.0, -3.816265560165975, -0.271701244813278, -7.074356846473028, 7.31551867219917, 6.0, 2.479834024896266, 4.2546058091286305, -3.3717842323651452, -4.002157676348547, -6.007634854771784, -6.101908713692946, -4.202323651452282, 2.223070539419087, -1.386390041493776, 3.0, 5.4537759336099585, -3.351701244813278, 4.0, 0.3136929460580913, 7.114688796680498, -3.0212448132780083, -3.741576763485477, 2.6282157676348548, -3.834688796680498, 3.343402489626556, -2.020414937759336, 5.036182572614107, -2.0, 2.854273858921162, -5.433858921161826, -7.531452282157677, -5.3052282157676345, 3.140414937759336, -3.0, 0.5231535269709544, -5.0, 1.7022406639004148, 3.4899585062240663, -2.9983402489626556, 4.754522821576764, 0.0, 7.0, -3.353195020746888, 7.622738589211618, -2.0, 7.0, -4.27551867219917, 0.45593360995850624, -0.8328630705394191, -7.55402489626556, -7.219253112033195, -0.9151867219917013, 2.7701244813278008, 2.7334439834024895, -1.0, 4.613941908713693, -1.3990041493775933, 5.479834024896266, -3.7873858921161827, 1.0, 0.9824066390041494, -6.519834024896266, 1.498091286307054, -1.9824066390041495, -6.165145228215768, 0.23568464730290456, -1.0, -4.0, 12.199668049792532, 9.790207468879668, 4.622406639004149, -6.614273858921162, 3.125311203319502, -6.0, -1.0, -4.8502904564315354, 3.0, -7.694273858921162, -6.230705394190871, -6.0, -4.0, 3.861908713692946, -2.52, -8.212946058091287, -1.8179253112033193, -5.0, 6.597510373443983, 0.0, 4.06207468879668, 4.117344398340249, -1.663734439834025, -0.3394190871369295, -0.3825726141078838, -2.3802489626556014, 8.29792531120332, 9.423070539419086, 4.441161825726141, -3.0, -11.0, -8.451784232365146, 8.704564315352696, 0.0, -2.0, -2.2195850622406637, 3.0, -7.816265560165975, 0.10323651452282157, 0.15236514522821576, -1.0, -3.0, 1.9329460580912863, -2.620414937759336, 4.350207468879669, 3.8433195020746886, -8.439004149377594, -1.429377593360996, -2.4164315352697097, -4.487966804979253, -2.8866390041493775, -4.88597510373444, -6.27551867219917, 1.3918672199170123, -1.0, 0.15269709543568455, 4.0, 2.111701244813278, -18.895933609958504, -3.0, -10.0, -1.0, -4.0, 4.798174273858921, 1.0, -5.111203319502074, 1.0, 1.2250622406639005, -1.0, 4.975103734439834, -2.372448132780083, -10.63253112033195, -3.600331950207469, 16.852116182572615, 6.660580912863071, 2.979585062240664, 1.004149377593361, -4.021244813278008, -8.197344398340249, 1.0, -2.882655601659751, 0.7968464730290457, 6.085145228215768, 1.2307053941908714, -3.4433195020746887, -7.280331950207469, 2.748215767634855, 0.11468879668049792, -1.2824896265560166, -3.2602489626556017, -3.0, -5.655933609958506, 3.023900414937759, -4.0995850622406635, 7.854273858921162, -2.979585062240664, 5.0, 4.976431535269709, -5.069377593360996, -1.0, -4.0, -3.2209128630705393, -1.0, 6.477178423236515, 12.747053941908714, -2.0, 7.668381742738589, 9.0, 3.8595850622406638, -3.197344398340249, -0.8788381742738589, -1.2257261410788383, -11.621908713692946, -3.0, 3.8333609958506223, 2.6318672199170123, -1.0, 1.3996680497925311, 5.0, 0.9787551867219917, 2.975103734439834, 2.246473029045643, 4.7757676348547715, -0.7872199170124481, 5.604979253112033, 1.5337759336099586, -3.0, -4.0, 0.0, 12.0, -2.0466390041493776, 4.576929460580913, 14.173775933609958, 4.512033195020747, 16.715020746887966, 4.237676348547717, -3.939253112033195, -2.5266390041493776, -2.1618257261410787, 2.0, 2.0, -6.334107883817428, 5.0, -3.5462240663900415, 0.2346887966804979, 1.0, -1.0, 8.30804979253112, 5.9050622406639, 3.2141078838174275, 1.884813278008299, -9.10655601659751, -3.88597510373444, 0.0, -0.8413278008298756, -2.0, 4.57643153526971, 1.6896265560165975, -8.171452282157677, -0.3331120331950208, -4.211452282157676, 9.15286307053942, -1.8889626556016597, 1.0, -8.758340248962655, -5.0, -3.0126141078838176, -1.1156846473029045, -5.0, -1.68448132780083, 0.8979253112033195, -3.4537759336099585, -3.0, -2.0, 1.686804979253112, 1.7575103734439834, 1.0091286307053942, 6.286639004149378, 2.0, -3.7098755186721992, 3.412116182572614, -12.115186721991702, -6.0, -16.0, -4.620580912863071, -2.353195020746888, -1.9196680497925311, 0.5155186721991701, 5.0, -8.17643153526971, 1.0, -1.9420746887966804, -1.1332780082987552, -1.3103734439834025, -6.0, -8.885311203319501, 1.2871369294605808, 1.0, 1.5578423236514523, -1.995850622406639, -6.197344398340249, -2.0, 1.6721991701244814, -7.0, 4.0, -2.8129460580912866, 0.28730290456431534, 1.7269709543568466, -3.7805809128630705, -7.885311203319502, 8.55136929460581, 0.0, -1.6710373443983402, -6.0, -4.261576763485477, -4.316182572614108, -3.1370954356846474, 4.143734439834025, 12.841991701244813, 7.423734439834025, -2.572780082987552, -4.145726141078838, -6.4149377593361, -0.573941908713693, 0.8235684647302904, 4.835020746887967, 0.0, 9.335767634854772, -3.0, 0.10755186721991716, 2.88448132780083, -5.169792531120332, -4.910705394190871, 4.59701244813278, 1.3936929460580914, -7.718008298755187, -2.27551867219917, 3.0, -4.249626556016597, 26.41311203319502, -2.345394190871369, -2.0, -1.68448132780083, 8.118672199170124, -2.0, -2.8333609958506223, 3.0, -4.0, -3.0, 0.0, -7.295435684647303, -4.211120331950207, -2.576265560165975, 2.784066390041494, 7.0, 7.012780082987552, 0.9699585062240664, -7.746224066390042, -3.1782572614107885, -10.63817427385892, -1.8882987551867219, -5.269045643153527, 0.7624896265560166, 1.1930290456431536, -2.8853112033195023, 4.0, 1.0, 6.341410788381743, -2.1669709543568465, -2.0, 1.0160995850622407, 2.621576763485477, -0.6796680497925309, 4.373775933609958, -5.327136929460581, -2.0, -2.3634854771784233, -4.569792531120332, 4.478174273858921, 0.4046473029045643, -6.86655601659751, 2.0, 0.004647302904564316, 0.0, -5.010290456431536, 3.239336099585062, 5.853609958506224, 2.405311203319502, 3.0, -2.464896265560166, -2.9253112033195023, -3.0, -1.215435684647303, -0.7842323651452282, -5.0, -2.806804979253112, 1.328630705394191, 5.770788381742738, -0.5800829875518673, 4.117842323651452, -1.0, -6.678008298755187, 6.378589211618257, -0.042157676348547723, -4.229211618257262, -3.510539419087137, 24.3050622406639, -10.572116182572614, -0.6371784232365143, 1.4685477178423236, -5.92448132780083, -0.6043153526970955, 6.217593360995851, 2.762157676348548, 0.6224066390041494, 3.220082987551867, 0.4481327800829875, 2.0848132780082986, 4.299419087136929, 1.6074688796680499, -0.7369294605809129, -6.471867219917012, 4.0, 4.755850622406639, -7.0, 1.0, -5.239834024896266, -2.987883817427386, 1.6328630705394191, 2.0, 6.23103734439834, -10.85941908713693, -2.2117842323651455, 4.0, 3.4922821576763488, 1.1095435684647303, 3.8092946058091286, -0.03634854771784224, 0.0, -9.583900414937759, -2.7098755186721992, 1.3263070539419086, -3.932780082987552, 4.0, 0.0, -5.0, 5.578755186721992, -1.5296265560165976, -7.807966804979253, 2.4404979253112034, -2.571618257261411, -1.0, 0.3603319502074689, -4.0, 2.793195020746888, 5.414107883817428, -0.21958506224066388, 4.261244813278008, -1.0350207468879669, 6.639502074688797, -1.6365145228215767, 0.8632365145228216, -1.7643153526970954, -1.5110373443983403, 7.0, -3.0, -3.873526970954357, 3.5956846473029045, 3.0, 4.0, -2.1148547717842323, 0.0, 2.2639004149377593, -7.735601659751037, 3.0, 5.0, -4.2707053941908715, 2.0, 1.0361825726141078, 0.17360995850622407, 2.480829875518672, 1.0, -2.8715352697095433, 7.969294605809129, -2.311369294605809, 2.0194190871369293, 2.3774273858921164, 0.5405809128630705, 3.5948547717842323, 0.0, -5.138091286307054, 6.0, 0.0, 3.0, -7.0, 9.627551867219918, -8.0, -2.8179253112033193, -5.553526970954357, -0.25394190871369293, -5.064398340248963, 0.5566804979253113, -0.20979253112033192, -6.78655601659751, 9.16713692946058, -0.43701244813277995, 1.0, -1.0, -4.0, -9.984564315352698, 7.137593360995851, -0.569792531120332, 2.5040663900414937, 4.524647302904564, 1.5492116182572615, -0.4504564315352697, -5.251784232365146, 4.754522821576764, 6.707883817427386, -0.2175933609958506, 6.0, -4.0, -3.0, 5.0, -0.9692946058091286, 5.066224066390041, 1.3624896265560165, -2.0, -10.621908713692946, 4.160165975103735, 1.3624896265560165, 1.0, -7.879834024896265, 2.3732780082987555, 1.88, 8.516016597510374, 0.9882157676348547, 0.34506224066390045, -3.9131950207468877, -8.45941908713693, 4.996348547717842, -3.311701244813278, -4.51701244813278, 2.0, 8.0, 1.0, 8.674190871369294, -2.5586721991701245, -7.227219917012448, -5.76597510373444, -2.5867219917012445, -0.6046473029045643, -2.0, 0.03236514522821577, -9.257759336099586, 3.6209128630705396, -9.368298755186721, -11.020414937759336, -2.9103734439834024, 5.251286307053942, 0.08033195020746886, -4.0, -4.219585062240664, -5.567800829875519, -3.779917012448133, 4.945394190871369, -5.363485477178424, -2.0, -3.510539419087137, 6.748215767634854, -9.07286307053942, -5.965145228215768, -5.832033195020747, -5.0, -4.88597510373444, 3.0, 5.48, -3.5493775933609957, 1.0, -2.889128630705394, 2.2144398340248963, -6.151701244813278, 2.0, -8.643153526970954, -1.8081327800829876, 8.763817427385892, 7.480829875518673, -4.903734439834025, -2.0, 25.228879668049792, -1.0, 3.0, -1.0, -3.027551867219917, 0.3253112033195021, -2.0, 8.85045643153527, 1.7674688796680498, -6.842157676348548, 3.905560165975104, -1.1566804979253111, -1.0, -2.600331950207469, 3.982572614107884, 7.842821576763486, -1.1551867219917011, -1.393526970954357, 3.6956016597510373, -5.77792531120332, -3.0, -6.6023236514522825, -3.242489626556017, -2.147551867219917, 4.909377593360996, -5.0, 2.6008298755186723, 5.369294605809129, -4.670207468879668, -5.1681327800829875, -7.0, -6.101410788381743, 1.0, 0.6521161825726141, 0.8542738589211618, 1.2514522821576763, 0.285643153526971, -2.0, 1.0, -2.1530290456431533, 0.24398340248962658, 0.7389211618257265, 5.199502074688796, -1.0, 12.621410788381743, 1.7316182572614107, 1.0, -5.0, -2.9319502074688795, 1.4360165975103731, 7.982406639004149, 2.609460580912863, -4.210290456431535, -7.35402489626556, -1.0, -6.1151867219917015, -0.869045643153527, 11.857427385892116, -0.1928630705394191, -2.847136929460581, 0.0, 2.000995850622407, -1.1883817427385892, 1.090124481327801, -5.0, -6.1349377593361, -2.193195020746888, -2.3634854771784233, -1.4886307053941907, 3.613609958506224, 2.5420746887966805, -6.667053941908714, 3.0, 2.6134439834024894, 2.0, 4.978755186721992, 2.0, -2.2574273858921163, -3.0889626556016596, -1.590539419087137, -1.621908713692946, -4.0, 1.5299585062240664, -0.5824066390041494, -2.2378423236514524, -5.398008298755187, 2.0, 10.030373443983402, -8.621908713692946, 1.0, 0.4975933609958507, -2.7432365145228212, 2.9239834024896263, 5.893775933609959, -1.40149377593361, -11.36746887966805, -8.0, 4.787385892116182, -0.9795850622406639, -3.326970954356846, -1.6736929460580914, -0.8449792531120331, 0.4703734439834025, 3.0, -1.5716182572614108, 2.0, -3.9613278008298756, 4.004647302904564, -6.024896265560166, -4.673692946058091, -1.0, -0.3047302904564315, -2.197344398340249, 5.013775933609958, -2.0, 3.0, 5.2169294605809124, 0.21443983402489628, -7.0, -2.394688796680498, 1.0, -0.7243153526970955, -5.01941908713693, 2.372116182572614, 4.8848132780082985, 2.287136929460581, -5.4537759336099585, 0.8848132780082988, -2.0, -7.932282157676348, -6.933775933609959, -6.23551867219917, -3.784232365145228, -0.6004979253112033, -3.2712033195020744, 6.069377593360996, 4.368796680497925, -3.5458921161825727, -2.0, -1.0, -3.1254771784232367, -0.9125311203319502, -2.1814107883817426, -10.930622406639005, -3.5933609958506225, 18.515684647302905, 9.789709543568465, 0.808298755186722, 4.0936099585062244, -11.784232365145229, 4.0, -5.487966804979253, -0.7243153526970955, -2.847136929460581, 1.2677178423236515, 2.4537759336099585, -2.4371784232365146, -3.0, 3.273692946058091, -1.8474688796680498, 3.909875518672199, -2.4653941908713692, -2.0, -0.15485477178423238, 0.8730290456431535, 2.0, 3.352365145228216, 2.5782572614107884, 5.760497925311204, -1.3278008298755186, -1.0, 3.0, 2.606307053941909, -2.242489626556017, -6.0668879668049795, 2.0, -3.0, -1.9530290456431536, 1.0, -1.367966804979253, -4.0, 2.0, 2.6665560165975104, -2.20746887966805, 0.3863900414937759, -0.01975103734439834, -5.0, -6.0, 2.286639004149378, 1.1820746887966807, 4.368298755186722, -11.984564315352698, -1.879668049792531, 0.0, -0.0350207468879668, -4.709875518672199, -1.0, -13.641991701244812, 4.0, -2.0043153526970956, -2.0, 2.7671369294605808, 0.28282157676348546, -4.039170124481328, 0.3749377593360996, 2.8092946058091286, 0.0464730290456431, 2.3273029045643154, 3.3603319502074687, 2.9696265560165975, -2.4013278008298755, -2.274356846473029, 7.9188381742738585, 1.313195020746888, 1.0, -1.4851452282157676, -9.14804979253112, 1.5687966804979254, -1.6733609958506224, -0.2355186721991701, -3.7487136929460583, -6.390705394190872, -3.782904564315353, 0.42854771784232365, 13.623402489626557, 0.3603319502074689, 1.6059751037344399, 5.034854771784232, -4.0, -3.2725311203319505, -5.294771784232365, -2.232365145228216, -0.18605809128630704, -0.667551867219917, 0.0, -12.963817427385893, 4.057593360995851, 6.990871369294606, -3.0190871369294605, -0.7196680497925312, -5.524315352697095, 12.480829875518673, -1.1062240663900416, -2.8557676348547716, 2.870539419087137, -7.764315352697095, -0.8220746887966806, 1.0, 5.6828215767634855, 2.2700414937759334, 7.654273858921162, 3.287136929460581, -5.996182572614108, 3.6092946058091284, 1.8960995850622406, 4.44746887966805, 1.0, 2.0, -4.665560165975104, 4.803983402489626, 12.13344398340249, 1.9666390041493775, -6.187717842323652, -4.835186721991701, 2.0, 4.0, -6.327800829875518, -6.614273858921162, 0.0, 3.7545228215767636, -2.9805809128630707, -0.7067219917012448, -0.08116182572614108, 2.0, 0.8745228215767635, 3.8536099585062242, 1.8282157676348547, -2.209792531120332, -3.0, 7.0, 4.0, -6.769294605809129, -4.62390041493776, -1.0, -0.31784232365145226, -0.9868879668049793, -5.6373443983402485, 1.0312033195020747, -4.622572614107884, -2.5873858921161825, 2.0, -6.100248962655602, -1.123319502074689, 0.1287966804979253, -1.699253112033195, -4.1151867219917015, -7.719668049792531, 2.258091286307054, -6.0, 1.9563485477178424, -1.0, 0.21261410788381743, -3.909875518672199, 4.4441493775933605, -0.14639004149377594, 3.6390041493775933, 6.798672199170125, 2.6217427385892114, -4.29045643153527, 3.6222406639004148, -10.959834024896265, 2.0, 0.307551867219917, 3.0, 0.15103734439834016, 1.7596680497925312, 1.0, -5.149045643153527, -5.242489626556017, -3.076846473029046, -5.0, 4.1502074688796675, 3.76448132780083, -1.9520331950207468, 11.480829875518673, -5.0, 12.0, 2.574273858921162, 0.23452282157676352, 8.966639004149378, 1.0, -0.6009958506224067, -1.1829045643153526, 7.572614107883817, 3.0, -1.924149377593361, 7.097095435684647, 6.448132780082988, 4.287800829875518, -1.0, 1.099253112033195, 6.15253112033195, -9.432033195020747, 3.0, 2.0202489626556015, -3.098921161825726, 1.0, 0.3603319502074689, 6.686639004149377, -6.438838174273859, 18.80896265560166, -1.9196680497925311, 6.780414937759336, 1.8730290456431535, 0.0, -6.320663900414938, 7.6009958506224065, 1.5827385892116181, 2.342738589211618, -0.8162655601659751, -4.126970954356846, 1.9787551867219917, 0.9266390041493775, -1.9797510373443985, -2.0, -2.8607468879668048, 4.207800829875518, -1.0, -1.0, 3.2172614107883817, 6.674854771784233, -1.4843153526970954, -3.4117842323651453, -2.980746887966805, 0.15834024896265553, 5.098755186721991, -0.96, 2.235186721991701, -0.2901244813278008, 0.8597510373443984, -0.8974273858921162, 0.0, -5.417261410788382, 1.6159336099585062, 3.6282157676348548, 2.331120331950207, -6.410622406639004, -2.7367634854771783, 2.334273858921162, -4.27551867219917, -8.0, 0.0, -4.0, 3.9787551867219917, -0.46439834024896265, 2.1541908713692948, 1.0277178423236515, 0.0, -0.8708713692946058, -11.0, 2.0, -2.232365145228216, 1.0, -11.597510373443983, -5.689460580912863, 3.742240663900415, 7.0, 6.688298755186722, -1.0, -4.0, 8.129128630705393, -1.1266390041493777, 16.972448132780084, -3.6458091286307055, 5.48, -4.473692946058091, 0.3674688796680498, -2.0776763485477177, 1.0, -4.808464730290456, -1.3837344398340248, -4.3107053941908715, -3.1681327800829875, -3.919668049792531, -11.0, 3.0, 3.6224066390041494, 5.0328630705394195, -1.0421576763485478, -4.185726141078838, 3.3150207468879667, 7.652614107883817, -2.5462240663900415, 1.5953526970954357, 8.0, -3.035020746887967, 2.1737759336099582, 0.5155186721991701, 4.080331950207469, -2.341244813278008, 0.580746887966805, -8.984564315352698, 12.26207468879668, -4.0, -1.9638174273858922, -2.4927800829875517, -4.0, 0.0, 0.3073858921161825, 2.9375933609958507, -4.070539419087137, -3.0, 4.385726141078838, -2.0, 4.0, -2.365311203319502, -1.2273858921161827, -0.7616597510373444, -4.0, 0.9824066390041494, 7.0, -4.8479668049792535, 2.0428215767634854, 1.0, -3.0, -2.6585892116182572, 4.152863070539419, -0.19734439834024897, -1.0, -0.8911203319502075, -2.20448132780083, 1.0, 0.0, -1.9591701244813278, 0.0, -4.0, 0.6439834024896265, 2.0, -3.0, 6.0, -3.052448132780083, 5.234522821576763, -4.240829875518672, -0.9171784232365146, 5.722157676348548, 5.0, 4.0, -2.155850622406639, -4.2660580912863075, -9.0, -5.0, 3.7273029045643153, 3.8557676348547716, -1.2469709543568466, -6.0, -6.0, -2.2195850622406637, 2.1756016597510373, 1.8677178423236516, 0.013775933609958546, 9.409460580912864, -1.7128630705394192, -6.318838174273859, -0.2355186721991701, 4.455435684647303, 3.0219087136929463, 6.879336099585062, -7.38954356846473, -0.3571784232365145, -4.0, -4.885311203319502, -5.5103734439834025, -1.0250622406639005, -2.95551867219917, -2.0836514522821576, 7.0, -6.719668049792531, -3.157344398340249, 8.299917012448132, -1.3394190871369296, 0.7900414937759337, 0.0, -1.0, -3.378091286307054, 0.24481327800829875, -3.7188381742738588, -1.3634854771784233, 7.170788381742739, -1.0, 1.7661410788381744, 1.6224066390041494, 0.773609958506224, 8.566141078838175, -2.386390041493776, -5.459419087136929, -0.9415767634854771, 4.0, 0.03983402489626556, 5.008796680497925, -5.52, 0.0, 3.0, 2.5009128630705395, -1.9797510373443985, -2.719668049792531, -0.9965145228215767, 13.097759336099585, -7.0, -3.055435684647303, -1.372448132780083, -4.068879668049792, -1.2159336099585063, -1.9093775933609958, -4.655933609958506, 9.020248962655602, -5.157344398340249, -3.7609958506224066, 0.31468879668049793, -0.7765975103734439, 4.004315352697096, 0.2597510373443983, 2.0, -4.8723651452282155, 1.0348547717842325, 0.627551867219917, -5.0, 4.6892946058091285, 11.066556016597511, 4.0, -3.634688796680498, -3.2841493775933612, -2.703070539419087, 3.0, 2.622738589211618, 3.63402489626556, -0.01892116182572612, 3.455103734439834, -0.3019087136929461, -4.017427385892116, 5.0, 2.097593360995851, -2.0, -4.0, -0.14854771784232368, -5.788381742738589, 4.046141078838175, 0.22008298755186717, 7.0, -5.209792531120332, -4.024896265560166, 6.149875518672199, -2.209792531120332, 12.1797510373444, -3.4743568464730292, -0.7342738589211619, 15.536763485477179]}, "Theater": {"count_avg": 1500.0, "b": -11.566666666666666, "beta_avg": 850.0, "u_avg": [0.0, 0.0, 0.0, 0.0, 0.0, 0.0, 0.0, 0.0, 0.0, 0.0, 0.0, -945.0, 0.0, 0.0, 0.0, -945.0, 0.0, 0.0, 0.0, 0.0, 0.0, 0.0, 0.0, 0.0, 0.0, 785.0, 0.0, 0.0, 0.0, 0.0, 0.0, 0.0, 0.0, 0.0, 0.0, 0.0, 0.0, 0.0, 0.0, 0.0, 0.0, 0.0, 0.0, 0.0, 0.0, 0.0, 0.0, 0.0, 0.0, 0.0, 0.0, 0.0, 0.0, 0.0, 0.0, 0.0, 0.0, 0.0, 0.0, 0.0, 0.0, 0.0, 0.0, 0.0, 0.0, 0.0, 0.0, 0.0, 0.0, 0.0, 0.0, 0.0, 0.0, 0.0, 0.0, 0.0, 0.0, 0.0, 0.0, 0.0, 0.0, 0.0, 1767.0, -945.0, 0.0, 0.0, 0.0, 0.0, 0.0, 0.0, 0.0, 0.0, 0.0, 0.0, 0.0, 0.0, 0.0, 0.0, 0.0, 0.0, 0.0, 0.0, 0.0, 0.0, 0.0, 0.0, 0.0, 0.0, 0.0, 0.0, 0.0, 0.0, 0.0, 0.0, 0.0, -945.0, 0.0, 0.0, 0.0, 0.0, 0.0, 0.0, 0.0, 0.0, 0.0, 0.0, 0.0, 0.0, 0.0, 0.0, 0.0, 0.0, 0.0, 0.0, 0.0, 0.0, 0.0, 0.0, 0.0, 1356.0, 0.0, 0.0, 0.0, 0.0, 0.0, 0.0, 0.0, 0.0, 0.0, 0.0, 0.0, 0.0, 0.0, 0.0, 0.0, 0.0, 0.0, 0.0, 0.0, 0.0, 0.0, 0.0, 0.0, -945.0, 0.0, 0.0, 0.0, 785.0, 0.0, 0.0, 0.0, 0.0, 0.0, 0.0, 0.0, 0.0, 0.0, 0.0, -346.0, 0.0, 0.0, 0.0, 0.0, 0.0, 0.0, 0.0, 0.0, 0.0, 0.0, 0.0, 0.0, 0.0, 0.0, 0.0, 0.0, 0.0, 0.0, 0.0, 0.0, 0.0, 0.0, 0.0, 0.0, 0.0, 0.0, 0.0, 0.0, 0.0, 0.0, 0.0, 0.0, 0.0, 0.0, 0.0, 0.0, 0.0, 0.0, 0.0, 0.0, 0.0, 0.0, 0.0, 0.0, 0.0, 0.0, 0.0, 0.0, 0.0, 0.0, 0.0, 0.0, 0.0, 0.0, 0.0, 0.0, 0.0, 0.0, 0.0, 0.0, 0.0, 0.0, 0.0, 0.0, 0.0, 0.0, 0.0, 0.0, 0.0, 0.0, 0.0, 0.0, 0.0, 0.0, 0.0, 0.0, 0.0, 0.0, 0.0, 0.0, 0.0, 0.0, 0.0, 0.0, 0.0, 0.0, 0.0, 0.0, 0.0, 0.0, 0.0, 0.0, 0.0, 0.0, 0.0, 0.0, 0.0, 0.0, 0.0, 0.0, 0.0, 0.0, 0.0, 0.0, 0.0, 0.0, 1356.0, 0.0, 0.0, 0.0, 0.0, 0.0, 0.0, 0.0, 0.0, 0.0, 0.0, 0.0, 0.0, 0.0, 0.0, 0.0, 0.0, 0.0, 0.0, 0.0, 0.0, 0.0, 0.0, 0.0, 0.0, 0.0, 0.0, 0.0, 0.0, 0.0, 0.0, 0.0, 0.0, 0.0, 0.0, 0.0, 0.0, 0.0, 0.0, 0.0, 0.0, 0.0, 0.0, 0.0, 0.0, 0.0, 0.0, 0.0, -945.0, 0.0, 0.0, 0.0, 0.0, 0.0, 0.0, 0.0, 0.0, 0.0, -694.0, 0.0, 0.0, 0.0, 0.0, 0.0, 0.0, 0.0, 0.0, 0.0, 0.0, 0.0, 0.0, 0.0, 0.0, 0.0, 0.0, 785.0, 0.0, 0.0, 0.0, 0.0, 0.0, 0.0, 0.0, 0.0, 0.0, 0.0, 785.0, 0.0, 785.0, 0.0, 0.0, 0.0, 0.0, 0.0, 0.0, 0.0, 0.0, -945.0, 0.0, 0.0, 0.0, 0.0, 0.0, 2926.0, 0.0, 0.0, 0.0, 0.0, 0.0, 0.0, 0.0, 0.0, 0.0, 0.0, 0.0, 0.0, 0.0, 0.0, 0.0, 0.0, 0.0, 0.0, 0.0, 0.0, 0.0, 0.0, 0.0, 0.0, 0.0, 0.0, 0.0, 0.0, 0.0, 0.0, 0.0, 0.0, 0.0, 0.0, 0.0, 0.0, 0.0, 0.0, 0.0, 0.0, 0.0, 0.0, 0.0, 0.0, 0.0, 0.0, 0.0, 0.0, 0.0, 0.0, 0.0, 0.0, 0.0, 0.0, 0.0, 0.0, 0.0, 0.0, 0.0, 0.0, 0.0, 0.0, 0.0, 0.0, 0.0, 0.0, 0.0, 0.0, 0.0, 0.0, 0.0, 0.0, 0.0, 0.0, 0.0, 0.0, 0.0, 0.0, 0.0, 0.0, 0.0, 0.0, 0.0, 0.0, 0.0, 0.0, 0.0, 0.0, 0.0, 0.0, 0.0, 0.0, 0.0, 0.0, 0.0, 0.0, 0.0, 0.0, 0.0, 0.0, 0.0, 0.0, 0.0, 0.0, 0.0, 0.0, 1356.0, 0.0, 0.0, 0.0, 0.0, 0.0, 0.0, 0.0, 0.0, 0.0, 0.0, 0.0, -1890.0, 0.0, 0.0, 0.0, 0.0, 0.0, 0.0, 0.0, 0.0, 0.0, 0.0, 0.0, 0.0, 0.0, 785.0, 0.0, 0.0, 0.0, 0.0, 0.0, 0.0, 0.0, 0.0, 0.0, 0.0, 0.0, 0.0, 0.0, 0.0, 0.0, 0.0, 0.0, 0.0, -346.0, 0.0, 0.0, 0.0, 0.0, 0.0, 0.0, 785.0, 0.0, 0.0, 0.0, 0.0, 0.0, 0.0, 0.0, 0.0, 0.0, 0.0, -945.0, 0.0, 0.0, 0.0, 0.0, 0.0, 0.0, 0.0, 0.0, 0.0, 0.0, 0.0, 0.0, 0.0, 0.0, 0.0, -1890.0, 0.0, 0.0, 0.0, 0.0, 0.0, 1356.0, 0.0, 0.0, 0.0, 0.0, 0.0, 0.0, 0.0, 0.0, 0.0, 0.0, 0.0, 0.0, 0.0, 0.0, 0.0, 0.0, 0.0, 0.0, 0.0, 0.0, 0.0, 0.0, 0.0, 0.0, 0.0, 0.0, 0.0, 0.0, 0.0, 0.0, 0.0, 0.0, 0.0, 0.0, 0.0, 0.0, 0.0, 0.0, 0.0, 0.0, 0.0, 0.0, 0.0, 0.0, 0.0, 0.0, 0.0, 0.0, 0.0, 0.0, 0.0, 0.0, 0.0, 0.0, 0.0, 0.0, 0.0, 0.0, 0.0, 0.0, 0.0, 1356.0, 0.0, 0.0, 0.0, 0.0, 0.0, 0.0, 0.0, 0.0, 0.0, 0.0, -945.0, 0.0, 0.0, 0.0, 0.0, 0.0, 0.0, 0.0, 0.0, -346.0, 0.0, 0.0, 0.0, 0.0, 0.0, 0.0, 0.0, 0.0, 0.0, 0.0, 0.0, 0.0, 0.0, 0.0, 0.0, 0.0, 0.0, 0.0, 0.0, 0.0, 0.0, 0.0, 0.0, 1356.0, 0.0, 0.0, 0.0, 0.0, 0.0, 0.0, 0.0, 0.0, 0.0, 0.0, 0.0, 0.0, 0.0, 0.0, 0.0, 0.0, 0.0, 0.0, 0.0, 0.0, 0.0, 0.0, 0.0, 0.0, 0.0, 0.0, 0.0, 0.0, 0.0, 0.0, 0.0, 0.0, 0.0, 0.0, 0.0, 0.0, 0.0, 0.0, -945.0, 0.0, 0.0, 0.0, 0.0, 0.0, 0.0, 0.0, 0.0, 0.0, 0.0, 0.0, 0.0, 0.0, 0.0, 0.0, 0.0, 0.0, -346.0, 0.0, 0.0, 0.0, 0.0, 0.0, 0.0, 0.0, 0.0, 0.0, 785.0, 0.0, 0.0, -346.0, 785.0, 0.0, 0.0, 0.0, 0.0, 0.0, 0.0, 0.0, 0.0, 0.0, 0.0, 0.0, 0.0, 0.0, 0.0, 0.0, 0.0, 0.0, 0.0, 0.0, 0.0, 0.0, 0.0, 1356.0, 0.0, 0.0, 0.0, 0.0, 0.0, 0.0, 0.0, 0.0, 0.0, 0.0, 0.0, 785.0, 0.0, 0.0, 0.0, 0.0, 0.0, 785.0, 0.0, 0.0, 0.0, 0.0, 0.0, 0.0, 0.0, 0.0, 0.0, 0.0, 0.0, 0.0, 0.0, 0.0, 0.0, 0.0, 0.0, 0.0, 0.0, 0.0, 0.0, 0.0, 0.0, 0.0, 0.0, 0.0, 0.0, 0.0, 0.0, 0.0, 0.0, 0.0, 0.0, 0.0, 0.0, 0.0, 0.0, 0.0, 0.0, 0.0, 0.0, 0.0, 0.0, 0.0, 0.0, 0.0, 0.0, 0.0, 0.0, 0.0, 0.0, 0.0, 0.0, 0.0, 0.0, 0.0, 0.0, -945.0, 0.0, 0.0, 0.0, 0.0, 0.0, 0.0, 0.0, -945.0, 0.0, 0.0, 0.0, 0.0, 0.0, 0.0, 0.0, 0.0, 0.0, 0.0, 0.0, 0.0, 0.0, 0.0, 0.0, 0.0, 0.0, 0.0, 0.0, 0.0, 0.0, 0.0, 0.0, 0.0, 0.0, 0.0, 0.0, 0.0, 0.0, 0.0, 0.0, 0.0, 0.0, 0.0, 0.0, 0.0, 0.0, 0.0, 0.0, 0.0, 0.0, 0.0, 0.0, 0.0, 0.0, 0.0, 0.0, 0.0, 0.0, 0.0, 0.0, 0.0, 0.0, 0.0, 0.0, 0.0, 0.0, 0.0, 0.0, 0.0, 0.0, 0.0, 0.0, 0.0, 0.0, 0.0, 0.0, 0.0, 0.0, 0.0, 0.0, 0.0, 0.0, 0.0, 0.0, 0.0, 0.0, 0.0, 0.0, 0.0, 0.0, 0.0, 0.0, 0.0, 0.0, 0.0, 0.0, 0.0, 0.0, 0.0, 0.0, 0.0, 0.0, 0.0, 0.0, 0.0, 0.0, 0.0, 0.0, 0.0, 0.0, 0.0, 0.0, 0.0, 0.0, 0.0, 0.0, 0.0, 0.0, 0.0, 0.0, 0.0, 0.0, 0.0, 0.0, 0.0, 0.0, 0.0, 0.0, 0.0, 0.0, 0.0, 0.0, 0.0, 0.0, 0.0, 0.0, 0.0, 0.0, 0.0, 0.0, 0.0, 0.0, 0.0, 0.0, 0.0, 0.0, 0.0, 0.0, 0.0, 0.0, 0.0, 0.0, 0.0, 0.0, 0.0, 0.0, 0.0, 0.0, 0.0, 0.0, 0.0, 0.0, 0.0, 0.0, 0.0, 0.0, 0.0, -945.0, 0.0, 0.0, 0.0, 0.0, 0.0, 0.0, 0.0, 0.0, 0.0, 0.0, 0.0, 0.0, 785.0, 0.0, 0.0, 0.0, 0.0, 0.0, 0.0, 0.0, 0.0, 0.0, 0.0, 0.0, 0.0, 0.0, 0.0, 0.0, 0.0, 0.0, 0.0, 0.0, 0.0, 0.0, 0.0, 0.0, 0.0, 0.0, 0.0, 0.0, 0.0, 0.0, 0.0, 0.0, 0.0, 0.0, 0.0, 0.0, 0.0, 0.0, 0.0, 0.0, 0.0, 0.0, 0.0, -945.0, 0.0, 0.0, 0.0, 0.0, 0.0, 0.0, 0.0, 0.0, 0.0, 0.0, 0.0, 0.0, 0.0, 0.0, 0.0, 0.0, 0.0, 0.0, 0.0, 0.0, 0.0, 0.0, 0.0, 0.0, 0.0, 0.0, 0.0, 0.0, 0.0, 0.0, 0.0, 0.0, 0.0, 0.0, 0.0, 0.0, 0.0, 0.0, 0.0, 0.0, 0.0, 0.0, 0.0, 0.0, 0.0, 0.0, 0.0, 0.0, 0.0, 0.0, 0.0, 0.0, 0.0, 0.0, 0.0, 0.0, 0.0, 0.0, 0.0, 0.0, -945.0, 0.0, 411.0, 0.0, 1356.0, 0.0, 0.0, 0.0, 0.0, 0.0, 785.0, 0.0, 0.0, 0.0, 0.0, 0.0, 0.0, 0.0, 0.0, 0.0, 0.0, 0.0, 0.0, 0.0, 0.0, 0.0, 0.0, 0.0, 0.0, 0.0, 0.0, 0.0, 0.0, 0.0, 0.0, 0.0, 0.0, 0.0, 0.0, 0.0, 0.0, 0.0, 0.0, -945.0, 0.0, 0.0, 0.0, 0.0, 0.0, 0.0, 0.0, 0.0, 0.0, 0.0, 0.0, 0.0, 0.0, 0.0, 0.0, 0.0, 0.0, 0.0, 0.0, 0.0, 0.0, 0.0, 0.0, 0.0, 0.0, 0.0, 0.0, 0.0, 0.0, 0.0, 0.0, 0.0, 0.0, 0.0, 0.0, 0.0, 0.0, 0.0, 0.0, -346.0, 0.0, 0.0, 0.0, 0.0, 0.0, 0.0, 0.0, 0.0, 0.0, 0.0, 0.0, 0.0, 0.0, 0.0, 0.0, 0.0, 0.0, 0.0, 0.0, 0.0, 0.0, 0.0, 0.0, 0.0, 0.0, 0.0, 0.0, 0.0, 0.0, 0.0, 0.0, 0.0, 0.0, 0.0, 0.0, 0.0, 0.0, 0.0, 0.0, 0.0, 0.0, 0.0, 0.0, 0.0, 0.0, 0.0, 0.0, 0.0, 0.0, 0.0, 0.0, 0.0, 0.0, 0.0, 0.0, 0.0, 0.0, 785.0, 0.0, 0.0, 0.0, 0.0, 0.0, 0.0, 0.0, 0.0, 0.0, 0.0, 0.0, 0.0, 0.0, 0.0, 0.0, 0.0, 785.0, 0.0, 0.0, 0.0, 0.0, 0.0, 0.0, 0.0, 0.0, 0.0, 1356.0, 0.0, 0.0, 0.0, 0.0, 0.0, 0.0, 0.0, 0.0, 0.0, 0.0, 0.0, 0.0, 0.0, 0.0, 0.0, 0.0, 0.0, 0.0, 0.0, 0.0, 0.0, 0.0, 0.0, 0.0, 0.0, 0.0, 0.0, 0.0, 0.0, 0.0, 0.0, 0.0, 0.0, 0.0, 0.0, 0.0, 0.0, 0.0, 0.0, 0.0, 0.0, 0.0, 0.0, 0.0, 0.0, 0.0, 0.0, 0.0, 0.0, 0.0, 0.0, 0.0, 0.0, 0.0, 0.0, 0.0, 0.0, 0.0, 0.0, 0.0, 0.0, 0.0, 0.0, 0.0, 0.0, 0.0, 0.0, 0.0, 0.0, 0.0, 0.0, 0.0, 0.0, 0.0, 0.0, 0.0, 0.0, 0.0, 0.0, 0.0, 0.0, 0.0, -945.0, 0.0, 0.0, 0.0, 0.0, 0.0, 0.0, 0.0, 0.0, 0.0, 0.0, 0.0, 0.0, 0.0, 0.0, 0.0, 0.0, 1356.0, 0.0, 0.0, 0.0, 0.0, 0.0, 0.0, 0.0, 0.0, 0.0, 0.0, 0.0, 0.0, 0.0, 0.0, 0.0, 0.0, 0.0, 0.0, 0.0, -945.0, 0.0, 0.0, 0.0, 0.0, 0.0, 0.0, 0.0, 0.0, 0.0, 0.0, 0.0, 0.0, 0.0, 0.0, 0.0, 0.0, -945.0, 0.0, 0.0, 0.0, 0.0, 0.0, 0.0, 0.0, 0.0, 0.0, 0.0, 0.0, 0.0, 0.0, 0.0, 0.0, 0.0, 0.0, 0.0, 0.0, 0.0, 0.0, 0.0, -945.0, 0.0, 0.0, 0.0, 0.0, 0.0, 0.0, 0.0, 0.0, 0.0, 0.0, 0.0, 0.0, 0.0, 0.0, 0.0, 0.0, 0.0, 785.0, 0.0, 0.0, 0.0, 0.0, 0.0, 0.0, 0.0, 0.0, 0.0, 0.0, 0.0, 0.0, 0.0, 0.0, 0.0, 0.0, 0.0, -346.0, 0.0, 0.0, 0.0, 0.0, 0.0, 0.0, 0.0, 0.0, 0.0, 0.0, 0.0, 0.0, 0.0, 0.0, -945.0, 0.0, 0.0, 0.0, 0.0, 0.0, 0.0, 0.0, 0.0, 0.0, 0.0, 0.0, 0.0, 0.0, 0.0, 0.0, 0.0, 1356.0, 0.0, 0.0, 0.0, 0.0, 0.0, 0.0, 0.0, 0.0, 0.0, 0.0, 0.0, 0.0, 0.0, 0.0, 0.0, 0.0, 0.0, 0.0, 0.0, 1356.0, 0.0, 0.0, 0.0, 0.0, 0.0, 0.0, 0.0, 0.0, 0.0, 0.0, 0.0, 0.0, 0.0, 0.0, 0.0, 0.0, 0.0, 0.0, 0.0, 0.0, 0.0, 0.0, 0.0, 0.0, 0.0, 0.0, 0.0, 0.0, 0.0, 0.0, 0.0, 0.0, 0.0, 0.0, 0.0, 0.0, 0.0, 0.0, 0.0, 0.0, 0.0, 0.0, 0.0, 0.0, 0.0, 0.0, 0.0, 0.0, 0.0, 0.0, 0.0, 0.0, 0.0, 0.0, 0.0, 0.0, 0.0, 0.0, 0.0, 0.0, 0.0, 0.0, 0.0, 0.0, 0.0, 0.0, 0.0, 0.0, 0.0, 0.0, 0.0, 0.0, 0.0, 0.0, 0.0, 0.0, 0.0, 0.0, 0.0, 0.0, 1356.0, 0.0, 0.0, 0.0, 0.0, 0.0, 0.0, 0.0, 0.0, 0.0, 0.0, 0.0, 0.0, 0.0, 0.0, 0.0, 0.0, 0.0, 0.0, 0.0, 0.0, 0.0, 0.0, 0.0, 0.0, 0.0, -945.0, 0.0, 0.0, 0.0, 0.0, 0.0, 0.0, 0.0, 0.0, 0.0, 0.0, 0.0, 0.0, 0.0, 0.0, 0.0, 0.0, 0.0, 0.0, 0.0, 0.0, -346.0, 0.0, 0.0, 0.0, 0.0, 0.0, 0.0, 0.0, 0.0, 0.0, 0.0, 0.0, -346.0, 0.0, 0.0, 0.0, 0.0, 0.0, 0.0, 0.0, 0.0, 0.0, 0.0, 0.0, 0.0, 0.0, 0.0, 0.0, 0.0, 0.0, 0.0, 0.0, 0.0, 0.0, 0.0, 0.0, 0.0, 0.0, 0.0, 0.0, 0.0, 0.0, 0.0, 0.0, 0.0, 0.0, 0.0, 0.0, 0.0, 0.0, 0.0, 0.0, 0.0, 785.0, 0.0, 0.0, 0.0, 0.0, 0.0, 0.0, 0.0, 0.0, 0.0, 0.0, 785.0, 0.0, 0.0, 0.0, 0.0, 0.0, 0.0, 0.0, 0.0, 0.0, 0.0, 1010.0, 0.0, 0.0, 0.0, 0.0, 0.0, 0.0, 0.0, 0.0, 0.0, 0.0, 0.0, 0.0, -945.0, 0.0, 0.0, 0.0, 0.0, 0.0, 0.0, 0.0, 0.0, 0.0, 0.0, 0.0, 0.0, 0.0, 0.0, 0.0, 0.0, 0.0, 0.0, 0.0, 0.0, 0.0, 0.0, 0.0, 0.0, 0.0, 0.0, 0.0, 0.0, 0.0, 0.0, -945.0, 0.0, 0.0, 0.0, 0.0, 0.0, 0.0, 0.0, 0.0, 0.0, 0.0, 0.0, 0.0, 0.0, 0.0, 0.0, 0.0, 0.0, 0.0, 0.0, 0.0, 0.0, 0.0, 0.0, 0.0, 0.0, 0.0, 0.0, 0.0, 0.0, 0.0, 0.0, 0.0, 0.0, 0.0, 0.0, 0.0, 0.0, 0.0, 0.0, 0.0, 0.0, 0.0, -945.0, -346.0, 0.0, 0.0, 0.0, 0.0, 1356.0, 0.0, 0.0, 0.0, 0.0, 0.0, 0.0, 0.0, -945.0, 0.0, 0.0, 0.0, 0.0, 0.0, 0.0, 0.0, 0.0, 0.0, 0.0, 0.0, 0.0, 0.0, 0.0, 0.0, 0.0, 0.0, 0.0, 0.0, 0.0, 0.0, 0.0, 0.0, 0.0, 0.0, 0.0, 0.0, 0.0, 0.0, 0.0, 0.0, 0.0, 0.0, 0.0, 0.0, 0.0, 1356.0, 0.0, 0.0, 0.0, 0.0, 0.0, 0.0, 0.0, 0.0, 0.0, 0.0, 0.0, 0.0, 0.0, 0.0, 0.0, 0.0, 0.0, 0.0, 0.0, 785.0, 0.0, 0.0, 0.0, 785.0, 0.0, 0.0, 0.0, 0.0, 0.0, 0.0, 0.0, 0.0, 0.0, 0.0, 0.0, 0.0, 0.0, 0.0, 0.0, 0.0, 0.0, 0.0, 0.0, 0.0, 0.0, 0.0, 0.0, 0.0, 0.0, 0.0, 0.0, 0.0, 0.0, 0.0, 0.0, 0.0, 0.0, 0.0, 0.0, 0.0, 0.0, 0.0, 0.0, 0.0, 0.0, 0.0, 0.0, 0.0, 0.0, 0.0, 0.0, 0.0, 0.0, 0.0, 0.0, 0.0, 0.0, 0.0, 0.0, 0.0, 1356.0, 0.0, 0.0, 0.0, 0.0, 0.0, 0.0, 0.0, 0.0, 0.0, 0.0, 0.0, 0.0, 0.0, 0.0, 0.0, 0.0, 0.0, 0.0, 0.0, 0.0, 0.0], "w": [2.0, 0.0, 2.0, 1.0, -1.0, -1.0, 0.0, -1.0, 0.0, 0.0, 1.0, -0.37, 0.0, 1.0, 2.0, 1.63, -1.0, 0.0, -3.0, 6.0, 4.0, -3.0, 2.0, 4.0, 0.0, 3.4766666666666666, -4.0, 0.0, 0.0, -1.0, 1.0, 0.0, 0.0, 0.0, -1.0, -1.0, -1.0, 3.0, 0.0, 0.0, -1.0, -2.0, 1.0, -1.0, 1.0, -1.0, -1.0, 0.0, -2.0, 2.0, -5.0, 1.0, -1.0, -1.0, 2.0, 1.0, -1.0, 0.0, 1.0, -1.0, 0.0, 2.0, 3.0, -1.0, 1.0, 1.0, -2.0, 0.0, 1.0, -2.0, -3.0, -4.0, 1.0, 0.0, -2.0, -1.0, -3.0, 4.0, 0.0, 0.0, -1.0, 4.0, -1.178, -2.37, 1.0, 2.0, -7.0, 1.0, 0.0, 1.0, 0.0, 2.0, 0.0, -1.0, 0.0, 0.0, -1.0, 0.0, 0.0, -2.0, -2.0, 1.0, 1.0, -1.0, 0.0, -1.0, 0.0, -2.0, -1.0, 1.0, -2.0, -1.0, 0.0, 1.0, 1.0, -2.37, -2.0, 1.0, 2.0, -2.0, -5.0, -1.0, 3.0, 2.0, -3.0, -1.0, -2.0, 2.0, -9.0, 0.0, -3.0, 2.0, -4.0, -2.0, -1.0, -3.0, 0.0, 0.0, 1.0, 3.096, -4.0, -3.0, 1.0, 3.0, 2.0, 0.0, -1.0, 2.0, -2.0, 3.0, -1.0, 1.0, 1.0, 1.0, 1.0, 4.0, -1.0, -1.0, -2.0, -3.0, 3.0, 2.0, 0.0, -1.37, 0.0, -4.0, 0.0, 4.476666666666667, -2.0, 0.0, 0.0, 0.0, 2.0, 12.0, 3.0, -1.0, 0.0, 2.0, -3.7693333333333334, -2.0, 0.0, -5.0, 7.0, -1.0, -1.0, 2.0, 0.0, -1.0, -2.0, 1.0, 0.0, -4.0, -2.0, -1.0, 0.0, -1.0, -2.0, -3.0, 0.0, -3.0, 0.0, -4.0, 2.0, 2.0, -1.0, -1.0, 0.0, 4.0, 3.0, 0.0, -1.0, -1.0, 0.0, -5.0, 2.0, 5.0, 2.0, 3.0, -1.0, -1.0, 4.0, 2.0, 0.0, 0.0, 0.0, 0.0, -1.0, 2.0, 2.0, -2.0, 2.0, 0.0, -3.0, -1.0, 0.0, -2.0, 0.0, -4.0, -1.0, 1.0, 0.0, 0.0, 1.0, -1.0, 0.0, 0.0, 2.0, 0.0, 1.0, 0.0, 3.0, 0.0, 0.0, -1.0, -4.0, -2.0, 0.0, -1.0, 5.0, -2.0, -1.0, 1.0, 2.0, 1.0, -2.0, 2.0, -1.0, 3.0, 0.0, 2.0, 1.0, 1.0, 0.0, -2.0, -3.0, 1.0, -1.0, 1.0, -1.0, 0.0, 4.0, 0.0, -3.0, -2.0, -2.0, 0.09599999999999997, -2.0, 7.0, 1.0, -2.0, 3.0, -1.0, 0.0, 0.0, 1.0, -4.0, -1.0, -1.0, 0.0, -1.0, -4.0, 3.0, 0.0, -2.0, 0.0, 1.0, 1.0, 2.0, 1.0, 0.0, 2.0, 0.0, -5.0, 4.0, 2.0, 0.0, 3.0, 0.0, 0.0, -1.0, -2.0, 0.0, 0.0, 0.0, 0.0, 0.0, 0.0, -1.0, 0.0, 0.0, -1.0, 0.0, 0.0, 0.63, -3.0, 0.0, -2.0, 1.0, 1.0, 0.0, -2.0, 0.0, -1.0, 0.46266666666666667, 0.0, 4.0, -3.0, 1.0, 2.0, 0.0, 4.0, 0.0, 1.0, -1.0, 0.0, 3.0, 1.0, 0.0, 1.0, 10.0, -1.5233333333333334, -1.0, 1.0, 2.0, 0.0, 0.0, 0.0, 5.0, 0.0, -2.0, 0.0, 1.4766666666666666, 1.0, -0.5233333333333333, 1.0, 1.0, -2.0, 0.0, -3.0, -1.0, 0.0, 1.0, 0.63, 1.0, 2.0, 0.0, -2.0, 0.0, -2.9506666666666668, -1.0, 0.0, 0.0, -1.0, 0.0, -1.0, -1.0, -4.0, 0.0, -2.0, -1.0, 1.0, 0.0, 2.0, 1.0, 0.0, 4.0, 1.0, 0.0, -2.0, -1.0, -2.0, 0.0, 0.0, -1.0, 0.0, 0.0, -1.0, 1.0, 1.0, -1.0, 0.0, 0.0, -2.0, -1.0, 3.0, -1.0, -3.0, -1.0, -3.0, -5.0, 0.0, 0.0, -2.0, -2.0, -1.0, 1.0, -1.0, 1.0, 0.0, 2.0, -1.0, -3.0, -4.0, 0.0, 0.0, -1.0, -1.0, -1.0, 1.0, -2.0, 0.0, 1.0, -1.0, 2.0, -6.0, 0.0, 0.0, -3.0, 0.0, 1.0, 2.0, 0.0, 0.0, -4.0, -1.0, 2.0, -2.0, 1.0, -7.0, -1.0, 1.0, 1.0, 0.0, 1.0, -2.0, -1.0, 2.0, 1.0, -1.0, 0.0, 1.0, -1.0, -1.0, -1.0, -1.0, -4.0, 5.0, -1.0, -1.0, -2.0, 1.0, 0.0, 0.0, -4.0, 3.0, 0.09599999999999997, 2.0, 4.0, 2.0, 1.0, 3.0, -1.0, -5.0, 3.0, -2.0, -2.0, -1.0, 0.26, 1.0, -1.0, 0.0, 0.0, 8.0, -2.0, 0.0, 0.0, 1.0, -2.0, 0.0, 1.0, 1.0, 0.4766666666666667, 0.0, 2.0, -4.0, 0.0, -4.0, -1.0, -1.0, -1.0, -1.0, -2.0, 1.0, -2.0, -2.0, -1.0, -1.0, -1.0, 0.0, -1.0, -2.7693333333333334, 1.0, 0.0, 1.0, 0.0, -2.0, -2.0, -1.5233333333333334, -2.0, 0.0, 2.0, 0.0, 0.0, -1.0, -1.0, 1.0, -2.0, 3.0, -1.37, 1.0, 1.0, 0.0, 0.0, 0.0, 1.0, 0.0, 6.0, 1.0, 1.0, -1.0, 0.0, -1.0, 5.0, 0.0, -0.74, 0.0, -1.0, 1.0, 0.0, 0.0, -4.904, -1.0, -1.0, 0.0, 0.0, 1.0, -2.0, 1.0, -2.0, 0.0, -1.0, -2.0, 2.0, -3.0, 1.0, 0.0, -1.0, 1.0, -4.0, 4.0, -2.0, 0.0, 0.0, -1.0, 1.0, 0.0, -2.0, 0.0, -2.0, 2.0, 3.0, -1.0, 1.0, -1.0, -1.0, -1.0, 1.0, -3.0, 0.0, -1.0, 2.0, 0.0, -2.0, 0.0, -1.0, 0.0, 0.0, 1.0, -2.0, -1.0, 0.0, 1.0, 0.0, 0.0, 0.0, -3.0, 1.0, 1.0, -3.0, 4.0, -1.0, 0.0, -0.904, 0.0, 0.0, 2.0, 3.0, -2.0, -1.0, 0.0, -2.0, 0.0, 0.0, -0.37, 2.0, 0.0, 0.0, 9.0, 1.0, -1.0, -1.0, 4.0, -7.769333333333333, 3.0, -3.0, -3.0, -2.0, -1.0, 1.0, 1.0, -1.0, 1.0, -1.0, 3.0, -6.0, -3.0, -1.0, -1.0, -1.0, -1.0, 0.0, 0.0, 2.0, 0.0, -1.0, -2.0, -3.904, -1.0, -4.0, 4.0, 0.0, 1.0, 2.0, -3.0, -1.0, -1.0, 0.0, 3.0, 0.0, 0.0, 0.0, -1.0, 3.0, -1.0, -3.0, 0.0, -1.0, 0.0, -1.0, 2.0, -1.0, -1.0, -7.0, 1.0, -5.0, -3.0, -1.0, -1.0, 0.0, 0.0, -2.0, 0.0, 3.0, -1.0, -2.0, -0.37, 2.0, 0.0, 1.0, 0.0, 1.0, 0.0, 0.0, -1.0, 0.0, -1.0, 1.0, 1.0, 3.0, 2.0, 0.0, 0.0, -2.0, 0.23066666666666666, 1.0, 5.0, -4.0, 0.0, 1.0, 1.0, 4.0, 0.0, -3.0, 0.4766666666666667, 2.0, 0.0, 2.2306666666666666, 16.476666666666667, 2.0, -1.0, 0.0, -2.0, 1.0, 1.0, -2.0, 1.0, 2.0, -2.0, -1.0, 0.0, -1.0, 0.0, 0.0, 0.0, 0.0, -1.0, 2.0, -2.0, 0.0, 2.0, 4.096, 0.0, -1.0, -3.0, -1.0, 4.0, 0.0, 1.0, 4.0, 1.0, -1.0, -3.0, 0.4766666666666667, 0.0, 1.0, -2.0, 0.0, 1.0, 0.4766666666666667, 0.0, 0.0, -1.0, -1.0, 1.0, -2.0, 2.0, 1.0, -1.0, 1.0, 1.0, -2.0, -1.0, 0.0, 0.0, -1.0, -2.0, 4.0, 0.0, -3.0, -1.0, 2.0, -5.0, -1.0, -1.0, 3.0, 0.0, 0.0, 1.0, -2.0, 0.0, 0.0, -2.0, 4.0, 1.0, 3.0, 3.0, 0.0, 0.0, 0.0, -2.0, -1.0, 1.0, 2.0, 0.0, 0.0, 0.0, 0.0, 0.0, -1.0, -1.0, 1.0, -1.0, 7.0, 0.0, -3.0, -1.0, -2.37, 1.0, 0.0, 1.0, -3.0, 1.0, 1.0, 3.0, -0.37, 1.0, 0.0, 0.0, -4.0, -1.0, 4.0, -2.0, 0.0, -1.0, 0.0, 0.0, 0.0, 1.0, 0.0, -1.0, -5.0, 0.0, 2.0, -3.0, 1.0, 6.0, 2.0, -1.0, 0.0, -1.0, -1.0, -3.0, -1.0, 1.0, 0.0, -1.0, -1.0, 0.0, 0.0, 2.0, 1.0, 0.0, -1.0, 0.0, -2.0, 0.0, 1.0, 0.0, -4.0, 0.0, -2.0, 1.0, 1.0, 0.0, 0.0, -2.0, -3.0, -1.0, 1.0, -1.0, 4.0, -2.0, -1.0, 0.0, 0.0, -1.0, -2.0, 0.0, -2.0, 0.0, -2.0, 4.0, 0.0, -1.0, -1.0, 3.0, 0.0, -1.0, -3.0, -1.0, 0.0, 0.0, -4.0, 6.0, 3.0, 3.0, -1.0, -1.0, 0.0, -2.0, -3.0, -2.0, 0.0, -5.0, 0.0, -1.0, -3.0, 0.0, 0.0, -1.0, -2.0, -1.0, 0.0, 0.0, 4.0, 0.0, -1.0, 1.0, 4.0, -1.0, 0.0, 2.0, -1.0, 0.0, -2.0, -1.0, 0.0, -1.0, -1.0, 1.0, 0.0, -2.0, 0.0, -1.0, -1.0, 1.0, -3.0, 5.0, 0.0, 1.0, -4.0, 1.0, -1.0, -3.0, 2.0, 1.0, 3.0, -1.0, -1.0, -1.0, -1.0, -3.0, 0.0, -6.0, 1.0, 0.0, 14.0, 0.0, -2.0, 4.0, 1.0, -2.0, -1.0, 1.0, -1.0, -1.0, 1.0, 1.0, -6.0, 0.0, 0.0, 0.0, 1.0, 1.63, -2.0, 1.0, 1.0, 2.0, -3.0, 4.0, -2.0, 1.0, 1.0, -1.0, 1.0, 1.0, 3.4766666666666666, 0.0, 1.0, 3.0, -1.0, -1.0, 0.0, -1.0, 0.0, 0.0, 1.0, 1.0, 0.0, -2.0, -1.0, -1.0, 2.0, -2.0, 0.0, -1.0, -3.0, 1.0, 0.0, 0.0, 0.0, 1.0, 0.0, -1.0, 6.0, -1.0, 0.0, -2.0, -3.0, -2.0, 0.0, 0.0, 0.0, 3.0, -1.0, 1.0, -4.0, -1.0, 2.0, 2.63, 0.0, 0.0, -2.0, 1.0, -1.0, -1.0, 0.0, 0.0, -2.0, -2.0, -3.0, 0.0, -1.0, -2.0, -2.0, -1.0, -1.0, -2.0, -2.0, -2.0, -1.0, 1.0, 3.0, 1.0, 1.0, -1.0, -2.0, -2.0, 2.0, 1.0, -1.0, -2.0, -2.0, 0.0, 0.0, 0.0, -1.0, 3.0, 0.0, 0.0, -3.0, 0.0, -2.0, 0.0, -1.0, 2.0, 2.0, -1.0, 0.0, 2.0, 1.0, 7.0, -1.0, -3.0, 0.0, 0.0, 3.0, 0.0, -1.0, 0.0, -2.37, 1.0, -0.274, -1.0, 3.096, -1.0, 2.0, 1.0, -2.0, 1.0, 4.476666666666667, 0.0, 0.0, 0.0, -4.0, -1.0, 0.0, 0.0, 2.0, 1.0, 0.0, 0.0, 1.0, 1.0, -1.0, -3.0, 0.0, -2.0, -3.0, 3.0, -3.0, 1.0, -1.0, 3.0, -1.0, 0.0, -1.0, 0.0, -1.0, -2.0, -4.0, -1.0, -1.0, 0.63, 0.0, 0.0, 1.0, -7.0, -1.0, -1.0, 0.0, -2.0, -2.0, 0.0, -3.0, 5.0, 1.0, 0.0, -2.0, 5.0, 0.0, -1.0, 0.0, 0.0, 0.0, 0.0, -1.0, 1.0, -1.0, 1.0, 3.0, 0.0, 2.0, -2.0, -2.0, 0.0, -1.0, 1.0, -1.0, 0.0, 0.0, 0.0, 4.0, 3.2306666666666666, 0.0, 0.0, -1.0, -1.0, 1.0, 2.0, -1.0, 0.0, 1.0, -2.0, -6.0, -1.0, -1.0, -1.0, 1.0, 0.0, -1.0, -4.0, -2.0, 1.0, -2.0, -3.0, -3.0, 0.0, 2.0, 0.0, 0.0, 1.0, -1.0, -2.0, -1.0, 1.0, -4.0, -1.0, 1.0, 3.0, 0.0, 3.0, -2.0, 1.0, 0.0, -1.0, 0.0, -1.0, 1.0, 3.0, -1.0, 0.0, -5.0, -1.0, -1.0, -2.0, 2.0, -1.0, 0.0, 0.0, 1.0, 1.4766666666666666, 0.0, 3.0, 0.0, 1.0, -1.0, -1.0, 0.0, 0.0, 3.0, 1.0, 0.0, 0.0, -1.0, 0.0, 0.0, -1.0, -2.5233333333333334, -2.0, 7.0, 0.0, 0.0, 0.0, 0.0, -3.0, -1.0, 0.0, 2.096, 1.0, 2.0, -3.0, 3.0, -1.0, -1.0, -1.0, -1.0, 2.0, 16.0, 0.0, -3.0, -1.0, -1.0, 0.0, -1.0, 1.0, 3.0, 0.0, -1.0, 0.0, -3.0, -1.0, -1.0, 0.0, -2.0, 0.0, -1.0, 1.0, 3.0, 1.0, -1.0, 2.0, -1.0, 0.0, 0.0, -2.0, 1.0, 3.0, -1.0, -5.0, 5.0, 2.0, -2.0, 0.0, -1.0, -1.0, -2.0, 2.0, -1.0, 0.0, 0.0, 0.0, -1.0, 1.0, 1.0, -2.0, -1.0, 0.0, -3.0, -1.0, 1.0, 0.0, 1.0, 0.0, -1.0, -2.0, 1.0, -3.0, -1.0, -1.0, 0.0, 3.0, -1.0, 1.0, -2.0, 1.0, 0.0, 1.0, -2.0, 1.0, -4.0, 0.63, -5.0, -3.0, -7.0, 1.0, -1.0, 0.0, 0.0, -2.0, -3.0, 1.0, 1.0, 1.0, -4.0, -1.0, -1.0, -1.0, 2.096, -2.0, -1.0, 0.0, -1.0, -1.0, -2.0, 2.0, -1.0, -1.0, 2.0, -2.0, 2.0, 2.0, 1.0, -1.0, -2.0, 0.0, 0.0, -1.0, -0.37, -1.0, 0.0, -1.0, -3.0, 4.0, -1.0, 3.0, -3.0, 0.0, -2.0, 0.0, -1.0, 1.0, 0.0, 4.0, 1.0, 0.63, 2.0, 2.0, -3.0, -3.0, 1.0, 0.0, 0.0, -1.0, 0.0, -4.0, 0.0, -2.0, -1.0, -2.0, 0.0, -2.0, -1.0, 0.0, 0.0, 1.0, -1.0, -5.0, 1.63, -1.0, -2.0, 1.0, 0.0, 1.0, 1.0, -1.0, 0.0, 0.0, 0.0, -1.0, -1.0, -3.0, -2.0, 4.0, 1.0, 2.0, -2.5233333333333334, 0.0, 0.0, 0.0, 0.0, 1.0, -2.0, 1.0, 0.0, 5.0, 0.0, 0.0, 1.0, -2.0, -3.0, 1.0, 0.0, 0.0, -6.769333333333333, 1.0, 0.0, 1.0, 0.0, 1.0, 0.0, -1.0, 1.0, 0.0, -3.0, -1.0, 2.0, -1.0, 0.0, -1.37, 0.0, 0.0, -2.0, 4.0, -1.0, -1.0, 1.0, 7.0, 2.0, 1.0, 0.0, 1.0, -2.0, -1.0, -1.0, 0.0, 1.096, 4.0, 2.0, 3.0, 1.0, 0.0, -1.0, 2.0, 1.0, 0.0, 2.0, -1.0, -1.0, -2.0, 0.0, 0.0, -1.0, -2.0, -1.0, 0.0, -0.904, -1.0, 0.0, 2.0, -2.0, 0.0, 0.0, 0.0, 1.0, -2.0, 3.0, 0.0, 0.0, 3.0, 0.0, -2.0, -1.0, 0.0, 0.0, -1.0, -3.0, 1.0, -2.0, 1.0, 1.0, 0.0, 0.0, 0.0, -1.0, -2.0, 0.0, 2.0, -3.0, 0.0, 0.0, -1.0, -1.0, 0.0, 0.0, 1.0, -3.0, 0.0, -1.0, -3.0, 2.0, -4.0, 2.0, 0.0, -2.0, -5.0, 1.0, -1.0, -1.0, -1.0, 3.0, 4.0, 0.0, -2.0, 3.0, -1.0, -1.0, -1.0, -1.0, 4.0, 0.0, -2.0, 0.0, -1.0, -1.0, 4.0, 2.0, 0.0, 0.0, 1.0, 2.0, -3.0, 1.0, 1.0, -1.0, -1.0, -2.0, 1.096, -2.0, 0.0, -2.0, 0.0, 1.0, 0.0, 1.0, 0.0, 1.0, 4.0, -1.0, 0.0, -5.0, -1.0, 0.0, -1.0, -4.0, -1.0, 1.0, 0.0, 0.0, 0.0, -2.0, 2.0, -3.0, -2.37, 0.0, 2.0, 1.0, 0.0, 0.0, 0.0, 2.0, -3.0, 3.0, 0.0, 1.0, 0.0, 0.0, 1.0, 2.0, 3.0, -2.0, 0.0, 1.0, 1.0, -3.7693333333333334, -1.0, 1.0, 2.0, -4.0, -4.0, 1.0, 0.0, -1.0, -2.0, -2.0, -4.0, 5.230666666666667, 1.0, 1.0, 1.0, 2.0, 1.0, 1.0, 0.0, 0.0, -2.0, -3.0, 3.0, 0.0, -2.0, -1.0, -2.0, 1.0, -1.0, -1.0, 0.0, 2.0, 0.0, 1.0, 0.0, 2.0, 1.0, -2.0, -1.0, -1.0, -1.0, 0.0, -1.0, -1.0, -2.0, 2.0, -2.0, 0.0, 1.0, -3.0, -1.0, 1.0, -2.5233333333333334, 0.0, 1.0, 0.0, 2.0, 2.0, -2.0, 0.0, -2.0, 3.0, 2.0, -0.5233333333333333, 3.0, 1.0, -1.0, 0.0, -2.0, -1.0, 2.0, 1.0, -6.0, 0.0, 15.326666666666666, -2.0, -1.0, 0.0, 4.0, 0.0, 0.0, -1.0, 3.0, 1.0, 1.0, -3.0, 1.0, -0.37, -1.0, 0.0, 3.0, 