{"Fashion & Style": {"count_avg": 1561, "b": 3.0, "beta_avg": 3.647021140294683, "u_avg": [3519.0, -774.0, 0.0, 1067.0, -1457.0, -3018.0, -666.0, 1976.0, -691.0, 1421.0, 633.0, -1528.0, -2463.0, -293.0, 1342.0, -656.0, 1760.0, 608.0, -680.0, 4191.0, -1162.0, -1534.0, -835.0, 766.0, 1046.0, 911.0, -4156.0, -483.0, -1377.0, 1845.0, -183.0, 669.0, -501.0, 0.0, -1143.0, 568.0, -3808.0, 756.0, -648.0, -577.0, 4999.0, 938.0, 0.0, -1752.0, 2790.0, -44.0, -851.0, 1132.0, 2192.0, 1234.0, -1781.0, 84.0, -1618.0, 1830.0, 1561.0, 3186.0, 0.0, -2550.0, -921.0, 1919.0, -3729.0, 3462.0, -2455.0, 1299.0, -390.0, 403.0, -2279.0, 397.0, -481.0, -3804.0, 639.0, -184.0, 3993.0, 0.0, -2379.0, 0.0, 1906.0, -5002.0, 2074.0, 195.0, -2284.0, -170.0, -3262.0, -960.0, 1189.0, -1208.0, 428.0, 1951.0, -558.0, 1140.0, -1740.0, 664.0, -1074.0, -1536.0, -2137.0, 799.0, 484.0, -31.0, -207.0, -2487.0, 112.0, 1016.0, -1770.0, -31.0, -1862.0, -1050.0, -1258.0, 0.0, 1627.0, 1558.0, -890.0, 295.0, 0.0, 343.0, 1433.0, -1456.0, -2708.0, -2290.0, 52.0, -458.0, -5319.0, 0.0, 1491.0, -1317.0, -625.0, 1642.0, 1920.0, -1274.0, -898.0, 3768.0, 123.0, -237.0, -3248.0, 727.0, -433.0, 640.0, 1086.0, 1195.0, -1545.0, 1401.0, 436.0, 0.0, 1525.0, 220.0, 878.0, 746.0, 863.0, 320.0, -4945.0, 1974.0, -2922.0, 0.0, -1791.0, 1911.0, 2208.0, -18.0, 1535.0, 988.0, 2225.0, 778.0, 0.0, -1655.0, 1705.0, -1830.0, -106.0, 484.0, 2221.0, -3551.0, 696.0, 169.0, -2692.0, 2109.0, 0.0, -3248.0, -3563.0, -3495.0, -2289.0, -110.0, -7822.0, 0.0, 730.0, -718.0, -655.0, 1538.0, -2893.0, -90.0, 977.0, -1384.0, 3017.0, -821.0, 2794.0, 101.0, -3231.0, 631.0, 358.0, 822.0, 0.0, 630.0, -2839.0, -2938.0, 415.0, -145.0, 411.0, 142.0, 531.0, 2482.0, 1744.0, -1020.0, 4315.0, 287.0, -164.0, 0.0, -864.0, -1985.0, 3561.0, 81.0, 0.0, -442.0, -1538.0, -1776.0, -4647.0, 724.0, 790.0, 187.0, -172.0, -514.0, -1647.0, -71.0, -230.0, 1023.0, 381.0, -640.0, -3166.0, -772.0, 1199.0, -1506.0, -99.0, -63.0, 2427.0, 1631.0, 4099.0, 2133.0, 311.0, 0.0, 32.0, -234.0, -2142.0, -1469.0, 424.0, 2816.0, 1290.0, -3611.0, -470.0, -445.0, -2094.0, 740.0, -934.0, -1914.0, -2775.0, 635.0, 5046.0, 1478.0, 126.0, 856.0, -1137.0, -562.0, 265.0, 0.0, 936.0, -1327.0, -517.0, -159.0, -437.0, -3065.0, -297.0, -88.0, -811.0, 3112.0, 1421.0, 1516.0, 1623.0, -4073.0, -2707.0, -1304.0, -138.0, 0.0, -1150.0, -831.0, -1171.0, 389.0, 200.0, 2431.0, -568.0, 1892.0, -3519.0, -1569.0, 3511.0, 255.0, -756.0, 1129.0, -387.0, -1002.0, 522.0, -3813.0, 587.0, -135.0, 894.0, -2864.0, 0.0, 2075.0, 1027.0, -2975.0, -5613.0, -532.0, -634.0, 2240.0, -174.0, -2404.0, -2221.0, 608.0, 1479.0, 1409.0, -423.0, 276.0, 1553.0, -1340.0, -2542.0, -947.0, 552.0, -1841.0, 771.0, -1017.0, 1355.0, 3396.0, 1263.0, -1686.0, -1338.0, 0.0, 515.0, -2330.0, 136.0, -2181.0, -2894.0, 2001.0, -1647.0, 5.0, 161.0, 1464.0, 0.0, 0.0, -4487.0, 239.0, 439.0, -382.0, -2171.0, -1345.0, -1020.0, -231.0, 2722.0, 711.0, 2006.0, -3722.0, 38.0, 331.0, -175.0, -1463.0, -1279.0, 918.0, 1032.0, -1794.0, 636.0, -1093.0, 658.0, -435.0, 2784.0, 1338.0, 885.0, -1902.0, -1864.0, 1305.0, -3462.0, 1526.0, 276.0, 1938.0, 464.0, 0.0, -3335.0, 905.0, 3766.0, -4035.0, 434.0, 977.0, -889.0, 1688.0, -1220.0, 1331.0, -3746.0, 1409.0, 330.0, 1905.0, -1118.0, 264.0, 301.0, 3844.0, 1635.0, -1031.0, -3470.0, 347.0, 1366.0, 129.0, -154.0, -5097.0, -1589.0, -2109.0, -2361.0, -417.0, -1534.0, 66.0, -3748.0, 334.0, -1702.0, -296.0, 1671.0, 133.0, -1475.0, -821.0, -1170.0, 2336.0, 2621.0, -429.0, 35.0, 2170.0, 5126.0, -2984.0, 330.0, 2022.0, -1270.0, -2649.0, 2992.0, -340.0, -1870.0, -1697.0, -227.0, 642.0, 1275.0, -365.0, 736.0, -1528.0, 161.0, 361.0, 3.0, -850.0, 709.0, 0.0, -2488.0, 2048.0, -1272.0, -905.0, 1785.0, 0.0, -102.0, 771.0, 34.0, 192.0, -1920.0, 1365.0, -1120.0, 1177.0, 1870.0, -1496.0, -1230.0, 1437.0, 276.0, -269.0, -1457.0, -895.0, -399.0, -176.0, 225.0, 2875.0, 1882.0, -372.0, 978.0, -977.0, -530.0, 1462.0, 526.0, -212.0, -624.0, -4899.0, -364.0, -611.0, 2086.0, 4747.0, 483.0, 1464.0, 591.0, 103.0, -848.0, -887.0, -2330.0, 1768.0, -290.0, -173.0, -2949.0, 1171.0, 839.0, -412.0, -744.0, 0.0, 2326.0, -1509.0, 4792.0, 526.0, 954.0, -1384.0, -44.0, 1242.0, -2266.0, 1183.0, 242.0, -382.0, -238.0, 622.0, -6466.0, -3609.0, 2497.0, 703.0, -1444.0, -1461.0, 14.0, 946.0, -2833.0, -1434.0, 166.0, -1762.0, 449.0, -1383.0, -618.0, 279.0, -109.0, -1661.0, 1066.0, 52.0, 758.0, 1346.0, -1040.0, -1646.0, -884.0, -162.0, -1943.0, -4925.0, 0.0, 0.0, -2851.0, 336.0, 1723.0, 161.0, 2293.0, -1368.0, -1044.0, -904.0, -1.0, 569.0, 0.0, -1442.0, 2340.0, 2197.0, 1072.0, -1558.0, 47.0, -4062.0, 2360.0, 411.0, -1407.0, -44.0, 2313.0, -267.0, -1105.0, -713.0, -806.0, 2976.0, -597.0, 3032.0, 0.0, 2857.0, 495.0, 860.0, 1102.0, 4525.0, 1788.0, -3786.0, 1639.0, 4673.0, -21.0, -3122.0, -2483.0, -453.0, 7443.0, 825.0, 4005.0, 0.0, -479.0, 285.0, -983.0, 1105.0, -241.0, -1946.0, -951.0, -1342.0, 1185.0, 1927.0, 458.0, 934.0, 505.0, 2603.0, 1006.0, -1593.0, 1612.0, 1743.0, -3892.0, 111.0, -3563.0, 0.0, -658.0, 520.0, 107.0, -608.0, -1362.0, 1528.0, -877.0, 1220.0, -2205.0, -6098.0, 2699.0, 475.0, -386.0, -2249.0, 657.0, 276.0, 779.0, -203.0, -1762.0, 450.0, -2883.0, -86.0, 0.0, 1005.0, 0.0, 248.0, 1666.0, -834.0, 1603.0, 1217.0, -1622.0, -1436.0, 603.0, -585.0, 176.0, 1603.0, 1499.0, 149.0, -410.0, -366.0, 55.0, -5067.0, -5108.0, -685.0, 0.0, -2094.0, 234.0, -548.0, -1418.0, -332.0, -4192.0, -1968.0, -1763.0, -2034.0, -568.0, -1404.0, 226.0, 914.0, 0.0, 415.0, -1465.0, 0.0, -3292.0, -2136.0, 297.0, 673.0, 1157.0, 1026.0, 534.0, 3903.0, -611.0, -4269.0, 2145.0, 176.0, 805.0, 956.0, -2065.0, 232.0, -2533.0, -951.0, 1057.0, -124.0, 495.0, 1105.0, 0.0, -8.0, -2236.0, -2735.0, -1194.0, 799.0, -6241.0, 1253.0, 3737.0, 1115.0, 0.0, 0.0, -450.0, 1144.0, 268.0, -973.0, -2012.0, 522.0, 0.0, -4331.0, -1985.0, 0.0, 0.0, 2306.0, 1401.0, 2174.0, 742.0, -1058.0, -1387.0, 84.0, 395.0, -712.0, 337.0, 187.0, -222.0, 586.0, -4239.0, 3930.0, 162.0, -2976.0, 196.0, -3105.0, -1842.0, 1317.0, -2419.0, 685.0, -1012.0, 1669.0, -2686.0, -712.0, -872.0, -3400.0, -49.0, -1419.0, -2355.0, -569.0, 2213.0, -610.0, 1015.0, 0.0, -497.0, 2373.0, -2517.0, 554.0, 3815.0, 2906.0, -1197.0, -3262.0, -8.0, 2650.0, -4061.0, -1558.0, -1170.0, -1387.0, 1854.0, -658.0, -256.0, 1837.0, 1235.0, 108.0, 1150.0, 1037.0, -379.0, -1456.0, -2355.0, -1377.0, -437.0, -1044.0, -1169.0, 0.0, -789.0, 1262.0, -800.0, 516.0, -380.0, -2623.0, -1828.0, 236.0, -61.0, 235.0, -451.0, -764.0, 1599.0, 272.0, 0.0, 714.0, -2304.0, -169.0, -626.0, 1136.0, -349.0, 2268.0, -1434.0, -866.0, -752.0, 786.0, 1121.0, -684.0, -355.0, 1487.0, 1097.0, 1496.0, 881.0, 638.0, -2476.0, -139.0, -127.0, -457.0, -1234.0, 1063.0, -1444.0, 251.0, 1538.0, 0.0, -2116.0, 901.0, -744.0, -1338.0, 558.0, -457.0, -316.0, 550.0, -3478.0, -349.0, 1646.0, 14.0, -1553.0, -2339.0, 2078.0, 487.0, -620.0, -526.0, 2554.0, 860.0, -855.0, 3245.0, 918.0, -524.0, -198.0, -691.0, 4236.0, -2714.0, 1147.0, 1505.0, -1265.0, -1221.0, 810.0, -1325.0, 185.0, -1084.0, -1587.0, -1503.0, 1831.0, 1181.0, 2050.0, 1997.0, -2088.0, -703.0, 65.0, -548.0, -691.0, -1094.0, -2450.0, -2481.0, 1445.0, -151.0, -2892.0, -738.0, -1457.0, -2131.0, -821.0, -467.0, 3975.0, 0.0, 0.0, 1480.0, 592.0, 1309.0, -2.0, -1146.0, 8097.0, -1561.0, 2820.0, -1330.0, 1437.0, 0.0, 2114.0, -968.0, 1372.0, 230.0, -1463.0, 2589.0, 1683.0, 910.0, 1828.0, -312.0, -578.0, -168.0, -237.0, 1137.0, -2357.0, -2181.0, -2879.0, 247.0, -1377.0, 2006.0, 27.0, 3046.0, 508.0, 3107.0, 1380.0, -2828.0, -1051.0, 23.0, 4432.0, -352.0, -252.0, 2066.0, 267.0, 86.0, 28.0, 2044.0, -245.0, 222.0, 1915.0, -4031.0, 116.0, 1255.0, 928.0, 1001.0, -593.0, -1513.0, 283.0, -889.0, -5015.0, -4199.0, 3442.0, -2150.0, -1451.0, 0.0, 879.0, -404.0, -923.0, 0.0, 1325.0, -473.0, 927.0, -1340.0, -1585.0, 1144.0, -1.0, 183.0, 386.0, 909.0, 920.0, -748.0, -820.0, -644.0, 135.0, -440.0, -43.0, 397.0, 682.0, -1120.0, -14.0, 34.0, -1657.0, -483.0, -397.0, -6564.0, -743.0, -277.0, -1075.0, -1298.0, -1952.0, -7644.0, -3479.0, 0.0, -4024.0, 1559.0, -1065.0, -754.0, 128.0, -1605.0, -69.0, 808.0, 0.0, -773.0, -1486.0, 0.0, -1886.0, 25.0, -433.0, 2172.0, -104.0, 1373.0, -23.0, 0.0, 59.0, -1283.0, 0.0, -1204.0, -1166.0, 3594.0, 3.0, 7.0, -3009.0, -973.0, -7630.0, -3165.0, 2541.0, -1412.0, -1371.0, -1896.0, 2153.0, 330.0, 0.0, -633.0, -1501.0, 0.0, -3117.0, -1860.0, 279.0, 1798.0, 327.0, -297.0, -987.0, 4134.0, -645.0, -1447.0, -1616.0, -340.0, 0.0, 800.0, -4115.0, -718.0, 2984.0, 1529.0, 732.0, 1748.0, -3906.0, -669.0, 205.0, -1513.0, 2234.0, 2012.0, 1519.0, -99.0, -1483.0, 40.0, -1113.0, -279.0, -1018.0, -775.0, -1625.0, 306.0, 687.0, 9.0, 2397.0, 859.0, 1672.0, -272.0, 377.0, 573.0, -179.0, -1023.0, -4375.0, -809.0, -2147.0, -1740.0, -667.0, 1792.0, 655.0, 428.0, -754.0, 1195.0, 1925.0, -2986.0, -1465.0, -305.0, -1163.0, -1035.0, 797.0, 2234.0, -49.0, 4137.0, 1928.0, 658.0, 0.0, -1.0, -46.0, 2999.0, -162.0, 1090.0, -3065.0, -479.0, 0.0, -2174.0, 984.0, -517.0, -408.0, -1249.0, -2210.0, 207.0, -2142.0, 0.0, 2015.0, 1620.0, -1707.0, 1437.0, 2789.0, -3562.0, 2086.0, 1483.0, 250.0, -657.0, -3170.0, 2029.0, -874.0, 984.0, 622.0, -1429.0, 661.0, -3.0, 517.0, -1377.0, -1345.0, -2778.0, 203.0, -70.0, -4280.0, 2014.0, -828.0, -1131.0, -2217.0, -491.0, -3277.0, -1126.0, -399.0, -1378.0, 949.0, 1382.0, -6247.0, -605.0, -2540.0, -1587.0, 317.0, 5007.0, 174.0, -844.0, 2756.0, -136.0, -1672.0, 1799.0, 5584.0, 4974.0, -431.0, -708.0, 473.0, 1651.0, -1689.0, -1219.0, 412.0, -1858.0, -1774.0, 2865.0, 0.0, -191.0, 147.0, 2093.0, 1240.0, 1201.0, 5396.0, 347.0, 1128.0, 1270.0, -127.0, -917.0, 3161.0, -1129.0, -211.0, 6.0, 372.0, 1414.0, -23.0, 92.0, -23.0, -705.0, 223.0, -1998.0, 0.0, -1247.0, 1784.0, -110.0, -451.0, 1306.0, 3214.0, -1211.0, 907.0, 3050.0, 42.0, -254.0, -158.0, -2776.0, -1708.0, 1956.0, -5372.0, -182.0, -2879.0, -592.0, 59.0, 806.0, -1091.0, -3274.0, -648.0, -235.0, -420.0, 1527.0, 2928.0, -1298.0, -681.0, 3842.0, -935.0, 1287.0, -154.0, -1170.0, -1847.0, 661.0, -447.0, 2090.0, 0.0, 0.0, 2288.0, -3013.0, -1335.0, -1385.0, 172.0, -658.0, 1204.0, -35.0, 3284.0, -2939.0, 1437.0, 421.0, -748.0, -912.0, 65.0, -3480.0, 1456.0, -2123.0, -685.0, -1418.0, 1495.0, 1335.0, 3218.0, 552.0, -412.0, -954.0, 2770.0, 954.0, 1396.0, 602.0, 5.0, 1842.0, -672.0, -1165.0, -1276.0, -1104.0, 1638.0, 0.0, -2462.0, -1518.0, 3417.0, 581.0, 1747.0, -54.0, -818.0, 1739.0, -1488.0, -616.0, 1391.0, 1527.0, 5021.0, -465.0, 1427.0, -5664.0, 1205.0, -417.0, 602.0, 609.0, -4090.0, 825.0, 2727.0, 504.0, -1700.0, 1048.0, 99.0, 69.0, 718.0, 372.0, 2542.0, -6196.0, 3489.0, -947.0, 0.0, 947.0, -5116.0, -2265.0, -1182.0, 1413.0, -341.0, 1460.0, 292.0, -1287.0, -364.0, 2413.0, 428.0, -721.0, 575.0, -884.0, 206.0, -2505.0, -1380.0, 1835.0, -616.0, -957.0, 1807.0, 1746.0, -4638.0, 2256.0, 1215.0, 1204.0, -585.0, -880.0, 4331.0, 463.0, 3482.0, -1486.0, -1407.0, 0.0, 2339.0, -655.0, 958.0, 399.0, 813.0, -240.0, 2793.0, 1131.0, -223.0, -1634.0, -433.0, -744.0, 5212.0, 1581.0, 445.0, -932.0, 860.0, -5896.0, -461.0, 1674.0, 999.0, 0.0, -671.0, -740.0, -2461.0, -935.0, 421.0, -932.0, 2338.0, 688.0, -888.0, -2507.0, -4794.0, -1154.0, -508.0, 0.0, 1242.0, -1131.0, -963.0, 777.0, -3168.0, 510.0, 0.0, -937.0, -401.0, 758.0, -2576.0, -1380.0, -896.0, -409.0, -1348.0, 2290.0, -241.0, 644.0, 0.0, -4522.0, 207.0, -3538.0, 703.0, 521.0, -1775.0, -1878.0, -2749.0, 0.0, -3171.0, 967.0, -1893.0, 4915.0, -1503.0, -644.0, -959.0, 588.0, 7017.0, 524.0, 0.0, 201.0, 1684.0, 3313.0, 3361.0, 1790.0, -2623.0, 2366.0, -1492.0, 434.0, 0.0, 1421.0, 2025.0, -189.0, 800.0, -1585.0, -1293.0, -1862.0, 1248.0, -3625.0, -432.0, 2160.0, -211.0, 0.0, -245.0, 3199.0, 399.0, 0.0, 2729.0, 1078.0, -633.0, 94.0, -986.0, -3369.0, -2274.0, 1709.0, 3169.0, 713.0, 757.0, 1641.0, -942.0, -43.0, -2129.0, -2740.0, -1351.0, -1533.0, -2992.0, -1186.0, -1503.0, 0.0, 0.0, 1437.0, 1111.0, -3302.0, -2720.0, -1505.0, -3122.0, -596.0, 1154.0, 482.0, 880.0, -4646.0, -1685.0, 92.0, -797.0, -732.0, -2968.0, 0.0, 1391.0, -1045.0, -2790.0, 2679.0, -1396.0, 1206.0, 2423.0, 1267.0, 0.0, -246.0, -2048.0, -1712.0, -1297.0, 1379.0, 0.0, -1182.0, 39.0, -2611.0, 1386.0, -1004.0, 693.0, 271.0, -620.0, -976.0, -820.0, -172.0, -1427.0, -530.0, -189.0, -1185.0, 4104.0, -3548.0, -361.0, -1430.0, 0.0, 314.0, -1375.0, -2400.0, 1005.0, -1629.0, -38.0, 1444.0, 1759.0, -957.0, -842.0, 0.0, 438.0, -1531.0, -1792.0, 783.0, 286.0, 1176.0, 898.0, -308.0, 3670.0, 0.0, 1634.0, -291.0, -80.0, 1052.0, -583.0, 1739.0, 796.0, -2561.0, 494.0, 3338.0, -3126.0, 4565.0, -2268.0, -1092.0, 0.0, 862.0, 2466.0, 4611.0, 1078.0, 0.0, 3661.0, 1801.0, -515.0, -2882.0, 2538.0, -1529.0, -259.0, 2440.0, -280.0, 418.0, -216.0, 466.0, 560.0, -1143.0, 1579.0, -198.0, 3968.0, 1506.0, -748.0, 1165.0, 125.0, 1342.0, 433.0, -467.0, -230.0, -549.0, -1593.0, 1779.0, -206.0, -2587.0, 1274.0, 568.0, -66.0, 2512.0, -2243.0, -4314.0, 956.0, 2349.0, -398.0, -1756.0, 1771.0, -521.0, 420.0, 0.0, -1866.0, 967.0, 521.0, -2936.0, -577.0, 1651.0, -3565.0, 719.0, 0.0, 1662.0, -413.0, -100.0, -200.0, -568.0, 1569.0, 1798.0, -660.0, 2614.0, -2541.0, 603.0, -590.0, -1332.0, 2616.0, 644.0, -921.0, -1084.0, 531.0, 27.0, 612.0, -3713.0, -646.0, -2492.0, 2114.0, 1131.0, -1566.0, -1681.0, -1499.0, 461.0, -960.0, 78.0, -774.0, -1296.0, 2247.0, -1138.0, 974.0, 1098.0, 1404.0, 83.0, -834.0, 0.0, -1190.0, -640.0, -677.0, -1113.0, 1034.0, -265.0, -2646.0, 1358.0, -2230.0, 541.0, 1654.0, 5132.0, -644.0, -617.0, -1035.0, -4470.0, -698.0, 2175.0, 0.0, -180.0, 1196.0, -2678.0, 943.0, -1925.0, -97.0, 1959.0, -1974.0, -142.0, -3056.0, 400.0, -1403.0, 522.0, 81.0, -1906.0, -904.0, 0.0, -3723.0, 1391.0, 1476.0, 775.0, 0.0, -693.0, -1519.0, 1372.0, -98.0, -444.0, -261.0, 1267.0, 988.0, 2073.0, 496.0, -764.0, 0.0, -766.0, -893.0, 1092.0, 281.0, 1938.0, 1542.0, 0.0, -371.0, -279.0, 1933.0, -2151.0, -944.0, -2092.0, -3612.0, -1375.0, 1523.0, 1527.0, -282.0, -3490.0, 1151.0, -1886.0, -1743.0, -198.0, 541.0, -6050.0, 971.0, 491.0, -2157.0, 1143.0, 37.0, -315.0, 1791.0, 0.0, -2895.0, 32.0, -1366.0, 837.0, 814.0, 760.0, -1105.0, -3181.0, -1396.0, 2513.0, 335.0, -5453.0, 1315.0, -3641.0, 2169.0, -1665.0, -1171.0, 4112.0, -228.0, 295.0, 2221.0, -863.0, -1744.0, -2426.0, 2059.0, 289.0, 641.0, -1411.0, -1188.0, 0.0, -250.0, -38.0, -2188.0, 164.0, -57.0, -1460.0, 169.0, 1259.0, -309.0, 2465.0, 860.0, 958.0, -1161.0, 269.0, 522.0, 235.0, 856.0, -2338.0, 1052.0, -953.0, -667.0, -862.0, -1238.0, -3794.0, 316.0, 494.0, 901.0, 0.0, 51.0, 943.0, -1550.0, 1436.0, 1725.0, 1512.0, -1384.0, 602.0, -884.0, 2811.0, -2569.0, 0.0, 234.0, 3121.0, -113.0, -1308.0, 450.0, -1938.0, 3107.0, 0.0, 2017.0, 1933.0, -2043.0, 772.0, -2942.0, 807.0, -2784.0, -14.0, -8607.0, 5678.0, 0.0, -4379.0, 193.0, 3424.0, 837.0, 759.0, -134.0, 543.0, -671.0, -1114.0, 1648.0, -803.0, 679.0, -1931.0, -642.0, 29.0, -1529.0, -340.0, -198.0, -2456.0, -4651.0, 3650.0, -33.0, -1236.0, 2333.0, 1532.0, -354.0, 343.0, -171.0, 1925.0, 25.0, -1030.0, -245.0, 677.0, -546.0, 874.0, 0.0, -6746.0, 1343.0, 179.0, 229.0, -543.0, -791.0, 381.0, -691.0, -1875.0, 923.0, -2023.0, -1004.0, 1335.0, 1485.0, 1278.0, -2442.0, 0.0, -1442.0, 766.0, -930.0, 658.0, 1322.0, -368.0, -263.0, 16.0, 2402.0, -688.0, 0.0, -33.0, 515.0, -536.0, 1677.0, 112.0, -2854.0, -1682.0, 17.0, -3108.0, -1468.0, 0.0, -1084.0, 0.0, 1700.0, 1171.0, -291.0, 370.0, -4501.0, -1332.0, -1457.0, 765.0, 1557.0, 127.0, -2066.0, -1511.0, -763.0, 195.0, 1347.0, 27.0, -5429.0, 608.0, -215.0, 2617.0, -491.0, -1232.0, -533.0, -4175.0, -684.0, 1419.0, -1259.0, -1170.0, 2220.0, -436.0, -1345.0, 844.0, 769.0, 0.0, 1060.0, -1905.0, 1527.0, 0.0, 1163.0, -2312.0, -1119.0, 688.0, 742.0, 640.0, 1756.0, 1532.0, 1402.0, 1483.0, -1257.0, 192.0, 2569.0, -854.0, -129.0, -2987.0, 398.0, -1258.0, -148.0, 908.0, 0.0, -1257.0, 1272.0, -1122.0, 1028.0, -4085.0, 763.0, -602.0, -539.0, -970.0], "w": [4.745675848814862, -0.50416399743754, 0.0, 0.31646380525304296, -0.06662395900064066, -0.06662395900064055, 0.42664958360025623, -1.2658552210121716, -0.5573350416399744, 0.08968609865470856, 1.5944907110826394, -0.021140294682895577, 0.5778347213324793, -0.8122998078155028, 0.14029468289557978, 0.4202434336963485, -1.1274823830877643, 0.6105060858424087, -1.564381806534273, 1.3151825752722615, -0.25560538116591924, -1.017296604740551, -1.4650864830237027, 0.5092889173606663, -1.6700832799487508, 0.4163997437540038, -1.3376040999359384, -1.6905829596412556, -0.11787315823190259, -0.18193465727098013, -0.8827674567584881, -0.42857142857142855, -0.6790518898142217, 0.0, -1.267777065983344, 0.6361306854580397, -4.560538116591928, 1.515695067264574, -0.5848814862267777, -0.6303651505445227, -1.202434336963485, 3.399103139013453, 0.0, 0.12235746316463803, 0.2126841768097374, 0.028187059577194105, -0.4548366431774503, 2.2748238308776427, -0.4042280589365792, 1.2094811018577833, -0.8590647021140294, 0.9461883408071748, 0.0365150544522741, 0.8276745675848816, -1.0, 1.9590006406149905, 0.0, -0.3664317745035235, -0.40999359385009604, -0.22934016655989753, -1.6111467008327995, -0.21780909673286342, 0.572709801409353, 0.1678411274823831, -1.7501601537475977, 0.7418321588725176, -1.5400384368994235, 0.7456758488148623, -1.6918641896220372, -0.5631005765534915, 0.5906470211402947, 2.1178731582319026, 0.4420243433696349, 0.0, -0.475976937860346, 0.0, 3.7789878283151825, -0.7956438180653427, 0.6713645099295324, 0.8750800768737989, -1.5368353619474695, 2.1089045483664317, 0.08968609865470833, -0.38500960922485583, 1.2383087764253684, -0.2261370916079436, -1.2741832158872517, 0.7501601537475977, -0.6425368353619474, 0.26969891095451637, -0.8853299167200512, -0.42536835361947467, -1.3119795003203074, -2.0160153747597693, -0.6310057655349135, 0.4881486226777707, 1.6899423446508648, -0.9801409352978859, 2.1326073030108903, -0.4067905188981422, -0.07174887892376682, -1.6508648302370275, -0.8661114670083281, -0.9801409352978859, -1.8071748878923768, 0.672645739910314, -0.19410634208840483, 0.0, -0.042280589365791155, 0.0019218449711723151, 0.5701473414477899, 1.8110185778347214, 0.0, 0.7802690582959642, 1.081998718770019, -0.06726457399103136, 0.7347853939782192, -1.5329916720051249, 0.9666880204996797, -0.7065983344010249, -1.592568866111467, 0.0, -0.9551569506726457, -2.1563100576553493, -1.5996156310057654, -0.05188981422165284, 3.7700192184497117, 0.8161434977578476, -1.424727738629084, 0.5861627162075593, 0.9212043561819346, -0.8481742472773863, -2.9192825112107625, 0.5342729019859065, -0.7226137091607944, 1.590006406149904, 3.304292120435618, 2.2344650864830236, -1.0102498398462525, 1.102498398462524, -0.27930813581037794, 0.0, 1.0230621396540678, -0.14093529788597053, 0.43754003843689937, -0.47789878283151827, -0.5528507367072389, -0.20499679692504805, -2.832158872517617, -2.2645739910313902, -1.128122998078155, 0.0, 0.14734144778987823, 0.7757847533632287, 0.5855221012171685, 0.011531069827033953, 0.01665598975016014, 4.367072389493914, -0.4253683536194748, 0.5016015374759769, 0.0, 0.06021780909673291, -0.09224855861627157, -1.8276745675848816, -0.9320948110185778, -0.31005765534913515, 0.5771941063420885, -0.7251761691223573, 0.5541319666880204, -0.108263933376041, -0.2754644458680333, -1.3510570147341447, 0.0, 1.0807174887892375, -2.717488789237668, 1.2389493914157592, -0.5336322869955157, -0.9295323510570147, -5.989109545163357, 0.0, 0.5323510570147341, -0.5400384368994234, -0.5803971812940423, 0.014734144778987823, -0.14670083279948742, 0.057655349135169766, 0.37411915438821264, -1.1133888532991671, 1.0672645739910314, -0.4740550928891736, 2.210121716848174, -0.0647021140294683, -0.9301729660474054, -1.404228058936579, -1.2293401665598975, -0.5265855221012171, 0.0, 0.5964125560538116, -2.181294042280589, -0.11787315823190259, -1.2658552210121716, 0.09288917360666239, 0.7367072389493914, -0.09096732863549008, 0.6598334401024983, 0.40999359385009604, 1.8827674567584882, 0.6534272901985907, 0.23574631646380517, -0.18385650224215247, 0.10506085842408712, 0.0, 0.5534913516976298, -1.7283792440743113, -0.28122998078155037, -1.0518898142216528, 0.0, 1.2831518257527226, -1.0147341447789877, -0.8622677770659835, -0.02306213965406778, -1.463805253042921, -0.5060858424087123, 0.880204996796925, 0.11018577834721333, -0.6707238949391416, -0.9449071108263933, 0.04548366431774504, -0.8526585522101218, 2.344650864830237, -2.2440743113388852, -0.590006406149904, -0.9718129404228057, -1.5054452274183217, 1.2319026265214608, 3.9647661755285073, -0.9365791159513133, 1.0403587443946187, -0.5547725816784113, 0.9551569506726458, 3.3741191543882127, 0.6335682254964765, 0.8007687379884689, 0.0, 0.9795003203074952, 0.14990390775144138, -1.6278026905829597, -3.0589365791159513, 0.7283792440743113, 2.1960281870595773, 1.1736066623959, -0.686739269698911, 0.30108904548366433, 0.28507367072389495, -0.6585522101217169, 2.5259449071108264, -0.40166559897501597, 0.2261370916079437, -1.222293401665599, 2.593209481101858, 0.7674567584881484, 0.05317104420243435, -2.0807174887892375, -0.5483664317745035, -1.2716207559256887, 1.3600256245996156, -1.1697629724535554, 0.0, 0.40038436899423446, -1.1499039077514412, 0.33119795003203073, 0.10185778347213324, 1.2799487508007688, -2.0365150544522743, 0.19026265214606022, -0.9436258808456118, -2.4804612427930812, 6.006406149903908, 0.08968609865470856, 0.028827674567584838, 1.9602818705957719, -0.3907751441383729, -0.2658552210121716, -2.164638052530429, 0.08840486867392697, 0.0, -1.2632927610506086, 0.5323510570147342, -2.249839846252402, 0.7508007687379885, -0.12812299807815503, 2.4426649583600257, -0.6361306854580397, -1.2120435618193466, 1.2543241511851377, -0.9948750800768738, -1.2491992312620117, -0.16335682254964767, 0.484304932735426, -0.7232543241511852, 3.24791800128123, -0.3581037796284433, 0.6655989750160154, -2.5573350416399743, -0.376040999359385, 0.08648302370275464, 0.427290198590647, -2.1652786675208198, 0.0, 1.6707238949391416, -0.657911595131326, -2.094170403587444, 0.595771941063421, 2.3408071748878925, 0.40614990390775146, 0.5650224215246638, 0.11146700832799487, -0.45996156310057645, -1.5771941063420885, 0.6105060858424087, -1.9474695707879563, -0.9026265214606022, -0.7290198590647021, -0.17680973734785393, 0.005124919923126248, -2.141575912876361, -0.3715566944266495, 0.6066623959000641, 0.6463805253042921, -0.8206278026905829, 0.5060858424087123, 0.6515054452274183, 1.1319666880204997, -0.17552850736707226, 2.1909032671364512, -2.9199231262011534, -0.1428571428571429, 0.0, 0.6700832799487508, -0.5073670723894939, -0.08712363869314542, -0.6028187059577195, -2.146060217809097, -0.28187059577194096, -0.9449071108263933, -0.0032030749519538757, 0.8968609865470852, 0.062139654067905226, 0.0, 0.0, -1.1255605381165918, -0.15310698270339526, 3.7187700192184496, -0.755285073670724, -0.6092248558616271, -0.13837283792440747, -0.3465727098014093, -1.852017937219731, 2.25624599615631, 0.5445227418321589, 1.714926329276105, 0.38436899423446524, -0.024343369634849454, 0.7879564381806534, 1.1121076233183858, -0.06278026905829592, -2.1806534272901987, 0.41191543882126846, -0.66111467008328, -2.8507367072389496, -1.407431133888533, 1.7001921844971173, 0.57847533632287, 0.2786675208199872, 0.21652786675208202, 0.1428571428571429, 0.43305573350416404, 1.2184497117232542, -0.8058936579115952, 0.16399743754003848, -0.7821909032671366, 2.022421524663677, -1.1768097373478539, 2.7584881486226775, 0.7027546444586803, 0.0, -4.863549007046765, 2.4202434336963483, -2.412556053811659, -0.4151185137732223, 0.7219730941704036, 0.37411915438821264, -0.4304932735426009, -1.0813581037796285, -0.21844971172325434, 0.14734144778987823, 1.3997437540038438, 0.09737347853939782, 0.7885970531710442, 0.7796284433055733, 0.7162075592568866, -2.1691223574631646, -0.19282511210762332, 2.5374759769378605, 1.9525944907110826, -0.33952594490711085, 2.22293401665599, -1.222293401665599, 0.12491992312620115, 0.91736066623959, -0.9013452914798207, -2.734785393978219, 0.017937219730941756, -0.6489429852658553, -0.4875080076873799, 1.2671364509929532, -0.017296604740550947, -1.0422805893657912, -1.5989750160153746, 0.7860345932094811, -0.9096732863549006, -0.8103779628443306, 1.9295323510570148, -0.08520179372197309, 0.9449071108263933, -1.4740550928891736, -0.2504804612427931, 1.5035233824471492, 0.3209481101857783, -0.7251761691223575, 0.9775784753363229, 0.6098654708520179, 0.7162075592568864, -4.088404868673927, 0.7885970531710442, 1.7046764894298527, 0.8135810377962844, -0.30301089045483653, 1.0832799487508007, -0.7821909032671365, -1.8020499679692505, -0.9128763613068547, -2.854580397181294, 0.5887251761691223, 0.18321588725176174, 0.23382447149263294, -0.4714926329276105, 0.9788597053171044, 0.8968609865470852, 0.7687379884689302, 0.9980781550288277, 0.5445227418321589, 0.5458039718129404, 0.0, 0.5938500960922486, 0.6880204996796926, 0.8148622677770659, -0.42024343369634853, 0.8565022421524664, 0.0, -0.934657270980141, 0.5060858424087123, 0.9782190903267136, -0.12299807815502883, -0.7700192184497117, 1.1255605381165918, 0.7174887892376681, 1.2459961563100577, -1.1979500320307495, -0.041639974375400346, -2.2120435618193466, 0.07943625880845617, 0.8231902626521461, -1.8276745675848816, -3.0666239590006406, -0.4266495836002563, -0.7443946188340806, 0.11274823830877642, -0.1441383728379244, 0.15823190262652154, -0.20563741191543872, -0.7616912235746316, 0.37347853939782194, -0.37411915438821264, -0.6604740550928891, 1.0634208840486867, -1.3369634849455476, 0.13581037796284434, 0.3997437540038437, -0.8616271620755924, -1.7668161434977578, -0.6085842408712363, 0.663677130044843, -1.0409993593850095, 1.6905829596412556, -1.9378603459320947, -1.3786034593209482, -0.06598334401024984, -1.4567584881486226, -0.4317745035233824, -0.5073670723894939, 0.8673926969891095, -1.8142216527866752, -0.8891736066623959, -2.110826393337604, 0.2498398462524023, 0.4625240230621397, -0.7360666239590006, -0.5233824471492633, 0.0, -0.4900704676489429, -0.03331197950032028, 1.9301729660474054, -0.33696348494554773, 0.38885329916720046, -0.11338885329916715, 0.028187059577194105, 0.20435618193465732, -0.5483664317745036, 0.24215246636771304, -1.1550288276745675, -0.755285073670724, -0.8475336322869955, -0.39846252402306215, -1.8577834721332476, -0.6880204996796926, -0.5996156310057654, 0.549647661755285, -2.0749519538757206, -0.06406149903907754, 0.9910313901345291, -0.6060217809096733, -0.18513773222293395, -2.0813581037796283, -3.1063420884048685, -3.871236386931454, -0.287636130685458, 1.885970531710442, -0.604099935938501, -0.17873158231902628, 0.06982703395259449, -0.9359385009609225, 1.3171044202434337, 0.9666880204996797, 1.5144138372837923, 1.1377322229340168, -1.3337604099935938, 1.0544522741832159, -0.43369634849455474, -0.8962203715566944, -1.755285073670724, -0.8449711723254323, 0.0, 0.0, -1.1736066623959, 0.7847533632286996, 0.8962203715566943, -0.1031390134529148, 0.5310698270339527, -1.1236386931454196, -0.3311979500320308, 0.5791159513132608, -0.9993593850096092, 1.635490070467649, 0.0, -0.07623318385650224, 2.500960922485586, 0.592568866111467, 2.313260730301089, -4.001921844971172, 0.9698910954516335, -1.3978219090326713, -0.5118513773222293, -0.26329276105060856, -3.098654708520179, -0.9718129404228059, 0.5182575272261372, -0.8289557975656631, -0.29212043561819345, -0.5432415118513774, 0.5163356822549647, 2.093529788597053, -0.6175528507367072, 1.0576553491351697, 0.0, -1.8302370275464446, -1.3171044202434337, -0.5509288917360666, -1.7059577194106343, -0.8987828315182576, -0.14541960281870603, -2.574631646380525, 1.9500320307495196, 1.0064061499039076, 0.013452914798206279, -2.0, -0.40935297885970523, -2.7098014093529788, 12.23190262652146, 2.4714926329276103, -2.5656630365150543, 0.0, -0.6931454196028187, -0.1825752722613709, -0.370275464445868, 0.29212043561819345, 0.15438821268417682, -0.7533632286995515, -0.3907751441383729, -1.1402946828955798, 1.2408712363869314, -0.23446508648302378, 0.7065983344010249, 2.4016655989750157, 0.6764894298526585, 0.3324791800128124, 0.3555413196668802, -1.9795003203074952, -1.0326713645099295, -0.11659192825112097, -1.506726457399103, -0.07110826393337603, -1.717488789237668, 0.0, 0.42152466367713004, -0.3331197950032031, 0.931454196028187, -1.6105060858424087, -1.1274823830877643, -0.9788597053171044, 0.5618193465727098, 3.2184497117232542, -0.5874439461883407, -2.093529788597053, 0.2709801409352979, 0.6957078795643818, -1.7527226137091607, -1.5592568866111467, -1.4208840486867393, 1.8231902626521461, 1.5009609224855862, -0.8699551569506727, -0.8712363869314541, 0.7117232543241512, -1.1531069827033953, 0.05509288917360666, 0.0, 0.356181934657271, 0.0, -0.15887251761691223, 0.9327354260089686, -1.4657270980140935, -0.026905829596412634, 1.2203715566944267, 0.03907751441383733, -0.08007687379884687, 0.6137091607943626, -0.6252402306213966, -0.11274823830877642, -0.026905829596412634, -0.960281870595772, 0.9045483664317745, 0.2626521460602178, -1.7655349135169762, -3.0352338244714927, 2.2459961563100577, -1.7277386290839205, -1.5611787315823191, 0.0, -0.6585522101217169, 1.8500960922485585, -0.6489429852658553, 0.9083920563741191, 0.21268417680973734, -4.31454196028187, -0.7392696989109546, -0.8705957719410635, -0.6969891095451635, -0.6361306854580397, 1.8994234465086484, 1.8552210121716848, -0.5855221012171685, 0.0, -0.2658552210121717, -1.0614990390775145, 0.0, -2.8910954516335683, -0.6316463805253043, 1.8097373478539398, -0.43113388853299167, 0.2588084561178732, 0.3427290198590647, 1.6579115951313261, 0.4996796925048046, 0.39141575912876364, -1.265214606021781, 0.6258808456117873, -0.11274823830877642, 1.484304932735426, 1.3875720691864188, 0.3228699551569507, -1.1486226777706599, -0.37732222934016657, -0.3907751441383729, -0.6771300448430493, 0.07943625880845612, 0.6828955797565663, 0.29212043561819345, 0.0, -0.9948750800768738, -1.5675848814862268, -1.2479180012812299, -0.23510570147341447, -0.5118513773222293, 0.9980781550288276, 0.19730941704035876, -1.393978219090327, -0.7142857142857143, 0.0, 0.0, -2.711723254324151, -0.7328635490070468, -0.17168481742472774, -0.37668161434977576, -1.7110826393337604, 0.6655989750160154, 0.0, -3.2254964766175527, -0.7283792440743113, 0.0, 0.0, 1.5227418321588726, 1.102498398462524, -0.3926969891095451, 0.5246636771300448, -2.32222934016656, -0.11146700832799483, 0.9461883408071748, -0.2530429212043562, -2.543882126841768, 0.7841127482383088, 0.880204996796925, -0.8577834721332479, -1.3754003843689944, -3.284433055733504, 2.4823830877642536, 0.8962203715566944, 1.9064702114029468, 1.8744394618834082, -0.010890454836643082, -2.819987187700192, -1.843689942344651, -1.450352338244715, 1.5611787315823191, 0.6483023702754644, -0.06918641896220379, -0.27930813581037794, 0.4561178731582319, -0.4413837283792441, -0.8219090326713645, -0.968609865470852, 1.90903267136451, -0.4913516976297245, 0.36450992953235106, -0.4176809737347853, -0.6092248558616271, 0.34977578475336324, 0.0, -0.6816143497757847, 1.4798206278026906, -0.38757206918641907, 0.6450992953235106, 2.5560538116591927, 2.1383728379244076, -0.23318385650224216, -0.9103139013452917, -0.9948750800768738, 2.3023702754644457, -0.39846252402306215, -1.0019218449711724, -0.2504804612427931, -0.11146700832799483, 0.8122998078155028, 0.42152466367713004, -0.8360025624599616, 1.8231902626521461, 0.20884048686739265, -2.069186418962204, 2.2632927610506086, 1.3356822549647662, 1.2427930813581038, -0.06726457399103136, -4.4913516976297245, -0.11787315823190259, -0.7200512491992312, -1.3311979500320308, -0.2511210762331838, 0.0, 0.5054452274183215, -0.8084561178731582, -1.48750800768738, 1.66944266495836, 0.24343369634849454, 0.6803331197950031, 0.17104420243433704, -0.15118513773222295, -0.9609224855861627, -2.150544522741832, -1.7110826393337604, 0.4894298526585522, -0.0243433696348494, 1.8257527226137091, 0.0, -1.4573991031390134, -1.524023062139654, 1.108263933376041, 2.4010249839846254, 1.2722613709160795, 0.22357463164638053, 0.547085201793722, -0.08135810377962849, 0.5547725816784113, 1.4817424727738628, 1.4964766175528508, 0.28187059577194107, -0.5618193465727098, -0.7725816784112748, 1.0474055092889174, -0.7027546444586803, 0.041639974375400346, 2.435618193465727, -2.4087123638693146, -0.41383728379244067, -1.9109545163356823, 1.0813581037796285, 1.2927610506085843, -1.2094811018577833, 0.319026265214606, -0.07495195387572073, 0.8392056374119155, 0.014734144778987823, 0.0, -2.64445868033312, 0.42280589365791155, 0.4766175528507367, -0.1428571428571429, -0.35746316463805256, 0.29276105060858426, -0.7975656630365151, -2.352338244714926, -0.7719410634208841, 0.22357463164638053, -0.054452274183215854, 0.9910313901345291, -2.0051249199231265, -1.501601537475977, 2.668802049967969, -0.31197950032030747, -2.6028187059577195, -0.6630365150544523, 0.36386931454196025, -0.5509288917360666, -1.4522741832158874, -1.0787956438180655, 0.41191543882126846, -1.6643177450352338, -0.8731582319026265, -0.5573350416399744, 0.2863549007046764, -0.2613709160794362, 1.265214606021781, 1.0358744394618835, -0.1896220371556694, -1.2178090967328634, 1.481101857783472, -0.15118513773222297, 0.8814862267777066, -2.3055733504163998, 1.0166559897501601, 0.9628443305573351, 0.8270339525944908, 0.24343369634849454, 2.686739269698911, 1.720691864189622, -2.6623959000640616, -0.549647661755285, 0.9583600256245997, -0.6489429852658553, -0.5573350416399744, -1.2991672005124921, -1.4304932735426008, -0.41063420884048685, 0.07431133888532993, -0.903267136450993, 0.8526585522101218, 0.4727738629083921, -1.0666239590006406, 0.36515054452274187, -0.4740550928891736, -2.700832799487508, 1.4535554131966686, 0.0, 0.0, 0.05188981422165284, 1.6207559256886612, -0.8385650224215246, -0.9987187700192185, -0.26585522101217174, -1.1870595771941064, -1.0, 0.19346572709801402, -0.14798206278026904, 0.07943625880845617, 0.0, 0.6457399103139014, -1.3798846893017296, 0.12107623318385652, -1.1473414477898782, 0.9372197309417041, 1.341447789878283, 0.9218449711723253, 0.4170403587443946, 0.828955797565663, 0.19987187700192185, 0.370275464445868, -0.8923766816143498, -0.8481742472773863, -0.7283792440743113, -0.4900704676489429, -0.6028187059577195, -2.1556694426649585, -0.15823190262652145, -2.1178731582319026, 0.714926329276105, 0.982703395259449, 2.048686739269699, 1.6745675848814863, 3.0096092248558617, -0.8840486867392697, -0.188340807174888, -0.32671364509929535, -1.014734144778988, 3.1607943625880845, 1.225496476617553, 0.16143497757847533, -0.3235105701473415, 0.8289557975656631, 0.9449071108263933, 0.9820627802690582, 2.6905829596412554, -0.8430493273542601, 0.8577834721332479, 2.7732222934016657, -0.4176809737347855, 0.9256886611146701, 0.19602818705957714, 0.4055092889173607, 0.3587443946188341, -0.6201153106982704, -0.030749519538757153, 0.8187059577194107, -0.4304932735426009, -0.7873158231902626, -2.310057655349135, -1.2049967969250481, -0.6226777706598334, 0.9295323510570147, 0.0, 1.4368994234465087, -0.7411915438821268, -0.40871236386931453, 0.0, 1.1511851377322229, -0.6969891095451634, -0.5938500960922486, 0.8584240871236387, -0.9846252402306215, 0.26713645099295324, 0.0006406149903907751, -0.11723254324151185, -1.2472773862908393, 0.4176809737347854, 0.41063420884048685, -0.5208199871877002, 1.5253042921204356, -0.5874439461883407, 2.9135169762972453, -0.7181294042280589, 0.02754644458680333, 1.7456758488148623, -0.4368994234465087, 0.7174887892376681, -0.9910313901345291, -1.0217809096732864, -0.9385009609224857, 0.3094170403587444, -1.7456758488148623, -1.7950032030749519, -0.524023062139654, 0.17745035233824472, -0.3113388853299167, -2.168481742472774, -0.7495195387572069, -2.103139013452915, 1.2286995515695067, 0.0, -1.4221652786675207, 0.0012812299807815064, 1.6822549647661755, -0.5169762972453555, -0.08199871877001921, -0.971812940422806, -1.9557975656630364, 1.4823830877642536, 0.0, -0.5048046124279308, -1.048046124279308, 0.0, -1.791800128122998, -1.0160153747597693, -0.7226137091607944, 0.6085842408712363, -0.9333760409993594, 3.120435618193466, -0.9852658552210122, 0.0, -1.0377962844330557, -0.1780909673286355, 0.0, -2.2286995515695067, 0.7469570787956438, 2.6976297245355543, -1.0019218449711724, -0.004484304932735426, -0.07238949391415761, -0.37668161434977576, -1.1121076233183853, -0.9724535554131966, 0.3721973094170403, -1.0954516335682256, -1.1217168481742474, 0.2146060217809096, 0.6207559256886612, 0.7885970531710442, 0.0, -0.5944907110826394, -2.0384368994234467, 0.0, -1.0032030749519538, -0.8084561178731582, 1.8212684176809737, 1.8481742472773863, -1.2094811018577833, 2.1902626521460604, -0.3677130044843049, 1.3516976297245353, -0.58680333119795, -0.07303010890454842, -0.9647661755285073, -0.7821909032671365, 0.0, 2.4875080076873797, -2.3638693145419603, -0.5400384368994234, 2.088404868673927, 0.02049967969250477, 0.5310698270339527, 0.880204996796925, -1.4977578475336322, -0.5714285714285714, 0.8686739269698911, -1.030749519538757, 1.5688661114670084, 0.7110826393337604, -0.9730941704035875, 1.0634208840486867, -0.049967969250480415, -0.025624599615631006, -0.2869955156950673, 1.1787315823190263, -0.3478539397821909, -0.5035233824471492, -0.9590006406149905, -0.1960281870595772, 2.5598975016015375, -0.005765534913516977, -1.535554131966688, 0.4497117232543242, 0.928891736066624, -0.8257527226137091, 0.7584881486226778, 0.6329276105060859, 1.1146700832799488, -0.344650864830237, -1.1973094170403589, 1.5182575272261372, -1.6245996156310059, 1.1146700832799488, -2.572709801409353, -0.14798206278026904, -0.4196028187059577, -0.27418321588725175, -0.5169762972453555, 0.23446508648302367, 1.7668161434977578, -1.0871236386931453, -1.0614990390775145, 0.19538757206918642, -1.2549647661755285, -0.33696348494554773, -1.510570147341448, 3.5688661114670084, -0.968609865470852, 2.3497757847533634, 0.7648942985265854, 0.57847533632287, 0.0, -0.9993593850096092, -0.9705317104420244, 1.0787956438180653, -2.8962203715566943, 0.30172966047405514, -1.036515054452274, 0.3068545803971813, 0.0, -2.6073030108904547, 0.3696348494554773, -0.6688020499679692, 0.26137091607943624, -1.1998718770019219, -1.584240871236387, 0.8673926969891095, -0.6278026905829597, 0.0, 1.7091607943625882, -0.037796284433055716, 0.09352978859705319, 0.07943625880845617, 0.2133247918001282, -0.7181294042280588, 0.663677130044843, 0.049967969250480415, -1.1601537475976937, -1.5791159513132607, -2.969250480461243, 1.7001921844971173, -0.4401024983984625, 0.3696348494554773, -0.39846252402306215, -2.0845611787315823, 0.5765534913516976, 0.0019218449711723255, 1.6688020499679692, -0.11787315823190259, -1.1383728379244076, -2.2203715566944267, -0.13004484304932734, 1.0448430493273542, -3.2581678411274826, -0.29019859064702125, -0.46957078795643814, -1.2754644458680333, 0.42024343369634853, -1.6854580397181294, -1.90070467648943, -1.2786675208199871, 0.2556053811659193, -2.1172325432415118, 1.3920563741191545, -0.8853299167200512, -2.9980781550288276, -0.612427930813581, -2.372837924407431, 0.01665598975016014, 1.7969250480461243, 0.7924407431133886, -1.111467008327995, -0.45932094811018576, 2.2344650864830236, 1.0871236386931453, 1.071108263933376, -0.15246636771300448, 1.4228058936579115, -2.1864189622037156, 0.27610506085842407, -0.5464445868033312, -0.30301089045483665, -0.057655349135169676, 3.081998718770019, -0.21909032671364514, -0.26393337604099937, -0.8097373478539398, -0.8635490070467648, -0.8353619474695708, 0.0, 0.12235746316463805, -0.09417040358744394, -1.3408071748878925, 1.205637411915439, 0.23062139654067904, -0.45675848814862263, 0.777706598334401, 2.2773862908392055, -0.8135810377962844, 0.08135810377962845, -0.41255605381165916, -1.0249839846252402, 0.7232543241511852, -0.8648302370275465, -1.0038436899423446, -0.23830877642536835, 1.094170403587444, 0.014734144778987828, 0.9410634208840487, -0.9852658552210122, -0.5483664317745035, -0.14285714285714285, -0.7200512491992312, 0.0, -1.2011531069827033, -1.1428571428571428, 0.07046764894298527, -1.7110826393337604, -0.8366431774503523, 3.9410634208840487, -1.2242152466367713, 0.4189622037155669, 0.046124279308135785, -0.026905829596412557, -0.8372837924407431, 2.1012171684817424, -0.22165278667520827, -0.905829596412556, -0.2530429212043561, -0.5586162716207559, 1.116591928251121, 1.8443305573350417, -0.6207559256886611, -0.03779628443305574, 0.48366431774503527, -0.30108904548366433, -0.902626521460602, -2.5848814862267777, 0.15054452274183217, 0.26905829596412556, 0.021780909673286386, -0.8757206918641895, -0.1684817424727738, 2.4362588084561176, 1.5387572069186417, -0.40102498398462527, 0.17552850736707237, 0.09865470852017937, -0.2504804612427931, -0.8167841127482383, -0.42344650864830236, 2.2863549007046764, -0.33888532991672005, 0.0, 0.0, -0.4657270980140935, -0.0698270339525946, -1.1447789878283152, -1.1127482383087766, -0.11018577834721333, -1.57847533632287, -0.7713004484304933, 0.02242152466367713, 1.8962203715566943, -0.11723254324151178, 0.07943625880845617, 0.7303010890454837, -0.5208199871877002, 0.5842408712363869, -0.04163997437540039, -0.7706598334401025, 0.06726457399103136, -0.6399743754003844, 1.4388212684176809, -1.0916079436258808, 1.0422805893657912, -1.8552210121716848, -1.0614990390775145, 0.6463805253042921, -1.7360666239590006, 0.6111467008327995, -0.7745035233824471, -0.6111467008327995, -0.8942985265855221, -0.38565022421524664, 0.9967969250480462, 0.8199871877001921, 0.4304932735426009, -0.25368353619474693, -1.182575272261371, -0.29276105060858426, 0.9506726457399104, 0.0, -1.4228058936579115, -2.0275464445868034, 2.811018577834721, 0.6278026905829597, 0.8808456117873158, 0.03459320948110186, 1.524023062139654, -1.114029468289558, 0.9532351057014734, 0.39461883408071746, 0.10890454836643182, -0.9782190903267136, -0.2165278667520818, -2.7021140294682895, 1.085842408712364, -0.3715566944266495, 0.2280589365791159, -1.7328635490070468, 0.6143497757847534, -0.3901345291479821, -3.3798846893017296, 0.47149263292761046, 3.253042921204356, -0.32286995515695066, 0.08904548366431775, 1.3286354900704676, -0.06342088404868675, -0.044202434336963484, -0.45996156310057656, -2.2383087764253684, 1.3715566944266495, -1.030749519538757, -1.2351057014734144, -0.3933376040999359, 0.0, 0.3933376040999359, 1.2773862908392055, -0.5490070467648942, -0.24279308135810374, 1.0948110185778348, 0.21844971172325434, -0.9352978859705318, 0.8129404228058936, 1.8244714926329277, -0.7668161434977578, 0.4541960281870596, 2.725816784112748, 0.4618834080717489, 0.6316463805253043, 0.5663036515054453, -0.13196668802049968, -3.3952594490711085, -1.1159513132607302, 0.8244714926329275, -1.6053811659192825, -0.38693145419602815, 0.8424087123638693, -0.1185137732222934, -1.028827674567585, -0.44522741832158874, 0.22165278667520816, 1.2286995515695067, -0.6252402306213966, 0.5637411915438821, 1.2254964766175527, 0.7033952594490711, 1.7693786034593209, -2.048046124279308, -1.0986547085201792, 0.0, -1.498398462524023, -0.5803971812940423, 0.38629083920563745, 0.7443946188340806, 0.4791800128122998, 0.15374759769378604, 0.21076233183856496, 0.2754644458680333, -1.8571428571428572, -0.9532351057014734, 0.27738629083920563, -1.5233824471492632, -1.33888532991672, 1.9871877001921845, 0.714926329276105, -0.4029468289557976, -0.5509288917360666, -1.2229340166559899, -0.7046764894298527, -1.0723894939141576, 1.3600256245996156, 0.0, -0.5701473414477899, -0.5259449071108264, -2.4234465086483024, 1.5989750160153746, 2.7303010890454837, -1.4029468289557976, -0.4977578475336324, 0.5592568866111467, 1.5688661114670084, -0.3939782190903267, -0.9288917360666238, -0.2607303010890455, -2.674567584881486, 0.0, 1.2043561819346573, 1.7245355541319667, -0.3830877642536835, 1.5022421524663678, -1.9705317104420241, 0.6732863549007047, 0.0, -0.39974375400384365, 2.256886611146701, -1.4855861627162077, -0.34977578475336313, -2.11595131326073, -0.4260089686098655, 0.26201153106982705, -0.13645099295323515, -1.4670083279948751, -0.8456117873158232, -1.4125560538116593, 0.0, -4.103139013452915, -0.13260730301089046, -1.7335041639974373, 0.549647661755285, 1.6662395900064062, -0.862908392056374, -0.7969250480461243, -1.2389493914157592, 0.0, -0.9686098654708521, -0.6194746957078796, -1.7873158231902626, 1.8513773222293404, -0.03715566944266491, -0.5874439461883407, -1.3856502242152466, 0.6233183856502242, 1.5048046124279306, -0.33568225496476617, 0.0, -1.128763613068546, 0.9212043561819347, -1.1223574631646382, -0.1531069827033953, -1.1467008327994874, -1.319666880204997, -2.515695067264574, -0.04420243433696347, -0.27802690582959644, 0.0, 1.0896860986547086, -0.2972453555413197, 0.1210762331838565, -2.5124919923126203, -1.9846252402306215, -0.17168481742472774, -0.8071748878923768, -0.7994875080076874, 1.32222934016656, 0.2767456758488149, 0.6162716207559258, 0.13516976297245356, 0.0, 0.15695067264573992, 1.9506726457399104, 0.7443946188340806, 0.0, -0.7482383087764253, 0.3094170403587444, -0.5944907110826394, 0.9397821909032671, 1.6316463805253043, -0.8417680973734787, -0.5432415118513774, 2.905188981422165, 2.9698910954516338, -0.4567584881486227, -0.4849455477258168, 2.948750800768738, 0.6034593209481102, -1.9724535554131966, -0.6361306854580397, -1.244714926329276, 0.8654708520179372, -2.0179372197309418, -2.0832799487508007, -2.240230621396541, -0.03715566944266491, 0.0, 0.0, 0.07943625880845617, 1.2882767456758488, -0.8846893017296606, -2.257527226137092, -0.0358744394618834, 0.0, -0.618193465727098, -0.7392696989109545, 2.691223574631646, 0.43625880845611786, -1.0237027546444586, -1.920563741191544, -2.0589365791159513, 0.5105701473414478, -0.5310698270339527, -0.09865470852017943, 0.0, 0.10890454836643182, -0.33055733504164, -0.2126841768097374, 0.2837924407431134, -1.1057014734144779, -0.7725816784112748, 0.44778987828315175, 0.18834080717488788, 0.0, 0.15759128763613067, 0.3119795003203074, 0.09673286354900701, -1.1691223574631646, -0.8834080717488789, 0.0, -2.2427930813581036, 0.9750160153747598, 1.6726457399103138, 0.11210762331838564, -1.3568225496476618, 1.5560538116591929, 2.8263933376040997, -1.6028187059577195, 0.6252402306213966, -0.4746957078795644, -0.8898142216527867, -0.08584240871236382, -0.6604740550928891, -0.8789237668161435, -1.2408712363869314, -1.6290839205637413, -1.7270980140935297, -0.7687379884689302, 0.9160794362588085, 0.0, -0.2011531069827034, -0.1191543882126842, -3.46252402306214, 0.356181934657271, -2.9564381806534272, -0.9756566303651506, 2.0749519538757206, 1.8731582319026265, -0.38693145419602815, -0.4606021780909674, 0.0, 0.7194106342088404, -2.0192184497117234, -0.852017937219731, -2.501601537475977, 3.8167841127482385, 0.24663677130044848, -1.575272261370916, 0.19730941704035873, 0.648942985265855, 0.0, 2.9532351057014736, 1.1864189622037156, -0.948750800768738, 0.32607303010890454, -2.626521460602178, 0.885970531710442, 0.490070467648943, -0.3593850096092248, 0.6835361947469571, -0.13837283792440758, -1.9974375400384368, 2.0755925688661114, -2.547085201793722, -2.3004484304932733, 0.0, 0.44778987828315187, 0.42024343369634853, 3.046124279308136, 0.3094170403587444, 0.0, 4.654708520179373, -1.153747597693786, 0.3299167200512492, -4.153747597693786, 0.37411915438821275, -1.0204996796925048, -1.8340807174887892, -0.5631005765534913, -0.820627802690583, 0.732222934016656, -0.8616271620755925, 0.7014734144778988, 0.641255605381166, -0.26777706598334405, -0.01153106982703389, 4.126841768097374, 2.4580397181294042, -0.9647661755285074, -1.5208199871877002, 2.253683536194747, -0.0800768737988469, 0.14029468289557978, -0.27738629083920563, 0.299167200512492, -0.8526585522101218, -1.6483023702754644, -0.9795003203074952, 3.860345932094811, 0.13196668802049968, -1.3427290198590647, 1.1838565022421523, 0.6361306854580397, -0.9577194106342088, 2.390775144138373, -0.5631005765534913, -2.236386931454196, 0.38757206918641895, 0.49519538757206916, 1.2549647661755285, 0.12491992312620126, 0.8654708520179373, -0.6662395900064062, 0.7309417040358744, 0.0, -0.8046124279308136, 0.3805253042921204, -0.33376040999359385, -0.1191543882126842, -0.6303651505445227, 0.9423446508648303, 0.2837924407431136, 0.5393978219090327, 0.0, 0.9352978859705317, 0.2645739910313901, -0.9359385009609225, 2.128122998078155, -0.6361306854580397, -0.005124919923126248, 0.8481742472773863, 0.4228058936579116, 0.32543241511851373, -2.3721973094170403, -0.3862908392056374, 1.3779628443305574, -1.1467008327994876, -0.6758488148622677, 1.5874439461883407, 1.590006406149904, -0.30557335041639977, -1.3401665598975017, 0.982703395259449, 1.6079436258808455, -1.621396540679052, -1.5861627162075593, -2.403587443946188, 0.6457399103139014, 0.2754644458680333, 2.003203074951954, -0.923126201153107, -2.039718129404228, 0.7046764894298527, 0.6149903907751442, 1.9500320307495196, -0.50416399743754, -0.16976297245355543, -0.4394618834080717, 0.7290198590647021, 0.37604099935938506, 1.296604740550929, -0.8994234465086482, -1.0531710442024342, 0.5342729019859065, 0.0, -1.2376681614349776, 0.4099935938500961, -0.5663036515054451, -0.2869955156950673, 0.33760409993593854, -0.8302370275464446, -2.304932735426009, 0.1300448430493274, -0.5714285714285714, 0.6534272901985907, -0.0595771941063421, -0.287636130685458, -0.5874439461883407, 0.39525944907110827, -0.33696348494554773, -2.136450992953235, 0.44714926329276106, 1.606662395900064, 0.0, 1.1153106982703396, -0.766175528507367, -0.2844330557335042, -1.604099935938501, -1.7668161434977578, 0.06213965406790519, 0.7450352338244715, -2.7354260089686098, -1.9090326713645098, -0.042280589365791155, -0.25624599615631005, -6.1012171684817424, -0.3344010249839846, -1.0518898142216528, -1.7789878283151825, -1.4208840486867391, 0.0, 0.38500960922485605, 0.10890454836643182, 1.0544522741832159, 0.5035233824471492, 0.0, -1.5560538116591929, -1.0269058295964126, 0.12107623318385652, -0.9372197309417041, 0.28443305573350414, 0.1672005124919923, 0.18834080717488788, -0.6329276105060858, -0.32799487508007696, 1.6822549647661755, 0.4894298526585522, 0.0, -0.5092889173606663, 0.5720691864189622, 1.3004484304932735, -0.1800128122998078, 0.7584881486226778, 0.0121716848174247, 0.0, -0.7623318385650224, 0.17873158231902628, -0.2383087764253684, -2.6220371556694424, -0.3952594490711082, 1.3401665598975017, 0.31390134529147984, -2.119154388212684, 0.02434336963484951, 0.021780909673286386, -0.8193465727098014, -0.7642536835361948, -0.7373478539397822, -0.791800128122998, 0.11659192825112097, -0.8731582319026265, 0.6534272901985907, -4.12427930813581, 0.3779628443305574, 0.6854580397181294, 1.381806534272902, 1.267777065983344, 0.9762972453555413, -0.7982062780269058, 0.8526585522101218, 0.0, -1.145419602818706, -0.020499679692504803, -1.124919923126201, 1.463805253042921, -0.521460602178091, -2.486867392696989, -1.2921204356181935, 1.037796284433056, -2.105701473414478, 1.390134529147982, 0.7853939782190903, -1.506726457399103, 1.1575912876361307, -1.6675208199871876, -1.3894939141575913, 0.06662395900064055, -0.2498398462524023, 1.3657911595131327, 0.14606021780909673, 0.8110185778347213, 1.5771941063420885, 0.5528507367072389, -1.8827674567584882, -1.4458680333119796, -2.319026265214606, -2.185137732222934, 0.5893657911595132, -0.09609224855861631, -1.2389493914157592, 0.0, -0.8398462524023063, 0.024343369634849454, -0.598334401024984, 0.8949391415759129, -1.963484945547726, -0.06470211402946824, -0.108263933376041, 1.193465727098014, 2.1979500320307497, 1.4208840486867393, -0.5509288917360666, 0.38629083920563745, -0.25624599615631005, -0.17232543241511852, -0.3344010249839846, -0.15054452274183217, -0.5483664317745035, -0.5022421524663676, 3.3260730301089048, -1.3894939141575913, 0.42729019859064704, -1.4477898782831518, -0.20691864189622033, -1.5695067264573992, -0.20243433696348495, 0.6835361947469571, 0.42280589365791155, 0.0, -2.0326713645099295, 2.395900064061499, -0.007046764894298563, 0.08007687379884687, 0.8949391415759129, 0.03139013452914796, -0.11338885329916715, 0.6143497757847534, -0.43369634849455474, 0.19923126201153107, -1.3542600896860986, 0.0, -0.14990390775144138, 2.000640614990391, 0.0723894939141576, -1.1620755925688662, 0.7117232543241512, -0.7584881486226778, 2.0096092248558617, 0.0, -0.29212043561819345, 0.7616912235746316, 0.3087764253683536, -0.4945547725816784, -0.11531069827033957, 0.48302370275464446, -1.216527866752082, 0.008968609865470852, -0.48622677770659806, 2.3625880845611786, 0.0, -0.19474695707879563, -2.1236386931454194, 0.806534272901986, 0.4638052530429212, -0.48622677770659833, -2.914157591287636, 0.6521460602178091, -0.5701473414477899, -1.2863549007046764, -0.05573350416399747, -0.4855861627162076, -0.4349775784753363, -0.7629724535554132, 0.41127482383087766, -0.018577834721332478, -2.020499679692505, 0.21780909673286356, 0.1268417680973735, 0.5733504163997438, -0.02049967969250499, 0.6617552850736708, -0.9788597053171044, 0.791800128122998, 1.5054452274183217, 0.018577834721332454, -0.7732222934016656, 0.7802690582959642, 1.1095451633568225, 0.7668161434977578, -0.016015374759769378, 0.6598334401024984, 0.15695067264573992, 0.5663036515054451, -1.6502242152466366, 0.4401024983984625, 0.0, -1.678411274823831, 1.139654067905189, 0.8853299167200512, -0.1467008327994875, 0.3478539397821909, 0.5067264573991032, 0.7559256886611146, -0.5573350416399744, -0.7988468930172965, 1.4087123638693146, -0.7040358744394619, 0.6431774503523382, 0.14477898782831522, -0.9513132607303011, 0.18129404228058932, -2.435618193465727, 0.0, -2.0762331838565022, 2.5092889173606663, -2.404228058936579, 0.57847533632287, 0.1531069827033953, -1.7642536835361948, 0.16848174247277387, 0.9897501601537476, 2.4612427930813583, 0.4407431133888533, 0.0, 1.0211402946828956, 1.6700832799487508, 0.3433696348494555, 1.9256886611146702, -0.07174887892376682, -0.17168481742472763, -1.9224855861627161, 0.9891095451633568, -3.008968609865471, -2.059577194106342, 0.0, -0.30557335041639977, 0.0, -0.08904548366431775, 0.2498398462524023, 0.18641896220371557, -0.2370275464445868, -2.116591928251121, -1.1467008327994876, -0.06662395900064066, 2.509929532351057, 2.0025624599615632, -1.0813581037796285, -0.6764894298526585, -0.03203074951953877, 0.48878923766816146, 0.8750800768737989, -0.8629083920563742, 0.982703395259449, 0.47789878283151843, 0.6105060858424087, -1.8622677770659832, 1.3235105701473415, 0.3145419602818706, -1.210762331838565, -0.6585522101217168, -0.32543241511851395, -1.56181934657271, 1.09096732863549, -2.193465727098014, -2.250480461242793, 1.5778347213324793, 0.27930813581037794, -0.13837283792440747, 1.4593209481101859, 0.5073670723894939, 0.0, 2.3209481101857783, -0.7796284433055733, 1.0217809096732864, 0.0, -0.7450352338244715, 0.48110185778347203, -1.2831518257527226, 0.5592568866111467, -1.4753363228699552, -0.4099935938500961, -0.12491992312620126, 0.018577834721332454, 5.101857783472133, 0.049967969250480415, 0.8052530429212044, -0.12299807815502883, 0.35426008968609857, -1.452914798206278, 0.08263933376041, -2.0864830237027547, 0.7450352338244715, -0.19410634208840483, 1.0948110185778348, -1.5816784112748237, 0.0, -1.1947469570787956, 0.18513773222293406, 0.7187700192184497, 0.34144778987828317, 0.6169122357463164, -0.48878923766816146, 1.3856502242152466, 0.3452914798206278, 0.6213965406790519]}, "Politics": {"count_avg": 6025, "b": -20.0, "beta_avg": -14.845809128630705, "u_avg": [869.0, -8783.0, -6278.0, 4404.0, -7311.0, -11573.0, -3422.0, -3236.0, -21856.0, 9397.0, 5650.0, 12914.0, 6860.0, 5529.0, -11482.0, 2132.0, 19350.0, 221.0, 15205.0, -29953.0, -80.0, -20274.0, 3220.0, 7295.0, 8491.0, 19586.0, 11216.0, -2285.0, 2858.0, 4189.0, 3026.0, -11529.0, -1633.0, 2628.0, 2578.0, -6860.0, -23238.0, -12668.0, -5701.0, -1156.0, -9036.0, -4449.0, 0.0, -1411.0, -6851.0, -13918.0, 10852.0, 7500.0, -9875.0, 8063.0, -13214.0, -6643.0, 1127.0, 5731.0, -7645.0, -1511.0, -5961.0, -10862.0, 4209.0, 5588.0, 19082.0, 1195.0, 2.0, 10264.0, 7668.0, -996.0, -2408.0, -1774.0, -3911.0, -3316.0, -10268.0, -6332.0, -2243.0, -10134.0, 1192.0, 6154.0, -7696.0, 7147.0, 9793.0, 5897.0, 1435.0, -5693.0, -2898.0, -22963.0, -270.0, 1905.0, 804.0, 5189.0, 2004.0, 5146.0, 15.0, 12647.0, -14774.0, -18041.0, 372.0, -20232.0, 12757.0, -7209.0, 4823.0, -9995.0, 1754.0, -5234.0, 5547.0, -3623.0, 10163.0, -14715.0, -3267.0, -10814.0, 5061.0, 5490.0, -2352.0, 5794.0, -2515.0, 8091.0, 9896.0, 19148.0, -4847.0, -5862.0, -26126.0, -8669.0, -10927.0, -4282.0, 9995.0, 9184.0, 12056.0, -200.0, -7180.0, -1602.0, -6298.0, -3389.0, 2017.0, 8722.0, -3922.0, -8292.0, 2686.0, -7827.0, 11660.0, -14263.0, -1517.0, -20860.0, 11938.0, -6724.0, -10121.0, 9060.0, 7226.0, -7544.0, 5609.0, -5758.0, -2138.0, 37.0, 10960.0, 3970.0, 9778.0, 11236.0, 0.0, 3928.0, 3429.0, 23439.0, 7950.0, 16535.0, 10080.0, -298.0, 1722.0, -2005.0, 8856.0, -7094.0, -5668.0, 5899.0, 4148.0, -1298.0, -8995.0, -10483.0, 11026.0, 6901.0, -2130.0, -766.0, 5278.0, 3529.0, -24191.0, 0.0, 10686.0, -19230.0, 13669.0, -2274.0, -2350.0, -8841.0, -2711.0, -3528.0, -6108.0, 12009.0, -2225.0, 4223.0, -11463.0, -75.0, -3593.0, -7800.0, -5737.0, 9755.0, -5775.0, -12262.0, -7120.0, -19766.0, 7031.0, -3807.0, 7918.0, 9217.0, 0.0, -1856.0, 10768.0, 2169.0, -2459.0, 4810.0, -3762.0, 9722.0, -3539.0, -6970.0, -18538.0, -8196.0, -13370.0, 1799.0, -24019.0, 8964.0, -1116.0, -2662.0, 13990.0, -1745.0, -9054.0, 872.0, 4338.0, -3525.0, -2867.0, -18170.0, 2024.0, -12880.0, -9288.0, 18504.0, 1588.0, -14975.0, 9701.0, -4132.0, -4724.0, 4167.0, -6055.0, 57.0, 2350.0, -4801.0, -1814.0, -2451.0, -4110.0, 17882.0, -1507.0, 1597.0, 6847.0, 6356.0, -8129.0, -2506.0, 6784.0, 3719.0, -17282.0, 26471.0, 11981.0, 853.0, 1960.0, -4676.0, -26661.0, -2121.0, 6311.0, -861.0, -5479.0, 12098.0, 1201.0, -2842.0, 6628.0, 5232.0, 751.0, 10194.0, 9779.0, -694.0, 1658.0, 5686.0, -10922.0, -1166.0, -13160.0, 2520.0, -892.0, 1043.0, 2667.0, -4433.0, -13081.0, 2462.0, 0.0, 7817.0, -1550.0, 12765.0, -16742.0, -3266.0, -15734.0, 10248.0, -1578.0, -877.0, 1424.0, 3962.0, 16586.0, -2147.0, -4314.0, -12480.0, -412.0, -9352.0, -2332.0, 2882.0, -1849.0, -2814.0, 4120.0, 2596.0, 22642.0, 7872.0, 5803.0, 882.0, 4817.0, -3417.0, 4147.0, -3061.0, -5242.0, -1638.0, -4259.0, -5548.0, 0.0, -3955.0, -1659.0, 26076.0, -11542.0, -1421.0, -18445.0, 3820.0, 23031.0, -2767.0, -1479.0, -1708.0, -869.0, 7212.0, 25079.0, -16122.0, -21477.0, 16864.0, 11026.0, -5728.0, 2644.0, 3745.0, -144.0, -1912.0, 16259.0, -235.0, 24459.0, -4492.0, -9177.0, -693.0, -5215.0, -11552.0, -8015.0, -2587.0, -8714.0, -364.0, 13187.0, 22109.0, -3209.0, -12204.0, 78.0, 4303.0, 5436.0, -14152.0, -4549.0, -28195.0, -13091.0, 8141.0, 11191.0, 12803.0, -11655.0, -7970.0, -7694.0, 13072.0, -4805.0, -9490.0, -3138.0, -5038.0, -4704.0, 1550.0, 4320.0, 3926.0, 17837.0, -5500.0, -5663.0, 1013.0, -1849.0, -23663.0, 17366.0, 5827.0, -17394.0, 5358.0, -4876.0, -955.0, 5500.0, -9265.0, -737.0, 8435.0, 22292.0, 3271.0, 24893.0, 6109.0, -4982.0, -14850.0, 3802.0, -2392.0, 8013.0, -3818.0, -429.0, -3578.0, 1016.0, -9038.0, -2304.0, 1375.0, 8611.0, 407.0, -3807.0, 3629.0, -3164.0, -4684.0, 8163.0, -1513.0, 6905.0, -4345.0, -9850.0, -11021.0, -1195.0, 10451.0, 1019.0, -9434.0, 3347.0, 8.0, 18255.0, -16653.0, 42967.0, 80.0, -8952.0, 1239.0, 368.0, 1328.0, -863.0, -1070.0, 6716.0, 1792.0, 1503.0, 11553.0, -14388.0, 2137.0, 22375.0, -3329.0, 6682.0, 12492.0, -2639.0, 3044.0, -4157.0, -590.0, -2324.0, 21666.0, 298.0, -8115.0, -4731.0, -10291.0, -420.0, 4633.0, 150.0, -6351.0, 10589.0, 5547.0, -11200.0, -7006.0, -8794.0, -16112.0, 3067.0, 4410.0, -10650.0, -3321.0, 5402.0, -10347.0, -5361.0, 9858.0, 497.0, 13967.0, -2597.0, -4835.0, -5811.0, -5260.0, -3248.0, -13203.0, -3807.0, -7685.0, -1332.0, -10190.0, 2658.0, -1898.0, 865.0, 0.0, -4164.0, 882.0, -12846.0, 8280.0, -16901.0, -2872.0, -6569.0, 4813.0, -9991.0, -1994.0, -8975.0, 5344.0, -1186.0, 83.0, -8484.0, 696.0, 9085.0, -1827.0, -7889.0, -3108.0, 2582.0, 7075.0, -1041.0, -10109.0, -9549.0, -6824.0, 8313.0, -15786.0, -10720.0, -11207.0, 16611.0, 13343.0, 3900.0, 24435.0, -6520.0, 8333.0, 2491.0, -349.0, -2813.0, 13010.0, 1559.0, -5314.0, 5614.0, 26432.0, 36816.0, 589.0, 8289.0, -4902.0, -6388.0, -8595.0, 8362.0, -1133.0, 9732.0, 9162.0, 3633.0, 1438.0, 9299.0, 12765.0, -5681.0, -6317.0, -4484.0, 5790.0, -11773.0, -1836.0, -25803.0, -4747.0, -1295.0, 1620.0, -5377.0, 7298.0, 45886.0, -2377.0, 2919.0, -8227.0, 7063.0, -3599.0, -9538.0, -12763.0, 985.0, 650.0, -12820.0, 7137.0, -16673.0, 9750.0, -2000.0, 3714.0, 20623.0, -6083.0, -3801.0, -9519.0, 781.0, -9302.0, -887.0, -12289.0, 23547.0, -20438.0, -3580.0, 15653.0, 11556.0, -1535.0, 1351.0, -4802.0, -10693.0, 4776.0, -3634.0, -5842.0, -7666.0, -2382.0, 3291.0, 4519.0, -5026.0, 30985.0, 10437.0, 369.0, -15129.0, 10513.0, -1617.0, -4533.0, 6798.0, 1972.0, 9944.0, -2973.0, 2000.0, 11.0, -2401.0, 8357.0, -703.0, -4337.0, 5719.0, 1757.0, -1845.0, -14966.0, 16621.0, 10316.0, 1548.0, 2504.0, 1341.0, 7134.0, 6924.0, 10127.0, 98.0, 291.0, -10536.0, 7984.0, -4309.0, 11424.0, -5428.0, 2868.0, 11399.0, 12601.0, -5531.0, -3244.0, 3122.0, 5436.0, 12978.0, 9660.0, -14563.0, -4349.0, -10292.0, 2355.0, 7757.0, -4459.0, -1880.0, -2770.0, 17320.0, -2142.0, 0.0, -7605.0, 5695.0, -4726.0, 5554.0, -4603.0, -27249.0, 26670.0, 10944.0, 14430.0, 2200.0, -553.0, 9743.0, 137.0, -532.0, 3077.0, 304.0, 1630.0, 9913.0, 2436.0, 2754.0, 5072.0, -4175.0, -5526.0, -2576.0, 1253.0, -10479.0, 12116.0, 2469.0, 6810.0, -5763.0, 0.0, -1490.0, -6792.0, -1455.0, -20367.0, 525.0, 1245.0, 4148.0, 5014.0, -48.0, -3927.0, 6538.0, -1068.0, 35943.0, -9532.0, -4043.0, 3246.0, 7234.0, -4814.0, 58.0, -3481.0, 6888.0, 8045.0, -13583.0, 2142.0, -3793.0, 6524.0, -14944.0, -5027.0, 31371.0, -7544.0, 3347.0, -6851.0, -3822.0, 28.0, -676.0, -8870.0, -1319.0, -7893.0, 1775.0, 7624.0, -9899.0, -3891.0, -5594.0, 5705.0, 745.0, -13308.0, 11170.0, -508.0, 8022.0, 7046.0, 2328.0, 641.0, 1699.0, 3623.0, -10109.0, 10846.0, 10380.0, 11618.0, 2895.0, 46665.0, -6634.0, 4044.0, -3877.0, 2654.0, 5783.0, 5060.0, 118.0, -5738.0, 720.0, 10811.0, -1873.0, -2593.0, 12247.0, -362.0, -10472.0, -5297.0, 18015.0, -4758.0, 7959.0, -9054.0, 6095.0, 4408.0, 10617.0, 7654.0, -5054.0, -1806.0, -4818.0, -1651.0, 2731.0, 4126.0, -8184.0, -5434.0, 7330.0, -8940.0, -19535.0, 7070.0, 2987.0, -14453.0, -1741.0, 1939.0, 2526.0, 12759.0, -4948.0, 4912.0, 16905.0, 3123.0, -13669.0, 20759.0, -3538.0, 8958.0, 1349.0, -9707.0, 5018.0, -18133.0, 466.0, 15799.0, 2859.0, -5612.0, -437.0, -1002.0, 10979.0, 6656.0, 823.0, -3896.0, -1994.0, -7149.0, -6202.0, -27819.0, 10431.0, -913.0, 21703.0, 4724.0, 27178.0, 8521.0, 8479.0, -12584.0, -11897.0, 6541.0, 10255.0, 7515.0, 0.0, -1075.0, 1197.0, 13695.0, -13863.0, -6770.0, -412.0, -4986.0, 0.0, -3131.0, 9053.0, 9769.0, 9168.0, -15197.0, -4585.0, -12835.0, -14610.0, -8398.0, 8085.0, 14480.0, 10358.0, 869.0, -3425.0, -487.0, 8588.0, 12037.0, -3231.0, -285.0, -6015.0, -4547.0, 3277.0, 1935.0, 10173.0, 13159.0, -9997.0, -2609.0, -10464.0, -9338.0, -7657.0, 17603.0, -6066.0, 5005.0, -3396.0, 2369.0, 20960.0, 3381.0, 5060.0, -1914.0, -2010.0, -1666.0, 15193.0, -931.0, 11485.0, -973.0, 334.0, 4741.0, -16071.0, -8440.0, -251.0, -9962.0, 14158.0, -10139.0, 7086.0, -5591.0, 19421.0, 2025.0, -2393.0, 8885.0, -34016.0, 3830.0, 12398.0, -27498.0, -399.0, 713.0, -13369.0, 132.0, 21829.0, -633.0, -2086.0, 8560.0, -7524.0, -5391.0, -17757.0, -2367.0, 1365.0, -1826.0, -3067.0, -5520.0, 5156.0, -3249.0, -15146.0, -9295.0, -3960.0, 4318.0, 4156.0, -1662.0, 3304.0, 1622.0, 2196.0, 6811.0, -5536.0, 5360.0, 13006.0, 1471.0, -5158.0, -11410.0, -16589.0, 1364.0, 1469.0, 0.0, -1186.0, 5115.0, -14010.0, 262.0, -37634.0, 2398.0, -17025.0, 46.0, -8580.0, -8266.0, 21503.0, -2740.0, -12741.0, -4190.0, -9519.0, 9451.0, -8942.0, -5732.0, 4559.0, -14075.0, -8528.0, -4148.0, 3500.0, 8242.0, -5973.0, -18330.0, -4908.0, 0.0, 16977.0, -4443.0, -7170.0, -6864.0, 1839.0, 0.0, 21333.0, 6286.0, -2069.0, 7321.0, 17204.0, 4399.0, 4350.0, -33.0, 4129.0, -14741.0, -9.0, -5676.0, 3752.0, -5459.0, -7076.0, 211.0, -6989.0, 3429.0, 82.0, -15967.0, 146.0, -5177.0, -5038.0, 4384.0, -2978.0, 3908.0, -12103.0, 5162.0, 3954.0, -11142.0, 0.0, -3111.0, 2003.0, -4849.0, 9895.0, 10696.0, 6931.0, 11438.0, 12417.0, -1969.0, -7149.0, -809.0, 3164.0, -4727.0, -4069.0, -853.0, -1975.0, -8363.0, 3635.0, 13086.0, 11029.0, 5963.0, -25311.0, -19.0, 1596.0, -3916.0, -2333.0, -13480.0, -8981.0, -12780.0, 3441.0, -11396.0, -4249.0, 5260.0, -3874.0, 12812.0, 12134.0, 1916.0, 1429.0, 8516.0, 678.0, 572.0, -9948.0, -1071.0, -8923.0, -4125.0, 2865.0, 0.0, -1221.0, 5349.0, -1834.0, -16.0, -9624.0, -21252.0, 8558.0, 5905.0, -4522.0, 9515.0, -2369.0, -9305.0, -6874.0, 4371.0, 30240.0, -4261.0, 2322.0, 1337.0, 4013.0, -12179.0, -12073.0, -1083.0, -6350.0, -921.0, -20282.0, -15602.0, -3817.0, -14629.0, 7228.0, 12986.0, -1279.0, 4670.0, -21713.0, 5216.0, -4525.0, -1449.0, -16556.0, -2062.0, -10303.0, 908.0, -3415.0, 3167.0, -6456.0, -3856.0, 10284.0, 6009.0, -5790.0, -767.0, -1528.0, 970.0, -5910.0, 12557.0, 2071.0, -9504.0, -3011.0, 6501.0, -11455.0, 9309.0, -11757.0, 22393.0, -9115.0, -796.0, -13988.0, 11848.0, -4701.0, -5343.0, -5312.0, -3553.0, -316.0, -1118.0, -8773.0, 33411.0, 1541.0, -11312.0, 5026.0, -5764.0, -20073.0, -15467.0, 18025.0, 629.0, 26047.0, -7702.0, -6387.0, 1053.0, 3095.0, 7344.0, 4328.0, -6685.0, -15778.0, 0.0, 2551.0, -9382.0, 19591.0, -9848.0, -5907.0, -9272.0, -12594.0, -6913.0, -19221.0, 7891.0, -345.0, 7067.0, 7505.0, -12480.0, 6641.0, -3644.0, -5954.0, 22302.0, -11511.0, -3986.0, -3874.0, -10359.0, -15962.0, 4750.0, -994.0, 5988.0, 166.0, -6909.0, 4414.0, 2826.0, -7129.0, 2823.0, -1845.0, 19319.0, 9437.0, 15677.0, 11668.0, 1435.0, 10780.0, 3369.0, 10212.0, 15141.0, 557.0, 1462.0, -1327.0, -8167.0, -7239.0, -12144.0, 11930.0, 7217.0, 2319.0, 134.0, -12624.0, 5510.0, -8547.0, -93.0, -4692.0, -1975.0, -5377.0, -3944.0, 15600.0, 4249.0, 15912.0, -3079.0, -4069.0, 368.0, -3722.0, -19553.0, -12430.0, 19562.0, -20277.0, -903.0, 6522.0, 4065.0, -1247.0, 5296.0, -20123.0, 3253.0, 7526.0, 17753.0, 1075.0, 2430.0, 4179.0, -6236.0, 1797.0, 3590.0, -8221.0, -4339.0, 1409.0, -5656.0, -1942.0, 9490.0, 2509.0, 9103.0, -10231.0, -579.0, 17984.0, -5054.0, 436.0, 14009.0, -12160.0, 0.0, -3916.0, -2005.0, -15120.0, -6670.0, 4196.0, -1765.0, -5482.0, -5976.0, -1597.0, 1537.0, -7256.0, -6077.0, 359.0, 3421.0, -9831.0, -2120.0, -3104.0, -1252.0, 20114.0, -4127.0, -1518.0, -15071.0, 18585.0, -1649.0, -7808.0, 11233.0, -564.0, -12921.0, -245.0, 9365.0, 12745.0, -6324.0, 10339.0, 8486.0, -4550.0, -2795.0, -10292.0, -9406.0, -1125.0, 949.0, 9429.0, 776.0, -681.0, 757.0, 14350.0, 21481.0, -1529.0, -4709.0, 2284.0, 4614.0, 3018.0, -5014.0, 4581.0, -2510.0, 7183.0, -6861.0, 9968.0, -1404.0, 779.0, -6626.0, 6256.0, -10923.0, 7380.0, 4262.0, 1793.0, -2717.0, -15084.0, -958.0, -4559.0, -6473.0, -16697.0, -4013.0, -11188.0, 7384.0, 14221.0, -3667.0, -9643.0, -8826.0, 6470.0, 2660.0, 2604.0, 3441.0, -147.0, 0.0, 10368.0, 7905.0, -4488.0, 5002.0, 0.0, -12922.0, 14106.0, -2584.0, 5676.0, -13909.0, 27640.0, 18140.0, 8744.0, 9396.0, -7016.0, 12911.0, -19827.0, -219.0, -4695.0, -3503.0, 1053.0, 5553.0, 1655.0, -3225.0, 8348.0, -8120.0, 15096.0, 5295.0, -6362.0, 2303.0, -3087.0, -7385.0, 3214.0, -9534.0, -16782.0, 746.0, 13845.0, -6250.0, -9848.0, 1323.0, -6114.0, -3402.0, 3271.0, 7337.0, 6306.0, -4793.0, 20485.0, -19198.0, -6505.0, -18896.0, -1456.0, 964.0, -7352.0, 7625.0, -16207.0, -5763.0, -10148.0, -1826.0, 6971.0, -4789.0, -7795.0, -21434.0, -2496.0, 19278.0, -10363.0, -3832.0, 44144.0, -5564.0, -5480.0, -6579.0, 7855.0, 9008.0, 0.0, 15832.0, -14710.0, -6821.0, 12759.0, 2900.0, -6168.0, 5553.0, -7348.0, 6114.0, 10784.0, 1566.0, 10760.0, 2368.0, -3714.0, -13246.0, -1746.0, -5763.0, 2576.0, -3115.0, 4770.0, 13105.0, 6700.0, 2682.0, 760.0, -9953.0, 8534.0, 2231.0, -674.0, 4271.0, -11761.0, -4144.0, 4959.0, 4666.0, 1798.0, -16078.0, 9651.0, 960.0, 15637.0, -5327.0, -6121.0, -8288.0, -1399.0, -962.0, 7211.0, 1953.0, -11928.0, -12546.0, -4962.0, 694.0, 2255.0, 13093.0, -2706.0, -4118.0, 2407.0, 2367.0, -2365.0, -6907.0, -5480.0, -6680.0, -8317.0, -7300.0, 4255.0, 3452.0, 2476.0, -25443.0, -2988.0, -3262.0, 2309.0, 2956.0, 4673.0, -15245.0, 4043.0, -5044.0, 1150.0, -40.0, -7918.0, 6411.0, -6157.0, -12930.0, -3118.0, 11620.0, -9009.0, 1624.0, -11020.0, 17984.0, -13842.0, 5172.0, 5540.0, -4802.0, -8522.0, -8974.0, 9514.0, 2581.0, -7359.0, 3819.0, 4110.0, 5067.0, 7262.0, -1577.0, -8097.0, 11019.0, -5151.0, -6461.0, -4257.0, -9589.0, -6917.0, 10277.0, 0.0, 21.0, 9235.0, -677.0, 3070.0, -15308.0, 0.0, -1627.0, 16275.0, 2478.0, 2583.0, -1747.0, -5978.0, 1182.0, -1587.0, 7234.0, -2377.0, -6117.0, 4477.0, -3010.0, 5010.0, -47.0, 6069.0, 8048.0, -2126.0, -7938.0, -876.0, 846.0, -19581.0, -13016.0, 9066.0, 30310.0, 9132.0, 1736.0, -13216.0, -13885.0, -3663.0, -8013.0, -1783.0, -4233.0, 9411.0, -2136.0, 8016.0, 698.0, 8773.0, -7134.0, 1172.0, -9987.0, -5922.0, 3763.0, 2144.0, 5860.0, -14908.0, 4847.0, -3293.0, -6999.0, -4774.0, 8738.0, -17189.0, -15087.0, 1303.0, 7800.0, 0.0, -9941.0, -220.0, 13720.0, 4929.0, 3426.0, 1165.0, 2324.0, 4360.0, 3446.0, -5284.0, -3967.0, -6395.0, 358.0, 9710.0, -12442.0, 6559.0, 0.0, 3958.0, -11033.0, -6227.0, -7546.0, 1496.0, 4186.0, 5860.0, -26444.0, 6280.0, -13342.0, 9986.0, -8980.0, 6613.0, 13319.0, 4551.0, -12030.0, -4170.0, -4982.0, 4477.0, 11059.0, -5754.0, 26266.0, -4835.0, 15925.0, -3603.0, -2274.0, -12993.0, -9476.0, -12138.0, -1734.0, 15097.0, -391.0, 7488.0, 3340.0, -995.0, 3446.0, -1919.0, 3810.0, 2632.0, 15095.0, 0.0, -10050.0, 10002.0, 11225.0, -11733.0, 579.0, -14757.0, 15845.0, -4792.0, -7890.0, 6915.0, 7698.0, 12887.0, 4411.0, 752.0, 14400.0, 4467.0, 10358.0, -11681.0, -3027.0, -1317.0, -2494.0, -5270.0, 8427.0, 3456.0, 15398.0, 27696.0, 11231.0, -4064.0, -6546.0, -11315.0, 1325.0, -4400.0, -2073.0, 566.0, 5264.0, 2203.0, -15217.0, -97.0, -2059.0, 3995.0, 1927.0, -5273.0, -3545.0, -3916.0, 4520.0, 7134.0, -3893.0, 4628.0, -488.0, 1627.0, 7368.0, -1963.0, 32094.0, -7598.0, 1145.0, 9247.0, -31759.0, -793.0, -1011.0, -3957.0, 4449.0, -9214.0, 5316.0, -17062.0, 11715.0, 3374.0, 4040.0, -7086.0, 12250.0, -1320.0, 9997.0, 31456.0, 7774.0, 2353.0, -3453.0, -298.0, 8273.0, 12440.0, -2292.0, -5337.0, 7525.0, 4583.0, -20743.0, -11093.0, -877.0, 352.0, 6489.0, 10812.0, -3742.0, 11951.0, -16900.0, 7602.0, -5255.0, -615.0, 6532.0, 6339.0, 1140.0, 25875.0, 20901.0, 9498.0, 15742.0, 5315.0, 8116.0, 13741.0, 3710.0, -11567.0, 12990.0, 2582.0, 1157.0, -512.0, 4313.0, 373.0, -5143.0, 6190.0, -10436.0, 37853.0, 3846.0, 7525.0, -10070.0, -6592.0, 16558.0, 2396.0, -2025.0, -1690.0, -3898.0, -9658.0, 2910.0, -5639.0, 6821.0, -4274.0, 9137.0, 9676.0, -3028.0, -994.0, -1070.0, 3047.0, 8508.0, -5961.0, 6654.0, 447.0, -18463.0, -6679.0, 12241.0, 3367.0, 25829.0, 3725.0, -7497.0, -5792.0, 9800.0, -7497.0, 126.0, -484.0, -4481.0, -599.0, -788.0, -5295.0, 0.0, -4607.0, 9708.0, -291.0, 5588.0, -7301.0, 9306.0, 9112.0, -15794.0, 527.0, -13393.0, 4368.0, -11414.0, -9676.0, -12831.0, 9844.0, 5956.0, -8348.0, -7003.0, 4005.0, 3417.0, 26688.0, -17231.0, 4186.0, -12846.0, -13011.0, -15364.0, -5739.0, 427.0, -7936.0, -9493.0, -9941.0, -6798.0, -16577.0, -135.0, 2588.0, 13529.0, -9495.0, 4389.0, -10429.0, 1056.0, 3285.0, 6532.0, 4855.0, 2404.0, -5012.0, -4054.0, -2011.0, -3108.0, 1013.0, 370.0, 21325.0, 375.0, -6607.0, 5179.0, 3702.0, 4722.0, 6494.0, -849.0, -3947.0, -13060.0, 906.0, -8933.0, 5022.0, 4775.0, 1215.0, 4435.0, -3865.0, -13289.0, 8930.0, -8575.0, -15731.0, 4508.0, -2147.0, 11342.0, 4584.0, -11583.0, -1475.0, 3679.0, 217.0, -303.0, -3090.0, 4057.0, -5057.0, -17480.0, 1233.0, 8986.0, 2296.0, -3352.0, -693.0, -1646.0, -3065.0, -9414.0, -785.0, -10092.0, 4723.0, -8574.0, -5350.0, -6597.0, -19101.0, 18560.0, 12915.0, 3764.0, 2813.0, -11863.0, -190.0, 8849.0, -236.0, 914.0, -2523.0, -482.0, -4238.0, 585.0, -3565.0, -13690.0, 6507.0, -7154.0, -4687.0, -6150.0, -6093.0, 3981.0, 4742.0, 730.0, 1641.0, 6173.0, -831.0, 9310.0, 8290.0, 8618.0, -4564.0, 7105.0, -6427.0, -6022.0, -4000.0, -127.0, -9339.0, -579.0, 7327.0, 4530.0, -1437.0, 394.0, -8980.0, -444.0, -2635.0, -5315.0, 3076.0, 9007.0, 17250.0, 2370.0, -8095.0, -5299.0, 3405.0, -2947.0, -17165.0, -3170.0, 13311.0, -8086.0, 1745.0, -5023.0, -13994.0, -7559.0, -12124.0, 390.0, -241.0, -2258.0, 2737.0, 5524.0, 18813.0, -389.0, 11428.0, 18466.0, -9559.0, -7588.0, 7034.0, -8004.0, 5402.0, 20106.0, 588.0, -4784.0, -2213.0, -2088.0, 9628.0, -2512.0, 23200.0, -1954.0, 1083.0, -2819.0, -11896.0, 18689.0, 40.0, 9814.0, -7169.0, -6806.0, -204.0, 13981.0, 9250.0, 3284.0, -1430.0, -12175.0, -157.0, -5267.0, 19158.0, -4809.0, -1667.0, 18638.0], "w": [-2.1442323651452284, 1.457759336099585, -0.9580082987551868, -0.730954356846473, 0.2134439834024897, 0.9208298755186721, -1.4320331950207468, 0.5370954356846473, -2.372448132780083, 1.440331950207469, 0.06224066390041494, 1.8565975103734438, -1.1385892116182572, 1.082323651452282, -1.0942738589211618, -2.3538589211618257, 12.78838174273859, -1.0366804979253113, 1.4763485477178424, 0.9714522821576761, 0.013278008298755186, -0.635020746887967, 0.46556016597510375, -0.2107883817427385, -1.4092946058091287, -0.25078838174273876, 4.138423236514523, -0.620746887966805, 0.525643153526971, 1.3047302904564315, -0.5022406639004149, -1.0864730290456432, 0.27103734439834026, 0.5638174273858921, 1.5721161825726142, -1.8614107883817428, -0.14307053941908698, 0.10257261410788399, -4.053775933609958, -3.8081327800829876, -2.5002489626556015, -2.2615767634854773, 0.0, -0.7658091286307054, 2.137095435684647, 0.3100414937759335, 0.19883817427385897, 1.7551867219917012, -0.3609958506224067, -3.3382572614107886, -1.806804979253112, 0.10257261410788376, 0.8129460580912863, 0.04879668049792529, -2.7311203319502075, -1.7492116182572615, -1.0106224066390042, 0.8028215767634854, 1.3014107883817427, 2.0725311203319503, 2.832863070539419, 0.8016597510373444, -1.0003319502074688, 1.2964315352697096, 0.7273029045643153, -0.8346887966804979, -1.6003319502074689, 0.29443983402489626, 0.6491286307053942, 0.5503734439834025, -0.29576763485477175, 2.050954356846473, -1.6277178423236514, -1.3180082987551867, 1.8021576763485476, 0.9785892116182573, -0.722655601659751, 1.8137759336099586, 2.3746058091286306, 2.0212448132780083, 0.7618257261410788, -1.0551037344398342, 2.480995850622407, 1.8112863070539418, 1.0448132780082988, -0.31618257261410787, -2.1334439834024894, 1.1387551867219918, 0.6673858921161826, -0.8541078838174274, 1.9975103734439834, -0.09908713692946058, -0.5478838174273859, 0.9943568464730292, 0.9382572614107884, -3.6419917012448133, 2.882655601659751, 0.19651452282157678, -0.8004979253112033, -2.3410788381742735, 1.7088796680497924, 0.868713692946058, 1.0793360995850623, 0.6013278008298755, 1.3131950207468879, -0.5576763485477176, 0.5422406639004149, 0.7948547717842325, -0.84, -0.9112033195020747, -1.6096265560165974, 0.03834024896265564, -0.5825726141078837, 0.6570954356846472, -0.6424896265560165, -1.1780912863070538, -1.19551867219917, -1.0270539419087137, -3.663734439834025, -1.561161825726141, 1.813609958506224, -0.2892946058091286, 4.3410788381742735, -1.5243153526970954, 1.9990041493775932, 1.033195020746888, 1.191701244813278, -1.7341078838174273, 1.045311203319502, -1.4375103734439834, -1.3347717842323652, -2.4476348547717843, -0.34904564315352693, -1.623734439834025, 1.5541908713692947, 2.2990871369294608, 1.0647302904564315, -1.6326970954356845, 0.25178423236514524, -0.5377593360995849, 2.0185892116182576, 1.1160165975103735, -0.32016597510373446, 1.4962655601659751, 1.8006639004149378, -0.7478838174273859, 1.069045643153527, 0.9556846473029046, -4.6451452282157675, 2.993858921161826, 2.1809128630705397, 0.34107883817427387, 0.3770954356846472, 2.1351037344398343, 0.0, -3.6519502074688797, 0.4308713692946058, 1.1097095435684645, 1.6804979253112033, 0.2556016597510373, -0.6730290456431536, 0.049460580912863074, 1.7141908713692946, 2.332780082987552, 1.5301244813278008, -2.8225726141078837, 1.9407468879668048, 3.0209128630705395, -0.6884647302904564, 0.2154356846473029, -0.5070539419087137, 2.7399170124481325, -0.8300414937759335, 0.8546058091286306, 2.353526970954357, -0.8728630705394191, 0.12398340248962658, 1.4142738589211619, -6.984896265560166, 0.0, 0.22639004149377584, -2.808298755186722, 4.731286307053942, -0.6225726141078838, 0.3900414937759336, -1.5326141078838174, -1.5500414937759337, 0.5855601659751037, -0.9862240663900415, 2.006804979253112, 0.36929460580912865, 1.2990871369294605, -4.097427385892116, -0.9875518672199171, -2.4036514522821575, -0.7053941908713692, -1.0478008298755186, 2.3809128630705394, -1.0414937759336098, 2.035186721991701, -4.818257261410788, 0.28066390041493783, 0.8330290456431535, 0.6318672199170124, 0.6858091286307053, 1.470207468879668, 0.0, -0.6919502074688797, 0.2127800829875519, 0.64, -0.5918672199170125, 0.20165975103734435, -0.3756016597510373, 3.386390041493776, -2.4126141078838175, -0.8431535269709542, -0.9231535269709545, -0.6396680497925311, -2.7809128630705393, -1.2985892116182574, -3.0134439834024898, 0.5121991701244812, -0.8147717842323652, 0.44182572614107885, 2.6780082987551865, -0.7103734439834024, -3.497261410788382, -0.14473029045643154, 0.28, -1.4149377593360994, 0.475850622406639, -2.9842323651452283, 1.6640663900414938, 1.137759336099585, -0.4584232365145229, 0.9287966804979253, 0.7364315352697095, 0.48547717842323657, 1.3898755186721992, -0.3141908713692946, -4.2159336099585065, 0.3083817427385892, -1.9950207468879668, -1.0094605809128632, 1.6099585062240664, -0.20315352697095435, 1.301078838174274, -0.5931950207468879, -0.31784232365145226, 2.032033195020747, 0.25012448132780085, -0.26506224066390044, 1.8635684647302904, 0.9450622406639004, -1.6507883817427387, 1.4159336099585063, -0.12597510373443987, 0.3827385892116183, -3.131618257261411, 6.6064730290456435, -3.988547717842324, -2.141576763485477, -1.325311203319502, 1.7760995850622407, -3.574937759336099, -1.647966804979253, 1.9525311203319502, -0.8570954356846473, -4.090622406639004, 0.9920331950207468, -1.1993360995850622, -0.528298755186722, 0.8999170124481328, 2.131618257261411, -0.12464730290456431, -1.6919502074688797, -2.6230705394190874, 3.115186721991701, -1.2751867219917012, 0.05626556016597506, -2.187219917012448, 2.193526970954357, 0.184232365145228, -1.4182572614107885, 0.14804979253112033, -0.17311203319502075, 0.557344398340249, -1.264232365145228, -3.8288796680497925, -0.4086307053941909, 0.0, -0.29742738589211615, 0.2572614107883817, 0.8813278008298755, -1.2212448132780085, 0.5420746887966805, -5.388547717842323, 0.29908713692946054, 0.26190871369294605, -0.8544398340248962, -3.236348547717842, -0.6575933609958506, 2.2471369294605807, -2.6436514522821577, 0.7160165975103735, 0.07136929460580932, 1.0683817427385893, -0.4478008298755187, 0.3870539419087137, -0.4783402489626556, 0.30688796680497926, 1.4670539419087136, 5.316182572614108, -0.4308713692946058, 13.241991701244814, -0.3065560165975103, 1.0368464730290456, 1.853609958506224, 1.2004979253112034, 0.5671369294605809, 2.311701244813278, -1.4919502074688795, -0.12995850622406635, -0.7281327800829875, 0.7068879668049792, -2.079170124481328, 0.0, -2.3435684647302906, -0.7246473029045644, 3.672033195020747, -3.0843153526970957, 0.235850622406639, 0.06141078838174252, 0.36597510373443987, 1.1774273858921163, 0.459253112033195, 1.2454771784232366, 0.28348547717842326, -1.8557676348547718, 0.8029875518672198, 1.8375103734439833, -2.324149377593361, 1.5646473029045644, 0.20099585062240655, 4.1699585062240665, 1.9507053941908714, 0.561161825726141, 1.3784232365145228, 1.0239004149377593, -2.682655601659751, 7.301410788381743, 0.03900414937759336, -1.0595850622406635, -1.2544398340248963, -0.4768464730290456, 0.1150207468879668, -0.13443983402489623, 0.917344398340249, 0.3302904564315352, 0.42937759336099585, -2.5536929460580913, 0.0604149377593361, -0.18871369294605822, 1.3304564315352696, -1.4673858921161824, -1.974439834024896, 0.9870539419087137, 2.2858091286307056, -0.9022406639004149, 0.34887966804979254, -0.24497925311203317, -3.3203319502074686, 0.17278008298755188, -1.3512033195020747, 1.1425726141078838, 2.8750207468879667, -2.0655601659751035, -0.6771784232365146, 0.27701244813278003, 0.8303734439834023, -0.20248962655601654, 1.575103734439834, -1.4791701244813278, -1.1638174273858921, -1.2192531120331949, -1.2572614107883817, 1.2829875518672198, -1.6516182572614109, 1.0395020746887966, -1.087136929460581, -1.0600829875518674, -1.1681327800829875, -0.6931120331950207, -6.07253112033195, 0.11767634854771769, -0.9671369294605809, -2.1130290456431537, -1.8892946058091287, -1.1907053941908714, -0.84149377593361, 0.08713692946058094, 0.5377593360995852, 2.122323651452282, -1.4, -2.699917012448133, -0.5429045643153527, -1.1316182572614109, -0.013941908713692941, -0.17311203319502078, -1.5352697095435683, 0.36896265560165975, 2.39701244813278, 1.6700414937759336, -5.366307053941909, 0.07120331950207469, 0.5938589211618257, -2.168630705394191, -2.4999170124481327, -2.6175933609958504, -0.22821576763485477, 2.5707883817427386, -0.06755186721991702, 0.6318672199170124, -0.6023236514522822, -1.4748547717842324, -1.2225726141078839, -1.3548547717842323, -3.7488796680497924, -0.14605809128630698, -1.2788381742738588, -1.3651452282157677, 3.8292116182572613, -0.8016597510373444, 0.2653941908713693, -0.1691286307053942, -0.4341908713692946, -0.5555186721991702, -0.0013278008298755186, 0.9701244813278009, -2.2360165975103734, 10.868547717842324, 1.9867219917012449, -0.5141908713692946, 2.794356846473029, -0.061078838174273856, 0.7795850622406639, -0.8567634854771784, -0.8224066390041493, -2.1146887966804977, 0.7025726141078839, -0.24946058091286308, 2.0824896265560167, -1.6119502074688796, 0.6453112033195021, 3.2863070539419086, -0.4474688796680498, 0.8909543568464731, 1.9266390041493775, -2.5619917012448132, 1.4947717842323651, -2.3100414937759335, 0.0979253112033195, -0.6142738589211618, 0.4039834024896267, -1.049460580912863, -1.6531120331950206, -1.214771784232365, -1.2919502074688796, -0.9302904564315353, 0.23103734439834023, -1.0248962655601659, 0.05410788381742737, -0.7575103734439834, -2.9206639004149375, -0.1410788381742738, 0.16282157676348552, -0.5404149377593361, -2.325809128630705, 1.4909543568464732, -0.7319502074688796, 1.7676348547717842, 0.5512033195020747, 0.10340248962655607, -2.282655601659751, 0.889792531120332, -0.6361825726141079, -0.0824896265560166, 0.6818257261410787, -1.5689626556016598, 2.8024896265560164, -1.0355186721991703, -1.1269709543568465, -1.4609128630705395, -0.808630705394191, -0.36813278008298755, 0.27551867219917003, -1.7789211618257261, -1.308713692946058, 1.5588381742738588, 0.31502074688796683, -0.14356846473029045, 0.0, -2.3088796680497925, -0.14639004149377594, -1.8678838174273857, 1.6257261410788382, -0.19485477178423238, 0.4766804979253112, -1.9097095435684648, 0.20116182572614105, -1.3417427385892116, -3.669045643153527, -1.5103734439834025, 0.11302904564315353, 1.1968464730290456, -1.0137759336099585, 0.4081327800829875, -3.1155186721991703, 0.49211618257261414, -2.6967634854771783, 1.309377593360996, 4.515850622406639, -0.42854771784232365, -0.17427385892116187, -0.8272199170124481, -2.3221576763485476, -3.415103734439834, 0.13261410788381744, 1.6202489626556016, -4.379917012448132, 0.7792531120331949, -2.139917012448133, 2.2429875518672198, 7.785394190871369, 2.3526970954356847, -1.0556016597510371, 1.0821576763485476, 0.6169294605809128, -0.4134439834024896, 0.0579253112033195, 0.46688796680497924, 0.8406639004149379, -0.2587551867219917, -0.1180082987551867, 1.0682157676348547, 8.612946058091286, 7.889460580912863, 1.902240663900415, -1.3757676348547718, -0.18639004149377592, -0.9397510373443982, 1.4265560165975104, -0.387883817427386, 0.18804979253112034, 0.3847302904564316, 0.4793360995850622, -2.60298755186722, 0.7613278008298755, -0.5434024896265559, 2.8813278008298755, -1.0570954356846474, -0.9515352697095436, -3.255767634854772, 0.03900414937759333, 0.9540248962655602, -0.6952697095435685, -2.7173443983402485, -0.2121161825726141, 0.2149377593360996, -1.2688796680497925, -1.1075518672199172, 0.7887136929460581, 0.384066390041494, 0.3945228215767635, 3.5155186721991702, 2.3654771784232365, -3.1722821576763485, -1.4026556016597511, -2.4169294605809126, -0.8816597510373443, -1.1634854771784233, 0.892116182572614, -1.8721991701244813, -2.184564315352697, -0.23269709543568462, 1.3817427385892116, -0.6680497925311204, 0.3835684647302905, 5.577095435684647, 1.0096265560165976, 0.6308713692946059, -7.420082987551867, -1.1296265560165974, -0.4560995850622407, -0.8527800829875518, -2.9603319502074688, 5.091784232365145, 1.3921991701244814, -5.405809128630706, 0.4019917012448131, 0.08199170124481325, -0.7452282157676349, 0.7757676348547717, -1.20298755186722, 0.7747717842323651, -0.7926970954356847, 1.6031535269709543, -0.03037344398340247, 0.27236514522821587, -0.6046473029045643, -0.5462240663900415, 3.2499585062240666, -1.1658091286307055, 0.8572614107883814, 1.2677178423236515, 1.9387551867219917, -2.48896265560166, 3.255103734439834, 3.268381742738589, -0.24763485477178426, 2.871701244813278, -0.3273029045643154, 3.34954356846473, -0.5065560165975104, -1.3319502074688796, -0.0018257261410788382, -1.6014937759336099, -0.3870539419087138, -1.883319502074689, 1.7198340248962656, 2.0507883817427386, -2.291618257261411, 0.3062240663900415, -0.5160165975103737, 2.2413278008298754, 1.2878008298755186, 0.7430705394190871, 0.5843983402489626, 9.777427385892116, -3.184066390041494, 0.8507883817427386, 5.319170124481328, -0.016265560165975104, 1.951701244813278, 3.7487136929460583, 2.6748547717842324, -1.2848132780082988, 1.1039004149377594, -1.0990871369294606, 2.5239834024896264, -0.8919502074688797, 0.9085477178423238, -1.0819917012448133, -0.46157676348547716, 1.481825726141079, 0.09775933609958509, -2.15402489626556, 1.3966804979253111, -0.5829045643153528, -0.27817427385892113, 0.7082157676348548, -0.3908713692946058, -0.2874688796680498, 1.740082987551867, -1.687966804979253, -4.5402489626556015, 4.125311203319502, -1.64448132780083, 0.0, 0.2622406639004149, 0.05477178423236517, 2.7843983402489627, 1.078174273858921, -1.2360165975103734, -3.477344398340249, 8.57344398340249, 2.1835684647302904, 0.6049792531120333, 1.6348547717842323, -1.9082157676348548, 2.3829045643153526, 0.9772614107883817, 0.08829875518672199, 1.4892946058091288, -0.05045643153526971, 0.7294605809128631, 2.354688796680498, -1.4043153526970955, -0.4570954356846473, -1.8418257261410789, 0.6929460580912863, 0.9171784232365146, -1.572448132780083, 0.7920331950207469, -2.260746887966805, 3.989045643153527, -0.4097925311203319, -0.13029045643153525, -1.0434854771784232, 0.0, 1.2473029045643154, 1.1273029045643153, 0.24149377593360996, -1.619585062240664, -0.08713692946058091, -4.206639004149378, 1.3115352697095437, 0.1678008298755187, 0.007966804979253112, 0.6517842323651453, 0.9148547717842324, -0.8227385892116182, 2.0343568464730293, 2.5820746887966806, -2.32896265560166, -3.5387551867219917, 3.7993360995850622, -0.20099585062240666, -0.009626556016597511, -1.422240663900415, -0.1432365145228216, -0.3352697095435684, -0.7455601659751037, -1.35551867219917, -2.3704564315352696, 0.9171784232365146, 0.48033195020746877, -0.165643153526971, 5.793195020746888, -0.7478838174273859, -0.5555186721991702, 0.13709543568464722, -2.365643153526971, -4.004647302904564, -0.8878008298755187, -2.5278008298755186, 0.21892116182572613, 1.3100414937759337, -0.2946058091286307, -1.2653941908713693, -0.3570124481327801, 1.6458091286307055, -0.0715352697095436, 0.05311203319502078, -0.12365145228215768, -1.791203319502075, -1.853941908713693, 1.0843153526970954, 3.6685477178423236, -0.1694605809128631, 0.613609958506224, -1.106390041493776, -0.28199170124481326, 0.39867219917012453, -0.32215767634854764, 1.1998340248962656, -1.7228215767634856, 4.071701244813278, -2.4804979253112034, 9.254771784232364, -2.8989211618257262, 1.3287966804979252, -0.3565145228215768, -1.4404979253112034, -1.9598340248962656, 0.16016597510373443, 3.980414937759336, -1.0476348547717842, -0.11950207468879669, -0.7943568464730291, 0.3108713692946058, 0.4303734439834025, -1.0326970954356844, 0.06008298755186722, 1.738091286307054, 0.8791701244813278, 2.0099585062240664, -0.21029045643153532, -0.32099585062240665, -0.4972614107883817, -4.011618257261411, 0.26838174273858917, -2.762157676348548, -0.27037344398340246, -1.1611618257261411, 0.29975103734439834, 1.799668049792531, 1.2740248962655603, -0.4532780082987552, 1.3151867219917013, 0.3583402489626557, -0.098091286307054, 3.783402489626556, -1.5161825726141078, -2.757676348547718, 3.82655601659751, 0.5042323651452283, -1.601161825726141, 0.28896265560165973, -1.3218257261410788, -1.419253112033195, -1.1176763485477177, -1.1787551867219919, 0.18473029045643152, 0.1941908713692948, -0.5183402489626556, -2.7312863070539417, 1.5545228215767635, -0.41278008298755187, -0.48680497925311195, -0.22390041493775933, -4.388879668049793, 0.1671369294605809, -3.9903734439834024, -0.07734439834024896, 0.37775933609958523, -1.4745228215767634, -3.0685477178423235, -3.9274688796680497, -0.8336929460580913, 2.177759336099585, -1.1047302904564316, -0.13659751037344398, 1.6466390041493777, 0.330954356846473, -0.8134439834024896, -1.9706224066390041, -0.38273858921161796, 7.268713692946058, -0.8484647302904564, 0.3978423236514521, 1.215933609958506, 3.4891286307053946, -0.41427385892116186, 0.5926970954356847, -1.9113692946058092, -1.0253941908713693, 0.914356846473029, 0.29792531120331955, 0.7526970954356846, 0.0, -0.8215767634854771, 0.8013278008298755, 1.7269709543568466, -1.6990871369294607, 1.1236514522821577, 0.06838174273858921, -0.17244813278008297, 0.0, -2.4803319502074688, -0.5025726141078839, -0.6214107883817428, 2.4783402489626556, 1.522323651452282, -1.2390041493775934, -3.8697095435684647, -2.575103734439834, -0.6061410788381743, -4.341908713692946, -0.4033195020746887, 0.2808298755186722, -0.14423236514522822, -0.4315352697095436, 0.0808298755186722, 0.5746058091286308, 2.002157676348548, 2.536265560165975, 0.04730290456431535, 0.9983402489626556, -1.2453112033195022, -1.5439004149377593, -0.3211618257261411, 2.3115352697095437, 0.8159336099585062, -0.34074688796680497, -0.5669709543568464, -1.2632365145228215, -1.450124481327801, -0.7291286307053941, -0.9216597510373443, -1.993195020746888, 0.16929460580912858, 0.5636514522821576, 0.606804979253112, 4.521161825726141, -2.561161825726141, 0.16016597510373443, 0.31767634854771787, 1.333609958506224, 1.2765145228215768, 3.4783402489626556, -0.8454771784232366, 2.0937759336099586, -0.8385062240663901, -1.055435684647303, 0.2131120331950207, -0.3326141078838174, -0.5991701244813279, 0.0416597510373444, -0.34655601659751034, -1.3498755186721993, -0.31717842323651446, -0.17609958506224066, -0.0720331950207469, -0.22340248962655584, -1.3360995850622408, -0.6028215767634855, -0.474688796680498, -2.354190871369295, 1.3643153526970955, -0.057759336099584946, -2.436016597510373, 0.0662240663900415, -1.1183402489626557, -1.781078838174274, -1.0219087136929461, 7.376929460580913, 0.10506224066390041, -3.6537759336099587, -1.420746887966805, -2.751203319502075, -0.10522821576763486, 1.9472199170124482, 0.3928630705394191, 0.7734439834024897, -0.6969294605809129, -3.490954356846473, -1.0838174273858923, -1.8557676348547718, -0.46074688796680496, -2.486141078838174, -2.457261410788382, 0.6572614107883817, 1.2833195020746888, 1.310207468879668, 0.275850622406639, 0.4516182572614108, 0.7307883817427385, -0.36448132780082987, -0.13045643153526965, -1.081161825726141, 3.1103734439834025, 1.8413278008298755, 3.755850622406639, -1.1439004149377592, -1.1062240663900416, -2.246639004149378, 1.7736099585062242, 0.7561825726141078, 0.0, 0.19684647302904565, -0.8489626556016597, -2.6746887966804977, -0.043485477178423236, 1.2463070539419085, 1.6019917012448133, -2.1742738589211617, -0.007634854771784232, -1.5759336099585062, -0.6280497925311204, 2.4310373443983404, -1.545228215767635, 3.114688796680498, 0.6954356846473029, -3.4200829875518672, 1.4313692946058092, 1.484149377593361, -1.0486307053941908, 0.24331950207468878, -0.6639004149377592, -4.584564315352697, -0.3115352697095436, -0.5809128630705395, -2.367966804979253, -1.0086307053941908, -1.957676348547718, -0.18539419087136932, 0.0, 0.18224066390041482, -0.2625726141078838, -0.8099585062240664, -0.860746887966805, 1.694771784232365, 0.0, 1.459253112033195, -0.04331950207468882, -0.656597510373444, -0.2151037344398341, 6.144564315352698, -1.7301244813278007, 2.2780082987551866, 0.0054771784232365145, 1.3146887966804979, -3.5533609958506225, 0.0014937759336099586, -2.0579253112033196, 1.3772614107883818, 2.906058091286307, 3.1744398340248963, -0.0350207468879668, -0.8400000000000001, -1.5691286307053942, -2.013609958506224, -2.3498755186721993, 1.9757676348547717, -0.140746887966805, -1.1638174273858921, 1.2723651452282159, -1.505726141078838, 0.3513692946058091, 0.008796680497925369, 2.1432365145228216, 1.3437344398340247, -3.1507053941908714, 0.0, -1.4836514522821576, -0.332448132780083, -0.19518672199170128, 1.357676348547718, 3.2247302904564314, -1.1503734439834026, 1.1015767634854772, 4.93908713692946, 4.326804979253112, 0.18655601659751042, -0.8657261410788382, 0.4748547717842324, -4.215435684647303, -1.3246473029045642, 2.141576763485477, -0.6721991701244814, -0.6119502074688796, 0.39668049792531124, 0.8280497925311203, 0.1694605809128631, 0.010290456431535255, 1.200995850622407, 0.0031535269709543567, -0.264896265560166, 2.6499585062240665, 0.3872199170124481, -1.762655601659751, -1.5093775933609959, -1.878838174273859, 3.4288796680497926, -0.10854771784232375, 0.7052282157676348, 3.1269709543568465, -0.3570124481327801, 5.873526970954357, -1.0139419087136932, -0.3180082987551867, -5.237178423236514, -0.41344398340248967, -0.1125311203319502, -2.0949377593360996, -3.3488796680497925, 2.177759336099585, 0.4809958506224066, -1.3153526970954357, -0.4755186721991701, 0.0, 2.202655601659751, 2.112199170124481, -0.6956016597510373, 0.0026556016597510373, -1.4026556016597511, 0.5273029045643152, -0.420414937759336, 1.0199170124481327, -0.24946058091286305, 1.420746887966805, 0.39319502074688795, -2.4556016597510375, 0.1409128630705394, 0.27452282157676344, 3.9809128630705395, -0.29278008298755187, 1.6146058091286308, -3.221908713692946, -0.6660580912863071, 0.02141078838174293, 0.0038174273858921914, -1.8202489626556018, -0.946058091286307, 0.15286307053941908, -2.6336929460580913, -1.4104564315352697, -1.3664730290456433, 2.4280497925311204, 1.8003319502074688, -1.1553526970954358, 1.2122821576763485, -0.775103734439834, -3.3961825726141077, -0.8657261410788382, -2.2489626556016598, 1.2404979253112034, -1.252116182572614, 1.342240663900415, -0.2899585062240664, -0.15070539419087137, -0.433195020746888, 0.474356846473029, -1.9284647302904565, -0.36, 1.2931120331950208, -0.997344398340249, -1.0390041493775932, -0.8726970954356846, -0.7463900414937759, -2.1609958506224065, -1.0190871369294605, -2.084149377593361, 0.656265560165975, 0.5774273858921162, 1.4997510373443983, -0.07900414937759326, -3.098755186721992, -1.5450622406639005, -3.048630705394191, 0.2833195020746886, -2.487136929460581, 1.132116182572614, -1.6783402489626558, 1.0335269709543569, -1.2197510373443983, -0.11319502074688792, -0.1183402489626556, -1.4102904564315353, 0.052448132780082986, 0.18556016597510375, 3.4560995850622405, 9.45460580912863, 0.7442323651452283, -2.1224896265560167, 0.1658091286307054, -0.04331950207468882, -0.6683817427385894, -0.43286307053941897, 4.008298755186722, 1.8956016597510374, 0.6768464730290455, -0.7216597510373444, 0.06008298755186714, 0.8252282157676348, -0.5136929460580912, -0.21892116182572607, 0.2816597510373444, -3.8904564315352697, -5.381244813278008, 0.0, 0.576597510373444, -0.44282157676348555, 10.748381742738589, -0.36547717842323646, -1.019585062240664, 0.5389211618257261, 3.090290456431535, -0.8526141078838174, -3.809792531120332, 0.6902904564315353, 0.05726141078838174, -2.172946058091286, 0.754356846473029, -0.9286307053941907, -1.102240663900415, 0.6048132780082988, -0.011784232365145253, 2.2984232365145227, 4.9105394190871365, -1.3384232365145228, -2.35701244813278, 1.7193360995850622, -3.3507053941908715, -1.788381742738589, -0.8350207468879668, -2.993858921161826, -1.027551867219917, -1.8532780082987552, -1.7326141078838173, 0.530954356846473, 1.1832365145228216, -3.4685477178423234, -1.6937759336099585, 0.7935269709543569, 1.4336929460580914, -1.6019917012448133, 1.063402489626556, -1.2381742738589212, 0.2107883817427385, -0.5591701244813277, 0.3050622406639003, 0.48697095435684634, -1.092448132780083, 0.757344398340249, 0.22024896265560165, -0.6444813278008299, 2.20149377593361, -0.9843983402489624, -0.9800829875518673, 0.8021576763485476, 0.615103734439834, -0.022240663900414938, -0.9047302904564316, 1.0854771784232367, -1.5814107883817428, 1.015435684647303, -0.22124481327800827, -0.6721991701244814, -0.10755186721991705, 0.6546058091286308, 1.4107883817427385, -1.7052282157676348, 1.3590041493775935, 2.51103734439834, -2.3246473029045642, 2.9389211618257263, -0.3822406639004149, -2.754688796680498, -0.9369294605809126, 5.7531950207468885, -2.6345228215767635, -2.850124481327801, 0.9175103734439833, -1.674688796680498, -0.7930290456431535, 2.1209958506224065, 0.339917012448133, 0.4600829875518673, -2.2491286307053944, -2.94655601659751, 0.8215767634854771, -0.4033195020746888, 1.306390041493776, 2.035020746887967, -1.2982572614107883, 1.404149377593361, 2.3644813278008296, -2.2798340248962656, 0.7661410788381743, 0.9387551867219917, 1.3223236514522823, 0.424896265560166, 1.5835684647302903, 1.4891286307053941, -1.3019087136929461, -3.9039004149377594, 0.015103734439834149, 1.8388381742738589, 1.9276348547717843, -1.3251452282157676, 0.018257261410788317, 0.0, -1.3500414937759335, -0.6672199170124482, -0.49045643153526974, 1.1070539419087138, 2.3035684647302905, 1.2929460580912864, -0.09012448132780082, 0.9918672199170124, 0.26506224066390044, -3.255103734439834, -1.7956846473029047, 1.008630705394191, -0.0595850622406639, -0.5678008298755187, -0.36829875518672206, -1.6481327800829875, 1.5151867219917012, 2.2078008298755187, 0.6615767634854772, -1.3150207468879667, 2.2519502074688797, 0.5014107883817429, -2.0846473029045645, 0.2736929460580913, 0.29593360995850615, 1.1356016597510374, 1.093609958506224, -0.8554356846473028, -1.9593360995850622, 1.445643153526971, 0.8846473029045643, 1.0496265560165976, 3.2839834024896266, -1.4084647302904565, -3.2448132780082988, 1.4639004149377595, -0.29178423236514517, -1.438838174273859, 1.1867219917012448, -0.15751037344398341, -0.5649792531120332, -0.1287966804979253, 1.1130290456431535, -2.125643153526971, 2.6182572614107884, -0.565311203319502, -1.7462240663900415, -3.2184232365145227, 2.6209128630705396, 1.2341908713692946, 0.4990871369294606, -1.1678008298755187, 0.2396680497925311, 0.416597510373444, 0.8078008298755186, -3.8612448132780086, 4.345560165975104, 0.23302904564315352, -0.12929460580912863, -2.900248962655602, -0.03834024896265564, -3.1870539419087134, 0.7751037344398339, -1.7073858921161826, -4.297593360995851, 0.450954356846473, -0.49643153526970973, -0.8409958506224067, -1.2433195020746888, -0.9256431535269709, -2.2287136929460583, 1.666058091286307, -2.143070539419087, -0.22556016597510364, 0.6396680497925313, 0.6086307053941908, 1.6004979253112033, -1.535103734439834, 0.9261410788381743, 1.55850622406639, 3.5678008298755186, 1.4288796680497926, -0.9756016597510373, 0.0, 0.27917012448132783, -0.3120331950207469, 2.744896265560166, 0.169792531120332, 0.0, -2.8552697095435686, 1.6587551867219918, 0.42887966804979255, 0.05792531120331945, -4.691452282157677, -0.5875518672199167, -2.0107883817427386, 1.548713692946058, 0.44049792531120335, 1.16448132780083, -0.1429045643153528, -1.7092116182572612, 1.0363485477178422, 0.779253112033195, -2.418589211618257, -0.17477178423236514, 3.0783402489626557, 0.725311203319502, 