{"Fashion & Style": {"count_avg": 4681, "b": 4.0, "beta_avg": 4.286648436082411, "u_avg": [16889.0, -2214.0, -6042.0, -2704.0, -1569.0, -7505.0, 4145.0, 5994.0, -7442.0, 6216.0, 3689.0, 0.0, -4651.0, 3735.0, 6653.0, 5033.0, 12685.0, 2783.0, 3813.0, 16840.0, 3059.0, -7353.0, -7794.0, -3062.0, -13449.0, 5934.0, -7292.0, -1808.0, -4973.0, -3340.0, 0.0, -8323.0, -6919.0, -8693.0, -1818.0, 9346.0, -28715.0, 4242.0, 5052.0, -5201.0, -2447.0, 14545.0, 6358.0, -1820.0, 1855.0, 10025.0, -7247.0, 13201.0, 2997.0, 3788.0, -9410.0, -8086.0, -3642.0, 542.0, 11619.0, 14698.0, -55.0, 7746.0, 5335.0, -8943.0, -13753.0, -2623.0, 13693.0, 252.0, -8331.0, 8902.0, -8529.0, -6234.0, -13630.0, -1416.0, 8668.0, 26089.0, 7141.0, -4208.0, -4429.0, -13.0, 16105.0, -3796.0, 6391.0, 0.0, -5810.0, 2905.0, 34583.0, -12010.0, 820.0, -8545.0, 1803.0, 1590.0, 0.0, 4699.0, -2024.0, 17043.0, -13442.0, -12002.0, -4246.0, 3710.0, 5954.0, 3778.0, 12176.0, -10483.0, -5166.0, 2945.0, 7167.0, -2070.0, 3014.0, -3823.0, -10213.0, -296.0, 3119.0, 22408.0, -5010.0, 6167.0, 0.0, 5063.0, 493.0, -12874.0, 6155.0, -11940.0, -2162.0, 7480.0, -4192.0, 0.0, -12509.0, 1355.0, -1897.0, -5118.0, 13380.0, 2653.0, 13790.0, 1021.0, 2598.0, -1065.0, -15420.0, 3025.0, 1189.0, 22322.0, 6031.0, 6701.0, -11908.0, -156.0, 18795.0, -5775.0, 9651.0, 3262.0, -5996.0, -4991.0, -2125.0, 247.0, -11622.0, 7909.0, 11207.0, -3490.0, -9732.0, 9859.0, 12209.0, 2709.0, 9928.0, 4594.0, 1633.0, 18105.0, 11426.0, 4096.0, -630.0, -281.0, -6566.0, -8726.0, 2799.0, -25200.0, 11428.0, 2444.0, -2320.0, 8280.0, -634.0, -9312.0, -16033.0, -7439.0, -3466.0, -4384.0, -13427.0, 5500.0, 5626.0, -16563.0, -1846.0, 6549.0, -4049.0, 202.0, -3566.0, -7000.0, 7933.0, -5483.0, 8940.0, 492.0, -9802.0, 1411.0, -3091.0, -3030.0, 566.0, -2971.0, -15904.0, -14672.0, -32446.0, -11143.0, -7655.0, -5214.0, 6356.0, -1396.0, 11039.0, -7801.0, 8117.0, 419.0, 4609.0, 0.0, 493.0, -11370.0, 21823.0, -2677.0, -2307.0, 9801.0, -11169.0, -6540.0, -23118.0, 2076.0, 4307.0, 8160.0, -5950.0, -4430.0, -8120.0, -12379.0, -10272.0, 7303.0, 9459.0, 6713.0, -12118.0, -8621.0, 3163.0, 14985.0, -60.0, 8924.0, -2311.0, 894.0, 16336.0, 6606.0, -5362.0, -5519.0, 7055.0, 2896.0, -18893.0, -9702.0, -5626.0, 13511.0, 6612.0, -8901.0, -9580.0, -6022.0, -2227.0, 4186.0, -704.0, -3049.0, -12319.0, 19848.0, 4892.0, 172.0, -2319.0, 3899.0, -10124.0, 5949.0, 2632.0, -4749.0, 5951.0, -9777.0, 3784.0, -7652.0, 2969.0, -15643.0, -6808.0, 2957.0, -4959.0, -6008.0, 6717.0, 0.0, 6285.0, -2149.0, -17641.0, -1269.0, -2274.0, 0.0, -2844.0, -18255.0, -6075.0, 7126.0, -3110.0, 14700.0, -6341.0, -4444.0, -1745.0, -19736.0, 20266.0, 5954.0, 3282.0, 0.0, 9973.0, 6967.0, 0.0, -9235.0, -7602.0, 4418.0, 1181.0, -10751.0, -2796.0, 3775.0, -6555.0, -832.0, 28196.0, 14831.0, -3130.0, -2396.0, -1643.0, -7500.0, -5397.0, 2473.0, -4463.0, 3763.0, 0.0, -3644.0, 3139.0, -1688.0, 538.0, -3185.0, 10490.0, -5893.0, 18348.0, 5384.0, 16422.0, 4500.0, 26142.0, -2037.0, 10134.0, -2886.0, 9733.0, -4388.0, 1730.0, 9029.0, -1653.0, 30748.0, 0.0, -11777.0, 10986.0, 8499.0, 0.0, 0.0, -3092.0, 1027.0, 8345.0, -1352.0, -3591.0, -4046.0, -1113.0, -824.0, 6589.0, -991.0, -5795.0, -11652.0, 1465.0, 6263.0, 8105.0, -4115.0, -272.0, 7872.0, 1647.0, -517.0, 1928.0, 5945.0, 2173.0, -5200.0, 8470.0, -18627.0, 7061.0, 651.0, -1364.0, 1020.0, -12547.0, 6344.0, -7607.0, 36438.0, 7192.0, 5474.0, -20049.0, 9724.0, -25945.0, -5992.0, -3429.0, 2981.0, -5791.0, -14610.0, -8122.0, 7894.0, 6519.0, 4988.0, -9471.0, -387.0, -15305.0, -4309.0, -857.0, 6414.0, 4761.0, 8194.0, 7260.0, -10727.0, 1157.0, 117.0, 752.0, -10107.0, 5456.0, 2176.0, 3.0, 3254.0, -5359.0, -10357.0, -11925.0, 13046.0, -5547.0, -4154.0, 14184.0, -595.0, -4249.0, -7421.0, 10279.0, 22256.0, 6025.0, -361.0, 18992.0, 0.0, 8199.0, -16655.0, -7331.0, 20508.0, 988.0, -4488.0, 4846.0, -7466.0, 2543.0, -5341.0, 13156.0, 7474.0, 3955.0, 15729.0, -3731.0, -5860.0, 2204.0, -7526.0, 3259.0, 977.0, 4137.0, -5067.0, -6597.0, 3688.0, -1945.0, 0.0, -149.0, -1699.0, -11111.0, 962.0, 1618.0, 474.0, 1053.0, 6275.0, -5347.0, -16595.0, 1467.0, -5658.0, -2682.0, 1367.0, 5110.0, -12106.0, 3188.0, -1065.0, -8759.0, -4999.0, -14330.0, 5074.0, 6380.0, -6823.0, -8243.0, -11971.0, -5376.0, 1200.0, 8891.0, 5366.0, 4761.0, -9348.0, 66.0, -7261.0, 6314.0, -475.0, -10487.0, -15084.0, -20228.0, 3915.0, 96.0, 6763.0, -6051.0, 8390.0, 4927.0, 7062.0, 305.0, -2946.0, 7779.0, -2624.0, -3432.0, -2044.0, 8941.0, 1505.0, 13191.0, 1353.0, 2629.0, -1827.0, 7045.0, 4633.0, -9558.0, 2406.0, -4451.0, -6226.0, -5884.0, 5005.0, -26174.0, -22776.0, 7189.0, -15955.0, -5724.0, -7885.0, 0.0, 27116.0, -23467.0, -4175.0, -16023.0, -17808.0, 7556.0, 10934.0, 4929.0, 2793.0, -5584.0, 10130.0, 17149.0, 16024.0, 10132.0, 18017.0, -14490.0, 2562.0, -20032.0, -6297.0, -4773.0, -15082.0, 0.0, -3408.0, -6497.0, 1279.0, 11309.0, -1992.0, 8325.0, 4854.0, -7915.0, 1583.0, -1336.0, 2523.0, 0.0, -4378.0, 5998.0, 13760.0, 1103.0, -14770.0, 10471.0, -10487.0, 24510.0, -2687.0, -5107.0, 2116.0, 26909.0, 919.0, -3505.0, -5319.0, 4084.0, -5985.0, -14935.0, 11077.0, 0.0, -783.0, -243.0, 7543.0, 8364.0, 1690.0, 3674.0, -17201.0, 9001.0, 4003.0, -5711.0, -11801.0, -6066.0, 15888.0, 29525.0, -3287.0, 11847.0, 3599.0, -2757.0, -4330.0, 1431.0, 3294.0, 1593.0, 2367.0, -256.0, 99.0, -12827.0, 6543.0, 11664.0, 6637.0, 15856.0, 2419.0, -4146.0, -453.0, -10620.0, 2408.0, -10462.0, -420.0, -9874.0, 13080.0, -11553.0, -5711.0, 1866.0, -7927.0, -5877.0, -16707.0, -142.0, 12174.0, -12104.0, -11865.0, 3099.0, 13451.0, -325.0, -12943.0, 1710.0, 6440.0, 11618.0, 0.0, 6534.0, 16.0, -18454.0, 9383.0, -4459.0, 6256.0, -1292.0, 3941.0, -1144.0, -7277.0, 703.0, 12120.0, 2685.0, 770.0, -8931.0, -3806.0, 4250.0, -2368.0, 1525.0, 0.0, 5938.0, 0.0, 2449.0, 8007.0, -23309.0, -4525.0, -4220.0, -7540.0, 8004.0, -845.0, -5083.0, 3603.0, 3231.0, -5775.0, -5648.0, 8292.0, 0.0, 12980.0, 6469.0, -2312.0, 0.0, -13372.0, -3632.0, 5433.0, -15274.0, -8555.0, 3673.0, 5573.0, 12292.0, 8576.0, 4081.0, 5843.0, 9017.0, -8667.0, 6963.0, 2685.0, 4479.0, 1968.0, -4844.0, -5168.0, -8585.0, 282.0, 2542.0, 6290.0, 4294.0, 226.0, -693.0, -6097.0, -5237.0, -1220.0, -6613.0, -5642.0, -25124.0, -9444.0, -2909.0, -1920.0, -3900.0, 0.0, -14281.0, 7705.0, -3124.0, -3648.0, -22573.0, -6651.0, 0.0, -2402.0, -8838.0, 0.0, -1908.0, 7874.0, 9579.0, 1000.0, 0.0, -4858.0, 2730.0, 0.0, -1040.0, -11646.0, 4588.0, -5607.0, -4542.0, -1398.0, -14539.0, 10966.0, 7795.0, -6892.0, 37635.0, -13470.0, -16907.0, 1005.0, -7588.0, 14937.0, -10938.0, 6110.0, -21108.0, 5763.0, -21034.0, -11208.0, 4224.0, 18596.0, -5594.0, -9950.0, -6546.0, -19728.0, 3806.0, 0.0, 4340.0, 14457.0, -8196.0, 6416.0, 18295.0, 17387.0, -2670.0, -881.0, -6578.0, 5915.0, -8290.0, -5441.0, -14667.0, 4138.0, 6384.0, -8115.0, -5817.0, 13327.0, -14171.0, -2642.0, 13843.0, 4977.0, -4164.0, -5595.0, -14053.0, -7390.0, -8275.0, 5262.0, -1358.0, -431.0, -8832.0, 10134.0, 0.0, -4645.0, 1071.0, -21059.0, -2290.0, -7773.0, 1319.0, -825.0, -4301.0, 1744.0, -4604.0, -1088.0, 0.0, 1910.0, -16391.0, -4331.0, 19759.0, 8863.0, -572.0, 7361.0, -685.0, -15689.0, 1082.0, -3245.0, -3665.0, 5418.0, -486.0, -959.0, 8239.0, 1953.0, -10855.0, -7962.0, -9201.0, -15314.0, -7139.0, 16337.0, -5823.0, -14059.0, -4307.0, 7380.0, 6045.0, 10017.0, 895.0, 1865.0, -1220.0, 4347.0, -4819.0, 5874.0, 1370.0, 1128.0, -7947.0, -2778.0, 4885.0, 1632.0, -19122.0, -1966.0, 3136.0, 12020.0, -5250.0, -15986.0, -2046.0, -2586.0, -12519.0, 4011.0, 8068.0, 979.0, -2397.0, -4908.0, -15215.0, -9219.0, 14946.0, -13373.0, -7010.0, -5435.0, 5050.0, -12692.0, 2843.0, -11547.0, -3172.0, -3011.0, 6177.0, -2962.0, 4689.0, 3204.0, 8252.0, -13960.0, 3908.0, -4222.0, -8631.0, -7484.0, -13214.0, -8090.0, -4364.0, 880.0, 886.0, 210.0, -2891.0, 3463.0, -20246.0, -6416.0, 8288.0, 0.0, 0.0, -2669.0, -1381.0, 11766.0, -547.0, 0.0, 4009.0, -2886.0, 7995.0, -6147.0, 6328.0, -993.0, 7243.0, -1682.0, -900.0, -10680.0, 2407.0, 251.0, 15766.0, -3589.0, -5809.0, 4383.0, -14928.0, -5643.0, -913.0, -299.0, -14586.0, -1646.0, -9229.0, -380.0, -3178.0, 171.0, 312.0, 13145.0, 1071.0, 21609.0, -2626.0, -9987.0, -7255.0, -6261.0, 11755.0, -5096.0, -593.0, -799.0, 10940.0, 4005.0, 3253.0, 11210.0, -4898.0, 9077.0, 18096.0, -6102.0, 6236.0, -1032.0, 391.0, 11028.0, -13738.0, -7661.0, 1389.0, -1968.0, -10168.0, -15648.0, 26081.0, -11070.0, -6493.0, 0.0, 1599.0, -3271.0, -8304.0, 0.0, -4429.0, -8799.0, 7369.0, 6399.0, -9181.0, 6128.0, -13254.0, -1336.0, -6503.0, -5906.0, 10648.0, 791.0, 6714.0, -3155.0, 3422.0, 1879.0, -1585.0, 3797.0, 974.0, -10819.0, 7006.0, 9473.0, -11058.0, 7302.0, 757.0, -2951.0, -1546.0, -8381.0, -5666.0, -1074.0, -14629.0, 11184.0, -19836.0, 0.0, -13622.0, -2375.0, -3442.0, 5005.0, -5358.0, 5362.0, -5371.0, 18362.0, 0.0, -4660.0, -2957.0, -5181.0, -6479.0, -10417.0, -9340.0, 21822.0, -6420.0, 7450.0, 1784.0, -6991.0, -4073.0, 6539.0, 120.0, 1565.0, 525.0, 14696.0, 1155.0, 5594.0, 1315.0, 198.0, -12150.0, -10790.0, 7958.0, 15972.0, -2987.0, -332.0, -7574.0, 9761.0, -2410.0, -4584.0, -13614.0, 2469.0, -5780.0, -3015.0, 122.0, 16754.0, 3022.0, 617.0, -7973.0, 6662.0, -4499.0, -13438.0, -9292.0, -6863.0, 782.0, -492.0, -2532.0, 2506.0, -4830.0, 2868.0, -1476.0, 5852.0, -15749.0, -4860.0, 0.0, 956.0, 3244.0, 1648.0, 2658.0, -7282.0, -14329.0, -9245.0, 4324.0, 13555.0, 6640.0, 4585.0, -503.0, -11552.0, 6737.0, 12300.0, 3979.0, -1452.0, -264.0, 1132.0, -3491.0, -2234.0, -11216.0, -6059.0, -8997.0, -13496.0, 6794.0, -4151.0, -7509.0, -8129.0, 4621.0, -6387.0, -21977.0, -270.0, 408.0, -18478.0, -14590.0, -8728.0, 78.0, 2073.0, -2734.0, 1072.0, -3780.0, 24783.0, 3874.0, -9241.0, -4778.0, -3583.0, -118.0, -1248.0, -6337.0, -1375.0, 972.0, -7697.0, -2307.0, -13479.0, 2146.0, -9549.0, -9645.0, -16090.0, -997.0, 4301.0, -9927.0, -7245.0, 10803.0, -1207.0, -3666.0, 5532.0, -24512.0, -16019.0, -9901.0, 4634.0, 7432.0, -4490.0, -26441.0, -2878.0, 2499.0, 12390.0, -4812.0, -3728.0, 4849.0, 6593.0, 7058.0, -6280.0, -14851.0, 4211.0, -415.0, -3119.0, -2279.0, 3007.0, -1574.0, -8673.0, -1024.0, 282.0, -8214.0, -6279.0, 257.0, -4512.0, 4691.0, -2502.0, -24856.0, -6771.0, -5953.0, 17770.0, 10190.0, 4803.0, -6947.0, -9806.0, 8734.0, 4419.0, 158.0, -1953.0, -1998.0, 15260.0, -6660.0, 3787.0, 6717.0, 16879.0, 341.0, 9155.0, 4488.0, -4688.0, 62.0, 8983.0, -7909.0, 302.0, -3165.0, 3756.0, 7038.0, 2180.0, -12242.0, -3319.0, 15717.0, -4138.0, 3324.0, 28.0, 2431.0, 375.0, -9409.0, 12615.0, -9615.0, -8327.0, -2207.0, -961.0, -4275.0, -7398.0, -7580.0, -6128.0, 0.0, -12357.0, -4084.0, -350.0, -5723.0, 13909.0, 14628.0, -282.0, 2488.0, 9403.0, 5858.0, -9262.0, 3221.0, 8567.0, -3724.0, -2546.0, 16218.0, 13496.0, -882.0, -13512.0, -3171.0, 8201.0, 0.0, -10169.0, 1331.0, -6130.0, -6199.0, -12260.0, -12942.0, 72.0, -6637.0, 14316.0, 4592.0, -4385.0, -19713.0, 632.0, 2296.0, 4238.0, -11026.0, 3535.0, 2788.0, 0.0, 13429.0, 6361.0, -3915.0, -2964.0, -4722.0, -8879.0, -7269.0, 5020.0, 12797.0, -4069.0, 4957.0, 5833.0, 14280.0, 2903.0, -2805.0, -22282.0, -3676.0, 9026.0, -3895.0, -5947.0, 5496.0, 3746.0, 7757.0, 11272.0, 587.0, 4075.0, 16231.0, -8384.0, -13725.0, -77.0, 576.0, 4977.0, -5340.0, 6441.0, -8873.0, -1605.0, 6488.0, 0.0, -5046.0, 883.0, -5169.0, -763.0, 1911.0, 7373.0, -4873.0, -15786.0, -4685.0, 385.0, -443.0, 7748.0, -4911.0, -8986.0, 14840.0, -671.0, 6932.0, 3864.0, -2359.0, 14193.0, -29887.0, -10378.0, -8788.0, 1232.0, -10386.0, 5269.0, 598.0, -82.0, 4054.0, -14369.0, 2316.0, 2771.0, -15123.0, 9350.0, -196.0, 5621.0, 1955.0, -4046.0, 7869.0, 7216.0, 5326.0, -8766.0, 8337.0, 3232.0, -2119.0, 8652.0, 18778.0, -14638.0, -1003.0, -10258.0, 10960.0, 13067.0, -7536.0, 1895.0, -7354.0, -5578.0, 4777.0, 7360.0, -2965.0, 12545.0, 12694.0, 1230.0, -2271.0, -1376.0, -116.0, 20278.0, -4875.0, 3211.0, 2387.0, -1866.0, 27917.0, -132.0, -6498.0, 623.0, -5650.0, 33129.0, 15536.0, 744.0, -374.0, 912.0, 8406.0, -15424.0, -16686.0, 7381.0, -10793.0, -4296.0, -4089.0, -19525.0, -3233.0, 1831.0, 982.0, 2477.0, -9099.0, 5810.0, -5703.0, -109.0, 21738.0, 1686.0, 5044.0, 795.0, 12759.0, -8212.0, -11852.0, 1062.0, -10038.0, -706.0, 14943.0, -1628.0, -3319.0, -5560.0, 3723.0, 8106.0, -9069.0, -1429.0, -1641.0, -10587.0, -9932.0, -4145.0, -2787.0, 4140.0, -8885.0, 1497.0, 14740.0, -6651.0, 4875.0, -26839.0, 766.0, -17303.0, 1566.0, 2594.0, -2697.0, -7661.0, -9464.0, -1959.0, -11329.0, -7223.0, -539.0, 5890.0, -7700.0, 6730.0, 2194.0, 7587.0, 9626.0, -7147.0, -5174.0, -394.0, -22053.0, -11579.0, -1662.0, 3101.0, -15170.0, -8022.0, -1322.0, 3533.0, -897.0, 14748.0, 4322.0, -1767.0, 1067.0, 3011.0, -1286.0, -1674.0, 4216.0, -13901.0, -5751.0, 12044.0, -1188.0, -494.0, 22848.0, 15576.0, 11176.0, 0.0, 5387.0, 2275.0, 6330.0, 546.0, 2824.0, -17822.0, -8672.0, 6236.0, 19799.0, -4529.0, -5902.0, 1569.0, 5072.0, -26838.0, -10691.0, -3529.0, -7957.0, -5140.0, -2501.0, -6503.0, -12920.0, -258.0, 1725.0, -7158.0, 2521.0, 10189.0, 3629.0, 5566.0, 3080.0, 2531.0, 14181.0, 25515.0, -2958.0, -16054.0, -3263.0, -8391.0, 3576.0, -3747.0, -17249.0, 5303.0, -8582.0, 6445.0, -5998.0, 16039.0, -3082.0, -1302.0, 7403.0, 1676.0, 0.0, 2144.0, 5355.0, -9722.0, -11372.0, 3942.0, -2834.0, -17184.0, -17987.0, 11108.0, -754.0, 4233.0, 9772.0, 33229.0, -18578.0, -1124.0, 8409.0, -823.0, 2780.0, -1778.0, 4349.0, -11147.0, 13179.0, -8352.0, -11095.0, 12962.0, -1407.0, -4942.0, 719.0, -3185.0, 9430.0, -9286.0, -7064.0, 1739.0, 3536.0, -1004.0, 0.0, -5943.0, 568.0, -3533.0, -8453.0, -11071.0, 1382.0, -74.0, -2914.0, -944.0, -11500.0, -637.0, 11470.0, 5531.0, -5566.0, 9581.0, -4565.0, 6608.0, -17689.0, -6240.0, -5189.0, 14804.0, -14951.0, 70.0, -1218.0, -9671.0, -414.0, 680.0, 391.0, 9925.0, 2481.0, -118.0, 28663.0, 3825.0, 4020.0, 1304.0, 6739.0, 215.0, 9690.0, 6962.0, 20714.0, -1224.0, -12614.0, -3793.0, 11983.0, -5443.0, -6618.0, 9136.0, 20381.0, -6522.0, 2387.0, -8351.0, 544.0, -4232.0, -382.0, -6031.0, -6762.0, -9367.0, -6307.0, 749.0, 8610.0, -9170.0, 9777.0, -8715.0, -649.0, 7716.0, -13023.0, -2934.0, 1275.0, 487.0, 10028.0, -3482.0, 9749.0, -7199.0, -4801.0, -1908.0, -4986.0, 8853.0, 12745.0, -6562.0, -6679.0, 13630.0, -13134.0, 10289.0, 5303.0, -4387.0, 6014.0, -1681.0, 11737.0, -8027.0, 3023.0, -4795.0, 719.0, -3283.0, -11753.0, -3056.0, 9768.0, -857.0, 983.0, 2487.0, 8955.0, -9186.0, 112.0, 3466.0, 6097.0, -13174.0, -5407.0, -4218.0, 3746.0, -4570.0, 3067.0, -8765.0, -14355.0, -238.0, -5756.0, 11478.0, -2520.0, 2822.0, -57.0, 2737.0, -294.0, 13808.0, 280.0, -11222.0, 3783.0, 0.0, -5260.0, 2563.0, -126.0, -10629.0, 18361.0, -3562.0, -251.0, 338.0, -7272.0, 2832.0, -3376.0, 27812.0, -1704.0, -460.0, 327.0, -18056.0, 6107.0, 5367.0, -4298.0, 9311.0, -2657.0, -199.0, -14321.0, -3580.0, -3566.0, -7306.0, 3095.0, 9981.0, -4707.0, -307.0, 2833.0, -13147.0, 13182.0, 387.0, -16369.0, -380.0, 1517.0, 71.0, -2233.0, -4459.0, -11072.0, -6663.0, -9493.0, 7060.0, -6839.0, 1695.0, -2416.0, 3014.0, -2432.0, 11109.0, -10133.0, -4313.0, -5522.0, -7888.0, -2300.0, 1787.0, -4546.0, -16306.0, 16417.0, -7338.0, -90.0, 7335.0, -3086.0, -1090.0, 1649.0, 7755.0, 9653.0, 2539.0, 2809.0, 10381.0, 1890.0, -5460.0, 3280.0, 20.0, -9465.0, 9942.0, -2997.0, -7497.0, -1225.0, 12477.0, -16169.0, 13822.0, 10231.0, -17845.0, 4232.0, 742.0, -13413.0, 230.0, -4356.0, 4923.0, 7699.0, -11237.0, -456.0, 2499.0, -11217.0, 6620.0, 3448.0, -5367.0, -13073.0, -6317.0, -6286.0, 17818.0, -3683.0, -208.0, -2587.0, 3828.0, 12431.0, 1955.0, 12281.0, -3054.0, -2456.0, 3872.0, -2468.0, -6535.0, -7748.0, 0.0, -196.0, -1650.0, 1724.0, -4459.0, -12326.0, -850.0, 1978.0, 11178.0, 6990.0, 9314.0, -5405.0, 2841.0, 7773.0, 5889.0, -7554.0, -8144.0, -5695.0, -488.0, 10103.0, -624.0, -425.0, -3936.0, 945.0, -4439.0, 380.0, 5352.0, 3337.0, 9472.0, -5486.0, 8858.0, 136.0, 7404.0, 5824.0, -4565.0, 800.0, 605.0, -1806.0, 2092.0, -17711.0, 7544.0, -1526.0, 14336.0, -4307.0, -8897.0, -4914.0, -12887.0, 26619.0, 0.0, 2600.0, -854.0, -878.0, -7627.0, -489.0, -2828.0, -8305.0, -3338.0, -1502.0, 25546.0, 2158.0, 9290.0, -11655.0, 9138.0, 6011.0, -12581.0, -7956.0, 3119.0, -2497.0, -9598.0, 4970.0, -284.0, -5304.0, -4115.0, -5586.0, 4184.0, -8258.0, -11600.0, -4007.0, -16159.0, -4260.0, 19855.0, 5437.0, 2485.0, 7805.0, 5753.0, -3611.0, 7702.0, 6340.0, 11724.0, 4292.0, 2563.0, -4249.0, 443.0, -19900.0, -3011.0, 4335.0, 11465.0, 13534.0, 294.0, -3534.0, -8422.0, -897.0, -1186.0, -5438.0, -3104.0, 3775.0, -21048.0, 0.0, 22670.0, -5162.0, 6871.0, -5434.0, 594.0, -3708.0, 4235.0, 4108.0, 10025.0, 999.0, 2332.0, -6274.0, 5645.0, -3668.0, 5540.0, -362.0, 4618.0, 516.0, -13904.0, -2178.0, -1532.0, -10557.0, -185.0, 0.0, -13542.0, -10006.0, -17097.0, -6215.0, 2750.0, -5234.0, 680.0, 1310.0, -2586.0, -12905.0, -16982.0, -3282.0, 2391.0, -5305.0, -3936.0, -12957.0, -223.0, -2968.0, -3126.0, 713.0, 0.0, -14801.0, 7134.0, -1197.0, -2041.0, 4496.0, -7411.0, -11803.0, -13720.0, -2914.0, -2904.0, -8850.0, -1165.0, 6046.0, 4249.0, -16152.0, 5792.0, 484.0, -3459.0, -9233.0, 5613.0, 6804.0, 0.0, 6656.0, -2895.0, -1848.0, 1733.0, 11731.0, -2014.0, 12512.0, 1448.0, 16369.0, 304.0, 13996.0, 1869.0, 24564.0, -12783.0, -6171.0, -13596.0, -8386.0, -213.0, 10746.0, -1441.0, -4585.0, -2133.0, 1993.0, -953.0, -1418.0, -1236.0, -10455.0, 7290.0, 13512.0, -9467.0], "w": [0.35553645693226343, -1.325279269935833, 1.1308697031324515, -1.1697653864126105, 1.994218333292386, 0.6420463838318022, -0.005622691864899054, 0.4541352129588996, -0.11331874166917211, -0.6907740484138073, 0.7467757530713512, 0.0, 0.560591004838269, -0.5509012180947236, 0.0198978851505196, -0.21069147511779485, -3.7792264863015164, 1.0580049702212402, -1.1993701914480503, -0.8756337803052019, 0.1613757874129409, 0.4536055681718645, -1.8470721329181872, 1.4215656541936488, -0.9214287106354004, -0.09414692498431743, -0.7715344644644648, 0.754140815026852, 0.48523088412325677, 0.9143770006571156, 0.0, 0.05499761582111651, -1.4293736294232617, 0.5484527710974614, -1.3244393518014201, 0.946158874817348, -0.24843951400231568, -0.15585120710354072, -0.05144102927968186, -0.026873097037770854, 0.8118912055506351, 0.016026567915757628, -0.006446465532707446, 0.7261465626842787, 0.5988274619514242, 0.6720392599611071, 0.3541163874064459, -0.5327952532376394, -0.2550830248680729, -0.6520262711775687, -1.0663369372913567, 0.6042435139486586, 0.2866867724322897, 0.3633371625279744, -1.7742852404628806, -0.13563374711726706, 0.06460600749254873, -2.553956271590862, -0.3406833413447832, -1.2591339790073224, -0.4131479338930477, 0.45386560871117576, -1.086845463007439, 1.8186571034959071, 1.1232277763283225, -2.4923174848450795, -0.17795342875453968, 0.8389802547752757, 0.7864325417988103, -2.074413886432071, -2.3439396794124887, -1.9270123147453155, -0.41530765019044913, -0.10104678487502672, 0.7928284759083287, -0.9847294891381249, -0.26042669672506236, 3.1090068958278847, -0.2124231033515056, 0.0, 0.1927697258427281, 0.8163277012812508, -3.3221555556582443, 2.3695557591133047, -0.6832680881790487, -2.0866549251162088, 0.08793904881347075, 0.9632468974202953, 0.0, -2.233281354953973, 1.0155536061550055, -3.1472830464769244, 1.1906527534281195, -1.0390753676736608, -0.4778727875299482, 0.3487351740156902, -1.1796723219521459, -0.892950510038799, 0.6835446513869377, 0.9529914507571893, -0.20751733360343994, 0.513864214794196, 0.3832460863526794, -0.7638523809859888, -1.9938223789346572, -0.071471034301817, 0.9367582930060512, -0.6523022142219196, -0.8814735082728654, -0.7282071356473478, 2.025456061941493, -0.8251241868023887, 0.0, -0.8511577210621293, 0.2312099848397876, -0.10045181270200088, -3.569401123389507, 0.9816964399370831, 1.561765293157344, -2.4488703917188435, -1.429592873173164, 0.0, 2.8941443389247277, -1.2964358023554199, -1.7716800688479104, 0.6014645902957592, 0.6781934325040826, 0.15334004045030214, -3.076240411087934, -0.19932242999804098, 0.49661356876283813, 0.25100723599207997, -0.71975484102123, -0.8148388520541282, -0.12748871210595147, -1.101232894492528, 0.5095196159165483, 0.23968499907796392, -0.34931962765735003, 3.183957354610911, -3.77761468837043, -0.16233833691245536, -0.7089733496153832, -0.7829247606763816, 1.1714899933321616, -1.306551796764368, 2.737061286730609, 0.2549548885046658, -2.3429480553676716, -2.8109120111739747, 1.2734243534297902, -1.0545395895084382, -1.0784171872541886, -1.6759612107007036, -0.016625912761341954, -1.059175117086193, -1.4931083598084756, 2.3585355781056303, -1.2494090452198867, -3.0527614541836354, 0.24299804709554795, -1.324153642551646, 1.0249230286840216, -1.760507785618012, 0.044229364509963176, 0.678464088745262, -0.31052998480003724, 0.9177665046263588, 2.083973933893583, 0.19762428414949373, -1.9852749780665095, -0.4269011072065185, -0.25526893181316557, 2.366769859267386, -0.34018321214136416, -0.007521069984611994, 0.22253826444447578, 0.765860452236097, -3.9351429438351673, -0.9372183021056097, 0.32455635823982387, 1.7745963252453327, -2.2034813934467254, 0.10088649998452426, -1.4454249981800955, -0.23728024569990624, 0.28212485585036207, 2.264421026859462, -0.7008285891458144, 0.29464119009707224, -0.40048879636921986, -2.549263352291138, -1.2117005232454474, -0.5892776345377035, -0.9968527027136161, 0.21914201322047377, -0.6648545498324107, 1.0506500300029422, -1.5058734946949364, 2.802304131008719, 1.8684360964675504, 3.433101364087517, 0.13919228575092824, 1.9218783424428454, 0.5887366999942221, 1.3307949935662253, -0.7933515644051963, 3.132652011570719, 0.9044361700208841, 2.3325879862869856, -0.007059079764453857, 0.0, -0.10761212514196275, 0.031042604099738025, -3.2633160539949344, 2.2566898161504696, 0.23202956781048034, -0.8900955227119036, 0.2612012752833217, 1.967931478035206, 1.8197147598951937, 0.2010509359278057, -0.31354051820151607, -0.08613409359717128, 0.26611386038442597, -0.0536210211493271, 0.7206339688999464, 1.675064045854632, -0.9198357223876314, 1.1932213742888709, -0.20490062237754736, -0.9551940084148325, -1.5721852224239887, -0.3596876377955458, 1.2348944357900042, 2.196256700156171, -0.9295207190990378, -0.06236078273259471, -0.2393099186628132, -2.047702596958835, 3.7433573288632105, -0.9009235475185465, -0.23009086244184918, 0.6148039776752244, -0.5286612208192092, -0.03748625673060124, 1.9586577448150764, -0.6593466752194184, 0.8032503349039537, -0.035888027020048785, 0.054469725233496025, -0.12165456780260375, 1.3889872445375246, -0.3218097766218817, 0.2064166215952341, 0.3401634858280099, -1.1730431040953762, -0.5957572466999205, 0.8541037905620539, -0.2639976788394751, 0.5869734664849235, 0.7979593947505749, -0.4110078270062215, -0.3313524572241616, -1.72488106691414, 0.49130155633557404, -1.2941254591523625, 0.5098818899963011, -0.023627596418875685, -1.17436678000157, 0.9210437835509858, 1.2183507599674057, -0.0686283928466771, 1.923617904542747, -0.719307504779179, -0.47787374717634745, -0.47100427218567464, 5.263486972302504, -0.27927604393684224, 0.0, -0.09946068709449762, -0.4756670890638686, -0.3009828000205359, -1.7376167315573718, 0.13519906882389127, 0.0, 0.037707024250774324, 1.8769426428841909, 0.1420417059447705, -1.0507111694104865, 0.6490115494468474, 0.9793625847614265, -0.36000937011460565, 1.012206097689067, -0.2003669003690725, 1.840472737153068, -3.035509366205182, -1.2816967761619262, -0.37699644602851146, 0.0, -1.3489301670603964, -0.3585020053904888, 0.0, 0.45710090541889703, 1.0597697332012448, -0.5593503683605949, 0.32965755698436644, 0.3718219716929987, 0.49317497685223377, 1.582336413733714, 0.8019246866909109, -1.02268730483999, -2.6149568433173167, -0.24960583526112412, 0.795792547690651, 0.5343019809600092, 0.4819286363701034, -0.3897154529466935, -0.8513730276088993, 0.4221479215428786, -1.058637426879828, 0.6416004503353903, 0.0, 1.017862791643453, 0.32941679128391366, -2.1683680350518184, -0.09763425461029233, -0.5359009439219713, 0.8134838706275578, -0.5009314217231025, -0.5513019586696841, -0.34417770285264826, -2.1364695579124704, 1.3946150955596892, -1.4151135686015381, -0.7707342543801219, -0.1065784408719721, 0.5412385490685073, 1.188343563160076, -1.684910592602436, -2.9328572758005085, -2.4207393374738446, 0.4464866332202953, -3.7039085254377513, 0.0, 1.3432512920535622, 0.9503279763591008, -2.5688369105912834, 0.0, 0.0, -0.12449297598275944, -2.7614506238007026, 0.4250963946533757, 0.5881331296350161, -1.2127124676328518, 0.9102441297243519, -0.6926093392871501, -0.0320845422934517, 0.08604128660389376, -1.7514861662623213, 2.56285908816936, 2.9517932026305282, 0.505398938522362, -1.2120028218150454, 0.2156759835350095, -0.12091433454390088, -0.6804939265823045, -1.4075631240533149, -0.6997389875057336, -2.319032805675103, -0.6628244095214881, 0.5304055720742593, 0.1663550045104848, 0.03478916896888018, 3.157989659460874, 0.49691660181163133, -0.7093427003035204, -1.5533526710193477, -0.3977710141847914, -1.3648421178095351, -0.5465879865652541, 0.48429620440391763, 1.9102713955214567, 0.558391841570745, -0.6106122294869885, -0.18617281814232634, -2.153892178717504, -1.579041149145652, 2.8265942202072623, 0.8065325751807321, -0.7271837791633806, 0.07042358032282103, 0.20087505955679674, 2.8906254128369153, -0.892578965559967, -0.3725637289850696, -0.5272344794159309, 0.3938924632288716, 0.5975521124084022, 2.0697116818682852, 2.455152458663662, -0.9349235646341474, 1.4430324953011207, 1.8317019707254742, 0.7734061595469837, -0.14611163534306648, -3.523884309021991, 0.10640730581630287, -0.4385730981145526, 0.06724363637897364, -0.844989014425591, -1.6153860326613056, 1.1440483019660095, 0.4151828528352378, -0.18184749042017925, -1.543891372422028, 0.9919635486827756, 0.1705185196692529, 0.8486355816405102, -1.4303870534244858, 0.35720034965291214, -0.06061127394271015, -0.24283037154651232, 0.698919535601209, 0.7995166506512703, 0.022223498724164292, -0.9975566451141114, -1.1517890684905034, 0.17577555832390734, -0.5759496599125438, -1.6223675120897396, 0.0, -0.051559836792621105, -3.0253153392794996, 0.8390494835393534, -0.7224184335060335, -0.16055882550251172, -0.25680186364844404, -1.6212683235010088, 1.1097336415491421, -0.43600777802522883, -0.9398373308654975, -1.408139498686924, -1.2998620996543395, -0.6950866203151849, -3.452521400537741, 0.9094499775367124, -0.06251547277715819, -0.7266711413626967, 1.7327682906949362, -0.34388379611346354, 0.8853360877923249, -0.936282077305141, -0.3539375775913056, -1.1781551492778775, 0.5826717402322137, 2.0291396423913524, 0.0, -1.0177159713132564, -0.09266656449501254, 0.06430153289130525, -0.011396679822737232, 0.13592377948965878, 0.1560354842064121, 0.334787313157009, -0.4019929578432063, 0.9687588903787214, 3.2339377768136353, -0.09841539020416112, 0.2783370396917004, -1.2265024274354768, 0.2380271014176789, 0.035404869898775004, 0.92073356317381, -0.9096543423167016, 0.25100723599207997, 0.036898062857783076, 0.8387736376216542, -0.3215047256189054, -0.20066760360600955, -2.290696452787224, 0.45955168069328356, 2.0198581643402447, 2.083478505751659, -1.8895413109331993, 0.012936401709890244, -1.1804817573144282, -0.2301669130048425, 0.8262625408912736, -0.2169258423088567, 0.675836019708493, -0.8274246047578713, 0.1229896237952226, 0.23272601834778617, 2.1448705445406793, -1.3944910156700647, -0.5180802139507259, -1.4740606730455286, 0.1052347807296404, -1.1493955686053523, -0.6752657504167507, -0.00812683106504708, -2.542855284234519, -1.1928924376278212, -0.7644908068775816, -1.3015349773137959, 2.4768782934912323, -0.917706115264584, -1.0111906476653507, -0.5990058306405526, -2.6530076443922423, -0.5193307527426834, 3.1729360193965874, 0.5528709757966952, 0.6578742578923997, -1.7286811630387517, -0.7778446926132635, 1.2254431780275525, 1.2931808994819867, 0.25385770967026056, -0.21602311300455257, 2.0199983825575414, -0.46119605060612723, 0.19440396524846792, 1.3052865614164348, -1.4385998451281727, -1.9153316318131635, 1.5859363563847186, -1.0324736438068156, -0.5076952511557136, 0.0, -2.6514433561711614, 3.1434891831646876, -0.06438551753973742, -0.4051685388052362, -1.2703012425652287, -1.055478827909932, -1.0813533297087088, -1.0316234942237406, 1.24134652182061, -1.561227095612215, 0.6047094808365023, -1.314713747160419, -0.12116159483826872, -0.0024421625740207453, -1.4096202426839928, 1.012826603910728, -1.8578599904827517, 2.259396195315183, -0.9205721638920084, -0.6723908979051225, 1.5740655735301836, 0.0, 0.28445313595620614, -1.014169572151733, -0.6143786842281342, 1.2602636587872884, -0.6863530886940751, 0.27227996841164703, -0.03695791497543266, -0.34233071643954727, -1.9523675347103835, 0.9717300513980854, 0.5983324606844236, 0.0, -0.5898725114696065, 1.411094524711177, 1.133524222891741, 0.39591423902762213, -0.5399724502799872, -0.20874845017835542, 0.7630498473602683, -2.8464360063191965, 0.059454041765280574, -3.2785678973774335, -0.43677049546800245, -2.2086835658916044, -0.00843838784356235, 0.5293106045703511, 0.21305184845650926, -0.8210220320088165, 4.007859445689935, -0.6027115974048005, -1.5284839613909886, 0.0, 0.7582687338158597, -2.113804501477767, -0.5639871203480553, -3.8880971703536042, 0.4533024257624078, 0.7665565456191913, 1.0246899241058443, -0.733748259673088, 1.8405620674068577, -0.36601773319000497, 0.6392800061797945, -0.7005349088016195, -3.976641688823705, 6.491254344977595, 2.5449765114542178, -0.6652836749807256, 0.23114719077120272, 0.47234742889184855, 0.7207448177278744, -1.108221048078597, -0.13380789809456406, -0.22320415371903934, 0.10171613133219981, -0.6992884014892278, -1.1743792602282057, 0.2795280025301863, -3.093257267699558, 0.4811122123615421, 0.11340272346738689, -1.5726049542630638, 1.487855192012653, 0.96166139187117, -1.1976014285162735, 2.0415780894824347, -0.3711693703529384, -0.34065228445109463, 2.8822811326067748, -1.037916926433852, -2.1247846477127155, -0.418525367281144, -0.5114578619616232, 0.03596076712087304, 0.5765684385075895, -0.7910030481039632, 6.3874867071812105, -0.8921089305782215, 0.6649847882971995, 0.10065143151860267, 0.10549619266219556, 0.31242892007155043, -0.9471022644952534, -1.8136248005223075, -2.141932368170757, 1.3669040600172224, -0.953896697110733, 1.0100197903507309, 0.0, -0.0015799462651349128, 0.9812055250930768, 0.5584243513300562, 0.09584607375872478, -0.04742576372569962, 0.08455233722450362, 0.30881336186666114, 0.4325119169958689, 0.5388930542612105, 0.3263967724892367, -0.13900848792313752, -1.757773279364233, -0.18330403817313556, 1.241591712637628, -1.843388876428465, 0.8585924826376838, -0.8730567838822032, 1.3654992579240757, -0.8725016443356883, 0.0, -0.6098920984195888, 0.0, -0.9145255998739984, 0.8737779008180053, 0.29776965586308446, -0.033326212347788986, -0.09848323007904292, 0.5662299227736989, -0.2994171477729284, -1.0074167939781151, 0.5610526377288172, 1.1140127387390195, -4.353289038337765, -3.657062653865189, 1.4032366876403037, -4.12159302063852, 0.0, 0.53376197576292, -0.37110137779408303, -0.010015981100452598, 0.0, 1.3482384071484033, 0.7701495708355123, -0.030377163274054375, -2.031708799356142, -0.16063604693496591, -0.49389793226619816, -0.9354710880918282, 0.4086622747999238, -0.15019140027285216, -0.2693227328108775, -2.276177277922363, -0.7144976755976595, 0.7951192591630509, 0.416152406591455, -0.9039846130886561, -0.3919637772965504, -0.3117204135515618, 1.0891509430373845, 0.3620291219956404, -1.112359758011339, -0.3312526202345226, -1.375055595936781, -0.4852042816376022, -1.1265422906733265, -0.04828028199102756, -0.185964305593886, -1.2783045397546784, 0.4642132003715944, 1.2608249148134443, -0.19246000499910387, -0.3445150876907246, 3.2236581890252443, 1.3187905824609802, -0.7264416569995854, -1.9891790410147645, 1.6131840080820852, 0.0, -1.2015379434740425, 0.7003528732415532, -0.36625711381616866, -0.22067934202093564, 4.904431132326745, 0.808668421035838, 0.0, -0.567278359990128, 0.8099392040914932, 0.0, 0.018947730985000744, 0.22047611671416245, 0.5747636717564588, -2.2826587564948766, 0.0, 0.11697795473030437, -0.4135877832269036, 0.0, 1.7858510785179393, -0.9110482064579748, -0.4328296734365339, 0.5989475658749546, -0.9152052600853533, 1.0759908543950312, 0.08449217074975879, -0.056432747783171866, -1.053914319301243, 1.7278609168881573, -0.3536505619332537, 3.10796472781892, 2.4724878730656403, -1.3290597028903766, -1.3641363288625687, -0.6242632723940522, 0.5535161578444958, 1.1551791777583034, 0.7595777350469799, -0.8730817946747056, 0.007456006484938271, -1.3806630610613495, -2.092722612448926, 0.2566826984550996, -0.6305835149803172, 1.2097683340885372, -1.1854725835682063, 1.893230753491725, -1.8927468472455224, 0.0, 0.23429990149812696, -0.9757836900478316, -0.2490920743430891, 1.1168800044971319, 1.9596578173877166, 0.4555837780850158, -0.15523638746098078, -0.9651292254375377, -0.43425495522136615, 2.1115628981168144, -0.8249624382592862, -0.20739481379147562, 1.152087943641611, 0.27444869016942364, 0.024808151840638448, 1.241656364741254, 0.7976645179726587, -0.33704355199157643, 2.8118327524075672, 0.5890283474315525, 0.3566588685253609, -0.33208164080245395, 0.039987402062001465, 0.40689313476241074, 1.9791030976028585, -0.7835839732938883, -0.17804837516512717, -1.8243700772803852, -0.40481894227488774, -0.4937238321947544, 1.7017894633750215, -0.14967719472084484, 0.0, -0.9211230737591982, -0.2580551640821762, 0.9526949081804581, 2.5563313676637063, 0.7595561212755686, -0.5339947653701083, 0.4154283952814296, -1.5670351089436267, 0.46197238248681155, -0.25556697557767283, 0.7620322158675681, 0.0, -2.5029056839092414, -1.1333186640459036, -1.5551388137021114, -0.008599768577023603, 0.9242428406605696, 2.0358684697026836, -0.1603882713212248, -2.195361543047348, 1.680636555031449, -1.1703542444738693, -1.2490446620228322, 2.81739121492191, 0.06923624423297747, -1.0323082556671657, -0.17081145159011007, -1.9655667907822687, 1.8956484994778746, 2.0171119313258603, 1.1158088723120658, 1.8011096268842748, 0.13214436393131068, 0.3648514597271555, 0.36256400122954036, -0.015052240307869003, 2.9505867333795743, 0.24373483123995054, -1.4200166938298553, 0.23920187015192207, 0.338769876452357, -3.0464753046307287, -0.1163964481261226, -0.18197736217156418, -0.5825085231692155, -0.3556808263821223, 0.7247110622109898, -0.3805773623357981, -0.2355417521247227, -0.011956290133151137, -0.8553357935985466, -0.9184396491521873, 0.4789759005177557, 0.5412783223666393, 0.6516836524626721, -0.8746008492381447, -0.17616860089915898, -1.6752752001603017, 0.8357885413175574, 1.0997369251144633, 0.3810266416809286, 0.8470015163173019, -0.06481846684716241, -0.6377954416631251, -2.1499869333673676, -0.503378993221164, 1.0777518100979848, 5.863423308408844, -0.19620106258976655, -1.9758280992909445, 5.167521303800692, 0.5740911067018291, 0.0562533198654207, -0.22403564814444843, 0.2429532162394521, 0.049992321818075, -0.39096777031839114, 2.294870761764546, 0.4339321982270924, -0.9434340917964782, 0.7526144251868028, 0.4519695323834867, 2.0052227974976704, -3.889383097405576, -0.05805346220398944, -1.4546307147241417, -2.254275919668443, 0.29690676142161676, 0.2750642399062282, 1.1999774179350666, 0.843990771999708, 0.07216194923386443, 0.20463810872619978, 0.023903056504787468, -0.335082351827295, -1.060191188413534, 2.572769201701712, 1.3212691053069734, -3.3156767320855103, 0.5773787135440271, 0.0, 0.0, -0.16901644034512375, 1.7809829872017917, -1.1814990743623333, 0.18900861297973104, 0.0, -1.5996743971027452, 0.39005341133628446, 0.44351130233233094, -1.458308753473661, 0.7895533412683065, 0.16643209891092534, -1.6731483770422757, -0.03564387100748001, 0.05718921351443382, -0.33367170222736586, -0.3862763120402968, -0.5895567305806537, -1.0905457651587755, -0.007869729407205983, -0.6530981797619553, 0.06366161076693011, 3.1027283661787197, 1.413040521287666, 0.07245972437630899, 0.6827754146191283, 0.1658791253545191, -0.55768145807273, -0.8180775455636917, -0.5536312209605724, -0.2582624804161422, 0.7139322557102845, -0.5753327475523964, 1.7955650983830296, -0.2580551640821762, 1.4116379226321047, 0.0592174909668699, -0.5712124042475821, 0.3224941500410441, 1.1566037766309567, -0.565780513897133, 3.281664063116314, -0.30342977376215646, -0.29892120058442306, 1.1335924649542748, -0.23427074473500353, 0.4312506267001286, 1.5563055786740532, -0.3068724814749231, 0.677008260299572, -0.6351297426481399, -0.9598558976129155, -1.075727325496113, 0.2122436314965508, 0.5407100194620627, -0.21812578280713124, 0.30904362469002056, 0.4361797669622933, 0.6480629557097844, -0.8292148843344085, -1.5587772100442692, 0.16648916702355399, -3.0804439723325987, -1.7416319229618433, 0.11288954294138942, 0.0, 2.3806622652366976, -0.4645147805547657, 0.009861090795203475, 0.0, 1.7464398223266835, -0.49026483110246777, -1.0068548050074968, -1.5506251699869604, 0.1393640800400433, -1.027547370951429, 1.5591169603438484, 0.5748168263008385, -0.8378381578681107, 0.5844867384758562, -0.5332934616573775, 0.07084814678898096, 0.11841518322485434, 0.6512353316238537, 4.414074416429923, -0.9784765953122946, -0.7413808233364365, 0.9466702075690883, 1.6981263290719768, 1.2686429104879058, 1.5767044712897116, -0.6810540607627451, 0.9398481185451204, -0.08976136321533934, 1.8482674733403754, -2.316231787616376, -1.387368550701861, 0.47184833813238747, 0.2827292287870433, -0.7384208718727755, 1.7140627625340388, -1.6274739053780967, 2.1533091513686666, 0.0, -0.385743302110761, -0.6602752951126762, 1.2367724651965006, -1.572793139935341, 0.7750447081311997, -1.0296180672302837, 0.11816702818135316, -1.3606131650709719, 0.0, -0.45820399437717596, 0.4452668341585624, 0.7155708262631021, -3.069618792043295, -3.637277756652961, -0.592513263800065, 1.1491381454867957, -1.0116848834954064, -0.006116897789593345, -0.0802091923525658, -1.215325091821856, -1.1554838711685727, -1.041294974018533, 0.8590414381980754, -1.385083768777981, 0.9046581067442364, 0.3947060858241582, 0.18420454272899475, -0.42462206167477745, -0.5139954855640123, -0.04229865413373211, -1.7658252373570233, 0.38837971092858203, -0.3457906573144083, 1.317542151602388, -0.24082600457096948, 0.4924899105670555, 0.7970525652106826, -1.0281721479394004, -0.3827502028775035, -0.9005939285153616, -1.8570253844526752, -1.0059238824890748, 0.049497890024585045, 0.0009464810679508107, 0.85669212883471, -0.24950541366989487, -1.5863705595248665, -0.06479241142792189, -0.6586107910422401, 0.04435435269821664, 1.3144119151933957, 0.20604062696177028, 0.5704656070688978, 0.40141686849447167, 1.0814200389241253, -0.4274635012588567, -0.1821246345024502, 1.172084615761542, 3.6601291977292547, -1.4746111004804736, 0.9960216741891883, 1.3886536158479776, 0.45001119072453344, 1.7908149297406755, 0.0, -0.4398275739780939, -0.392898813643907, -0.5166550365277132, 0.045117181737978185, 1.059796231368929, 2.4162649822567075, 0.3131388050007031, 0.07199450963901066, 0.8511155298584874, -0.6797482860658417, -0.8670438232739887, 0.10745567186498611, 0.5390645701936729, -0.1350045718924755, 3.4101058193770575, 1.4178538090988286, -0.9507706772262143, 0.5470764466263169, -1.6351685310425583, -0.06176189690362044, 1.1358825598594804, 3.4414241825724767, -0.7809651255447538, -0.9761379447110099, 0.4685058049627435, -1.5961727194805033, 1.746359928047701, -1.936166197448199, -0.06444124118271799, -2.3938370683694736, 1.819623872150866, 0.800482865969335, 0.31715676405433013, -0.15741360527944198, 1.1957040114461441, 2.2023603348300798, 0.787571752838556, -1.0916230651712509, 1.5015380236616303, -1.046980298936638, 0.05366801268974167, -0.19248023926511426, 2.822160097261018, 0.8681812435438321, 0.01074695444010798, 0.5685248570417359, 0.6481896720946972, -0.861390747561441, -0.7359607663008876, -2.20792255011654, -0.2881169491372747, -0.8364430588809512, 0.7506507077978832, 0.23202956781048034, -3.0099503032692247, -0.2684066406771179, -2.262547165392188, 0.7849044598063946, 1.5842503559279928, 0.8425272480537314, 0.28972147997773046, -0.6054081634451203, 0.506413301955364, -0.6109430518082672, 0.3889774473305023, -2.736321452151598, 0.7956705163183146, 1.561533841354679, -1.3049111867272605, 0.8705545656411344, 0.7178889545509831, -4.298434998158934, 0.7305528265934773, 1.4734090338951393, 0.2626842858174122, -0.8631971481450976, -0.6015500491206729, -1.2645019664667747, 0.0641423163939725, -0.539354445365593, 0.32476096976097324, 0.31442621635839196, 0.02050455308255117, 2.4899238061855002, -1.7368185762607962, -0.8268515184424309, -1.1024306552319492, -3.411366849119044, 0.261864171039933, -0.5367815230000288, -0.2998433093086528, 1.8347737748637618, -0.3312526202345226, 0.32089167543538855, 0.30164919150347114, -1.2096376945761835, -1.7733958305770239, -0.6631124155644423, -0.1590385481956479, 0.0943714808385554, -0.590439369357622, -2.289855110640163, -2.616501707391977, -0.8919130084063709, 1.6875517085329828, -2.4104395094997604, 0.31544599599445267, 0.4083138472096588, -0.37849923054036716, 0.8144045602941327, -1.0733028797880668, 2.6077199124632817, -0.21979613486669392, 1.9583699429792636, -0.3204545891464904, -0.27927604393684224, -1.2263899533695257, 2.499278566448853, -2.815705266646094, -0.43639897602723743, 0.2744265397239294, -0.5699458228075693, 0.8531049497658367, 0.6843220965188346, -0.43232334764043007, -0.121513268300383, -0.12029758354992881, -0.3709787521732655, 0.7374961213036172, 2.482694289274086, 1.8102286574750324, -0.765372364281927, -0.36586738450945355, 0.836639381968818, -0.19108159232687089, -0.9371556680438659, 0.27450718018992454, 0.3574370059093803, 0.060303758334501634, 1.5840456262762794, 1.306389452218804, 0.2734366172591221, 0.2917902736265983, 0.23846563636264695, -0.3711452822417036, -0.042486071518846424, 0.09599506086832132, 0.0, 2.0800615997449015, 1.480736832103482, -1.2692039812060565, 0.47070474297536347, -2.7523947673221825, 2.7368147892422163, -2.6188652089981703, -0.8372731659957466, 0.7963193495827805, -1.5222805114329443, 0.9462573526477551, -0.7581669944593308, -0.21367796728315902, 0.6248944958291838, 1.5329796321152105, -1.7172204678071887, 0.9735930476159633, -0.02000766400669593, -0.018510104250963, 0.7894520584289656, -0.14129592756546638, 0.0, -0.5845141322258143, -4.425811362266258, 1.6717411752850122, 0.22112973176706108, 1.0142048086924622, 4.434796665681825, 0.1233164349831054, 1.5387224002784519, 0.7415504717185155, -3.0633957959056595, 0.7305723936454318, 2.4688052251631873, 0.2576182411765309, 1.1951445680269428, 0.3541146790297627, 2.89617732888338, -0.9973588460519328, 0.07658446977669842, 0.0, -1.3488868909761709, -2.593116446485804, -0.46498894659830103, -1.5543469813724913, 0.33305142117290865, -1.003236468541871, -0.28990835126111936, -2.0277140765055828, 1.175480101066254, -0.9288402218883466, 0.4710969582858695, -0.9883765746103343, -2.8023298074366947, -0.5288210091140767, 0.497981334073861, -1.3239837955313138, 0.7896708243946701, -0.028783061555825995, 1.299675347027709, 0.89278221836038, 0.05915232174604057, -0.29324191896113627, 0.49002211045956967, 0.10696532895006339, -0.38432313585293776, -0.7062016986658511, -1.3810205712432673, 0.2853920871434479, -0.037169493349657134, 0.016449476607562488, 1.2792561995367735, -0.17121194796718164, -0.37611415655669367, 1.464054649027391, 0.5865912249195444, -0.1428662954764538, -0.8524417017223087, 0.0, -1.0332103952833371, -3.3607454327592663, 2.8618198143022164, -0.9488545634290892, -0.35624401007633183, 0.4249092074343088, 0.3004936578804356, 1.670758121845037, 0.41926026339744427, -0.20560528114739268, 0.5203720239854379, -1.4044944016581813, 2.104722159635618, -0.1991974890795527, -1.4047108143086948, -1.950300937000836, 0.7642397495669466, -0.7571013160563486, 1.1282059003015763, -1.0541623807699025, -1.0747904426899844, 0.3871531900009524, 1.8870977202246766, 1.493669020095267, -0.2864135037253499, -1.2192607662723283, -1.2674659211709207, -0.7806671013371256, 2.010373754291696, 0.5426297504047879, -0.033868118552433935, -1.6388132948589185, 2.837815014625993, 1.6883083420762972, -0.7697676823901899, -0.6586868923391097, -0.3628614180776858, 0.9102441297243519, -1.1621767253552036, -1.5227881770944982, -1.312163761242712, 3.2561725986637184, 0.44533934036613143, 1.150050477174775, -0.3411999981717738, -1.047719914355827, -2.4457748460119513, -0.23100609271360417, -0.6764584030835795, 0.8332608968537838, -0.10342349592511013, -6.737233492064977, -0.920620866747023, 0.7899566966330513, 2.0529095696089383, 0.36733362519531176, -0.4937599402005298, -0.953945261357465, -1.88081764479279, -0.5266751831118164, -0.36721560188690594, 0.5551747415302737, 0.21280413892397088, 0.13413264559323096, 2.42013366659184, -3.4476843216080355, 4.733552994849155, 0.3340819291602135, 0.7444657065978887, -0.0034819360492603924, -1.8829531237590942, -1.4224044731525392, 1.4242027480722732, 0.023306483649460752, -0.7719232648194336, -5.692514364111288, -2.0564142049240863, 1.126056916828068, -0.5606791490506686, -0.7291966648259524, -2.10104565342627, 1.1925131538868974, 3.504420529183376, -0.4261038248220226, 0.9037312421904811, 0.8447147081955325, 0.4299648385195368, -0.5025752808769219, -0.7225764116495189, -1.2639475795969992, -0.15351089741241555, -0.22020912931714942, 0.8194962955702292, -2.9525304835459645, -0.725129177538093, 0.5264342012771577, 1.237476168792596, 0.09960908048180761, 0.5832036228786954, -0.9338504719377498, -0.9064363994887588, -2.057526548583322, 0.9057061912791029, 2.227675911949291, -0.7028562869516546, 0.2527527139162915, -2.0172530984902775, -0.9020681540643846, -0.2909634693441572, 1.8679281592460166, -1.8195992150484646, -2.630420170666058, -0.21395779223641664, 1.0418668913061917, 0.4469330041593615, 0.4724343299708045, -1.7183670207886692, -1.9728213629057327, 1.4344672620235546, -1.40434099201914, 1.146140469636936, -1.1943954305125206, -5.081019660414522, 0.15869688026955053, 0.13591836539137625, -2.3893106067426553, -0.7063197590709374, -1.0413594440590175, 0.5025791733535592, -0.003049680134045163, -1.802431587573262, 0.06431272012761058, 0.015490185038510074, 0.046183755240889024, -0.22798032581897099, 1.317438835593086, -2.362485198671664, 0.6099068530761576, -1.551635342810546, 0.10048813508800225, -1.919921391470918, -1.477057908470968, 2.631361204047005, 0.49343695321560643, 0.3549188635454663, -0.9713155015180173, 1.2085626435170793, 1.0150363768288875, 2.8781330548852053, -1.1563827269392246, 1.5364990665941742, -1.3667937057240025, -1.447106510815465, -0.1535253132438651, -0.5924178547772082, -2.74416069826048, -1.3413529108643838, -0.9151647141589578, -0.9573924197949071, -0.7304377984254554, -1.8164509183880304, -1.0925710050245072, -1.1735402221971922, 0.2549724734274821, -0.20781495422023122, -1.279946519080253, 0.6796526960322319, -0.04172613295070182, -3.41167810776478, 2.2781161103668572, -0.8492432337746634, 0.0, 0.04486395611321048, -0.21494029768913864, -1.3074228688752707, 0.8333849507845011, 1.3592301251798096, -1.794859644227027, -0.7615047862259365, -1.8467389737691315, 0.266855006896753, 0.595249303207908, 0.4634921757389987, 2.631961370193803, -0.31851478508468234, 1.5229167695365975, 0.5653873174978203, -1.993351655077201, -0.5766437736220724, 1.468816053140505, -0.8484966400138289, -0.8378381578681107, 0.6246826435709556, 0.1377822403533177, -0.6126635171421471, 0.1983147111242587, -0.34631406174695323, -1.4811842205264432, -1.1871566090871128, 0.35857333638749633, -0.6047521895081439, -1.167168630701431, -1.2033763427071884, 0.8191246437916604, 0.26096056268461854, 0.4353817768906487, -0.7997767096950723, -0.1633884875921099, 0.23606067079683823, -0.6671221010497687, 1.2074805825008355, 0.10310744303768282, 0.15771778832533223, -0.5237455684452863, 0.9589508438025447, -0.11225408403879822, -0.7711300301826692, 0.34134161496900706, -0.11107460143900516, 0.10494947739472688, 0.0, -0.7134857475661198, -1.5765740694855195, 1.7872259230244674, 0.8134316968650381, 1.1486532230283335, 0.513468485121327, 2.3037689445028398, 0.9180673220035551, 0.5388288254806981, -0.13288820473257343, 1.0505378652952433, -1.7393080636314633, -3.003554552187536, 0.49571293664877114, 0.7542680692697832, 1.3624770940555027, 0.9667408030248655, -0.21674120410531783, -0.09724232318147674, -0.733025860446235, 0.30191817453526903, -0.9081504574892367, 1.4833616413242594, 0.3634914258291633, -0.8441834213322643, -0.34726086287243507, 0.02994367317069435, 1.525142084473024, -1.8496885754343177, -1.1969608642159095, -1.4607633303685121, 0.3976003431884252, -0.12729470159708633, 1.296567919026021, 0.34905674759954486, 0.0, 0.5155162072856011, -0.23636882853718644, -0.058785496482398725, 1.007648576976085, -1.4505597933623617, 1.445574932044337, -0.31165055980050105, -0.6680184547238622, -1.003509267357524, 1.8189128573515378, -0.2517449677681174, 1.6315171377073585, 0.10710439120673043, -0.04327006851211124, -0.7820908071707771, -1.4834839413625083, 0.8680809590261533, 3.11624461904246, -0.04162752957916416, -0.38020219803654576, -0.9629588499834094, 1.6056866465597004, 2.234990253709487, -0.9606658308863174, 0.3760084345250969, -0.5136929617833604, 0.20123481645576116, 0.5407100194620627, 0.8331821085908455, 0.5430808378842242, -0.861390747561441, 0.7367236997024689, -0.8716576167572917, 0.141209143345439, -2.3507651940035736, -1.0500916923805381, 0.7474492434382185, -1.9973942562805478, -3.3608902227697195, -1.8877059748071678, 0.7595988198618236, 0.34639874982913144, 1.1454075522733618, 0.18879182804692718, 0.5399347198425564, 4.327996239545099, 3.771274952837874, -1.1188333328422697, 1.1942114301000206, -0.8712441188268293, 4.192061057868865, -0.6015321673367129, 0.1833506927739602, -0.7265905860085894, -1.6364681189690653, -0.19929126874253256, 0.5996509128868819, -0.15263165420950342, 1.7153888629231693, -1.963437546075373, 1.022740427681178, -0.6152660127534255, 1.2331556840289395, -0.23764911158792495, -1.7522282871106316, 0.813469298253378, 0.9441302320985421, -1.0779755760034049, 0.3766939707892611, -0.20419239132014422, 1.5110316503059154, -1.6539115011988474, 2.0442078868474116, -0.0642736678030269, 0.018947730985000744, -3.217519632211551, 0.14098515810479872, -0.6846713585213147, 0.6952265642976827, -0.49957396437812673, -0.4424635491243176, 1.0536950629226842, -2.176102422043497, 0.10310744303768282, 0.762840126714138, -1.3535075756283046, -1.2521831866897084, 0.11077849911129611, -0.4017143269119472, -0.14321395898910871, -0.15072255006257018, 0.15542328387013574, 1.6561776858464075, 0.5324010952187006, -0.5864843509176229, 0.25099693587509275, 0.006679062202077507, -1.0194780213682864, -0.20636350752394672, 2.1159557417098585, 0.7592718505964784, -1.2810105822428983, 0.32652563920998534, -0.9338106576403318, 1.3558102239888181, 0.9131854208122565, -0.5001431958398038, 1.4145861252788605, 0.6778448942815181, 1.6210435784361596, -1.1424813868965304, -0.44465788850788535, -2.0171598767683894, 0.0027609792079978934, -0.6673717765748275, 0.3457800220556613, -1.3368746122613344, 0.06625497134254878, 0.9263368896506241, -0.8010619141510644, -2.234321242876419, 0.1777640317835588, 0.897616496578403, -0.2825759727966649, 0.0, 0.232714502020952, -0.3687437287812142, -0.8519935101079793, -0.8818139226731865, -1.5424115756180994, -0.7526707623720462, 0.13027272918570973, -0.397033282408754, -0.43977175443624783, 2.5824541278592656, 0.7528387778862878, -1.296079455939342, -0.17618668965277906, 0.36480833575686, 0.14892433767222912, -1.2709636354557259, -1.7485778447396287, -0.14740417266394568, -0.8635699244442009, -1.344895602111833, 2.0655222657720795, -1.0762358959044869, 1.5034448163696492, -0.24481640368501756, -1.194950631009846, 0.32073275009876356, -0.8972329925857981, -1.4196041475213326, -0.6753852929789281, 0.7750919598307228, -3.6954914495933138, -2.282720150887288, 2.5330494951623663, -1.1195700425302144, 0.3020068063103061, -0.5536312209605724, -1.011590176546962, -0.083400482399472, -1.6256119794827673, -0.04742576372569962, 0.2660198558173392, 0.19954359510166864, -0.6423779860165131, -0.33815551863277515, 0.5019354017250606, 0.8409970576456058, 0.6198302515612455, 0.13824160210264613, -0.4302353298427306, 0.9215034479057427, 0.3708415093202262, 0.16456144152692298, 0.876240850512585, -0.46503732632631944, 0.4339401964205065, 0.2910266129809896, 0.1749476215841711, 1.7750450428783142, 0.2135835097068446, -0.33690402501786343, 1.1057189213514431, 1.177371666463899, 0.4856391953589655, -0.015552549513503211, -1.052289584626333, -1.5104591090836617, -0.7296765555538087, -0.37803507481244425, 0.1831596643821759, 1.7843901351591338, -2.422531685343796, -1.2901762325741248, -0.5626418762739335, 0.22123804819842274, 1.2087387019512288, -2.0037092734090978, 0.9824963175983341, -0.7772044604728936, -0.40967095954673505, -0.023266768144975636, 1.7948643771232624, -0.701947995162346, -0.3681760556432172, 0.4270979302664326, -0.22746876544445438, 0.12840622619143344, -0.6444014190634255, 1.2974338043544713, -0.4145839755130678, -1.3246512453220316, -0.5991023747516746, 0.11603678791531502, 0.24352209922911966, -1.496914186800188, 1.0072064292704672, 0.07314357572327457, 0.3681569928605607, -2.359364362938627, 2.4477593991943802, -1.9132155481403055, -1.4056233291560534, 0.6044256232197416, 1.4229860561864065, -0.9196889686648319, 1.1181696010071622, 0.5271468011922121, -0.23943137069550025, 0.8016370579729403, -1.7659855550469545, -1.7713600807744276, 1.8405283993628931, -1.5975902817355205, -1.1331137454466758, 2.345508867727964, -0.2851377958441794, 0.0, -0.7697676823901899, 0.6316739698002014, 0.09406244308250772, -0.04742576372569962, 1.49397213808055, -0.0015435205697014176, -0.9057859866336035, -0.9946237460758673, -0.27731424443753716, -0.45153579580206316, 1.617309032277622, 0.5588728867683482, -1.2281143639748462, -0.09140527301533541, 1.502348413671468, 0.9055181374184356, -1.024669790825242, -0.4267685153388404, 0.46422144372758645, -0.26701547862999253, -1.614172723896236, 1.398893675807762, -0.6235004600609519, 0.3494618949619773, 1.1650164333662119, -0.4243919177712736, 0.16219924032162603, -0.43110444626574673, -2.223635152556668, -2.3411218328348924, 0.8152629786659119, 0.15685337590172832, -0.49682700670683677, 1.16069681756818, 0.14035312845268352, 1.333052349949257, 0.8928540644575129, 2.4111237096256817, 0.5059546945052071, 0.3453557437684429, 0.5733013514355232, -0.6714135470054678, 0.8355323320409758, -0.5947995627852409, 0.604287180512719, 0.34236341856663266, 0.252658894920307, 0.0, 0.19830013383893452, 2.0031550981570296, 0.1332154727445909, 0.8955143759031655, -1.6891842480249941, -0.4924429209560187, -0.7177119394521998, 1.9474368074031134, -2.197541300059049, 1.3611337543214974, -0.15245765380798293, -0.6843174118132047, 0.7863577852785353, -0.02379158422460903, -0.6276572657632338, 1.734021791477053, -1.6694694764307516, 0.01786639760743025, 0.2764823750111679, 0.9232051371450245, -0.6541772657208875, 0.15166727232690785, 1.0491429460472008, -0.12091433454390088, 0.6846191300346145, -0.8140610209588957, -0.7835186694989309, 1.3042984368689985, 0.9099162614564714, 1.9913998059950861, 2.335460684604021, -1.999311912659381, 0.14705099818945344, 0.4651181143897456, 1.3308958231770907, 0.33269145353322727, 0.5929499770173808, -0.9510714260227857, -1.0288998052480003, 1.5925082687276442, -0.8587257008078307, -0.3687437287812142, 0.8854360316870549, -0.5358929285395515, 0.10285282470881185, -0.8181343033972287, 0.07391582995086521, -2.126009803298333, -0.8843945668925888, 0.654651523585285, -1.9542322904773153, -0.47752914238585786, -1.9463347505306143, -0.8031305566068417, -0.2996812086101819, -0.6020655328857274, 0.950409032913041, 1.086991382975766, 0.0, -0.5445622129195078, -0.03363318316975761, -1.4369397440741518, -1.021815454356538, 0.3022551190804737, 1.0160936147723567, -0.4525055291658494, -2.8427739319025176, -0.1890544325982968, 0.2718401686277304, -1.2076655584332554, -1.7565939981652123, -0.2541588810445038, 2.044984280818994, -0.554568379623932, -0.5747750052308611, -1.4007129888864664, 0.2273579018392435, 3.316328515062274, 0.4953364220917361, 0.7713839127607087, 1.580512024241758, -1.3233188787510535, 0.0, -1.0522971908490293, 0.3161661624045524, 0.8021487959817986, -0.2982120901690628, -0.4686091510528049, 0.2621720722168319, 0.20123481645576116, 1.7169567665797194, 0.6611572524244999, -2.673417139116422, 0.0037734970153691094, -0.29886776329844056, 4.236288657260887, 0.2999365877279503, 0.8739674717399694, 1.6052295369647571, 0.7064752720829957, -0.5177894153520968, -0.33219397564622943, 0.2617665354708021, 0.0, 2.3785354345765564, -0.3529343194837351, -1.589981763342441, 0.4843869424021889, 2.2588638551868234, -0.021873181439515887, 2.317361953511945, 2.4216617282819355, 0.4770296283471327, 0.6761966896418338, 0.2502743300732262, -1.2902970810622358, 0.8297865379988483, -0.484055743457519, 1.2927970599968246, 0.22173916730439913, 1.2085093073042035, -0.4229234052426035, 2.945426758277269, -0.10250803193549785, -0.4073965113285616, 0.0, -1.2525959080016023, 0.21472031112863543, 0.3808835685978117, 1.362461034832335, -1.1938394365584162, -0.06562833943285074, 0.16910467444900723, -0.899405032874052, 4.852021996938376, 0.6429049767684579, -2.4743304366862002, 0.4198968005593433, -1.554099843462089, 0.037227703259525846, 0.46016886693743375, -0.17493709059954465, 0.3006292318213457, 2.277836153382742, 0.5708032461902488, 1.8192059383607098, -0.21613041681931422, -0.9627915580736857, -0.985585281275399, -0.3560277298513206, 0.6544334634211999, -0.05011711246431233, -1.1500547400481747, -0.22944553573453397, -1.9207228121523723, 1.3424892093323617]}, "Politics": {"count_avg": 18073, "b": -22.0, "beta_avg": -19.51286009127206, "u_avg": [-92124.0, 4122.0, -9748.0, -24972.0, -653.0, 2380.0, -33529.0, 37195.0, -49774.0, 7069.0, 33412.0, 21765.0, -61050.0, -22773.0, -69191.0, -29111.0, 181853.0, -40769.0, 35866.0, -182527.0, 61963.0, -83094.0, -20890.0, 14472.0, -52854.0, -42778.0, 26683.0, -16534.0, -6429.0, 18464.0, 4358.0, 12550.0, 19745.0, -7873.0, 41271.0, -111635.0, -59693.0, -5120.0, -48243.0, -18622.0, -73973.0, 43137.0, -36301.0, 18420.0, 91396.0, -109821.0, 38391.0, 83007.0, -125018.0, -74643.0, -64948.0, -50177.0, 11286.0, -19236.0, -81863.0, -4448.0, -22568.0, -43832.0, -34610.0, -14290.0, 26363.0, 58444.0, -130104.0, -23984.0, 74092.0, 31806.0, 18319.0, 1894.0, -16432.0, 100116.0, 50478.0, -30118.0, -18401.0, -19681.0, 1551.0, 43746.0, 1424.0, 75996.0, -12199.0, 6958.0, 2008.0, 8976.0, -123047.0, -57472.0, 34124.0, -15173.0, 13579.0, 12331.0, 31470.0, 50721.0, -14194.0, -1439.0, -38798.0, -77089.0, -7741.0, -94171.0, 70698.0, -74615.0, -45066.0, -59788.0, 38857.0, -1877.0, 27146.0, -22907.0, -37530.0, -16709.0, -42782.0, 31064.0, 11686.0, -14951.0, -71341.0, -8247.0, -1123.0, 52111.0, 29759.0, -9197.0, 56749.0, -42425.0, -47533.0, 55795.0, 143535.0, 63009.0, 6299.0, -10545.0, 46564.0, 21898.0, 121767.0, -1422.0, 60713.0, 28845.0, -23263.0, -11163.0, -25397.0, -75472.0, 38867.0, -18968.0, -22893.0, -3546.0, 18705.0, 37531.0, 75198.0, 77377.0, -35206.0, 22098.0, 32354.0, -20500.0, -14499.0, 59103.0, -112571.0, -27327.0, 11860.0, 38896.0, 68581.0, 26677.0, 8329.0, -64842.0, 22800.0, 9158.0, -17286.0, 32280.0, -45944.0, -52618.0, 84130.0, -107109.0, -18404.0, 18687.0, 32740.0, -41484.0, 8050.0, -3506.0, 79261.0, 60247.0, 11046.0, 75041.0, -28097.0, 7095.0, 8660.0, -20384.0, -123441.0, -4935.0, -29068.0, -42153.0, 29963.0, 16603.0, 8752.0, -26189.0, -45107.0, 15401.0, -44471.0, 53866.0, -40162.0, -7483.0, -62230.0, -53779.0, -35443.0, -28021.0, -16174.0, 7444.0, -27065.0, -41583.0, -165915.0, -84060.0, 49098.0, -83320.0, -12154.0, 1218.0, 0.0, 92984.0, -29569.0, 48244.0, -23450.0, 20933.0, 908.0, -10898.0, -71018.0, -3528.0, -47214.0, -140916.0, -24098.0, -27752.0, -5910.0, 10643.0, -10769.0, -27099.0, 59445.0, -15895.0, 24788.0, -41267.0, -38785.0, -18383.0, 49196.0, -116925.0, 50808.0, 39422.0, -24311.0, 35412.0, 13498.0, 41646.0, 58528.0, 11107.0, -48500.0, 38209.0, -71747.0, -50500.0, -3525.0, -37691.0, -2755.0, -95433.0, 24933.0, 122929.0, 3737.0, -39811.0, 25420.0, -33551.0, -108099.0, 13590.0, 44586.0, 67087.0, -48469.0, 134008.0, -48605.0, 67300.0, -24694.0, -58040.0, -20104.0, -67241.0, 44317.0, 8170.0, 26152.0, 29397.0, 10774.0, -12201.0, 32265.0, -7276.0, -32200.0, 51125.0, 71994.0, -29737.0, -48449.0, 19976.0, -45937.0, -9059.0, -93011.0, -45145.0, -48948.0, 15589.0, 33043.0, 2851.0, -148196.0, 11102.0, 4943.0, 60753.0, -72182.0, 25611.0, 19911.0, -29529.0, -68170.0, 49209.0, -15345.0, -37734.0, -21841.0, -10481.0, 48288.0, 9791.0, -62698.0, -56865.0, 10136.0, -5570.0, 45149.0, -15280.0, 22197.0, 20375.0, -13325.0, 26590.0, 120343.0, -24898.0, -15768.0, 45232.0, 21673.0, 22428.0, -21206.0, 9066.0, -31581.0, -44778.0, -29604.0, 1058.0, 479.0, 24231.0, -1810.0, 35893.0, -17564.0, -26893.0, 12248.0, 150206.0, -31142.0, -45786.0, -4660.0, -27609.0, -88803.0, 8892.0, 86918.0, -62020.0, -29087.0, 9866.0, 59684.0, 16547.0, 4540.0, -26227.0, 22486.0, -18590.0, 114523.0, -7168.0, 97768.0, 49840.0, -20564.0, 58635.0, -7567.0, -42347.0, 26356.0, -23555.0, -39895.0, -72692.0, 4976.0, -2318.0, -70665.0, -45747.0, 34225.0, 46290.0, 39020.0, -3162.0, 5915.0, -14362.0, -31550.0, 21592.0, 11882.0, 24224.0, -12283.0, -44023.0, -44226.0, -29098.0, -1882.0, -48365.0, 4213.0, -70543.0, 19735.0, -8005.0, -31513.0, -46177.0, -65315.0, -107316.0, -72559.0, -11575.0, 610.0, -40544.0, -1711.0, 18647.0, -97961.0, 25987.0, -63073.0, -67423.0, -11026.0, -36791.0, -6720.0, 17574.0, 49043.0, -30119.0, 34587.0, -23300.0, 38761.0, -53974.0, 121363.0, -38231.0, 52109.0, -35588.0, 29930.0, 4631.0, -34046.0, -37782.0, 82721.0, -27860.0, 54649.0, -14230.0, 31161.0, -3887.0, 16596.0, -12253.0, -77304.0, 16446.0, -20251.0, 44941.0, -40672.0, 40203.0, -23863.0, -81725.0, -10516.0, 39925.0, -41136.0, -26934.0, 8164.0, -16185.0, 79729.0, -86344.0, 26929.0, 24818.0, 23950.0, 13297.0, -61396.0, -66649.0, -24383.0, -10262.0, 20371.0, 60895.0, -23719.0, -11967.0, 158449.0, -12156.0, -6511.0, 46220.0, -91473.0, -42267.0, 35117.0, 7687.0, 7620.0, 29253.0, 40565.0, -94385.0, -9146.0, 14435.0, 17139.0, -10864.0, -188308.0, -12263.0, 72100.0, -18601.0, 25069.0, 5774.0, -13949.0, -108164.0, 42498.0, -15678.0, 1476.0, -1664.0, -77830.0, -27914.0, 8813.0, 138599.0, -86769.0, -52139.0, -13818.0, 15311.0, 23886.0, -35582.0, -21468.0, -46294.0, -89593.0, -76367.0, 629.0, 28384.0, 89422.0, -3203.0, -52496.0, 3151.0, -43085.0, -2109.0, 59192.0, 49338.0, -66522.0, -103402.0, -100709.0, 20627.0, -133734.0, 12470.0, -66174.0, -33616.0, 39159.0, -53334.0, -8375.0, -91377.0, 45723.0, -13876.0, 12741.0, 163404.0, 13385.0, 81853.0, -33330.0, -75286.0, -113226.0, 63716.0, 45332.0, -108724.0, 7109.0, -22908.0, 140683.0, 117474.0, -15483.0, -54841.0, 62664.0, 30864.0, -45601.0, -16205.0, -13272.0, 28886.0, -8638.0, 20956.0, -59155.0, 92209.0, 218943.0, 973.0, 10750.0, 2071.0, -30588.0, 5103.0, 3351.0, -11113.0, 29614.0, 34872.0, -28599.0, -3371.0, -10053.0, 164774.0, -10670.0, -56011.0, -53981.0, 16236.0, -15844.0, 21996.0, -85895.0, -79111.0, -14461.0, -63187.0, -6189.0, 19580.0, 9590.0, 7854.0, 36051.0, 7491.0, -29779.0, -27957.0, -26041.0, -13277.0, 66493.0, 10769.0, -41375.0, -80379.0, 16180.0, -43173.0, 52300.0, 35675.0, 184416.0, 178.0, 63022.0, -76022.0, -33888.0, -33433.0, 33065.0, -53125.0, 171571.0, -13468.0, -49612.0, -554.0, 34608.0, 2607.0, 44382.0, -2477.0, -79953.0, 12935.0, 4861.0, 10393.0, 12852.0, 7380.0, -17276.0, -22607.0, -36306.0, 18738.0, 77426.0, 28104.0, -62614.0, -3491.0, 68355.0, -73254.0, 8967.0, 13554.0, 99976.0, -20561.0, -67911.0, -22444.0, -19527.0, -60520.0, -36064.0, -63258.0, 75103.0, 17668.0, 23229.0, -98522.0, 165356.0, 42142.0, -10920.0, 36268.0, 30127.0, -29577.0, 25381.0, 72302.0, -19356.0, 2427.0, 83330.0, 64104.0, -21202.0, 59403.0, -40292.0, 14594.0, -8916.0, 2788.0, 7399.0, 64210.0, 65182.0, -13223.0, 55998.0, 18222.0, -16380.0, -7950.0, 7025.0, -47596.0, 1505.0, 3885.0, 6229.0, 45777.0, 46129.0, 14328.0, 7437.0, 27979.0, 20557.0, 26320.0, 11136.0, -49663.0, -120958.0, 87566.0, 7214.0, 62725.0, 26230.0, -22000.0, 8573.0, 40349.0, -47643.0, 37099.0, 1266.0, -2154.0, -148737.0, -12268.0, 49471.0, 1407.0, -31423.0, -4428.0, -73210.0, 26522.0, -43895.0, 89816.0, -6823.0, -3864.0, -15151.0, 31093.0, 25930.0, 61213.0, 4066.0, -27561.0, -149004.0, -20374.0, -20241.0, 11231.0, -8949.0, 10014.0, -11029.0, -41392.0, 93501.0, 36737.0, 9612.0, 29176.0, 6220.0, -9720.0, 29549.0, -27059.0, -5188.0, 34129.0, -35602.0, -19011.0, -76689.0, -16471.0, 28190.0, 324.0, 75239.0, 41815.0, 30565.0, 45067.0, -56861.0, -56342.0, -20433.0, -68087.0, -44328.0, -39521.0, 23460.0, 41676.0, 34056.0, 59188.0, 14387.0, -81717.0, 31293.0, 47955.0, -3567.0, 52725.0, 44641.0, -33353.0, 46437.0, -12845.0, -29331.0, 24598.0, -18225.0, 38900.0, -20613.0, 111577.0, -48165.0, 189934.0, -53335.0, -3561.0, 1071.0, -13318.0, -64446.0, 23300.0, 4386.0, -27081.0, 72901.0, 10864.0, -30943.0, -30471.0, -20051.0, -3150.0, -12983.0, -56745.0, 48025.0, 5466.0, -83620.0, -6826.0, -63745.0, 13486.0, 5350.0, 48431.0, -75234.0, -11737.0, 32640.0, -92605.0, 1137.0, 39472.0, -41844.0, -122477.0, 94659.0, -71298.0, -72003.0, 77940.0, 63290.0, -277.0, 8127.0, -4639.0, 2291.0, -29128.0, -4069.0, -16288.0, 21560.0, -22898.0, 18172.0, 42457.0, 101784.0, -10698.0, 26718.0, -19807.0, -51213.0, -105348.0, 8205.0, 65904.0, -16690.0, 28835.0, -64124.0, 32063.0, 54786.0, 71484.0, 36206.0, -57358.0, -3991.0, 21365.0, 36588.0, -34274.0, 82116.0, 28164.0, 31921.0, 56811.0, 160016.0, -3855.0, 53028.0, 20823.0, 1569.0, 625.0, 18851.0, 42233.0, 9620.0, 7001.0, 22563.0, 20447.0, -28903.0, -47.0, 21060.0, -37211.0, -32757.0, -82013.0, 74146.0, 18344.0, 29821.0, -13252.0, -31299.0, -95817.0, -95893.0, -8896.0, 12955.0, 61188.0, -1262.0, 12484.0, 9890.0, -109399.0, 53603.0, 11486.0, 63658.0, 3238.0, 15417.0, 23126.0, -6507.0, 7516.0, -495.0, 10281.0, -13761.0, 6765.0, -58386.0, -34816.0, -68448.0, 41118.0, -39660.0, 9921.0, 12385.0, 33106.0, 68169.0, -13111.0, 1230.0, 9454.0, 30241.0, -7469.0, 91163.0, -20482.0, 64051.0, -42187.0, 6829.0, -10676.0, -71549.0, -59960.0, 47304.0, 18165.0, -17449.0, -15891.0, 37511.0, 14460.0, -16486.0, -72743.0, 20314.0, 25858.0, -90269.0, 47957.0, -28213.0, -39459.0, -20090.0, -6702.0, -15057.0, 129394.0, 88554.0, 2237.0, -96577.0, 798.0, -38160.0, 12133.0, -28096.0, 10000.0, -56148.0, -32700.0, -19382.0, -27376.0, -19669.0, -14477.0, -44616.0, 28705.0, 19785.0, 46740.0, 49679.0, 30068.0, 63777.0, 2966.0, -25537.0, 88613.0, -43410.0, 26693.0, 31789.0, 31695.0, -34242.0, -54384.0, -88646.0, 40759.0, 10023.0, 2615.0, -20433.0, -24944.0, -37641.0, -1089.0, 39928.0, 68657.0, -3369.0, 78580.0, -38692.0, 36359.0, 66567.0, -30837.0, -98342.0, 1135.0, -19484.0, -44173.0, -35436.0, -30771.0, 40300.0, -115.0, -35624.0, 23239.0, 17655.0, -151790.0, -19479.0, -93371.0, 32392.0, -35032.0, 4641.0, 856.0, -11935.0, -16322.0, 37946.0, -22608.0, 87885.0, 43377.0, -54543.0, -24151.0, 127489.0, -12371.0, 49968.0, 40160.0, -19200.0, -126134.0, 19325.0, -68883.0, -42554.0, -8426.0, -22855.0, 21164.0, 3385.0, 36330.0, -9783.0, 105314.0, -10334.0, -37625.0, -75768.0, 23885.0, -8656.0, 62522.0, -82947.0, 85753.0, 21055.0, -43209.0, -12447.0, -45665.0, 22737.0, -28035.0, 31187.0, 87117.0, -28755.0, 24869.0, 34848.0, 22676.0, -73260.0, 3103.0, 5976.0, -61949.0, -51357.0, 23616.0, 67510.0, -46059.0, -12986.0, 36338.0, -27545.0, 50242.0, 92689.0, 37919.0, -22905.0, 50523.0, -21597.0, -88058.0, 44711.0, -4211.0, 87743.0, -27252.0, 73518.0, 85022.0, 8087.0, 147528.0, 29148.0, 54335.0, -61834.0, -51066.0, -1066.0, -12042.0, -51216.0, 3678.0, -34479.0, -21458.0, 11722.0, -37242.0, 84998.0, 3749.0, 1540.0, 9578.0, -36203.0, -20212.0, 14475.0, -8366.0, -45371.0, 6990.0, -12613.0, -53509.0, -2482.0, -2202.0, 57321.0, -4631.0, 28355.0, -20453.0, -88264.0, -9501.0, -10397.0, -16526.0, -70427.0, -76354.0, -12698.0, -27708.0, -16172.0, -53130.0, 25043.0, -6057.0, 222700.0, -10556.0, -3480.0, 16239.0, -113965.0, -36361.0, -91202.0, 9831.0, -19258.0, 14331.0, -3521.0, 31509.0, -84763.0, -17791.0, 35306.0, -96586.0, -35357.0, -26923.0, -1448.0, -65395.0, -3542.0, 3243.0, -4489.0, -50069.0, 10896.0, -544.0, -68967.0, 9710.0, -16661.0, -7339.0, -53661.0, 16631.0, -45627.0, 65129.0, -37735.0, -2079.0, -13280.0, -1893.0, -20975.0, -50758.0, 99761.0, 201491.0, 20681.0, -19897.0, -27748.0, -121230.0, 33237.0, -12057.0, 111595.0, 5794.0, 71736.0, -68716.0, 75773.0, -33167.0, -94983.0, -60849.0, 48385.0, -32512.0, -131036.0, -16419.0, 3742.0, -60914.0, 117613.0, -100159.0, -3817.0, -44480.0, 90203.0, -75352.0, -102300.0, 57809.0, -27108.0, -23190.0, -15241.0, -28437.0, 45112.0, -34531.0, -18101.0, 91468.0, -52304.0, -17149.0, -88423.0, -29182.0, -64980.0, -31716.0, -27244.0, -22637.0, -35470.0, 5245.0, 1304.0, -21339.0, 20781.0, 1318.0, -47607.0, 35664.0, 118847.0, -78448.0, -62516.0, -3043.0, -7287.0, -26117.0, 15991.0, -16915.0, -28545.0, -53760.0, -22162.0, -5070.0, -2326.0, -49682.0, -12936.0, 27736.0, 32393.0, 618.0, -61937.0, -41150.0, 33017.0, -62905.0, -24140.0, -72663.0, 8886.0, -12959.0, 53584.0, 9469.0, -4372.0, -35482.0, -57350.0, 18630.0, -9613.0, 1528.0, 18054.0, 176912.0, -77862.0, -20772.0, -53645.0, -38592.0, 20044.0, -11605.0, 37687.0, 38140.0, 64600.0, 19033.0, 44372.0, 7871.0, -2893.0, 33153.0, -79857.0, 23813.0, 106696.0, -34751.0, 0.0, 8643.0, -26539.0, 23749.0, -3184.0, 72522.0, -78694.0, 32269.0, 10075.0, 3595.0, -50364.0, 23629.0, -43550.0, 16957.0, -33803.0, -55185.0, -51486.0, -19732.0, 55957.0, 6532.0, -50777.0, -41749.0, 5783.0, 6613.0, -45219.0, 464.0, -24294.0, -10298.0, -49953.0, 52632.0, 69963.0, 76655.0, 118713.0, -39661.0, 19851.0, 18553.0, 32474.0, -32083.0, -7749.0, 85953.0, -47086.0, -66036.0, 469.0, 28444.0, 22027.0, -19510.0, -3835.0, 27931.0, -54945.0, 40883.0, 1878.0, -36246.0, 15655.0, -9006.0, 8457.0, 28862.0, 19869.0, -34681.0, 133249.0, -48179.0, 61423.0, 10073.0, 34607.0, 29181.0, -14414.0, -7031.0, 15777.0, -12748.0, -16278.0, -102855.0, 37661.0, -23789.0, 1074.0, -145194.0, 6543.0, -87238.0, 73075.0, -23356.0, -97939.0, 15892.0, -4912.0, 23412.0, -41775.0, -74656.0, -83365.0, 63195.0, 33773.0, -4396.0, -45503.0, 36831.0, -61733.0, -19067.0, -26286.0, 4127.0, 86192.0, 45098.0, -11052.0, -21708.0, 56390.0, -60215.0, 45383.0, -24903.0, -13043.0, -57020.0, -3892.0, -14461.0, 23119.0, -27066.0, 52810.0, -96682.0, -3784.0, -18037.0, -80524.0, -33138.0, -45120.0, 39253.0, 43119.0, 16890.0, 21159.0, 56074.0, 5529.0, 119162.0, -60845.0, -32085.0, -45431.0, -75820.0, -9369.0, -15881.0, 47745.0, -98960.0, 83124.0, -62582.0, -74672.0, -56084.0, 32046.0, 28586.0, -22783.0, 38540.0, -30973.0, 15664.0, -33821.0, -10012.0, 20776.0, 2170.0, -24166.0, -114552.0, -31750.0, -39769.0, 7349.0, -42130.0, -26924.0, 24166.0, 48416.0, -7502.0, -671.0, 34890.0, 14521.0, 86368.0, -78100.0, -56440.0, 63418.0, 83107.0, -71925.0, -24222.0, 189740.0, 6975.0, 20661.0, -12603.0, 4139.0, -6189.0, -28246.0, 19849.0, -21066.0, -78865.0, 34671.0, -7058.0, -21661.0, -17266.0, 35096.0, 57214.0, 33417.0, -77378.0, -1865.0, -68166.0, -20590.0, 30286.0, -547.0, -12738.0, 22202.0, -39774.0, 63107.0, 41300.0, 64779.0, -8191.0, -78396.0, 2841.0, 33914.0, 5635.0, -13426.0, -25287.0, 40541.0, -30261.0, 16946.0, 22569.0, -42654.0, 34101.0, 18411.0, -3485.0, 212886.0, 86030.0, 17855.0, -10087.0, -53693.0, -111111.0, -2238.0, 45632.0, 25856.0, -52479.0, -22974.0, -92324.0, -43216.0, 99702.0, -10380.0, 3880.0, -12369.0, -41764.0, -23070.0, -4869.0, -46781.0, -19605.0, -39669.0, -2089.0, -17657.0, -12510.0, 1777.0, -7510.0, 62717.0, -26427.0, 13213.0, 11084.0, 10811.0, -67906.0, -77288.0, 49253.0, 16568.0, 1762.0, -56978.0, -56102.0, -93658.0, -54201.0, 60639.0, 125753.0, -55749.0, -601.0, -8096.0, -28134.0, -17656.0, 32024.0, -62650.0, -134122.0, -40620.0, -22876.0, -43909.0, -40626.0, 52440.0, 24132.0, -42646.0, -6351.0, 19199.0, 11758.0, -72485.0, 20521.0, -74833.0, -82336.0, 7004.0, -63296.0, -3849.0, 51039.0, 0.0, 12378.0, 121392.0, 30549.0, -4449.0, 38455.0, -4869.0, 91628.0, -32560.0, -34496.0, -43475.0, 6619.0, -2212.0, -60629.0, 3715.0, -43414.0, -69846.0, -42735.0, -47880.0, -46661.0, -24141.0, 93648.0, 7405.0, -5824.0, 27823.0, 37899.0, -37475.0, -13359.0, -89355.0, -74944.0, 12989.0, 171391.0, 73571.0, 2527.0, 18686.0, -115274.0, 26659.0, -35319.0, -6479.0, 17043.0, 12395.0, -40118.0, 2358.0, -41026.0, 88690.0, -22880.0, 75355.0, -41066.0, 3882.0, -59191.0, -2426.0, -1825.0, 2503.0, 25167.0, 21302.0, 39885.0, -11386.0, 21811.0, -32138.0, -82237.0, -98788.0, 23161.0, -11806.0, -10697.0, 4811.0, 102037.0, 18450.0, -41477.0, -594.0, -29245.0, 18412.0, 4687.0, -14310.0, -36709.0, 24761.0, 2654.0, -13101.0, -147006.0, 13660.0, -14598.0, 30747.0, -24648.0, 4376.0, -137434.0, 19501.0, -34225.0, 3784.0, 21652.0, -22971.0, 2119.0, 28954.0, -13274.0, 648.0, 77981.0, 15342.0, -32696.0, 23640.0, -46042.0, 53866.0, -57036.0, 1401.0, -17050.0, -83512.0, -6354.0, -25082.0, 4555.0, -44159.0, -48679.0, -10005.0, 2982.0, 128132.0, -30563.0, 68625.0, 35775.0, -49424.0, -91843.0, -22384.0, -16702.0, 36354.0, 11841.0, -1073.0, -152083.0, 1269.0, 104110.0, -25511.0, 23211.0, -43448.0, 192966.0, 18976.0, -28481.0, -19073.0, -18416.0, -30011.0, 8722.0, 92720.0, -57634.0, 88075.0, 30720.0, -23415.0, 40294.0, 35961.0, -13379.0, 33542.0, -91625.0, 21089.0, 18247.0, 125585.0, 98724.0, -76012.0, -74414.0, 16482.0, 13376.0, -37273.0, -33430.0, -14691.0, 372.0, 10421.0, -55737.0, -19116.0, 10271.0, 45238.0, 18313.0, 25405.0, -11485.0, -23398.0, 58385.0, 16604.0, -117113.0, -30751.0, 5171.0, -55803.0, 37299.0, -82379.0, 35939.0, -33796.0, 42598.0, 362.0, -12095.0, 8524.0, -32096.0, -42318.0, -47500.0, -29005.0, 61808.0, -52185.0, 13769.0, 2681.0, -39884.0, -31458.0, -10837.0, -70627.0, -739.0, -29154.0, -10402.0, -34234.0, 21140.0, -15030.0, 15836.0, -48959.0, -5855.0, 43873.0, -17565.0, 8998.0, -47688.0, -55452.0, 12630.0, -34358.0, -21614.0, 30710.0, -4366.0, 63186.0, 51098.0, 127673.0, 70166.0, 1287.0, 67841.0, 29935.0, -14021.0, 37984.0, 28070.0, 16495.0, -7354.0, 31000.0, 17362.0, 39224.0, 18100.0, -6664.0, 58698.0, -44352.0, -33094.0, 13760.0, -2173.0, 13968.0, -29425.0, 17993.0, -89414.0, 182933.0, -21923.0, -9972.0, 66781.0, 4724.0, -44394.0, 1830.0, 7903.0, 15050.0, -12306.0, -12768.0, 13130.0, 38418.0, 11526.0, -1879.0, -55392.0, 56295.0, -12687.0, 51868.0, -35590.0, 45394.0, -16978.0, 3257.0, 3397.0, 28425.0, -66140.0, -77426.0, 47239.0, -3727.0, 24687.0, -10693.0, 294.0, -31870.0, 26692.0, 66378.0, 35109.0, -31856.0, -7008.0, -52327.0, -72199.0, -18236.0, -704.0, -19300.0, -45386.0, 116518.0, -24068.0, 19166.0, 1906.0, 15600.0, -92983.0, 2733.0, -958.0, -3175.0, -50387.0, -101506.0, 51006.0, 36096.0, 65595.0, -15974.0, -30831.0, 67536.0, -11774.0, 28409.0, -74050.0, 102084.0, -12216.0, 1637.0, -33417.0, -54075.0, -9679.0, 55909.0, -1988.0, 28362.0, 6301.0, -67343.0, 20001.0, -9507.0, 59631.0, -30143.0, 16936.0, 47930.0, 52931.0, 437.0, 4753.0, 22503.0, -28523.0, -58933.0, -16504.0, 50960.0, -13932.0, -65129.0, -29433.0, 86152.0, -21318.0, -5945.0, -70537.0, -11927.0, 24370.0, -23073.0, 20915.0, -40547.0, -57948.0, 12058.0, -26406.0, 6114.0, -5699.0, 5181.0, -25700.0, -15513.0, 41180.0, 70746.0, -40721.0, -52092.0, 16534.0, -44153.0, 18916.0, -2641.0, -1393.0, -52946.0, 10159.0, -94492.0, -24751.0, -10394.0, 98196.0, -58776.0, -47225.0, -3560.0, 35700.0, -51648.0, 23085.0, -30144.0, 55286.0, -2824.0, -25614.0, 28229.0, -2610.0, 34417.0, -76211.0, -64648.0, -42906.0, -24753.0, 16086.0, 46409.0, -44642.0, -51957.0, -61628.0, -22421.0, -25002.0, -17126.0, -26401.0, 105789.0, -96065.0, -80065.0, 14875.0, -57727.0, -7743.0, 2608.0, -53273.0, 8317.0, -107185.0, 13474.0, -57639.0, -21324.0, 15454.0, -25337.0, 5501.0, -31760.0, 76585.0, 102101.0, -16406.0, -104521.0, 52263.0, -839.0, 5086.0, -23611.0, -39532.0, -23545.0, 57638.0, -19091.0, 34774.0, -19213.0, -21899.0, 68037.0, 10246.0, -69018.0, -17758.0, 42297.0, 326.0, -85066.0, -31597.0, 21864.0, -54838.0, 21784.0, -9957.0, -42346.0, -18392.0, 86687.0, -58716.0, 56103.0, -15005.0, -48202.0, -109755.0, 34188.0, -12043.0, 32584.0, -76076.0, -36439.0, 14107.0, 35987.0, 37567.0, -17635.0, 29741.0, 41277.0, -3317.0, 39857.0, -35453.0, 61788.0, 119358.0, 1849.0, -14936.0, -30181.0, -91500.0, 34404.0, 26640.0, -17799.0, 5967.0, 79484.0, 1474.0, -57403.0, 52975.0, 5697.0, 23.0, -14361.0, -61369.0, -42719.0, 220.0, -5386.0, 49128.0, -49110.0, -25847.0, 20892.0, -23612.0, 136901.0, 12622.0, -3301.0, 99662.0], "w": [2.930606484555141, 0.15236883623291558, -0.4756684768504076, -0.45426158574868136, -0.7656941224864574, -0.44038603283308464, 2.436530385068404, 0.5242387374405522, -1.973173239381476, -1.542539818535313, -1.8308936644516056, -1.4931885892075092, 0.7512119713657848, 2.3867225098254865, 1.1351058705718158, -0.36452369633357695, 5.640429195470464, 0.21222417484772826, 1.1629457416961053, 5.514932472332198, -1.4640137861178868, -2.1187783950201275, 1.408597411670496, 1.423134273942329, -2.0581056630577343, -0.9461901343543184, 0.08551606841175041, 0.6589016010498864, -1.0808727238963294, 2.2596551892232752, -0.3261424509551517, -2.028186733568545, -0.9647894674202475, -1.067554972916616, 0.9546402786942645, 1.9077059213586738, -0.6545430553750213, -0.9908721092168695, -3.0114458640148825, -1.3665347823255538, 1.9485950000859384, -3.3563732949433582, 1.2654546846223205, -3.0325217105278695, -0.6704461333588521, 2.860955382171096, -3.666129378877402, -2.5313140088847232, 7.020668849217289, 0.7566672819660392, 0.3843504846179555, -1.6551421918931646, -0.5042134815171456, 0.009037764809676885, 0.6322183205409768, -3.1829208792968497, -0.37785979496060795, 1.933610607233542, 1.6698233432632377, 1.1508502745208327, 2.4232610081488133, -0.36659133108356556, 7.36787096671626, 0.3203572482504875, 0.26902743228452763, -0.2831361896196427, 2.854531116387364, -2.1707048381542915, 0.28614145966885884, -4.391336306637352, 0.04295404708319728, 1.1825865748254987, -2.2229922131222244, 1.1545608087369155, 0.6360340318195289, 1.0919636490615012, 1.574795152531523, 1.0232125193574007, 1.3603366373078636, 0.8237545670072373, 0.23892270046042605, -2.1285815071680068, 12.018839623889656, 3.4385804045804584, 0.4193463921563547, 0.7746933962776008, -0.2120857757711928, -1.9084212347216702, 0.2255307142637013, -1.1719072885347845, -3.7844984439086105, -0.03677865534660302, 0.24192709230221698, -0.5730323577207317, 2.6765830655247593, 1.0580753798754676, 1.1983067728955628, 3.208066023713556, 1.0076126616792829, -1.7066883047346457, 3.5673459709107656, -1.1996883415959092, 0.187690486676807, 4.022520597425185, 6.165095493008829, -0.8510412620893506, -0.9981385908656071, -0.020418881143298373, 2.1172716765489743, 2.5218614549288914, -0.37242247927959404, 0.5949733392896971, 0.7319371550711861, 1.7530659018065604, -2.3220849478020074, 3.33501720444157, -4.524458954550884, 1.0613105165508068, 0.23132008607409071, -1.3181020073586933, -0.8751199696428085, -1.0823439389401557, 2.9637187666313656, 0.4367748539428872, 1.1361422735863593, -0.46655882734754917, -3.87720673314107, 0.4386908645504527, -5.345626822821169, 0.04630875715761329, 0.08221556900583926, -0.26617646724572464, 1.8432879784379612, 0.20795942670380896, -0.20307137785977303, 2.689298547144332, 0.1689153377257897, -1.0870681640066417, -0.3667524077971591, -1.116603237186081, -0.8126950120748826, 2.398559587596509, -1.0249797024896496, -1.8001980241131035, -0.43923254759580854, -1.3616834344613078, 0.08394881589356584, -2.9631010404158045, 1.8481754634188974, 5.608195506926813, 5.2156539828856125, -1.5862524005222434, 3.001764749389, -0.4711930585764168, -0.15211389197461583, 1.2976398167228185, -0.7845808675939479, 0.2030441533655426, 2.145959047295633, 1.5587939693888195, 0.2611765551679337, 1.6627580499694323, -2.2188230765713746, 7.683143640879854, 1.0707820996286515, -4.497464241802476, 1.0156706746620132, -0.8207946343108263, -1.7630746817038228, -0.6499933166127936, -3.786246112179181, -1.6797641514102835, -2.1489908388486, -1.7860799128993996, 0.6720820352536641, -0.37646282411235876, -1.6276737025339791, 0.5614989480762691, -4.960218661978471, 1.501723954902174, -0.35812379117415594, -2.9495036183857537, 0.9768026902048308, -0.9162744057696883, 0.567831159436119, -1.1923557018490234, -2.231265117273905, 1.9601313757905785, -0.2816561267994877, -1.6349496876702845, 1.415754625802669, 3.99651339606869, -0.2550825088526203, 0.6349828073729045, 3.044120632088106, 0.6867632334723404, 0.29072217871974726, 0.505967577491387, 1.571732684737071, 1.0438500444709704, 0.8852307302589075, -2.9392569547985277, -3.957786327365652, 0.73285035577659, -1.64676205273068, 1.276166726553852, 0.0, -2.6600972038064867, -2.4140829445092846, -0.41970368855954776, 0.2102583630979269, 0.4255786178827812, -0.46015555752305765, 1.713980132387798, -2.5616758940350923, -0.6677139709480944, 2.100863212153892, 4.740417611020698, -0.3451584841125106, 2.1845252525923335, -4.39152322016586, 0.964316853901159, 0.1704680854877506, -0.4906062577365906, 2.391781529282063, -1.001073087476212, -1.4571992560164138, 2.5667055796433838, 0.8897368468519002, 0.5440568730921738, -1.854378523662684, 0.7038917105684916, 0.682986230043932, -1.8504591870922789, -2.5587876633142326, 0.5078586904016631, 2.8160624116749644, -3.9666903277096366, 0.4128218832929149, 0.9095995237379954, -2.2031611883761064, -0.02223396347241602, -1.0763561363104817, 0.2631431116676932, -0.17198733511729716, 0.7957542481019055, -0.06890562276440709, 1.1765776721553376, -1.543194826380176, 1.060802470741618, 0.5611878522105964, -0.6362186273185362, -0.3472026627601288, 0.12249824468150661, 1.0780203701987974, -0.0860518052957352, -1.697253263533808, -0.6375625614861993, -2.4768659549291727, 5.063561920330412, -3.5861237087352933, -0.7306447121274524, 0.8426698828755919, -0.9475067824933228, -2.5136472861453423, 1.1573733862294429, 1.1501848734170697, -0.13012012215543428, -2.567840085432679, 3.224521258873523, 1.1238370442373742, 0.5937434013971014, -0.18548242527968473, 0.28699466391316314, -1.216455864137488, -0.044872242182764754, -2.7580319121341392, 0.9604683385638433, 1.376380335638816, -0.6163755968041982, 2.0551563459251008, -0.4427077538463904, 1.4189276503039245, -0.38085435601484496, -0.904410995784886, 0.558369562606119, -0.08066027093933048, -1.3253874546087545, -0.4517325019965739, -2.30576374720785, -0.5041583605028258, 0.4406252741782839, 4.39473645054605, -2.6811885489930605, -2.740532047089258, 3.0115569083652955, -0.908318764087904, 0.7880473643861383, -1.603459370934118, 0.48651868123057485, 1.3478384110387047, 1.5517851486480176, 1.3140470612623139, -1.9075232887922104, 0.47624902164066585, 1.5612869996963954, 0.15745354215534246, -1.3523185541375493, -3.44760794451746, 0.03567280950399221, -1.827492587925218, -0.916672390956146, 6.149617444573393, 0.26569806157282705, 9.858695546562105, 2.008653178184271, 0.4127139242819394, 1.6697943838508849, -3.176862445763684, -1.7969277080657924, 8.092687732785462, 0.9585741011918183, -0.5752311892646647, 0.638545233297579, 0.3395253296251728, -1.0036775545760463, 0.8542399646609643, -2.40993714987829, 2.1985040035351253, -0.3573388500292052, -0.648383084357786, -0.23497290478197308, 2.242393223895631, -2.967684496270845, -0.08185457186100376, 0.6840052344532217, 0.29019277096727686, 0.43284557636045284, 0.45047176438815484, -2.140256884792827, 5.245931616609545, -0.2663751294886949, -2.0774382808253504, 1.1352565588595391, -0.7349957469344877, -0.47040774503209737, -0.7653702866398459, 2.2263032603075485, -0.2748461401916549, 0.09732180205334506, 3.4082086961973355, 0.907288354010164, -1.049593784989506, -1.8714801429056496, -2.27805607772311, -1.931244041477452, -0.47047085345507433, -1.4988044726599257, -0.8767991894119693, 1.9089073123636355, -2.546923369478008, 3.46851527929047, 0.7741633243315083, -0.9360571591672793, 2.0203033537749944, -0.12041032226986648, -0.5803402202454588, -2.7429784383546783, -1.3984895476069052, -1.0268191554993777, 1.52818449659347, -1.1542929907437174, 0.6045847406192593, -1.562538087639634, -0.858891031767646, 0.6165932513227608, -1.7602312880017397, -2.007933970141842, 0.4310717343157848, 1.2227504926882082, -1.962670715588821, -0.5243173663707328, 0.2755615423799565, 0.6048478346221988, -0.5954964487967673, -1.5655037475324431, 0.8841132250583843, 0.18819755723917364, 2.027347754052096, 2.649549847383728, 4.365765319550282, -0.3912463675110611, -1.7993973632831213, -7.495236653364687, 4.154163318576613, -3.0102411205627124, -1.8991236669712226, 1.7828660296783652, 0.6033449796913173, -0.30750667223454853, -1.1396417476032148, 0.1516327923027645, 0.6990397198892144, 2.3813494636492516, -0.8440890590060033, 1.7168060469435347, -2.460190851743696, 0.17333431377497166, -4.490628480331074, -1.551520965167723, 0.4752623752223215, 0.0011418063970936032, -1.440415397334256, -4.297510628376192, 0.2822662749939471, 1.5883101960792765, -0.03238741059283923, -0.7760846190013129, -6.1383447406172715, -0.8765815626103477, 0.4758064810773486, 1.34430684597709, -1.693701200271549, 0.9933180353117721, -1.1120819613695159, 3.0479069974887705, -2.0140650258491677, -4.001708397977281, 0.8712562296870114, -2.3995754770881588, 0.16315879285274004, -1.9403001023046427, -0.702293871194337, 3.5345123855427696, -1.5935227662643945, -3.510146697233711, 1.1128628938400182, 3.207978610133684, 2.9129506950607182, -2.4111750389596414, 6.964258704001849, 0.23875776273321048, -0.538609958284332, 2.665745616270955, 0.8765842233802223, -0.7155621223656035, 2.628364774671587, 0.807794203139597, 0.9933479075981146, -2.1292648423951412, 1.424254138456226, 0.16441801059875116, -0.7391606486135212, -0.13337586853941608, 1.2536280580524366, 0.6980714615339311, 1.948104468181883, -2.5682058903626426, -0.08822499287795438, 1.2750323158725725, -2.6918539704782827, 1.5156959032457622, -1.071544578315733, 3.259485142541775, 1.1095670265594575, 4.322946760149802, 0.7565941240351972, -2.199558158263333, -1.1821349895130333, 1.047098055159406, 4.509528637636672, 1.6136309797190165, -3.259452459363627, 0.0051964529782622115, -0.4145008355488238, -1.55288977973255, 1.1766552055419142, 0.7012409546980507, 0.29050156504718583, 0.2649758602273601, 0.7406139037636619, 0.24312077333850063, 2.036208723114055, -3.0516574852944647, -1.094670505724289, -3.9161180081253217, 0.6847618430398876, 1.803573144055231, -0.4900956432983453, 5.080505987221382, -3.0105821187784425, 0.5158355157160615, 2.5115184586493093, 1.0876189723727259, 1.6856060236201929, 2.7921617226828612, -1.9682183949420406, -1.6680519248125314, 0.029263019104071475, -1.025324857638974, -1.4340504920578008, 0.04114849404321175, 0.713659267332261, -0.4759955443451659, -1.4985701325402043, -3.1056250133070162, 2.071547765728054, 5.030092930343414, 0.33981433986217713, -2.2589400539201847, 3.485344690063315, -0.842826784299073, -1.8132292519193962, 1.884401035896146, 0.14260749957739316, -0.5237685721645615, 1.3890979605320641, 1.4356440402733712, 2.267483861431178, 0.44935504525347425, -2.288462275904891, 1.0589906015280626, 0.2593924638964201, -0.22346997961496218, -1.072012949293115, -0.3911503448955447, 1.1794997819604855, 0.674093913582761, 0.4042713996737941, -0.48977605003688485, -0.0050916339143953215, -1.4371479719911908, -2.782817366306433, 0.6992077769425613, 1.5794351422384794, 1.4585926386401544, -0.04323736770802045, 2.8262281339739452, 0.26268306221443316, -0.7228380780121207, -1.4982118888693203, -1.2085961472543922, 0.4280199221182345, -2.5430512181590754, -0.3720232264339254, 7.465052264182725, 2.6078423795493126, -1.8133716754750968, 0.36621169996661485, -0.3037475371588478, 1.7608744795924387, 1.2668161843599832, 0.5229487425028767, 0.7112051871330077, -0.5588095150230517, -1.1379669681504017, -0.49680833665968205, -0.0860623142866758, -1.3007109748112249, -4.846053601756669, -1.091554423585226, 0.6066083657680226, -1.0180422075148545, 2.108100123670189, -0.03717387326885535, 0.9451328476430965, 3.69596663249368, 2.806405789781791, 0.9212147303387266, -0.057937375063167096, -0.009463050183184218, 0.9250289653397881, 0.6904883343662653, 0.3178530576461747, 0.5058656941976143, 0.30447240262095376, -2.8904193242654532, 0.14451832991890834, -1.6137506505241033, 1.3112849325669431, -4.545158880564985, -0.09076634201908573, 0.6283304592594736, -0.4915694387843672, -0.33468016172400716, 0.6526297498333684, -2.361573332417508, -0.01964762366774586, 1.814944344697448, -1.6957168525427548, -3.163048339419264, -4.7303388321067334, -1.6629885953240886, -1.1895534333624518, 0.5557900863481959, -3.233984658114091, 2.4115369954330177, 0.12782350735480397, -3.729747242726626, -0.4221901661479698, -2.590187574442628, 0.20668807488754468, 0.06890745391248432, 0.2675377008062484, 0.8706875231773683, -1.8793658496767782, 1.4287862206150925, -0.633104292634052, 1.3069250882819667, -3.0603298094432945, -1.2776821188816296, 4.928954080660176, -0.4024672222393173, 2.4955025316004065, -0.91292271873581, -0.7065572427419045, 1.5512481922560033, 0.4689514257328481, 1.8482337531086892, 2.159311569515086, 5.178977550609012, -0.12926810498428032, -2.993046585920731, -0.09547754495281069, 0.05170241571243306, -0.09445139511019285, 1.0293826750556527, 2.643201117638987, -1.7808340945122223, 3.8127696201020806, -3.0256641723735527, 0.6817034867648638, 1.5468207408184296, -0.9700722267390143, 0.3540777612383117, 0.24805158150165862, 0.4198681176014485, -0.6959366802759956, 7.443174733854093, 0.21333753972119474, 0.49707562598149124, 3.3592658087649605, -1.074265354165313, 1.2562682917986878, -1.2290042250965172, -0.366609201292198, -0.5613097183025431, -1.5356543224949228, -0.016011580408420656, 1.4780912096031937, -0.2391618074563978, -0.19132786596811485, -0.5725958817367738, -1.8612292599220575, 1.371346670355016, -0.07515574587525431, -5.098066679847621, -2.361602541912653, 4.853825788147986, 0.0371838014288825, -1.3790294468440172, 1.5455692257492504, 1.714018386552824, 1.1521762248903298, 0.9145157983273913, -7.247723757260877, 1.6085995645263909, -2.237494038708116, 0.8963538796831707, -1.9832984302820054, -0.6140099025871576, -2.9209325328867966, -1.477322626526187, -1.5961313242238075, -2.3752747108129864, 8.572172825890627, 4.3355873753736445, -0.1537174364066778, -0.9724347907679913, -0.2748737484921495, 2.7127063798713915, -0.49371427737401885, -1.001668356941162, -0.7030235147551389, -3.4437888260864695, 0.3885774905969162, 9.42406589637508, -0.3368971453890691, 1.1717715586289512, 0.6865342403631431, -0.47279008367998787, -0.10265549759717835, 1.6677720058211478, 0.16045843857730646, 1.8694464421768822, 3.854284644847514, 2.4013085276844603, -0.603717305362104, -0.2969441130955244, -0.19618960925815898, 2.782480265105478, 1.6400816876898627, -0.9942875236551608, 0.45273013028361353, 6.1750720909278165, 1.2052308494802422, 3.095763464454853, 3.4926609104067596, -0.8273045032456535, -0.6191797021057092, 0.4979034949849894, -1.7307268448203583, -0.61556233415725, 0.722519357520643, 0.03686897976847092, -2.1356373205425982, 5.493982505677781, -0.6749396517537444, -0.747190575122324, 0.277552238754013, 2.0394448970287202, 2.02400077694612, -0.11220980605542596, 1.3623571187648913, 0.42827442084453304, 1.6884033623465193, -0.5707366139050399, -3.7894938682810593, 3.477062449391858, -0.5218636940918246, -0.8073219575199235, -1.8528715582222728, 0.8034670451310597, -1.477467488415027, 0.5996990653940899, 4.131774126917309, -2.069736365189554, 1.70353220947381, -0.24126506881308551, 1.2345004898172438, -0.2865055989391341, 1.099535212696487, -0.013824863354149675, 1.757677253172555, -0.2443785439713546, -2.050716709301184, 0.8926671330957717, -0.9494455314606443, -1.5880091882995768, 0.4249110686319171, -1.2531858980759036, 0.930289997909577, 2.9488854034221736, -0.9894045659370876, -0.36167160823468514, 0.9493775240194839, -1.520333719100851, 1.1630912159437354, -0.19871752916401153, 7.125947446545727, -2.734978844220471, 2.555129744558986, -1.8887187967689174, 1.7316593013962018, 2.437922734712684, 0.20896740097279598, 3.4649891451226615, 0.2593990766332481, -0.919024600779939, -0.6701793941868694, 0.6728076558512921, 0.2652799690521297, 1.2587362387645409, 0.32636215451817663, 0.04335009704185666, 1.2770780267948187, 1.0677051504656934, -0.32337148070747396, -0.3594245240516347, -0.9228434212437207, -0.7157081856521414, 0.6967830146275813, 0.39556860417618805, -1.5466745664202306, -0.2512173871160739, -0.1153296525757207, -0.0006736816092518527, -1.6200004993473769, 0.5352678864579087, -1.084753369519617, -0.553779110845936, 0.3731294226974722, 5.166322181237456, 1.6195890552948473, -1.2638185745871207, 1.9800158487237187, -0.1552633707486617, -4.435058566898162, -2.6670766858278636, 2.3208999650893207, 2.1929481048228916, 3.352680861162198, -1.0427926929380076, -0.8665016790743655, -1.3726404340504021, 1.0462415377472154, 0.6915899771477081, -0.3652658096059951, -0.2938071145154568, -0.5160683392302006, -1.230046783313726, -0.4730576055382758, 0.43364032500813643, -1.037811610492664, -0.17603147820746906, -0.6058919092407233, -1.164023180363058, -0.5031051915159981, -1.8100597937305256, -0.14021191177697334, -0.8082934381286337, -4.393191488085071, -1.3507808766679132, 4.731795203927545, -1.841670190288911, -1.9329401690665229, -2.144311554695402, -0.8161461724654449, 6.174596910338346, 0.6662392646398902, -2.6943320836451585, -0.5876564475400516, -0.26995848358367347, 1.8519540421664609, -1.1190011140818474, -1.5758278305866864, -0.4901699712704999, -0.10737764252119893, 0.2899576780610953, -1.2417941732142563, -0.18155122930616907, -1.6211611205599985, -0.8160251762761315, 0.6662375593761884, -3.2689662237909314, 1.6422111172757359, 0.3448920881648925, -1.007059412703406, 0.03239454205756109, -0.47980239888635445, -1.3304648346058077, 2.705097232206251, -3.344907030424997, 1.0583495302074648, -1.0089414964756527, 0.8436045829664582, 1.1033903624312327, -0.818118530240871, -2.5097976109365785, 0.3270600453539081, 0.5925696982284008, -0.37320218969331254, 1.5756221384556932, 5.897218191089851, -0.621682788107822, -0.8408865004108086, -0.4108133084580232, -3.34152884689397, -2.905133708030584, 1.3155352962506577, -0.4909683098301734, -1.0932147792116236, 2.15062884654034, 0.5611053142993003, -0.3379267965737046, -0.17178541357021543, 1.5176062206741094, 1.7482132129103825, -0.6873652616276469, -1.4462330294071806, -0.6249367068657943, -1.1228656355196927, -0.2601053158807817, 0.5062056420628727, -1.8383006757197404, -0.06640884981546846, 2.9916307624669454, -2.2525469716135698, 0.3683006816272636, 0.16403648193196807, -1.3929924272082461, 0.5673752467367832, -0.8854199464496948, 0.697333600520345, -1.131528148420403, 0.2687073796771847, -1.5367755785318478, 1.2162256579935176, -3.0331771763451534, 2.6893364052981896, 1.162245184294064, 1.8856009312190911, -1.2063804979384036, -0.8719206648159591, 2.190725390645917, -0.2670087215333625, 0.4351269380657625, -0.09290722765475135, 1.930237261915683, -2.1902098309986524, -1.2141595843067339, -2.120757380137415, -1.7394976900673782, -0.9605767080538257, -0.35374601862397914, -3.193549663476932, 3.010616353593825, 1.3033956583729216, 0.514899728349036, -2.275491544746624, -1.9644970937247148, -1.6649467499682364, -0.2757380696883631, -2.1562338418365106, -0.2021370226891377, 2.273346776394817, 0.08384828516209297, 0.003963563458266206, 2.6193928919286007, 1.4361876014144923, -3.4877754717073572, -1.6390603991386818, -0.005546336919625139, -1.7649652564344227, -0.29192923960309924, 0.8875312723125699, 0.3936577906119392, 1.3465073091879214, 1.7398614774609389, -1.469252369033791, 0.5314782599970529, 0.18882139217235983, 1.672165818500468, 0.15810251905159833, 0.5536184933334098, -0.3216678874490415, 1.5535519172075505, 0.8063091484927623, 0.8288673698592766, -0.6595599906335772, 1.2018476226855648, -0.01959792540631078, -2.216546573191831, -2.1996807088429007, 0.958232272135553, -3.6041983716295736, -1.903357274879196, -3.435426679151181, 2.2649932864527575, -2.423920590772818, 0.27477101762783107, -0.7168729938849383, 6.364381423591111, -0.5931888466732287, 1.518483887360275, -0.15390018667314953, 1.0859973885203573, -0.057889477188693306, -1.6921100794159076, 2.263303053966131, -1.0477960500352252, -1.7059630308125662, 0.05845365333946939, -0.11088094629818634, 0.6944442912442723, -4.895199759530173, -0.6080568270993547, 1.0861896294399254, 3.3102052549085488, -0.8379114712889587, -0.825094048203194, 1.1452270048006756, 0.002415020793276046, -0.04103573922411918, -0.48199378238193447, 0.19541101773536562, -2.419929657853064, -0.06287320676990404, 4.830011372253589, 0.4748918271277537, -1.4553799594174022, -0.7277233185702694, 0.3113248642650108, 2.218742937612526, -2.199850359209881, 1.0783578467266839, 5.4128698558175365, 5.336628210177184, 1.3056185085469727, 0.007667375517915298, 0.057662403837179216, -1.2528258313597562, -1.6440138160562219, -3.680239784142967, 0.8448832231406471, -0.12110305668838661, -1.952706839901718, -1.6035276633677724, -0.0471677916711879, -2.78222841779168, 0.5122519746062375, -2.4385162086374224, 0.8273868512701841, -0.9051035997024632, -0.31129308913849385, 1.6192801218497568, -0.9104503996358331, -0.8306833907503819, 0.29571705385546965, 1.9101863829495542, 2.5122932858678526, -3.8234947940631097, 3.6059348885758737, 3.5018273286196333, 1.6680479590880974, -0.9827246968736353, 0.8835806063900239, -1.9848514235300065, -0.5574782368288078, 3.6763041606334586, -0.6839282694952473, -0.21382689793991982, 0.9551878705782044, -0.191618158573021, -1.1107706708316276, -0.8552245788738491, -1.742851015120225, -1.6314624139783365, 2.12564146308019, -1.5627227725775077, 0.9791889057747165, 0.32095895616137593, -0.20593726063911655, -1.1671613212301513, -0.9352124417883827, 0.6833065857304732, -5.103416933698191, 4.067968530056395, -1.8020178047292383, -0.17063619286222576, -1.397954369933629, -1.260759729357524, 2.7136659314908167, -0.4484263720114101, -0.24765696195282216, 0.02394532351220313, 0.3040693970768604, -0.0057666425290460455, -0.9863171245223454, 0.9600337600634079, -0.5341497358158562, 0.048554095092627314, -1.8018193841354586, 1.908060565485046, 1.3503198344420955, 0.4048245504669922, 0.3814525725904727, -2.226379163464713, 0.6856441933844104, 2.9059972469505486, -0.005886267128053291, 0.13922878877206585, 0.7068584230739446, 0.742804210181149, 3.7998822715262977, -2.7858565395486816, 0.9510462884465434, -0.9104928878472269, -1.5362415811444436, -2.706803703130954, 1.0874432975867956, 0.19358154456424914, -0.1637584196013564, 0.1991036429566292, 1.447339290173875, 1.9384204867920571, 1.1963867510343063, -0.5805803893112935, 1.0358397183984223, 2.6959519167632564, 1.0945158693727732, 0.07649983968609181, -4.984656716049693, 0.7591451965610247, -2.6150396846423973, 0.6447834890930495, -1.035800524817759, -1.4389876300422548, -1.1933216129533104, -3.272570647094399, -0.5566326754791766, -0.09147855812203376, 0.45410128006145184, -1.4702636073850417, -2.5190334926297453, -1.5834815766023282, 1.02704289908409, -0.08254154963983051, 0.8634504173467599, -1.597824768197202, 0.8796324446962807, 1.2011099157260334, -1.5766184079952827, 1.2344815465038002, -0.5423530473300364, 0.8152818614611994, -1.3502596458739793, -0.8729097248779095, 0.7258738002121397, 3.373298803859144, -4.563326916330708, 3.899661061748208, -1.2410365558734897, 0.07978752835721792, -1.5922475586006142, -1.0874929678873904, 2.7076589115665244, 0.9614995342402066, -2.6085312353232974, -1.3565080987543006, 1.9828755286149133, -0.15289209354258082, 0.6641375088302093, 2.654085820386701, 1.8547232896307997, 1.8360205742057307, 0.1592106246514422, 0.9115216805323119, 0.10179948600371502, -2.4576824740894834, 1.1930389294438815, -0.7686224061663337, -1.7144010993659577, 2.2016291515412596, -2.2888251188317987, 2.9834899328898112, 4.458416842630625, 2.159984458319234, 1.5214131869870138, 0.5229855339779244, -0.450339929381264, 0.06120946019821927, 0.70665178749077, 1.5887413849126122, 7.309001945735066, 0.1915516161838573, 0.5675850970185834, -0.6004401239548014, 1.3123219192721276, 